2.620601654052734375e-02 -3.535966575145721436e-01 -9.102717787027359009e-02 -2.049311809241771698e-02 1.841906011104583740e-01 -2.606197074055671692e-02 8.372053503990173340e-02 5.918647050857543945e-01 -4.357215389609336853e-02 6.708078831434249878e-02 1.291316468268632889e-02 1.580889150500297546e-02 4.188459739089012146e-02 -4.464791622012853622e-03 -4.880255088210105896e-02 -1.208355929702520370e-02 -1.139345169067382812e-01 -1.771516352891921997e-01 2.762332372367382050e-02 1.205861419439315796e-01 -2.738969027996063232e-02 2.254172414541244507e-01 -7.101262360811233521e-02 -6.144931167364120483e-02 5.288996919989585876e-02 -1.236687302589416504e-01 -1.027069911360740662e-01 -8.891696110367774963e-03 -2.609776519238948822e-02 2.079911716282367706e-02 -7.444354891777038574e-02 8.254855126142501831e-02 9.738796204328536987e-02 -1.060569733381271362e-01 3.195100277662277222e-02 -1.427645981311798096e-01 -7.336626946926116943e-02 -5.485212430357933044e-02 -2.473263815045356750e-02 7.261239737272262573e-02 2.363314852118492126e-02 5.167406424880027771e-02 -9.705886244773864746e-02 3.336344063282012939e-01 -1.106521710753440857e-01 -4.498511087149381638e-03 7.709364593029022217e-02 7.060789316892623901e-02 3.670208156108856201e-02 -5.214465856552124023e-01 -3.845006227493286133e-02 1.026133447885513306e-01 4.736989736557006836e-02 -4.542754497379064560e-03 3.967257961630821228e-02 -1.686998875811696053e-03 -1.023788973689079285e-01 3.804145157337188721e-01 -8.022691309452056885e-02 -5.913032591342926025e-02 6.069625541567802429e-02 -9.937065839767456055e-02 -6.117236800491809845e-03 -4.991884529590606689e-01 -1.482723094522953033e-02 -2.708624675869941711e-02 1.159905120730400085e-01 -5.357874929904937744e-02 -1.480768714100122452e-02 -3.774193301796913147e-02 -4.283752292394638062e-02 2.195561677217483521e-01 -4.035977274179458618e-02 -1.301148831844329834e-01 1.159272342920303345e-01 1.324859559535980225e-01 6.403223425149917603e-02 -8.009111285209655762e-01 7.894003391265869141e-02 8.417868055403232574e-03 -2.206113748252391815e-02 8.687601983547210693e-02 -6.460464000701904297e-02 -1.146695722127333283e-04 -2.563922666013240814e-02 5.045064687728881836e-01 -1.175567284226417542e-01 1.450492143630981445e-01 2.351960167288780212e-02 2.429639101028442383e-01 4.262358322739601135e-02 -4.423280954360961914e-01 2.766293287277221680e-02 7.425153255462646484e-02 1.283437162637710571e-01 -5.865094065666198730e-02 -5.256434530019760132e-02 -1.334766149520874023e-01 1.305030286312103271e-01 6.260677427053451538e-02 -2.671712078154087067e-02 3.158748745918273926e-01 1.300784647464752197e-01 -3.912569582462310791e-01 1.078472062945365906e-01 -3.297744691371917725e-01 1.964523084461688995e-02 2.096476964652538300e-03 1.019760593771934509e-02 2.721450664103031158e-02 -3.273895382881164551e-02 9.448581188917160034e-02 1.609528958797454834e-01 -4.943155124783515930e-02 3.122382611036300659e-02 -9.658551961183547974e-02 1.253543496131896973e-01 6.361224055290222168e-01 7.240489870309829712e-02 1.427632272243499756e-01 4.326216503977775574e-02 5.675712134689092636e-03 1.085880175232887268e-01 1.176448166370391846e-02 -4.285422712564468384e-02 8.449906110763549805e-02 2.313288114964962006e-02 -1.163548231124877930e+00 -6.131079420447349548e-02 1.712634786963462830e-02 3.939018398523330688e-02 -5.433205366134643555e-01 -4.713458195328712463e-02 1.755076527595520020e+00 -4.250312224030494690e-02 -8.183039724826812744e-02 -3.677747445181012154e-03 3.895409777760505676e-02 -2.968306839466094971e-02 -8.694548904895782471e-02
-7.016409072093665600e-04 -5.382304545491933823e-03 2.520267367362976074e-01 1.430657356977462769e-01 -4.248872026801109314e-02 -8.545874059200286865e-02 -6.053400039672851562e-02 1.082560047507286072e-01 7.037996500730514526e-02 1.342113316059112549e-01 -2.331724204123020172e-02 -8.569269627332687378e-02 -2.713956125080585480e-02 -8.263524621725082397e-02 5.406661331653594971e-02 1.239379867911338806e-02 2.938044667243957520e-01 1.739742904901504517e-01 -8.110435307025909424e-02 3.677273541688919067e-02 -1.511698868125677109e-02 1.325918175280094147e-02 6.536317616701126099e-02 -4.390038549900054932e-02 -1.013054028153419495e-01 2.169624716043472290e-02 2.668797783553600311e-02 -1.105789095163345337e-02 4.364797100424766541e-02 2.157682329416275024e-01 2.423813343048095703e-01 1.636995933949947357e-02 -1.154529675841331482e-01 -3.650230541825294495e-02 -7.185377180576324463e-02 -2.224189229309558868e-02 -1.603088527917861938e-02 -1.146435588598251343e-01 -1.033523753285408020e-01 -8.792500942945480347e-02 3.867786005139350891e-02 -1.160710025578737259e-02 -1.128335371613502502e-01 2.624797523021697998e-01 3.004543781280517578e-01 -3.340895473957061768e-01 -1.181952953338623047e-01 2.541212737560272217e-01 -1.540476679801940918e-01 -1.246593296527862549e-01 3.225437179207801819e-02 6.571301072835922241e-02 -6.564033776521682739e-02 -5.246588960289955139e-02 -5.307129584252834320e-03 1.220351979136466980e-01 1.280294544994831085e-02 1.855249702930450439e-01 2.153776735067367554e-01 -1.157479062676429749e-01 -8.061149716377258301e-02 -9.618849493563175201e-03 -1.183374300599098206e-01 -8.514559268951416016e-02 2.379793114960193634e-02 -7.811664789915084839e-02 -1.136732101440429688e-01 1.147496104240417480e-01 -1.693855784833431244e-02 -3.347716107964515686e-02 5.364487320184707642e-02 4.564364552497863770e-01 3.529655635356903076e-01 -3.320958092808723450e-02 -1.881833225488662720e-01 1.219555363059043884e-01 -1.741484999656677246e-01 -1.069198995828628540e-01 2.054599672555923462e-02 3.452848270535469055e-02 -1.663650944828987122e-02 -4.962127655744552612e-03 1.789150387048721313e-02 -1.166001260280609131e-01 3.388898621778935194e-04 -2.831681370735168457e-01 2.076790481805801392e-01 -5.216112136840820312e-01 -3.349306061863899231e-02 -7.480620592832565308e-02 -1.289803683757781982e-01 -2.468175292015075684e-01 8.833996951580047607e-03 2.441060915589332581e-02 1.846045255661010742e-02 -1.284343004226684570e-01 3.592393919825553894e-02 3.739849105477333069e-02 3.683302551507949829e-02 7.844034582376480103e-02 3.034717440605163574e-01 4.619954228401184082e-01 -1.774740964174270630e-01 -5.199216604232788086e-01 -3.073497116565704346e-02 -3.811757639050483704e-02 5.556610971689224243e-02 -7.054153084754943848e-02 -4.738906398415565491e-02 -1.409021299332380295e-02 3.587547107599675655e-04 8.710490167140960693e-02 9.777454659342765808e-03 -4.882677793502807617e-01 3.649539947509765625e-01 -3.663290143013000488e-01 -1.027399376034736633e-01 3.958899378776550293e-01 -3.141013532876968384e-02 2.637709975242614746e-01 -2.055261842906475067e-02 2.603725716471672058e-02 1.237807678990066051e-03 3.283246979117393494e-02 1.013503074645996094e-01 -1.029196232557296753e-01 6.681524217128753662e-02 -3.298722505569458008e-01 2.696014344692230225e-01 5.280227065086364746e-01 -6.035619974136352539e-02 -6.954606622457504272e-02 -1.322494596242904663e-01 3.702003657817840576e-01 -2.994930557906627655e-02 -6.807080470025539398e-03 4.389561712741851807e-03 1.596443951129913330e-01 -3.263312205672264099e-02 -4.287890717387199402e-02
-7.547441869974136353e-02 -1.207764223217964172e-01 -3.187144100666046143e-01 2.064446918666362762e-03 -2.638464570045471191e-01 1.437844336032867432e-01 2.121605873107910156e-01 -1.239646002650260925e-01 2.236754894256591797e-01 -2.929878979921340942e-02 1.132381856441497803e-01 -9.005665034055709839e-02 1.613183133304119110e-02 -1.923252083361148834e-02 3.231982141733169556e-02 2.548823319375514984e-02 -4.713955521583557129e-01 -1.590958982706069946e-01 -1.056678667664527893e-01 -4.232832789421081543e-02 2.854070961475372314e-01 3.207417950034141541e-02 2.220380604267120361e-01 1.813410781323909760e-02 1.633526831865310669e-01 1.371626704931259155e-01 -7.058764994144439697e-02 -6.037341803312301636e-02 -5.591605603694915771e-02 -4.962714761495590210e-02 -3.350100517272949219e-01 8.888926357030868530e-02 -2.067852467298507690e-01 -1.197809502482414246e-01 2.046011388301849365e-01 7.182712107896804810e-02 2.768091857433319092e-01 4.409815371036529541e-02 1.351246982812881470e-01 2.358915284276008606e-02 -2.725673280656337738e-02 9.266851702705025673e-04 4.040954262018203735e-02 -4.265990480780601501e-02 -3.538682162761688232e-01 -1.791709661483764648e-01 -1.852796673774719238e-01 -1.561024188995361328e-01 2.622728645801544189e-01 7.859350740909576416e-02 2.317003011703491211e-01 -7.398928515613079071e-03 2.110553234815597534e-01 -1.368221491575241089e-01 -6.233371421694755554e-02 6.365021318197250366e-02 -2.687581256031990051e-02 2.394058555364608765e-01 -4.381707310676574707e-01 -4.459116235375404358e-02 -2.279409915208816528e-01 -8.485412597656250000e-02 2.624952197074890137e-01 4.868208244442939758e-02 1.693673580884933472e-01 6.500098109245300293e-02 2.000315338373184204e-01 1.675261408090591431e-01 7.750533521175384521e-02 -9.823907166719436646e-03 2.494744397699832916e-02 -1.452105939388275146e-01 -4.709557592868804932e-01 -1.983734071254730225e-01 -1.657761782407760620e-01 -2.322680503129959106e-02 2.988658845424652100e-01 7.055307179689407349e-02 2.052376270294189453e-01 6.053250655531883240e-02 2.419762462377548218e-01 8.053708821535110474e-02 8.530728518962860107e-02 -2.064122352749109268e-03 -5.320308357477188110e-02 2.463183403015136719e-01 -4.203148186206817627e-01 1.734215766191482544e-01 -2.136466354131698608e-01 -4.643468931317329407e-02 3.290492594242095947e-01 -6.392674893140792847e-02 2.237959504127502441e-01 -3.673493862152099609e-02 1.865853816270828247e-01 -6.776895374059677124e-02 9.134386479854583740e-02 6.513167172670364380e-02 8.565748482942581177e-02 3.102367185056209564e-02 -4.297686517238616943e-01 4.639090299606323242e-01 -6.865186244249343872e-02 1.213435754179954529e-01 3.086078763008117676e-01 6.822070479393005371e-02 3.049366176128387451e-01 2.571485564112663269e-02 1.676966547966003418e-01 2.733087539672851562e-01 5.543367937207221985e-02 -1.074088960886001587e-01 2.991691045463085175e-02 -9.408176690340042114e-02 -2.870172560214996338e-01 4.181217029690742493e-02 -2.277258187532424927e-01 2.188911736011505127e-01 2.827650606632232666e-01 -2.656600773334503174e-01 3.180577158927917480e-01 -1.059471592307090759e-01 1.373759061098098755e-01 -6.361842155456542969e-01 -2.985262684524059296e-02 1.401188373565673828e-01 -4.990562051534652710e-02 -1.014930680394172668e-01 -3.298072814941406250e-01 -2.242081612348556519e-01 -8.420564979314804077e-02 -1.496213022619485855e-02 2.884956598281860352e-01 6.568034738302230835e-02 2.363157868385314941e-01 -2.926705405116081238e-02 1.648710519075393677e-01 2.939969599246978760e-01 -6.227849051356315613e-03 -1.467019021511077881e-01
4.240098595619201660e-02 7.707907259464263916e-02 -3.004030585289001465e-01 4.642401263117790222e-02 -1.941730231046676636e-01 1.059960573911666870e-01 4.980677738785743713e-02 3.479097038507461548e-02 -1.297542266547679901e-02 -1.825834624469280243e-02 -3.447592630982398987e-02 -1.734888926148414612e-02 -1.022752001881599426e-02 4.187077283859252930e-03 1.057994831353425980e-02 -3.669487312436103821e-02 -2.399814426898956299e-01 -3.213404491543769836e-02 -2.535771131515502930e-01 -4.842787515372037888e-03 -4.809603467583656311e-02 -9.093472361564636230e-02 4.544408526271581650e-03 -2.433779276907444000e-02 7.577857933938503265e-03 5.601235851645469666e-02 -4.210580140352249146e-02 -4.248074721544981003e-03 3.080426901578903198e-02 4.915437474846839905e-02 -3.011203706264495850e-01 -1.004511937499046326e-01 -3.030492663383483887e-01 -5.657323077321052551e-02 2.076230011880397797e-02 -6.124383956193923950e-02 3.759628534317016602e-02 -3.699966892600059509e-02 2.163515798747539520e-02 -5.127788521349430084e-03 -1.746372319757938385e-02 5.845188163220882416e-03 4.966798797249794006e-02 -8.379130810499191284e-02 -3.368047773838043213e-01 -1.927923858165740967e-01 -1.954377591609954834e-01 -1.007339581847190857e-01 -4.002141579985618591e-02 4.783885926008224487e-02 -1.892811502330005169e-03 8.461036533117294312e-02 -5.512475222349166870e-02 3.777986392378807068e-02 -1.053067967295646667e-01 1.023261528462171555e-02 6.767240166664123535e-02 -1.231413409113883972e-01 -3.556037247180938721e-01 -1.469692885875701904e-01 -3.234724104404449463e-01 -1.636531352996826172e-01 -7.687285542488098145e-02 2.205939777195453644e-02 1.874261535704135895e-02 -2.421335503458976746e-02 6.743609160184860229e-02 7.689916342496871948e-02 1.339963637292385101e-02 2.653225697576999664e-02 -5.749985948204994202e-02 -5.538307875394821167e-02 -2.583850324153900146e-01 -1.440561115741729736e-01 -2.218178361654281616e-01 -1.834930181503295898e-01 -1.060461741872131824e-03 -2.434249967336654663e-03 6.103556230664253235e-02 -1.778082572855055332e-03 7.692660391330718994e-02 9.855488315224647522e-03 -6.777877360582351685e-02 -9.536749124526977539e-02 -3.723646700382232666e-02 -9.203810989856719971e-02 -3.751108348369598389e-01 9.837923943996429443e-02 -3.285019397735595703e-01 -5.146172642707824707e-02 2.460314892232418060e-02 3.806251659989356995e-02 7.429922372102737427e-02 8.358085900545120239e-02 2.922197431325912476e-02 -1.455689594149589539e-02 -4.475649073719978333e-02 -7.910164073109626770e-03 2.773123607039451599e-02 1.938321888446807861e-01 -4.612102210521697998e-01 2.418402284383773804e-01 -3.315954506397247314e-01 -4.867396131157875061e-02 -3.267877548933029175e-02 -2.035970091819763184e-01 5.557303875684738159e-02 -9.384497255086898804e-02 -2.634626068174839020e-02 9.607236832380294800e-02 -3.697028756141662598e-02 3.529157256707549095e-03 -5.271667242050170898e-02 1.182416379451751709e-01 -3.748299777507781982e-01 -1.174817308783531189e-01 -2.464253604412078857e-01 2.139803767204284668e-01 -7.073447853326797485e-02 6.175516545772552490e-02 6.705109775066375732e-02 4.945275932550430298e-02 2.258729888126254082e-03 -2.553509771823883057e-01 -1.431519836187362671e-01 3.226043423637747765e-03 -4.853492602705955505e-02 -8.389722555875778198e-02 -4.450940191745758057e-01 4.066196084022521973e-01 -2.647422254085540771e-01 1.710462123155593872e-01 2.839611470699310303e-02 1.507222950458526611e-01 -1.238428987562656403e-02 -1.439851475879549980e-03 1.169515959918498993e-02 6.427203770726919174e-03 -1.213303282856941223e-01 6.839901208877563477e-02
5.417205765843391418e-02 -3.403616845607757568e-01 6.396712735295295715e-03 -6.231504306197166443e-02 -1.013874914497137070e-02 3.084405697882175446e-02 7.034533470869064331e-02 9.521344304084777832e-02 5.302459374070167542e-02 1.734975166618824005e-02 -5.728467833250761032e-03 2.725535631179809570e-02 -4.979209974408149719e-02 6.566473096609115601e-02 2.919911593198776245e-02 -1.269626710563898087e-02 7.908080518245697021e-02 -1.017197147011756897e-01 -6.495927274227142334e-02 -5.846172571182250977e-03 6.946600507944822311e-03 4.710012674331665039e-02 2.228285185992717743e-02 1.562277902849018574e-03 -7.745091617107391357e-02 8.929034695029258728e-03 -5.152657628059387207e-02 5.681771412491798401e-02 -6.348742544651031494e-02 1.035962626338005066e-01 5.090374127030372620e-02 -2.368757873773574829e-02 -4.319812357425689697e-02 4.339687153697013855e-02 1.020967736840248108e-01 7.499238848686218262e-02 3.025760501623153687e-02 -1.143157947808504105e-02 -5.517010763287544250e-02 6.354360282421112061e-02 1.626332104206085205e-02 -7.827249169349670410e-02 -5.817400664091110229e-02 1.684333682060241699e-01 4.514943808317184448e-02 8.937435597181320190e-02 -3.947843238711357117e-02 -1.224835366010665894e-01 4.412972182035446167e-02 -3.905902057886123657e-02 -3.407741710543632507e-02 6.955726072192192078e-03 -4.546701163053512573e-02 3.446340560913085938e-02 7.512278854846954346e-02 4.419049248099327087e-02 5.854707211256027222e-03 1.610558480024337769e-01 1.306108534336090088e-01 4.390729665756225586e-01 -2.978845499455928802e-02 -1.468222960829734802e-02 -2.802173607051372528e-02 -1.165035590529441833e-01 -5.488333478569984436e-02 -1.140502840280532837e-02 4.207790642976760864e-02 -2.168210782110691071e-02 -1.397538837045431137e-02 -4.296123981475830078e-02 2.786341123282909393e-02 4.049793481826782227e-01 5.218921974301338196e-02 4.592526257038116455e-01 -1.740526705980300903e-01 -9.160623699426651001e-02 -3.750376775860786438e-02 -5.242895334959030151e-02 5.542411282658576965e-02 -3.188065439462661743e-02 -1.919088885188102722e-03 5.700403079390525818e-02 2.923513203859329224e-02 2.674028463661670685e-02 -3.168160468339920044e-02 1.789470314979553223e-01 4.632969573140144348e-02 4.260019958019256592e-01 -1.125056222081184387e-01 -1.480579078197479248e-01 4.870123043656349182e-02 -3.233318328857421875e-01 -5.768228322267532349e-02 1.073723286390304565e-02 8.981593884527683258e-03 8.783723413944244385e-02 4.759966395795345306e-04 2.678344957530498505e-03 1.970349252223968506e-02 8.741978555917739868e-02 1.297018229961395264e-01 -1.660401700064539909e-03 -9.705767780542373657e-02 4.850808531045913696e-02 -3.748569637537002563e-02 -7.209847122430801392e-02 5.955186858773231506e-02 -8.689873665571212769e-02 3.697262331843376160e-02 -2.472496181726455688e-01 1.419233158230781555e-02 -9.588722884654998779e-02 2.798740752041339874e-02 -2.439437359571456909e-01 8.559664338827133179e-02 5.907923579216003418e-01 -1.079849973320960999e-01 -1.600809991359710693e-01 7.678030431270599365e-02 3.132014721632003784e-02 -3.026660531759262085e-02 3.959343209862709045e-02 -6.206497922539710999e-02 1.918720752000808716e-01 5.527707561850547791e-02 1.395541522651910782e-02 5.180560797452926636e-02 -7.574775218963623047e-01 4.736936464905738831e-02 -1.694201707839965820e+00 -3.677044436335563660e-02 1.311972737312316895e-01 3.268429636955261230e-02 3.453045487403869629e-01 -3.456753119826316833e-02 6.725791096687316895e-02 -7.785664498805999756e-02 -1.790656447410583496e-01 3.976885229349136353e-02 1.049079746007919312e-01
-9.466448426246643066e-02 1.243423148989677429e-01 2.735105454921722412e-01 1.750791817903518677e-01 2.904501259326934814e-01 9.735243022441864014e-02 1.062688976526260376e-01 6.443847715854644775e-02 -3.533171862363815308e-02 2.432135306298732758e-02 1.386730223894119263e-01 -2.124908193945884705e-02 1.713078282773494720e-02 1.278809644281864166e-02 2.134003676474094391e-02 3.604411706328392029e-02 2.937840819358825684e-01 2.376289516687393188e-01 1.953547149896621704e-01 -1.039048433303833008e-01 1.448490619659423828e-01 -3.218747973442077637e-01 9.055400639772415161e-02 -1.442597992718219757e-02 7.871167361736297607e-02 1.217093318700790405e-02 -1.315043121576309204e-01 -1.889367587864398956e-02 -1.575416326522827148e-02 1.028590351343154907e-01 3.449385166168212891e-01 -1.010883823037147522e-01 2.930737435817718506e-01 -7.473722845315933228e-02 1.078771054744720459e-01 1.758442521095275879e-01 -2.380038052797317505e-02 -4.536077007651329041e-02 -1.407361961901187897e-02 1.251916885375976562e-01 -3.995958343148231506e-02 -4.693104326725006104e-02 1.067391559481620789e-01 -3.664864301681518555e-01 2.381169646978378296e-01 5.370584875345230103e-02 3.129229843616485596e-01 -9.702425450086593628e-02 8.459500968456268311e-02 -1.686348617076873779e-01 7.439844310283660889e-02 8.669455349445343018e-02 1.129376422613859177e-02 -1.413712203502655029e-01 -7.573197782039642334e-02 8.850105851888656616e-02 1.351485848426818848e-01 -5.507034063339233398e-02 3.223240673542022705e-01 -2.776895761489868164e-01 3.251350820064544678e-01 -9.734702855348587036e-02 7.845374196767807007e-02 -9.301990270614624023e-02 6.980203837156295776e-02 -1.042039394378662109e-01 -2.109633944928646088e-02 1.344208717346191406e-01 1.179849263280630112e-03 -4.392319917678833008e-02 1.362487766891717911e-02 -2.195914685726165771e-01 3.526814877986907959e-01 3.166913613677024841e-02 3.178585171699523926e-01 1.432455927133560181e-01 1.340353786945343018e-01 9.265308082103729248e-02 -7.039490342140197754e-02 -2.006496489048004150e-02 3.521956875920295715e-02 2.150162355974316597e-03 -4.275788366794586182e-02 -9.057885035872459412e-04 8.749406039714813232e-02 -2.569080591201782227e-01 3.130996823310852051e-01 -3.203071057796478271e-01 2.329056411981582642e-01 9.935114532709121704e-02 7.100921869277954102e-02 7.135910540819168091e-02 2.566603943705558777e-02 1.405569016933441162e-01 5.147629883140325546e-03 -9.756267815828323364e-02 -1.411970853805541992e-01 -1.295095402747392654e-02 -5.885488912463188171e-02 6.869502663612365723e-01 3.690436184406280518e-01 -3.283204138278961182e-01 2.915903031826019287e-01 3.093169443309307098e-02 3.196825832128524780e-02 -1.541270762681961060e-01 8.130130916833877563e-02 -1.274808496236801147e-01 1.173128485679626465e-01 2.042911350727081299e-01 -1.647353358566761017e-02 -3.823009505867958069e-02 -7.120338827371597290e-02 -5.563292503356933594e-01 3.339830338954925537e-01 6.089248061180114746e-01 3.089365661144256592e-01 1.706813424825668335e-01 1.712139993906021118e-01 4.037789702415466309e-01 -4.228664096444845200e-03 5.357866734266281128e-02 5.552219226956367493e-03 -1.817004829645156860e-01 -8.482455462217330933e-02 2.361322753131389618e-02 9.111137129366397858e-03 4.973615407943725586e-01 2.876562178134918213e-01 -2.731678634881973267e-02 2.921901345252990723e-01 -1.610627919435501099e-01 9.062776714563369751e-02 -9.224478155374526978e-02 -6.447859108448028564e-02 2.292472682893276215e-02 9.522738866508007050e-03 -3.522940352559089661e-02 -1.068173423409461975e-01 6.114816293120384216e-02
-5.922527983784675598e-02 2.073189914226531982e-01 1.478639543056488037e-01 -1.538959592580795288e-01 7.289417088031768799e-02 -4.076555371284484863e-01 1.679516434669494629e-01 -1.578960120677947998e-01 4.463221132755279541e-02 5.697848647832870483e-02 -1.910239644348621368e-02 -1.218523234128952026e-01 5.897849425673484802e-02 9.506850689649581909e-02 8.116514980792999268e-02 2.702470123767852783e-01 1.884156316518783569e-01 2.001803666353225708e-01 4.883004352450370789e-02 2.168793603777885437e-02 2.371090054512023926e-01 -2.924110889434814453e-01 -5.572919175028800964e-02 -1.254385560750961304e-01 -6.431270390748977661e-02 -5.354866012930870056e-02 -2.504211477935314178e-02 -1.349258124828338623e-01 -3.332860767841339111e-02 -2.172997780144214630e-02 1.282335668802261353e-01 5.439864471554756165e-03 1.666408330202102661e-01 9.986362606287002563e-02 1.874674409627914429e-01 3.310254961252212524e-02 -1.849085278809070587e-02 1.039686352014541626e-01 2.966665104031562805e-02 2.095213532447814941e-01 -4.000280424952507019e-02 7.585755735635757446e-02 3.093152493238449097e-02 -1.248960420489311218e-01 1.392806470394134521e-01 9.208046644926071167e-02 5.436667427420616150e-02 1.554511934518814087e-01 8.039493858814239502e-02 2.760303393006324768e-02 -5.974401906132698059e-02 -6.657575815916061401e-02 -2.072263695299625397e-02 -1.672034114599227905e-01 3.663198649883270264e-02 -2.785069681704044342e-02 2.637191116809844971e-02 -3.563959151506423950e-02 1.835578382015228271e-01 1.386422514915466309e-01 1.021015048027038574e-01 5.491869449615478516e-01 1.717959940433502197e-01 9.969789534807205200e-02 2.276903949677944183e-02 1.284650177694857121e-03 1.806914247572422028e-02 7.681875675916671753e-02 5.663305148482322693e-02 -4.221383109688758850e-02 4.506549239158630371e-02 -5.791942477226257324e-01 1.013409420847892761e-01 -9.062767773866653442e-02 1.250123232603073120e-01 2.271144390106201172e-01 1.674005985260009766e-01 6.232147216796875000e-01 -4.052916914224624634e-02 -6.894719321280717850e-03 -9.523339569568634033e-02 7.706507295370101929e-02 3.571326285600662231e-02 -3.842931240797042847e-02 -8.691688627004623413e-02 -3.109909296035766602e-01 8.018434047698974609e-02 2.146376669406890869e-01 1.925597190856933594e-01 3.453211784362792969e-01 1.920825988054275513e-01 2.853892445564270020e-01 -4.944961145520210266e-02 4.130490124225616455e-02 1.830312237143516541e-02 -8.545026183128356934e-02 -4.776587244123220444e-03 5.111016798764467239e-03 -9.410436451435089111e-02 -2.278843820095062256e-01 6.585855036973953247e-02 -2.496850490570068359e-01 1.234258562326431274e-01 -4.767737165093421936e-02 2.360378205776214600e-01 3.883205056190490723e-01 -3.014931082725524902e-02 9.433805942535400391e-02 2.495638094842433929e-02 9.329368360340595245e-03 4.180417209863662720e-02 7.096953690052032471e-02 -3.687058761715888977e-02 2.544599771499633789e-01 1.726198047399520874e-01 3.707968592643737793e-01 5.691482126712799072e-02 -4.574054777622222900e-01 1.545108109712600708e-01 8.798869699239730835e-02 1.430726330727338791e-02 -4.988604784011840820e-02 -2.171278744935989380e-02 -2.957910299301147461e-02 -6.226006150245666504e-02 -1.264098845422267914e-02 -1.701674796640872955e-02 9.243252277374267578e-01 2.291452586650848389e-01 -2.203356847167015076e-02 5.846060439944267273e-02 -6.289925575256347656e-01 1.326518952846527100e-01 -1.074325561523437500e+00 -1.144251450896263123e-01 -8.453640341758728027e-02 3.230163082480430603e-02 1.642814129590988159e-01 -7.070688158273696899e-02 -3.322546184062957764e-02
-2.628828585147857666e-02 -3.752875328063964844e-01 4.271968500688672066e-04 5.534799396991729736e-02 9.092345088720321655e-02 3.672956675291061401e-02 5.330689623951911926e-02 -1.293603330850601196e-01 -2.606119215488433838e-02 2.088880352675914764e-02 -1.488620042800903320e-02 -1.415983885526657104e-01 -5.065870285034179688e-02 2.604185417294502258e-02 -8.507142215967178345e-02 -1.688277125358581543e-01 -1.240326324477791786e-03 9.332522749900817871e-02 7.528357207775115967e-02 -5.324364826083183289e-02 5.293254181742668152e-02 -1.590676605701446533e-01 -8.562982082366943359e-02 -3.995491191744804382e-02 1.630957610905170441e-02 1.053551733493804932e-01 -1.871256716549396515e-02 -2.351679140701889992e-03 -6.683835387229919434e-02 -1.507789343595504761e-01 -4.984660772606730461e-04 -4.050433635711669922e-02 1.947403186932206154e-03 -2.242665290832519531e-01 -8.588441461324691772e-02 1.611297875642776489e-01 -3.675979748368263245e-02 -6.570746749639511108e-02 6.737302988767623901e-02 6.778336316347122192e-02 1.521330513060092926e-02 -1.316397339105606079e-01 -7.152269035577774048e-02 3.239704370498657227e-01 1.077780500054359436e-01 2.227158052846789360e-03 -8.888507261872291565e-03 -2.811137028038501740e-02 -6.141973659396171570e-02 -5.808244273066520691e-02 -8.280257135629653931e-02 4.891072958707809448e-02 1.698105782270431519e-02 -2.866331115365028381e-02 -2.249676547944545746e-02 7.149489969015121460e-02 -6.258670240640640259e-02 1.757212579250335693e-01 3.829252719879150391e-02 -2.079321891069412231e-01 -7.500121742486953735e-02 -1.356924325227737427e-01 -6.009351462125778198e-03 1.654589772224426270e-01 -7.636646041646599770e-04 -1.511829793453216553e-01 -5.192712694406509399e-02 2.571610547602176666e-02 6.647928804159164429e-02 3.209227696061134338e-02 -5.552902817726135254e-02 4.947078227996826172e-01 9.286054410040378571e-03 1.106314361095428467e-02 -8.684350550174713135e-02 -3.399230167269706726e-02 -6.239627301692962646e-02 9.267593175172805786e-02 1.827656105160713196e-02 2.395373769104480743e-02 5.944058299064636230e-02 1.416226755827665329e-02 3.318715095520019531e-02 -1.735367625951766968e-02 5.808137729763984680e-02 9.035547375679016113e-01 -5.390187259763479233e-03 -2.988948822021484375e-01 6.946119666099548340e-02 2.878343760967254639e-01 -8.721806108951568604e-02 7.018999010324478149e-02 4.394157230854034424e-02 1.578957140445709229e-01 3.978619351983070374e-02 4.472047556191682816e-03 -3.076870739459991455e-02 4.278168454766273499e-02 1.883939839899539948e-03 -3.514132276177406311e-02 -4.016026109457015991e-02 7.446955889463424683e-02 -4.646361246705055237e-02 2.100318521261215210e-01 3.423572750762104988e-03 4.354095086455345154e-02 2.413398027420043945e-02 -1.288240998983383179e-01 2.092005126178264618e-02 4.037533327937126160e-02 9.190265089273452759e-02 -5.796295776963233948e-02 1.237393170595169067e-01 7.880987524986267090e-01 -3.715466335415840149e-02 -4.693168103694915771e-01 2.305664867162704468e-02 4.273066818714141846e-01 3.455325588583946228e-02 -2.160934656858444214e-01 6.582603603601455688e-02 2.272149324417114258e-01 2.456188667565584183e-03 -1.410784944891929626e-02 1.045204047113656998e-02 -1.547478418797254562e-02 -3.527211956679821014e-04 -1.990801692008972168e+00 6.374652683734893799e-02 6.595660448074340820e-01 6.797772645950317383e-02 -4.266988933086395264e-01 5.771932005882263184e-02 -4.642882384359836578e-03 -3.019821830093860626e-02 -3.030294477939605713e-01 3.285413980484008789e-02 -1.171911805868148804e-01 -9.628104977309703827e-03 4.422222077846527100e-02
1.533082337118685246e-03 4.686854372266680002e-04 1.312784403562545776e-01 9.758724272251129150e-02 1.048358976840972900e-01 1.125533729791641235e-01 3.689178228378295898e-01 1.191184073686599731e-01 6.879768520593643188e-02 -1.631312444806098938e-02 1.058437451720237732e-01 -5.430991295725107193e-03 -4.788475483655929565e-02 1.626176573336124420e-02 3.790804743766784668e-02 2.045137993991374969e-02 1.252524405717849731e-01 4.853758215904235840e-02 1.130351722240447998e-01 -1.075269952416419983e-01 3.272426128387451172e-01 -3.315486013889312744e-02 1.611925661563873291e-02 1.389847323298454285e-02 1.058778464794158936e-01 4.562574252486228943e-02 5.840014200657606125e-03 1.200886908918619156e-02 -4.949507117271423340e-02 6.274394690990447998e-02 1.277727633714675903e-01 -1.404030621051788330e-01 9.848386049270629883e-02 8.828144520521163940e-03 3.567093014717102051e-01 2.229717932641506195e-02 1.315787732601165771e-01 1.728512533009052277e-02 1.833833456039428711e-01 6.692648679018020630e-02 -7.296923547983169556e-02 -5.461937934160232544e-02 1.018947064876556396e-01 -4.012883873656392097e-04 1.560742408037185669e-01 2.068298459053039551e-01 6.550157815217971802e-02 1.081606224179267883e-01 2.436609417200088501e-01 -5.251501873135566711e-02 1.774289757013320923e-01 -6.473455578088760376e-03 2.066215276718139648e-01 -5.223976448178291321e-02 -1.426378451287746429e-02 2.022844925522804260e-02 5.898927897214889526e-02 -1.505008786916732788e-01 2.462196350097656250e-01 -1.048963367938995361e-01 -3.173829987645149231e-02 -3.077904880046844482e-02 2.854306101799011230e-01 2.404645830392837524e-02 1.183423921465873718e-01 6.205618381500244141e-02 2.338970601558685303e-01 9.227092564105987549e-02 -7.389908190816640854e-03 -2.234081923961639404e-02 -7.423980627208948135e-03 1.675353348255157471e-01 1.982842981815338135e-01 3.695834800601005554e-02 6.024233531206846237e-03 -9.667637944221496582e-02 2.431294173002243042e-01 -2.446681633591651917e-02 1.279609799385070801e-01 -2.910111099481582642e-02 1.175413578748703003e-01 -1.619071408640593290e-04 4.313324391841888428e-02 8.512575924396514893e-02 -7.728024572134017944e-02 -1.387746781110763550e-01 2.007433176040649414e-01 -1.814468391239643097e-02 -3.074768744409084320e-02 -1.914347521960735321e-02 3.736144900321960449e-01 1.338519304990768433e-01 9.683432430028915405e-02 9.191241860389709473e-02 2.312480360269546509e-01 -1.311376541852951050e-01 -5.796283856034278870e-02 2.275109104812145233e-02 -5.772142112255096436e-02 6.344900280237197876e-02 3.022001087665557861e-01 -8.085125088691711426e-01 -2.324951626360416412e-02 2.267021238803863525e-01 4.007282853126525879e-01 -6.467868387699127197e-02 1.718560457229614258e-01 -6.159926578402519226e-02 2.301105707883834839e-01 5.608457699418067932e-02 -4.224858433008193970e-02 -1.497636288404464722e-01 6.285777688026428223e-02 7.064483314752578735e-02 2.386241108179092407e-01 3.941531479358673096e-01 -4.257271066308021545e-04 -7.037103921175003052e-02 3.636832535266876221e-01 4.560380242764949799e-03 1.169404610991477966e-01 -1.555479015223681927e-03 1.989895105361938477e-01 -9.989306330680847168e-03 1.263074763119220734e-02 1.556163281202316284e-01 1.184320449829101562e-02 -8.410149812698364258e-02 3.194825947284698486e-01 2.710048854351043701e-01 4.774996638298034668e-02 -5.303053185343742371e-02 4.043763577938079834e-01 -4.666157439351081848e-02 1.422658562660217285e-01 -6.882657855749130249e-02 2.384563684463500977e-01 -5.997303500771522522e-02 4.726055637001991272e-02 -8.526241034269332886e-02
2.112975344061851501e-02 2.947136759757995605e-02 -4.200183451175689697e-01 1.089198631234467030e-04 -3.592329323291778564e-01 -6.549989432096481323e-02 -6.549567729234695435e-02 1.172118540853261948e-02 -4.012209549546241760e-02 4.898903518915176392e-02 -6.240563932806253433e-03 -5.524102598428726196e-02 4.331693053245544434e-02 -1.870571449398994446e-02 1.493178866803646088e-02 -1.281374990940093994e-01 -2.799020707607269287e-01 1.341804210096597672e-02 -3.562778830528259277e-01 9.588097035884857178e-02 -6.001693010330200195e-02 -5.713314190506935120e-02 -3.443554975092411041e-03 -2.150043845176696777e-02 3.678865730762481689e-02 2.921399287879467010e-02 -4.804031923413276672e-02 -4.287198558449745178e-02 -5.952352657914161682e-03 9.593257308006286621e-02 -3.872433006763458252e-01 1.420944090932607651e-02 -2.895152568817138672e-01 -7.114363461732864380e-02 -1.030916273593902588e-01 6.670125573873519897e-02 2.975303865969181061e-02 -3.930922970175743103e-02 2.063121274113655090e-02 1.383398473262786865e-01 -4.876742139458656311e-03 3.539986908435821533e-02 1.771285757422447205e-02 1.179029718041419983e-01 -2.846044600009918213e-01 -1.024014409631490707e-02 -3.453469276428222656e-01 2.706066071987152100e-01 -1.294185519218444824e-01 5.647950246930122375e-02 -3.740834444761276245e-02 8.580412715673446655e-02 -6.570120155811309814e-02 -1.137461066246032715e-01 -5.294287577271461487e-02 1.586581766605377197e-02 2.110984176397323608e-02 -1.228826865553855896e-01 -3.654548823833465576e-01 -1.558842658996582031e-01 -2.488030493259429932e-01 -1.446687728166580200e-01 -8.094284683465957642e-02 3.380858153104782104e-02 -3.166985884308815002e-02 -8.865766972303390503e-02 8.055265992879867554e-03 3.563616424798965454e-02 4.589707404375076294e-02 -1.869557425379753113e-02 3.110175579786300659e-02 9.807059168815612793e-02 -4.206248521804809570e-01 5.653035361319780350e-03 -2.325840145349502563e-01 -1.316099613904953003e-01 -9.495500475168228149e-03 -1.118287444114685059e-01 8.098103851079940796e-02 -4.297453910112380981e-03 3.726189956068992615e-02 6.770414859056472778e-02 -1.273007132112979889e-02 5.394926294684410095e-03 -8.788863569498062134e-02 -2.321873558685183525e-03 -3.790570497512817383e-01 -9.249050915241241455e-02 -3.315743505954742432e-01 2.480557560920715332e-01 -6.289676576852798462e-02 -1.774204894900321960e-02 -7.197800278663635254e-02 8.389778435230255127e-03 7.985062152147293091e-02 -1.090937331318855286e-01 -1.004929468035697937e-01 -4.353736992925405502e-03 2.856088988482952118e-02 2.864458225667476654e-02 -4.379827082157135010e-01 4.019263684749603271e-01 -2.871865928173065186e-01 -4.619224071502685547e-01 1.924641057848930359e-02 -4.993624612689018250e-02 -4.668592941015958786e-03 -1.024406254291534424e-01 -5.104418471455574036e-02 5.361572280526161194e-02 -5.387983284890651703e-03 1.197534240782260895e-02 -6.526159495115280151e-02 9.914032369852066040e-02 -4.138253927230834961e-01 -2.137092202901840210e-01 -3.302718400955200195e-01 5.253164768218994141e-01 -1.414449792355298996e-02 2.955065369606018066e-01 5.641628429293632507e-02 1.298759877681732178e-01 2.271007187664508820e-02 -1.185668073594570160e-02 3.129311278462409973e-02 -1.582710258662700653e-02 -4.711489006876945496e-02 -2.152486741542816162e-01 -4.633160531520843506e-01 2.118390798568725586e-02 -2.230958789587020874e-01 -3.250412344932556152e-01 -7.427988201379776001e-02 -2.289361655712127686e-01 -6.781315803527832031e-02 -1.961728557944297791e-02 2.116684056818485260e-02 -7.305251806974411011e-02 2.355876378715038300e-02 4.102759063243865967e-02
1.654942147433757782e-02 1.764541417360305786e-01 -1.755978167057037354e-01 -1.922862082719802856e-01 4.332262277603149414e-01 2.699197828769683838e-02 1.345444917678833008e-01 1.677077710628509521e-01 3.446695581078529358e-02 5.332934483885765076e-02 5.673872306942939758e-02 7.009806111454963684e-03 -6.534183863550424576e-03 4.083766788244247437e-02 1.640452817082405090e-02 -1.941272616386413574e-02 -1.654593497514724731e-01 -2.024141885340213776e-02 3.672814667224884033e-01 6.073937937617301941e-02 1.539212316274642944e-01 -3.972412087023258209e-03 -2.717175520956516266e-03 -7.092544436454772949e-02 6.703150458633899689e-03 -4.023931547999382019e-02 -8.848275989294052124e-03 -6.448044627904891968e-02 -2.194881252944469452e-02 2.144311182200908661e-02 -1.958317905664443970e-01 -6.006683036684989929e-02 5.044308900833129883e-01 4.135288298130035400e-02 1.320166438817977905e-01 6.537012290209531784e-03 3.457190468907356262e-02 -2.244608849287033081e-02 1.128633692860603333e-01 -1.004456058144569397e-01 8.090878278017044067e-02 1.179195474833250046e-02 4.011399298906326294e-02 -1.733760386705398560e-01 -1.301287114620208740e-01 1.015450879931449890e-01 4.814623296260833740e-01 1.463757641613483429e-02 7.506147027015686035e-02 -3.070216476917266846e-01 4.564622417092323303e-02 7.177943736314773560e-02 5.293027684092521667e-02 2.084269821643829346e-01 -2.503692358732223511e-02 2.925381809473037720e-02 3.913034126162528992e-02 -6.486307829618453979e-02 -6.171844899654388428e-02 -1.814290732145309448e-01 3.941541910171508789e-01 4.778053238987922668e-02 -2.288959687575697899e-03 -1.433375179767608643e-01 1.004915982484817505e-01 1.230400707572698593e-02 5.329492688179016113e-02 -1.150894537568092346e-01 1.047837808728218079e-01 -8.414985239505767822e-02 3.520124033093452454e-02 -6.886354088783264160e-02 -1.992817968130111694e-01 2.875944972038269043e-01 5.087931752204895020e-01 9.087954461574554443e-02 3.811943158507347107e-02 -1.921688765287399292e-01 9.861187078058719635e-03 4.790581390261650085e-02 4.953208938241004944e-02 -2.013556063175201416e-01 -3.088201396167278290e-02 -1.997614465653896332e-02 -2.340172044932842255e-02 -4.409743845462799072e-01 -4.900049418210983276e-02 5.309970583766698837e-03 4.846820831298828125e-01 1.579331010580062866e-01 5.033432319760322571e-02 -2.283314764499664307e-01 8.222037553787231445e-02 -1.030022092163562775e-02 -1.565582491457462311e-02 1.078145429491996765e-01 4.429423809051513672e-02 7.397990673780441284e-02 7.439474761486053467e-02 1.073327288031578064e-02 -1.124599054455757141e-01 -8.657335489988327026e-02 4.083777964115142822e-01 -2.645642161369323730e-01 7.797816395759582520e-02 2.487407475709915161e-01 -1.870377338491380215e-03 -1.605536341667175293e-01 3.350036218762397766e-02 -7.520493119955062866e-02 -1.233967486768960953e-02 6.215381436049938202e-03 1.758043840527534485e-02 3.121463060379028320e-01 -1.162634566426277161e-01 6.452186703681945801e-01 5.036860704421997070e-01 1.573778688907623291e-01 4.396937787532806396e-02 3.206972405314445496e-02 -7.169494032859802246e-02 1.291474699974060059e-01 -8.959557861089706421e-03 8.965472131967544556e-02 7.735201716423034668e-02 7.285417616367340088e-02 -7.923859357833862305e-02 3.057519793510437012e-01 -7.090156525373458862e-02 -5.453548431396484375e-01 4.522444307804107666e-01 -3.160515725612640381e-01 2.800893411040306091e-02 4.480412006378173828e-01 -4.725681617856025696e-02 -8.006754517555236816e-02 7.196474471129477024e-04 5.602760706096887589e-03 -1.491168607026338577e-02 -1.269387751817703247e-01
4.929482191801071167e-02 -1.552228778600692749e-01 -2.952845990657806396e-01 2.923470437526702881e-01 -7.251533865928649902e-02 4.326314851641654968e-02 4.545903503894805908e-01 -4.948001503944396973e-01 -2.754494249820709229e-01 -7.245000451803207397e-03 -1.640909165143966675e-01 1.733525097370147705e-01 -4.625234752893447876e-02 9.006559848785400391e-03 -4.735545814037322998e-02 -6.958953291177749634e-02 -4.020817875862121582e-01 6.653491407632827759e-02 4.585521668195724487e-02 7.956819608807563782e-03 4.373609423637390137e-01 1.228860840201377869e-01 -2.348893284797668457e-01 -5.995194613933563232e-02 -2.878297865390777588e-01 -2.317659556865692139e-01 -3.435309976339340210e-02 -1.440346837043762207e-01 -3.090962581336498260e-02 2.455202341079711914e-01 -3.251405656337738037e-01 -2.191361486911773682e-01 -2.765601128339767456e-02 -2.792887389659881592e-01 3.407914638519287109e-01 2.585578560829162598e-01 -2.833642065525054932e-01 3.059273585677146912e-02 -2.100617289543151855e-01 3.408233076333999634e-02 6.057843565940856934e-02 1.386930197477340698e-01 3.399541601538658142e-02 1.188702210783958435e-01 -3.049212992191314697e-01 1.647855937480926514e-01 -2.854189462959766388e-02 7.994489371776580811e-02 4.640735685825347900e-01 -5.125727504491806030e-02 -3.163878023624420166e-01 5.225879326462745667e-02 -1.891265511512756348e-01 -6.381306797266006470e-02 8.831974864006042480e-02 -7.007721066474914551e-02 -1.238375715911388397e-02 -6.088851019740104675e-02 -2.292302101850509644e-01 1.544277276843786240e-02 1.236524209380149841e-01 6.941986083984375000e-02 3.122148215770721436e-01 3.311907351016998291e-01 -2.183378934860229492e-01 -7.149023562669754028e-02 -1.295209527015686035e-01 -1.334173828363418579e-01 2.655357308685779572e-02 3.159530460834503174e-02 -3.771793842315673828e-02 1.076111420989036560e-01 -2.824432849884033203e-01 -2.760118842124938965e-01 1.340424083173274994e-02 6.511129438877105713e-02 4.280473291873931885e-01 2.709653377532958984e-01 -3.236155509948730469e-01 -4.506376013159751892e-02 -1.559221446514129639e-01 3.355044126510620117e-02 8.632777631282806396e-02 1.487167775630950928e-01 6.402520090341567993e-02 4.860704764723777771e-02 -3.884774744510650635e-01 2.516729533672332764e-01 9.690643101930618286e-02 1.470135003328323364e-01 4.474773406982421875e-01 2.144744992256164551e-02 -1.925755292177200317e-01 -8.221964538097381592e-02 -2.434324324131011963e-01 -9.471705183386802673e-03 5.213303957134485245e-03 5.838682129979133606e-02 8.344528079032897949e-02 1.253861784934997559e-01 -3.869189918041229248e-01 -4.771704375743865967e-01 1.074176933616399765e-02 -1.115304976701736450e-01 4.460516571998596191e-01 -1.857922077178955078e-01 -3.193532228469848633e-01 -1.483110040426254272e-01 -1.763863563537597656e-01 -2.018826603889465332e-01 -2.622526697814464569e-02 -1.248827949166297913e-01 1.422533951699733734e-02 -1.019309554249048233e-02 -3.069798350334167480e-01 -4.864681512117385864e-02 4.249301925301551819e-02 3.713503479957580566e-02 4.580719172954559326e-01 -1.414447724819183350e-01 -2.223021835088729858e-01 1.180266886949539185e-01 -2.557198107242584229e-01 1.130260527133941650e-01 9.611889719963073730e-02 4.018606245517730713e-02 -1.761626265943050385e-02 -3.448458313941955566e-01 -4.219008386135101318e-01 2.580559551715850830e-01 8.782127499580383301e-02 -1.989158615469932556e-02 3.906881511211395264e-01 -1.463056802749633789e-01 -3.149044811725616455e-01 1.644354909658432007e-01 -2.490794956684112549e-01 9.941262006759643555e-02 1.980912685394287109e-02 -6.183492764830589294e-02
-4.941164329648017883e-02 -6.355185061693191528e-02 2.634548246860504150e-01 -1.454630643129348755e-01 -3.490188121795654297e-01 4.330533370375633240e-02 4.199257791042327881e-01 -5.722762271761894226e-02 6.523564457893371582e-02 -7.555601769126951694e-04 4.952766373753547668e-02 -4.391980823129415512e-03 7.112756371498107910e-02 7.556637283414602280e-03 8.477474004030227661e-02 4.787254706025123596e-02 1.345477104187011719e-01 -2.876577898859977722e-03 -3.321539163589477539e-01 -1.386563926935195923e-01 4.291691184043884277e-01 9.444585442543029785e-02 8.348193019628524780e-02 -6.490699946880340576e-02 2.787920832633972168e-02 -1.217891462147235870e-02 -1.806568540632724762e-02 1.268039941787719727e-01 -8.795217424631118774e-02 6.035075709223747253e-02 1.645349711179733276e-01 3.142853453755378723e-02 -4.861756861209869385e-01 1.334519833326339722e-01 3.844748139381408691e-01 1.547141224145889282e-01 1.059769243001937866e-01 9.391394443809986115e-03 -6.335873156785964966e-03 -3.344458341598510742e-02 1.064893044531345367e-02 -1.177829280495643616e-01 1.178647112101316452e-02 1.095661520957946777e-01 2.822379767894744873e-01 1.096660345792770386e-01 -3.523766994476318359e-01 5.545330420136451721e-02 4.497571885585784912e-01 -7.452253252267837524e-02 1.135743632912635803e-01 1.773971132934093475e-02 -9.166183322668075562e-02 8.965184539556503296e-02 3.690521046519279480e-02 -9.486251510679721832e-03 -7.496363669633865356e-02 9.798702597618103027e-02 2.644194960594177246e-01 1.812789738178253174e-01 -4.587230384349822998e-01 8.313134312629699707e-03 3.452755212783813477e-01 3.725885972380638123e-02 4.172007739543914795e-02 6.284004449844360352e-02 -8.195302635431289673e-02 1.194194480776786804e-01 5.402322486042976379e-02 -2.875342033803462982e-02 -2.844125032424926758e-02 3.963295221328735352e-01 2.963676750659942627e-01 4.075504541397094727e-01 -4.445485770702362061e-01 3.435660600662231445e-01 4.628306329250335693e-01 5.596623569726943970e-02 5.028595216572284698e-03 4.683307930827140808e-02 1.159593183547258377e-02 -1.520681828260421753e-01 -2.356267906725406647e-02 -2.114298380911350250e-02 -2.672691643238067627e-02 3.048059642314910889e-01 2.247457206249237061e-01 9.397586435079574585e-02 -3.832356929779052734e-01 -4.590427037328481674e-03 3.135111331939697266e-01 3.918028250336647034e-02 2.208689600229263306e-02 7.065577059984207153e-02 1.088689826428890228e-02 -8.649668656289577484e-03 1.138598471879959106e-02 -1.054089237004518509e-02 -2.091584168374538422e-02 -8.970972895622253418e-02 3.388720154762268066e-01 -1.815347671508789062e-01 -4.194386005401611328e-01 1.282326132059097290e-02 3.452655375003814697e-01 1.305189132690429688e-01 9.095863252878189087e-02 -4.403007403016090393e-02 9.686621837317943573e-03 -1.246795505285263062e-01 -6.280770897865295410e-02 8.343969285488128662e-02 -9.077451378107070923e-02 2.156835421919822693e-02 2.914732098579406738e-01 3.117235302925109863e-01 -4.352155625820159912e-01 -8.772551268339157104e-02 3.561967611312866211e-01 -2.908665239810943604e-01 4.410640522837638855e-02 -2.596193924546241760e-02 -1.082500442862510681e-01 -3.910631313920021057e-02 4.230294004082679749e-02 -5.144183337688446045e-02 -6.522950530052185059e-02 -8.705832362174987793e-01 2.753156423568725586e-01 -7.360928654670715332e-01 -3.467594683170318604e-01 -3.191511332988739014e-01 4.705415964126586914e-01 -1.159064173698425293e-01 -5.630474165081977844e-02 -4.195790365338325500e-02 -1.566559262573719025e-02 1.124063357710838318e-01 -6.652524229139089584e-03 5.191742628812789917e-02
4.924228414893150330e-02 -1.196603849530220032e-01 8.360362052917480469e-02 -1.944829523563385010e-01 1.927928775548934937e-01 -1.166093870997428894e-01 1.006936281919479370e-02 4.987553879618644714e-02 -1.941588819026947021e-01 -9.772965312004089355e-02 -1.712237596511840820e-01 1.727220602333545685e-02 5.250159651041030884e-02 -1.491145491600036621e-01 -2.645035739988088608e-03 1.209413930773735046e-01 1.127593666315078735e-01 -9.997173398733139038e-02 2.887788116931915283e-01 -3.472315520048141479e-02 1.251858472824096680e-01 -6.450658664107322693e-03 -7.601784914731979370e-02 -2.701724693179130554e-02 -5.223578587174415588e-02 -1.410155296325683594e-01 1.627503894269466400e-02 6.336610764265060425e-02 6.006714701652526855e-02 -1.318828463554382324e-01 1.126602068543434143e-01 2.332098484039306641e-01 3.003602623939514160e-01 4.907932132482528687e-02 6.034003943204879761e-02 4.708744585514068604e-02 -1.019613891839981079e-01 1.468726396560668945e-01 -5.792400613427162170e-02 8.679789304733276367e-02 1.284946054220199585e-01 5.163277499377727509e-03 2.118125557899475098e-02 2.620347775518894196e-02 1.364690214395523071e-01 3.111413121223449707e-01 2.763341069221496582e-01 -1.385535746812820435e-01 2.964746952056884766e-02 -2.846674025058746338e-01 -2.201979458332061768e-01 -1.107329726219177246e-01 -1.806108653545379639e-01 1.761640608310699463e-02 -1.247117109596729279e-02 1.709617488086223602e-02 -5.551912635564804077e-02 6.222290173172950745e-02 1.866330653429031372e-01 -1.616152077913284302e-01 3.374503254890441895e-01 2.456107586622238159e-01 1.359928101301193237e-01 1.390999555587768555e-01 -1.740269809961318970e-01 1.124416813254356384e-01 -8.819585293531417847e-02 -9.697871655225753784e-02 9.619616717100143433e-02 1.146627776324748993e-02 -3.375801816582679749e-02 -2.739451229572296143e-01 1.899191141128540039e-01 5.282314419746398926e-01 2.111610770225524902e-01 8.402934670448303223e-02 4.896028339862823486e-02 -1.745380163192749023e-01 -1.089445129036903381e-01 8.411228656768798828e-02 -7.499736547470092773e-02 7.149627804756164551e-02 4.641133919358253479e-02 4.577360674738883972e-02 -5.612081382423639297e-03 1.948801875114440918e-01 1.565369665622711182e-01 9.870535880327224731e-02 2.790090739727020264e-01 3.347473219037055969e-02 1.470138132572174072e-01 4.091836884617805481e-02 -5.544316023588180542e-02 -1.068724766373634338e-01 -8.405076712369918823e-02 -3.935595974326133728e-02 7.821407914161682129e-02 -3.854385390877723694e-02 3.387245908379554749e-02 6.755440682172775269e-02 1.971679627895355225e-01 -2.076062709093093872e-01 3.240441977977752686e-01 5.025954544544219971e-02 6.856823712587356567e-02 4.176988899707794189e-01 -9.213675558567047119e-02 1.089260876178741455e-01 -1.709716767072677612e-01 4.964166879653930664e-02 8.509309589862823486e-02 -2.462773770093917847e-02 -3.205366805195808411e-02 -6.966175884008407593e-02 2.053348869085311890e-01 5.020663142204284668e-01 3.193590939044952393e-01 3.429886326193809509e-02 2.030367217957973480e-02 -3.942884802818298340e-01 -1.848081201314926147e-01 -8.240197598934173584e-02 -1.828984171152114868e-01 1.628200411796569824e-01 1.312618553638458252e-01 2.002072148025035858e-02 -5.306978151202201843e-02 1.544966995716094971e-01 6.099837645888328552e-02 -1.026621460914611816e+00 2.147270888090133667e-01 -1.504905372858047485e-01 -5.749554373323917389e-03 1.301381140947341919e-01 -2.092178314924240112e-01 -8.800315111875534058e-02 -1.526453197002410889e-01 -2.379104644060134888e-01 1.107999235391616821e-01 -2.141855889931321144e-03
9.781160205602645874e-02 -8.271683007478713989e-03 4.668940231204032898e-02 -2.195900119841098785e-02 -4.404118284583091736e-03 -1.148059405386447906e-02 6.227950798347592354e-04 1.484754309058189392e-02 2.160977013409137726e-02 -2.549324883148074150e-03 -2.775075100362300873e-02 -7.612695097923278809e-01 9.078890085220336914e-03 9.129203855991363525e-03 -5.095189809799194336e-02 2.756644040346145630e-02 -2.787322178483009338e-02 4.314443096518516541e-02 -2.580053918063640594e-02 3.229077160358428955e-02 4.168450087308883667e-02 -5.239575356245040894e-02 -2.961542829871177673e-02 1.808344945311546326e-02 5.846579000353813171e-02 -7.313423156738281250e-01 -3.521199524402618408e-02 -2.353581972420215607e-02 5.851186811923980713e-02 -2.004855871200561523e-02 4.943723976612091064e-02 -5.089279264211654663e-02 1.587499491870403290e-02 6.985332816839218140e-03 -7.326846569776535034e-02 1.340837869793176651e-02 6.255284696817398071e-02 -8.376276120543479919e-03 -3.797485679388046265e-02 -5.996032357215881348e-01 3.468597307801246643e-02 9.862942621111869812e-03 3.111976943910121918e-02 3.761889785528182983e-02 -1.080587506294250488e-02 2.696362510323524475e-02 6.298840790987014771e-02 -2.297927439212799072e-02 -6.378006935119628906e-02 3.700743615627288818e-02 -3.274524211883544922e-02 -1.314082555472850800e-02 -6.258437782526016235e-02 -4.499557614326477051e-01 -8.132934570312500000e-02 4.624408204108476639e-03 -6.675020605325698853e-02 -1.792241446673870087e-02 7.319573312997817993e-02 1.144118234515190125e-02 6.224173307418823242e-02 3.224901109933853149e-02 -2.612907811999320984e-02 -4.619516804814338684e-02 -8.452880382537841797e-02 1.388699933886528015e-02 -4.984875023365020752e-02 -5.845298171043395996e-01 4.394568502902984619e-02 3.322609234601259232e-03 -4.892556741833686829e-02 -2.035367302596569061e-02 -4.242232069373130798e-02 -1.773988083004951477e-02 4.735119640827178955e-02 -4.422691464424133301e-02 4.639161750674247742e-02 3.134557604789733887e-02 -2.387594990432262421e-02 -1.556231826543807983e-02 -6.360071152448654175e-02 -6.235480904579162598e-01 2.351047471165657043e-02 -6.331309210509061813e-03 2.625373564660549164e-02 -9.130647405982017517e-03 4.501307755708694458e-02 5.915448442101478577e-02 5.632142350077629089e-02 1.650468073785305023e-02 -6.198077276349067688e-02 -3.555695340037345886e-02 -2.842977643013000488e-02 1.126352138817310333e-02 4.153243824839591980e-02 -3.417164087295532227e-01 -2.574445307254791260e-02 6.595308426767587662e-03 -2.798152156174182892e-02 -9.357866831123828888e-03 -2.776882424950599670e-02 -6.764371693134307861e-02 -5.250679701566696167e-02 1.275279931724071503e-02 7.126440852880477905e-02 1.888020336627960205e-02 4.794246330857276917e-02 5.740538705140352249e-03 3.737860545516014099e-02 -7.694458365440368652e-01 1.748562417924404144e-02 6.749708671122789383e-03 -8.495574444532394409e-02 4.449406266212463379e-02 -6.346159428358078003e-02 -3.152396529912948608e-02 -7.327248156070709229e-02 -6.623694300651550293e-02 3.933716565370559692e-02 3.076083213090896606e-02 3.186865150928497314e-02 -3.853514790534973145e-02 1.901179924607276917e-02 -7.105493545532226562e-01 4.873637482523918152e-02 2.700525801628828049e-03 6.134808808565139771e-02 -2.569905854761600494e-02 -3.039867617189884186e-02 4.401542618870735168e-02 -7.621128112077713013e-02 4.885093495249748230e-02 2.568862028419971466e-02 -6.665171589702367783e-03 3.158310428261756897e-02 2.663656137883663177e-02 -8.418451994657516479e-02 -1.608030647039413452e-01 -3.064092434942722321e-02 -1.752383448183536530e-02
-5.425641313195228577e-03 -6.627037376165390015e-02 2.909738123416900635e-01 -8.806311339139938354e-02 4.810123741626739502e-01 8.601693552918732166e-04 2.189566940069198608e-01 2.670753896236419678e-01 9.404011815786361694e-02 1.046051457524299622e-02 3.714393451809883118e-02 5.000735982321202755e-04 1.589955203235149384e-02 1.468831021338701248e-02 -8.423372171819210052e-03 -7.042418420314788818e-02 1.969028860330581665e-01 -2.968523465096950531e-02 3.807646334171295166e-01 8.797768503427505493e-02 2.057933956384658813e-01 -1.105581074953079224e-01 9.465514868497848511e-02 -1.361805386841297150e-02 9.712731093168258667e-02 -4.477405920624732971e-02 -3.854346275329589844e-02 -5.639277864247560501e-03 4.026351869106292725e-02 -9.721653908491134644e-02 1.927027255296707153e-01 1.073890626430511475e-01 4.471726417541503906e-01 -4.420311003923416138e-02 2.095297276973724365e-01 3.042720071971416473e-02 -5.672502890229225159e-02 6.654173601418733597e-03 2.433517947793006897e-02 1.119343340396881104e-01 3.167214989662170410e-02 6.917288154363632202e-02 8.146927505731582642e-02 2.808618843555450439e-01 2.975651323795318604e-01 6.638608127832412720e-02 4.150027632713317871e-01 -6.945911794900894165e-02 2.101168036460876465e-01 -1.393896639347076416e-01 2.548779733479022980e-02 -2.352247200906276703e-02 3.263900801539421082e-02 -7.260011136531829834e-02 -5.168414488434791565e-02 -8.263980597257614136e-02 -6.073080934584140778e-03 3.020787611603736877e-02 3.064195811748504639e-01 2.774779126048088074e-02 3.620113730430603027e-01 1.382033526897430420e-01 2.573243677616119385e-01 -1.466221362352371216e-01 3.712749108672142029e-02 1.841558814048767090e-01 8.919209986925125122e-02 2.245049551129341125e-02 -3.180552273988723755e-02 2.918375097215175629e-02 -5.854547396302223206e-02 -2.033388055860996246e-02 2.607564032077789307e-01 3.479394614696502686e-01 4.543836414813995361e-01 -2.732526361942291260e-01 2.598463594913482666e-01 -1.066713631153106689e-01 7.477831840515136719e-02 -7.154750823974609375e-02 -4.401485994458198547e-02 7.001893967390060425e-02 -6.339420098811388016e-03 -1.342588756233453751e-02 -6.439226120710372925e-02 3.027357459068298340e-01 3.077486455440521240e-01 -1.694441586732864380e-01 3.760778009891510010e-01 2.037485502660274506e-02 1.967201083898544312e-01 -3.325597345829010010e-01 -4.515504837036132812e-02 -3.497777506709098816e-02 3.156986460089683533e-02 -8.448166400194168091e-02 6.928205490112304688e-02 3.629167005419731140e-02 -6.842166185379028320e-02 -1.821929663419723511e-01 3.532640933990478516e-01 3.552980422973632812e-01 4.280874729156494141e-01 8.102000504732131958e-02 2.153612077236175537e-01 -2.602795660495758057e-01 -3.116878122091293335e-02 -1.696006581187248230e-02 -3.347273543477058411e-02 2.407909929752349854e-02 -3.769068792462348938e-02 -2.096107974648475647e-02 -5.100673437118530273e-02 -2.798999845981597900e-01 3.507288098335266113e-01 -1.308562792837619781e-02 4.624525010585784912e-01 -2.020123042166233063e-02 2.755801975727081299e-01 2.253554910421371460e-01 -6.758771836757659912e-02 1.900238730013370514e-02 -1.243384927511215210e-02 -5.516213551163673401e-02 -2.329942211508750916e-02 1.809441484510898590e-02 7.017029821872711182e-02 1.029789969325065613e-01 3.789849877357482910e-01 -5.584431290626525879e-01 4.940615892410278320e-01 1.110318005084991455e-01 3.102308809757232666e-01 5.840853452682495117e-01 9.901882149279117584e-03 -2.708897367119789124e-02 2.073072083294391632e-02 -2.061749249696731567e-02 -5.813443660736083984e-02 -5.466615408658981323e-02
5.729260668158531189e-02 2.200022190809249878e-01 -1.144856438040733337e-01 5.674012899398803711e-01 -2.220567166805267334e-01 4.077445566654205322e-01 -5.114294961094856262e-02 -3.016014816239476204e-03 3.461259603500366211e-02 6.449762731790542603e-02 -1.866677403450012207e-01 9.560211747884750366e-02 -6.897047162055969238e-03 -1.325651654042303562e-03 5.219576507806777954e-02 -1.837692596018314362e-02 -2.074742317199707031e-01 1.272635459899902344e-01 -2.518484294414520264e-01 1.066991984844207764e-01 -9.735425934195518494e-03 1.194982379674911499e-01 -5.432757735252380371e-02 2.390368469059467316e-02 -1.013392135500907898e-01 2.381783677265048027e-03 -2.826120331883430481e-02 -6.692827492952346802e-02 -6.529238075017929077e-02 -3.691396489739418030e-02 -1.115612611174583435e-01 -5.491637811064720154e-02 -2.035400569438934326e-01 -7.323629688471555710e-03 1.612129062414169312e-02 -1.224381327629089355e-01 -5.374884977936744690e-02 -7.385736797004938126e-03 -5.283736810088157654e-02 -1.014253199100494385e-01 -6.562893837690353394e-02 4.320601746439933777e-02 3.939488902688026428e-02 -5.630476772785186768e-02 -1.557313054800033569e-01 4.741071723401546478e-03 -1.905646920204162598e-01 -3.672175407409667969e-01 -4.625146463513374329e-02 -7.160712778568267822e-02 -6.423392891883850098e-02 -9.625934809446334839e-02 -5.210826545953750610e-02 8.641229942440986633e-03 -1.689975149929523468e-02 -4.737285431474447250e-03 1.162134576588869095e-02 -2.205009199678897858e-02 -1.909978687763214111e-01 -4.828798472881317139e-01 -2.710641324520111084e-01 -3.664600849151611328e-01 -5.501253157854080200e-02 1.028330624103546143e-01 6.214128807187080383e-02 -5.406446289271116257e-03 -1.423303484916687012e-01 -2.976387739181518555e-02 -6.197797879576683044e-02 2.295314893126487732e-02 -2.101413346827030182e-02 -9.824183583259582520e-02 -1.614164561033248901e-01 5.228045582771301270e-02 -1.660037636756896973e-01 -3.546736240386962891e-01 -3.011978790163993835e-02 -1.105702668428421021e-01 -6.649377942085266113e-02 -6.215505674481391907e-02 -1.315419077873229980e-01 -1.076500341296195984e-01 5.716400686651468277e-03 -4.836412146687507629e-02 6.944906432181596756e-03 -1.957091093063354492e-01 -2.542741894721984863e-01 -7.412162423133850098e-01 -1.924472302198410034e-01 -3.964459598064422607e-01 -5.759567394852638245e-02 4.868467897176742554e-02 -8.525002747774124146e-02 -2.662620320916175842e-02 -1.699818819761276245e-01 -4.205304384231567383e-02 -5.500778183341026306e-02 5.562205985188484192e-02 -5.038411915302276611e-02 7.897713780403137207e-02 -2.594950497150421143e-01 -8.716372251510620117e-01 -2.775801420211791992e-01 -9.975172579288482666e-02 -1.068654507398605347e-01 8.857938647270202637e-02 -6.798425316810607910e-02 3.698823973536491394e-02 -1.492117941379547119e-01 -2.413389086723327637e-02 -3.075219865422695875e-05 -1.888533122837543488e-02 4.412400722503662109e-02 -4.273512363433837891e-01 -1.996740996837615967e-01 5.773199796676635742e-01 -3.010199069976806641e-01 2.597933709621429443e-01 -1.184275001287460327e-01 -2.963316142559051514e-01 -1.085107028484344482e-01 -4.831098392605781555e-02 -3.025704063475131989e-02 1.342675983905792236e-01 3.486691042780876160e-02 7.712048478424549103e-03 1.682903617620468140e-02 5.305936932563781738e-01 -3.288850486278533936e-01 8.034139275550842285e-01 -2.693790197372436523e-01 8.701903820037841797e-01 -2.572618238627910614e-02 9.323251247406005859e-02 -5.669550225138664246e-02 1.156013906002044678e-01 -1.540458947420120239e-01 1.008041277527809143e-01 -6.401877105236053467e-02 -4.226142540574073792e-02
6.563933193683624268e-02 3.584812209010124207e-02 -1.189731582999229431e-01 -9.831426665186882019e-03 1.564619876444339752e-02 5.037838220596313477e-02 6.207013502717018127e-02 3.890708833932876587e-02 -1.955033540725708008e-01 -1.301599945873022079e-02 2.199869006872177124e-01 -1.136002596467733383e-02 2.762609533965587616e-02 1.560159306973218918e-02 5.208349600434303284e-02 2.106537856161594391e-02 -4.594621062278747559e-02 1.222190484404563904e-01 -6.270393729209899902e-02 -5.312121007591485977e-03 1.427606791257858276e-01 -1.515325307846069336e-01 -1.444635689258575439e-01 2.592461369931697845e-02 2.322264462709426880e-01 1.427370160818099976e-01 2.588169462978839874e-02 -2.014500275254249573e-02 3.303900361061096191e-02 1.111626345664262772e-02 -7.630753517150878906e-02 -4.815283790230751038e-02 -1.001874953508377075e-01 5.423743277788162231e-03 8.569984138011932373e-02 1.079236716032028198e-02 -1.886625587940216064e-01 4.478234425187110901e-02 2.211903333663940430e-01 -1.258013397455215454e-01 5.571392178535461426e-02 3.680468723177909851e-02 -2.732010185718536377e-02 -3.216648101806640625e-02 -4.117263108491897583e-02 -3.061419539153575897e-02 -6.355235725641250610e-02 3.657807037234306335e-02 1.014618277549743652e-01 3.691904619336128235e-02 -1.503740251064300537e-01 -7.427173852920532227e-02 1.174138113856315613e-01 2.352111227810382843e-02 2.941558510065078735e-02 7.935789413750171661e-03 7.120650727301836014e-03 6.862524896860122681e-02 -9.216596931219100952e-02 1.367938518524169922e-01 -1.274357587099075317e-01 4.860108718276023865e-02 4.944584518671035767e-02 -5.766183510422706604e-02 -1.392770558595657349e-01 5.112601444125175476e-02 2.477363348007202148e-01 8.172401785850524902e-02 -2.955970913171768188e-02 -3.517524898052215576e-02 -2.280275151133537292e-02 -6.313318014144897461e-02 -1.426078528165817261e-01 -3.219118118286132812e-01 -3.928476944565773010e-02 -6.013667955994606018e-02 4.871780052781105042e-02 1.044122278690338135e-01 -3.146992996335029602e-02 -3.502115979790687561e-02 1.663798987865447998e-01 -1.921626180410385132e-01 4.003996402025222778e-02 1.911056600511074066e-02 -8.152042515575885773e-03 9.614329785108566284e-03 -4.014309495687484741e-02 4.397397041320800781e-01 -5.604472011327743530e-02 -2.404829114675521851e-02 4.205870628356933594e-02 -6.216622516512870789e-02 -1.614208519458770752e-01 2.789328247308731079e-02 2.266393154859542847e-01 3.374109864234924316e-01 4.537427052855491638e-02 -9.943677112460136414e-03 -3.976958245038986206e-02 -8.252033032476902008e-03 -6.523109227418899536e-02 -6.810238361358642578e-01 6.976820528507232666e-03 -7.434169948101043701e-02 1.441386491060256958e-01 2.397194802761077881e-01 -2.671478316187858582e-02 1.371207647025585175e-02 2.251709401607513428e-01 -3.508651554584503174e-01 4.050537943840026855e-02 -2.801843173801898956e-02 -1.347520109266042709e-02 -7.379098981618881226e-02 -1.004573032259941101e-01 5.966442823410034180e-01 -4.674759507179260254e-02 -9.112791717052459717e-02 1.167984977364540100e-01 -9.856716543436050415e-02 -2.780707180500030518e-02 -8.968421258032321930e-03 2.222689688205718994e-01 1.526001840829849243e-01 2.130083926022052765e-02 7.708043791353702545e-03 1.349511835724115372e-02 5.528051778674125671e-02 -3.405467048287391663e-02 -1.572157442569732666e-01 -2.901313826441764832e-03 8.886985480785369873e-02 9.381473809480667114e-02 -4.407471045851707458e-02 -9.222710877656936646e-02 -7.092550862580537796e-03 9.061104059219360352e-02 8.985327556729316711e-03 -7.335115969181060791e-02 2.583554200828075409e-02
3.745146468281745911e-02 9.568244218826293945e-02 1.312288548797369003e-02 3.792794048786163330e-01 -5.116982012987136841e-02 3.490999341011047363e-01 -1.098663583397865295e-01 2.903921343386173248e-02 6.475689262151718140e-02 8.993007242679595947e-03 9.966687858104705811e-02 9.079932421445846558e-02 6.093953922390937805e-02 7.734683156013488770e-02 -2.456979453563690186e-02 1.204050257802009583e-01 -8.254773169755935669e-02 1.395035833120346069e-01 -5.753957107663154602e-02 2.686602175235748291e-01 -8.953690528869628906e-02 -3.870607614517211914e-01 -3.984255716204643250e-02 4.809988662600517273e-02 1.586031913757324219e-01 -1.983055472373962402e-01 1.221661344170570374e-01 -6.010039150714874268e-02 7.071314752101898193e-02 1.998213827610015869e-01 -5.160085856914520264e-03 2.162786871194839478e-01 5.185888707637786865e-02 4.922909662127494812e-02 -2.426362223923206329e-02 -5.333200842142105103e-02 5.461364984512329102e-02 7.905825972557067871e-02 1.523408740758895874e-01 1.041721850633621216e-01 1.004064977169036865e-01 8.149191737174987793e-02 -4.099436849355697632e-02 -3.304549679160118103e-02 -8.257045410573482513e-03 -3.486499190330505371e-01 1.933554373681545258e-02 -3.885298073291778564e-01 -5.725419521331787109e-02 1.437962800264358521e-01 -3.956196829676628113e-02 -2.569648623466491699e-02 1.900487244129180908e-01 -1.647955179214477539e-02 4.198713973164558411e-02 -5.610054731369018555e-02 5.079073086380958557e-02 -2.240209840238094330e-02 -9.059593081474304199e-02 -3.922978639602661133e-01 5.590229108929634094e-02 -4.572542011737823486e-01 -4.513091221451759338e-02 -5.581473931670188904e-02 7.822144031524658203e-02 -8.352333679795265198e-03 2.264858782291412354e-01 -7.544620335102081299e-02 1.093787327408790588e-02 5.869696289300918579e-02 6.230526417493820190e-02 -1.819000020623207092e-02 -4.821235686540603638e-02 -2.775143682956695557e-01 -4.171891137957572937e-02 -3.306770622730255127e-01 -1.015247181057929993e-01 1.034068018198013306e-01 -4.816877096891403198e-02 9.170413762331008911e-02 1.695649325847625732e-01 2.208387255668640137e-01 3.953508287668228149e-02 -9.328023344278335571e-02 -6.983271241188049316e-02 -4.497687816619873047e-01 -1.143683195114135742e-01 -4.058852493762969971e-01 2.667669951915740967e-02 -6.435405015945434570e-01 2.116369269788265228e-02 3.755256831645965576e-01 2.912985719740390778e-02 -7.337503135204315186e-02 2.311320006847381592e-01 9.088202565908432007e-02 5.296245962381362915e-02 8.812648802995681763e-02 -9.970127791166305542e-02 -7.647584378719329834e-02 -4.188568517565727234e-02 -1.109164953231811523e-01 3.023350238800048828e-02 -2.319397628307342529e-01 -2.174706198275089264e-03 -7.567794620990753174e-02 -4.667331650853157043e-02 -4.666634649038314819e-02 8.748486638069152832e-02 -2.854942679405212402e-01 2.081380598247051239e-02 6.121094524860382080e-02 -4.368517547845840454e-02 -5.414502620697021484e-01 -1.147251874208450317e-01 2.197048068046569824e-02 -8.936041593551635742e-02 5.155219435691833496e-01 -8.348949253559112549e-02 -9.396289288997650146e-02 -2.192321233451366425e-02 -7.018509507179260254e-02 7.905040681362152100e-02 2.605214416980743408e-01 -1.429118961095809937e-02 -1.795842945575714111e-01 1.381999463774263859e-03 7.104348540306091309e-01 -1.322461068630218506e-01 8.324822783470153809e-01 -4.466764256358146667e-02 8.640511035919189453e-01 -1.171980127692222595e-01 -6.949815899133682251e-02 -9.641015902161598206e-03 7.319683581590652466e-02 1.906797587871551514e-01 -3.569124341011047363e-01 -2.185660414397716522e-02 9.258922934532165527e-02
-1.429144293069839478e-02 1.072568818926811218e-02 2.998347878456115723e-01 -1.169713363051414490e-01 -1.132361590862274170e-02 1.374331023544073105e-02 -2.550295889377593994e-01 6.712135672569274902e-02 1.336742471903562546e-02 3.369435667991638184e-02 5.184102430939674377e-02 -3.757840022444725037e-02 -3.474818542599678040e-02 -1.964896358549594879e-02 -2.502171555534005165e-03 4.867424443364143372e-02 2.278636693954467773e-01 9.925507009029388428e-02 9.057927131652832031e-02 -4.327426850795745850e-02 -3.014123439788818359e-01 -6.492279469966888428e-02 -5.281877145171165466e-02 -4.560042545199394226e-02 -4.309348389506340027e-02 5.068780388683080673e-03 9.326323121786117554e-02 -3.750571282580494881e-03 9.988803416490554810e-02 -9.442043304443359375e-02 1.482086330652236938e-01 -8.018442429602146149e-03 2.721154130995273590e-02 -4.828156903386116028e-02 -2.728367745876312256e-01 -2.627398073673248291e-02 -8.206635713577270508e-02 -2.514133229851722717e-02 -1.121185719966888428e-02 -2.195054851472377777e-02 5.520856007933616638e-03 -1.884228177368640900e-02 -4.942761734127998352e-02 -3.805004432797431946e-02 2.494472563266754150e-01 2.992196753621101379e-02 9.474149346351623535e-02 -4.252629820257425308e-03 -3.008936047554016113e-01 -1.181066967546939850e-02 -1.355215720832347870e-02 4.461335949599742889e-03 4.206418618559837341e-02 -2.507496811449527740e-02 -2.641046978533267975e-02 2.379167266190052032e-02 6.475067883729934692e-02 -8.054246008396148682e-02 1.674693524837493896e-01 9.784173965454101562e-02 8.227771520614624023e-02 -5.230035260319709778e-02 -2.377258688211441040e-01 -8.075131475925445557e-02 3.348502516746520996e-02 -2.756129950284957886e-02 -1.264044363051652908e-02 -6.044702138751745224e-03 9.746190160512924194e-02 2.049953117966651917e-02 -3.970946744084358215e-02 -4.323931410908699036e-02 3.355630040168762207e-01 2.497103251516819000e-02 1.090029925107955933e-01 -2.923856675624847412e-02 -1.886869370937347412e-01 -1.343017965555191040e-01 -2.899537980556488037e-02 -1.792125590145587921e-02 8.357433974742889404e-02 -1.175711229443550110e-01 4.448828473687171936e-02 -8.369432762265205383e-03 1.076597440987825394e-02 -3.825221792794764042e-04 2.634885907173156738e-01 -4.672699421644210815e-02 4.176260554231703281e-04 -4.353241994976997375e-02 -3.181385397911071777e-01 -1.097984164953231812e-01 1.391006261110305786e-02 5.649602040648460388e-02 -5.642038583755493164e-02 1.080291345715522766e-02 -3.976921364665031433e-02 5.151439830660820007e-02 6.334616243839263916e-02 -4.114311560988426208e-02 2.359016686677932739e-01 -2.865541577339172363e-01 7.926284521818161011e-02 -9.539432823657989502e-03 -2.669968903064727783e-01 1.171175166964530945e-01 -5.257535725831985474e-02 -7.112678885459899902e-02 4.166204109787940979e-02 1.209748722612857819e-02 -3.295193240046501160e-02 -5.163224041461944580e-02 3.322917595505714417e-02 5.064992234110832214e-02 3.842020034790039062e-01 3.328353166580200195e-01 6.005018949508666992e-02 2.686906158924102783e-01 -2.135928422212600708e-01 7.587031275033950806e-02 3.439085930585861206e-02 2.385282143950462341e-02 -3.551676124334335327e-02 2.854611538350582123e-02 5.050063505768775940e-02 1.098359189927577972e-02 6.551799923181533813e-02 1.687103956937789917e-01 2.793401479721069336e-01 -1.493374556303024292e-01 3.266725689172744751e-02 7.027854025363922119e-02 -2.979826033115386963e-01 1.651322692632675171e-01 -6.827738136053085327e-02 1.617871038615703583e-02 4.076274856925010681e-02 -1.015793532133102417e-02 9.209737181663513184e-03 -7.698573172092437744e-02
-1.084681898355484009e-01 2.901384048163890839e-02 1.661103665828704834e-01 2.189096510410308838e-01 2.066388279199600220e-01 3.951309248805046082e-02 -1.800555437803268433e-01 6.718888878822326660e-02 -3.656493499875068665e-02 8.589845150709152222e-03 1.712348312139511108e-01 4.687071964144706726e-02 9.134147316217422485e-03 9.317507967352867126e-03 -4.756946489214897156e-02 -7.531167566776275635e-02 1.707495748996734619e-01 -1.438059806823730469e-01 2.291927337646484375e-01 2.856426872313022614e-03 -2.357529103755950928e-01 -4.856630787253379822e-02 5.280258879065513611e-02 -7.488292176276445389e-04 1.821088045835494995e-01 3.684857161715626717e-03 -9.419451653957366943e-02 -5.334560759365558624e-03 -4.674924071878194809e-03 3.635307773947715759e-02 2.052607536315917969e-01 8.107257634401321411e-02 2.375677376985549927e-01 -1.506526023149490356e-01 -2.453077733516693115e-01 -9.997777640819549561e-02 9.090546518564224243e-02 -5.445464048534631729e-03 7.967437803745269775e-02 -4.217390716075897217e-02 2.956072241067886353e-02 -1.412010751664638519e-02 6.329096108675003052e-02 -1.895128339529037476e-01 2.236882150173187256e-01 1.082006096839904785e-01 2.645682394504547119e-01 -7.630015164613723755e-02 -2.745709717273712158e-01 -1.203733384609222412e-01 2.991384454071521759e-02 2.660808525979518890e-02 1.601730734109878540e-01 2.093727886676788330e-01 -3.218907490372657776e-02 6.136175990104675293e-02 7.239379733800888062e-02 4.989789426326751709e-02 2.422902733087539673e-01 -1.613728255033493042e-01 1.874794811010360718e-01 7.084939628839492798e-02 -2.493183016777038574e-01 -2.836974896490573883e-02 5.811835452914237976e-02 -3.568810969591140747e-02 1.264060288667678833e-01 -6.718514114618301392e-02 -7.730134576559066772e-02 -7.380748540163040161e-02 -2.522984705865383148e-02 -1.473638415336608887e-01 3.096722960472106934e-01 5.220689624547958374e-02 1.778362095355987549e-01 4.925739765167236328e-02 -2.616856396198272705e-01 1.212800852954387665e-02 1.979123800992965698e-02 2.800847403705120087e-02 1.160028353333473206e-01 -8.523833751678466797e-02 4.837817326188087463e-02 1.011926122009754181e-02 -3.840985149145126343e-02 3.721673786640167236e-02 3.050293028354644775e-01 -1.643006205558776855e-01 2.309049367904663086e-01 4.316113889217376709e-02 -2.996031343936920166e-01 7.583127915859222412e-02 2.494384162127971649e-02 -3.048772737383842468e-02 4.284176230430603027e-02 1.392843425273895264e-01 -1.474730949848890305e-02 -5.392757710069417953e-03 2.321954257786273956e-02 2.945182621479034424e-01 3.866642713546752930e-01 -2.895548939704895020e-01 1.818786114454269409e-01 9.864237159490585327e-02 -3.059169054031372070e-01 1.082408800721168518e-01 -2.106194384396076202e-02 2.542443200945854187e-02 1.805476099252700806e-01 -1.350447982549667358e-01 2.272480167448520660e-02 3.275415673851966858e-02 5.612985417246818542e-02 -1.058196276426315308e-01 3.700953125953674316e-01 2.907011508941650391e-01 1.982273608446121216e-01 1.650145091116428375e-02 -3.017314076423645020e-01 7.418798655271530151e-02 -5.913128331303596497e-02 1.068089506588876247e-03 1.126511767506599426e-01 1.437703799456357956e-02 -6.724519282579421997e-02 3.674690052866935730e-02 -1.111438404768705368e-02 5.538814887404441833e-02 3.161177039146423340e-01 5.063841585069894791e-03 2.613436877727508545e-01 -8.025624603033065796e-02 -2.440589964389801025e-01 -9.767489135265350342e-02 -6.467638909816741943e-02 1.625176519155502319e-02 9.029777348041534424e-02 -2.206111792474985123e-03 -2.651551738381385803e-02 -7.263794541358947754e-02
-4.045167879667133093e-04 2.913016080856323242e-02 1.190800964832305908e-01 1.871313899755477905e-01 -1.516681313514709473e-01 2.189989760518074036e-02 -1.438038945198059082e-01 6.618662923574447632e-02 -2.987137623131275177e-02 2.715105935931205750e-02 1.860968023538589478e-01 -8.097782731056213379e-02 -1.041241437196731567e-01 -7.455909997224807739e-02 -5.891197547316551208e-02 9.339498355984687805e-03 4.590214416384696960e-02 5.813220143318176270e-02 -3.451281040906906128e-02 -4.232981801033020020e-02 9.073244407773017883e-03 -7.089342176914215088e-02 2.156725525856018066e-02 2.843083068728446960e-02 1.259459406137466431e-01 1.793920062482357025e-02 -1.015593484044075012e-02 2.618680335581302643e-02 2.767026051878929138e-02 8.470809459686279297e-02 1.058343276381492615e-01 1.689288578927516937e-02 -1.799392402172088623e-01 6.587871816009283066e-03 -3.994085360318422318e-03 -1.559848934412002563e-01 -6.804366409778594971e-02 -1.788762584328651428e-02 1.692667156457901001e-01 -3.430346399545669556e-02 -5.427921935915946960e-02 4.594669863581657410e-02 -8.050048351287841797e-02 1.248153746128082275e-01 4.175113886594772339e-02 1.273473501205444336e-01 -5.182474479079246521e-02 5.021041631698608398e-02 -3.041336126625537872e-02 -4.023438692092895508e-01 5.788142606616020203e-02 1.431334950029850006e-02 4.776818677783012390e-02 2.056884393095970154e-02 -9.665834158658981323e-02 -5.859816074371337891e-02 -9.332245588302612305e-02 -2.353884838521480560e-02 1.063368767499923706e-01 -1.413879841566085815e-01 -4.337788373231887817e-02 5.453786998987197876e-02 -1.396462768316268921e-01 -3.950392007827758789e-01 -4.176396504044532776e-02 -2.014132775366306305e-02 1.160374283790588379e-01 1.554279029369354248e-01 -3.230779618024826050e-02 1.455976162105798721e-02 -4.677268117666244507e-02 1.879848539829254150e-02 8.588756620883941650e-02 1.277319192886352539e-01 -8.676154166460037231e-02 -7.127409428358078003e-02 -1.333654820919036865e-01 -1.796531677246093750e-01 7.474061846733093262e-02 -5.007848516106605530e-02 6.812527030706405640e-02 -3.052910789847373962e-02 5.054393038153648376e-02 -2.294141240417957306e-02 3.588171303272247314e-02 8.293447643518447876e-02 1.398720890283584595e-01 -2.113623321056365967e-01 -1.026962846517562866e-01 8.548010885715484619e-02 2.691112458705902100e-03 -3.955271840095520020e-02 3.819253668189048767e-02 2.839385904371738434e-02 9.868014603853225708e-02 1.061101909726858139e-02 -8.758252114057540894e-02 2.782830782234668732e-02 9.367393702268600464e-02 -2.248236350715160370e-02 2.093100398778915405e-01 -3.289362788200378418e-01 -1.045862510800361633e-01 -1.540833562612533569e-01 -2.909222058951854706e-02 1.613390147686004639e-01 -7.177086174488067627e-02 1.360504142940044403e-02 3.987862542271614075e-02 8.182986639440059662e-03 4.513256996870040894e-02 -4.433872923254966736e-02 9.783311188220977783e-02 -3.495904058218002319e-02 1.103283986449241638e-01 5.321766138076782227e-01 -9.364279359579086304e-02 7.338606566190719604e-02 -1.278456747531890869e-01 2.019174695014953613e-01 -6.442664563655853271e-02 -7.898936048150062561e-03 1.239044219255447388e-01 -9.244741499423980713e-02 -5.563850980252027512e-03 9.409533813595771790e-03 -1.616039127111434937e-02 -1.447701752185821533e-01 2.437631189823150635e-01 -5.341865420341491699e-01 -1.756289154291152954e-01 -2.262026667594909668e-01 -1.343084424734115601e-01 7.737118601799011230e-01 -1.584726385772228241e-02 2.821427769958972931e-02 3.900865465402603149e-02 1.358496490865945816e-02 -6.013120990246534348e-03 3.980753198266029358e-02
1.393436174839735031e-02 -4.619866143912076950e-03 -9.297697991132736206e-02 -1.252973675727844238e-01 4.403731785714626312e-03 -2.309048175811767578e-02 6.403613835573196411e-02 1.624201238155364990e-02 5.557631701231002808e-02 1.067927666008472443e-02 5.162345618009567261e-02 2.312611415982246399e-02 3.539082780480384827e-02 2.890139445662498474e-02 3.509236127138137817e-02 5.147578194737434387e-02 3.028878383338451385e-02 1.080642119050025940e-01 -4.321346059441566467e-02 4.412752017378807068e-02 1.338511556386947632e-01 -1.870939508080482483e-02 1.962376236915588379e-01 -1.082247421145439148e-01 -3.688129037618637085e-02 -1.001956239342689514e-01 -7.741136848926544189e-02 -4.076341912150382996e-02 -2.836803533136844635e-02 1.731770336627960205e-01 -1.081579830497503281e-02 -1.183392256498336792e-01 3.614701703190803528e-02 5.566420778632164001e-02 5.754303559660911560e-02 -3.846061602234840393e-02 8.923409879207611084e-02 4.929314181208610535e-02 7.304014265537261963e-02 1.164084207266569138e-02 -6.676739454269409180e-02 -1.606767438352108002e-02 -6.248841062188148499e-02 5.954751744866371155e-02 4.232190176844596863e-02 5.404338240623474121e-02 3.455235064029693604e-02 4.447463434189558029e-03 5.456545203924179077e-02 4.995165392756462097e-03 1.395215839147567749e-01 2.093247324228286743e-02 3.096636384725570679e-02 8.072829991579055786e-02 -6.061734259128570557e-02 6.896919221617281437e-04 4.650126770138740540e-02 6.511905044317245483e-02 -1.007029879838228226e-02 6.615255773067474365e-02 2.173885144293308258e-02 -1.614881306886672974e-01 1.032600700855255127e-01 3.205067291855812073e-02 2.133007943630218506e-01 -5.603132396936416626e-02 1.031218245625495911e-01 -9.372854977846145630e-02 2.716463804244995117e-02 1.145945396274328232e-02 8.064658194780349731e-02 4.879036545753479004e-02 -1.105396077036857605e-01 -8.155972696840763092e-03 1.005805376917123795e-02 2.437599189579486847e-02 1.330616138875484467e-02 1.209531575441360474e-01 2.259273678064346313e-01 5.695381015539169312e-02 5.240274965763092041e-02 -5.026898905634880066e-02 -2.273597754538059235e-02 1.239066105335950851e-02 -1.397580001503229141e-02 -8.045459538698196411e-02 -1.765363663434982300e-02 1.924678832292556763e-01 2.520522475242614746e-02 -8.479986339807510376e-02 6.868985295295715332e-02 -3.192536160349845886e-02 2.158723175525665283e-01 3.449843451380729675e-02 3.720440343022346497e-02 2.755457758903503418e-01 -4.710160568356513977e-02 -8.688094466924667358e-02 6.259062141180038452e-02 -3.038336038589477539e-01 3.156265243887901306e-02 -1.708825528621673584e-01 3.993466496467590332e-02 -2.611093223094940186e-03 -7.532904390245676041e-03 1.015198975801467896e-01 2.404982447624206543e-01 4.153677728027105331e-03 1.694037020206451416e-02 -4.042096138000488281e-01 5.689278244972229004e-03 7.947769016027450562e-03 -4.175005480647087097e-02 -3.546171486377716064e-01 -7.308525592088699341e-02 -5.543963052332401276e-03 -1.803049445152282715e-02 1.285483408719301224e-02 1.183133423328399658e-01 -7.848109118640422821e-03 1.844086796045303345e-01 5.242836661636829376e-03 -3.384672477841377258e-02 3.767412602901458740e-01 -5.325134843587875366e-02 4.449599608778953552e-02 -8.379209786653518677e-02 3.516376018524169922e-01 -1.147879380732774734e-02 -5.754620209336280823e-02 -5.683336034417152405e-02 1.219294443726539612e-01 5.697923153638839722e-02 -9.027550369501113892e-02 1.301010549068450928e-01 -4.961246252059936523e-02 -3.740735352039337158e-03 -1.314798593521118164e-01 -3.469147160649299622e-02 -9.683531709015369415e-03
5.741952732205390930e-02 -4.138144552707672119e-01 -4.956454411149024963e-02 -4.205120354890823364e-02 -1.001487970352172852e-01 -5.331271886825561523e-01 -1.740053743124008179e-01 1.782902926206588745e-01 2.692356705665588379e-02 -4.145945981144905090e-02 -5.294041242450475693e-03 6.556348502635955811e-02 1.829811930656433105e-02 9.249805472791194916e-03 2.118189074099063873e-02 1.413065642118453979e-01 -3.080036723986268044e-03 -6.055243313312530518e-02 -2.987789176404476166e-02 -3.377576917409896851e-02 -9.615886211395263672e-02 -4.770216345787048340e-02 1.677460968494415283e-02 -3.533323854207992554e-02 -2.799173118546605110e-03 2.008405625820159912e-01 -8.452029526233673096e-02 5.870282649993896484e-02 -4.771906137466430664e-02 1.810478568077087402e-01 -3.694176673889160156e-02 -1.443072259426116943e-01 -1.048415452241897583e-01 9.932702779769897461e-02 -5.589431524276733398e-02 2.107812911272048950e-01 3.971121087670326233e-02 -6.649518013000488281e-02 -4.142690077424049377e-02 -1.076745390892028809e-01 -4.444549232721328735e-02 -1.385331004858016968e-01 -8.544047921895980835e-02 -8.952852338552474976e-02 6.193664297461509705e-02 -2.329670637845993042e-02 -3.668662160634994507e-02 2.073208689689636230e-01 -7.378105819225311279e-02 -1.209575757384300232e-01 -1.134500000625848770e-02 6.462210416793823242e-02 6.883882917463779449e-03 -1.467102169990539551e-01 2.123387157917022705e-02 -9.990088641643524170e-03 -9.968268871307373047e-02 4.270260035991668701e-01 -7.855962961912155151e-02 2.460680156946182251e-02 -8.081106841564178467e-02 7.114778161048889160e-01 -1.729302406311035156e-01 -5.637880787253379822e-02 1.149145141243934631e-02 -4.751347377896308899e-02 1.009584069252014160e-01 2.154886126518249512e-01 -4.394503310322761536e-02 1.078193187713623047e-01 -7.725953310728073120e-02 1.392259746789932251e-01 -6.948920339345932007e-02 -6.343194097280502319e-02 -5.911324918270111084e-02 5.989435911178588867e-01 -1.384241580963134766e-01 7.050313800573348999e-02 -4.736056178808212280e-02 3.467890620231628418e-02 -3.602681308984756470e-02 -4.235981777310371399e-02 -8.046890608966350555e-03 1.192985381931066513e-02 1.124953925609588623e-01 2.204652726650238037e-01 -8.111195266246795654e-02 -5.612940341234207153e-02 -4.657071083784103394e-02 4.995839595794677734e-01 -1.108675748109817505e-01 -5.879824515432119370e-03 6.120366230607032776e-02 1.372847408056259155e-01 3.866251185536384583e-02 -1.194224040955305099e-02 -7.401346415281295776e-02 -7.239923626184463501e-02 5.883024074137210846e-03 2.501668334007263184e-01 2.652292139828205109e-02 1.659811288118362427e-01 6.445644795894622803e-02 -8.055986464023590088e-02 -1.309756934642791748e-01 8.455453068017959595e-02 -8.171730488538742065e-02 -7.528720796108245850e-02 2.800560183823108673e-02 1.898821629583835602e-02 -2.788716927170753479e-02 5.302641168236732483e-02 1.097989454865455627e-01 1.836070567369461060e-01 -4.645374417304992676e-02 -4.738084599375724792e-02 -4.695548796007642522e-06 -1.895546764135360718e-01 -8.492469042539596558e-02 -1.792283207178115845e-01 4.972334206104278564e-02 3.859006986021995544e-02 5.712486431002616882e-02 1.596942357718944550e-02 6.462678313255310059e-02 7.605426758527755737e-02 6.467739492654800415e-02 -1.109097719192504883e+00 -1.489341817796230316e-02 4.199596941471099854e-01 -5.645547062158584595e-02 -9.818754792213439941e-01 -1.661206632852554321e-01 7.607008516788482666e-02 -3.272402659058570862e-02 -9.712141938507556915e-03 -3.865280747413635254e-02 -1.859600543975830078e-01 -2.763944119215011597e-02 -8.875303715467453003e-02
-1.834564656019210815e-02 -1.443021595478057861e-01 -2.319751679897308350e-01 -2.187207713723182678e-02 -2.996793687343597412e-01 -3.027104958891868591e-02 1.075284481048583984e-01 9.620821475982666016e-02 1.225104089826345444e-02 2.944746613502502441e-02 1.335330158472061157e-01 6.785377394407987595e-03 6.202895566821098328e-02 1.757773011922836304e-02 -7.422327995300292969e-02 -6.152353808283805847e-02 -2.740646302700042725e-01 5.687436088919639587e-02 -3.597708046436309814e-01 4.160832986235618591e-02 1.571436822414398193e-01 3.409840539097785950e-02 -5.673379823565483093e-02 -7.059775292873382568e-02 5.440407618880271912e-02 -2.473526448011398315e-02 3.747926279902458191e-02 7.221097592264413834e-03 -4.991339892148971558e-02 1.351308193989098072e-03 -1.407283842563629150e-01 3.496712446212768555e-02 -3.431048095226287842e-01 -7.754961401224136353e-02 1.390538811683654785e-01 1.062880158424377441e-01 1.027105227112770081e-01 7.114049047231674194e-02 9.218791872262954712e-02 -8.015169203281402588e-02 4.948863387107849121e-02 -5.999615043401718140e-02 5.557425902225077152e-04 -1.162514016032218933e-01 -1.519284695386886597e-01 -8.046239614486694336e-02 -3.233962953090667725e-01 -1.106473281979560852e-01 5.156511440873146057e-02 -8.273568749427795410e-02 1.031432487070560455e-02 -7.785177230834960938e-02 -2.461742423474788666e-02 9.061024338006973267e-02 -1.857329346239566803e-02 4.206485673785209656e-02 -3.222768381237983704e-02 2.596816718578338623e-01 -2.674389481544494629e-01 6.892003864049911499e-02 -3.409807682037353516e-01 -1.619436740875244141e-01 9.506942331790924072e-02 -2.526628375053405762e-01 9.424426592886447906e-03 4.648791253566741943e-02 8.367776125669479370e-02 6.625656038522720337e-02 -8.316519670188426971e-03 3.202634304761886597e-02 7.606869935989379883e-02 2.095586806535720825e-02 -2.858016788959503174e-01 5.171975493431091309e-02 -3.903179466724395752e-01 -1.285154372453689575e-01 9.604015946388244629e-02 -4.770355299115180969e-02 9.016866795718669891e-03 3.363529965281486511e-02 5.655368790030479431e-02 -1.586623638868331909e-01 -7.736799120903015137e-02 6.688483525067567825e-03 -2.826433628797531128e-02 6.905590742826461792e-02 -3.149485290050506592e-01 -1.792782694101333618e-01 -2.540191113948822021e-01 2.985669672489166260e-02 1.780350953340530396e-01 -3.202605843544006348e-01 9.365511685609817505e-02 -2.046319656074047089e-02 4.663946852087974548e-02 1.261411160230636597e-01 5.743215233087539673e-02 3.827195987105369568e-02 2.470176108181476593e-02 5.330802202224731445e-01 -2.806146144866943359e-01 2.341598719358444214e-01 -2.750930488109588623e-01 7.423414289951324463e-02 1.540838032960891724e-01 3.633252903819084167e-02 6.382171809673309326e-02 5.926699191331863403e-02 9.282817691564559937e-02 -2.069064974784851074e-01 -1.707290881313383579e-03 3.791388124227523804e-03 -5.718518793582916260e-02 -5.872406363487243652e-01 -3.957984149456024170e-01 2.322714477777481079e-01 -3.736070096492767334e-01 3.679290413856506348e-01 1.431677341461181641e-01 2.672358751296997070e-01 9.105226024985313416e-03 1.207947172224521637e-02 1.186680123209953308e-01 -2.421684749424457550e-02 5.138307064771652222e-02 -7.203640788793563843e-02 -5.098820105195045471e-02 -1.907947473227977753e-02 -3.487626910209655762e-01 -4.431829154491424561e-01 -2.751989662647247314e-01 5.794140975922346115e-03 1.168553903698921204e-01 2.219217121601104736e-01 -5.719783902168273926e-02 -5.207194760441780090e-02 5.680565536022186279e-02 2.110580652952194214e-01 6.336518377065658569e-02 -5.079834256321191788e-03
-7.409722357988357544e-02 1.109134778380393982e-01 -4.035622477531433105e-01 8.107836544513702393e-02 3.488079607486724854e-01 -1.429679095745086670e-01 7.051365077495574951e-02 1.749270781874656677e-02 -2.076631411910057068e-03 4.549580067396163940e-02 -1.714782416820526123e-02 2.372582256793975830e-02 -3.297636285424232483e-02 -2.686565928161144257e-02 -2.697065100073814392e-02 2.967572584748268127e-02 -3.564541041851043701e-01 -7.509095221757888794e-02 2.447571009397506714e-01 -3.336823359131813049e-02 1.260793656110763550e-01 1.071728207170963287e-02 -5.328171700239181519e-02 -3.008614107966423035e-02 1.119127124547958374e-01 -8.446140587329864502e-02 6.733444333076477051e-02 1.616546139121055603e-02 7.914379984140396118e-02 -7.568803266622126102e-04 -4.244880378246307373e-01 9.727664291858673096e-02 2.421926558017730713e-01 1.937253624200820923e-01 1.281036436557769775e-01 -6.286927312612533569e-02 5.638314038515090942e-02 -1.840575970709323883e-02 7.099327445030212402e-02 5.343361198902130127e-02 -2.100307494401931763e-02 4.859078302979469299e-02 -3.701324015855789185e-02 1.462969183921813965e-01 -3.958249390125274658e-01 -2.284634709358215332e-01 3.001832962036132812e-01 1.327763311564922333e-02 1.112968847155570984e-01 9.237420558929443359e-02 -8.000944554805755615e-02 -2.455398440361022949e-02 1.166691407561302185e-01 5.005720257759094238e-02 -8.371696621179580688e-02 1.849757879972457886e-02 3.112483397126197815e-02 -2.349122166633605957e-01 -4.251589477062225342e-01 2.079275995492935181e-01 3.541397750377655029e-01 1.746647953987121582e-01 1.556387096643447876e-01 -1.158490106463432312e-01 4.060092940926551819e-02 1.842436939477920532e-02 8.252958953380584717e-02 -4.049089620821177959e-04 -5.150879174470901489e-02 -6.085110828280448914e-02 4.263198003172874451e-02 -7.013662159442901611e-02 -3.382803797721862793e-01 -4.990345612168312073e-02 3.054394125938415527e-01 2.421264648437500000e-01 2.098528891801834106e-01 -1.045847311615943909e-02 6.148091331124305725e-02 1.315322145819664001e-02 -1.603962481021881104e-02 5.131504964083433151e-03 -7.302568852901458740e-02 -2.784126065671443939e-02 2.284951508045196533e-02 -5.163603276014328003e-02 -3.735352456569671631e-01 -9.741169959306716919e-02 3.638382554054260254e-01 -4.687132313847541809e-02 2.187834382057189941e-01 -3.459695726633071899e-02 3.577643632888793945e-02 2.607807144522666931e-02 7.939260452985763550e-02 -1.204694062471389771e-02 -2.962259203195571899e-02 4.271744564175605774e-02 5.431226268410682678e-02 -3.837538957595825195e-01 -4.555990993976593018e-01 4.150037765502929688e-01 3.537042737007141113e-01 -6.117856875061988831e-02 1.697704195976257324e-01 -1.659643352031707764e-01 5.541497468948364258e-02 7.148490101099014282e-02 -7.085758261382579803e-03 1.384657472372055054e-01 -2.508046664297580719e-02 7.793788332492113113e-03 -1.053209602832794189e-01 3.145735263824462891e-01 -4.188351035118103027e-01 -1.566724926233291626e-01 3.670155107975006104e-01 -2.870872057974338531e-02 1.809611320495605469e-01 1.539780944585800171e-01 4.900258779525756836e-02 -4.947917163372039795e-02 -4.928098618984222412e-02 -1.684243530035018921e-01 1.649245619773864746e-02 -4.195574298501014709e-02 -4.504515230655670166e-02 1.462025493383407593e-01 -4.893886744976043701e-01 -2.319852560758590698e-01 2.259350717067718506e-01 -2.506155669689178467e-01 1.754042208194732666e-01 8.499357849359512329e-02 -7.568134367465972900e-02 -5.733948200941085815e-02 4.450606554746627808e-02 2.127441763877868652e-02 1.958240941166877747e-02 -1.200935617089271545e-02
-1.030881926417350769e-01 -7.259775698184967041e-02 -1.811346039175987244e-02 1.935179382562637329e-01 -7.082541473209857941e-03 -4.129227995872497559e-01 9.241643548011779785e-02 -9.744974225759506226e-02 -5.547525733709335327e-02 8.524131029844284058e-02 -7.567200064659118652e-02 -2.275785654783248901e-01 6.922770291566848755e-02 -2.220383100211620331e-02 -1.067394167184829712e-01 4.460737854242324829e-02 6.320060789585113525e-02 3.202709928154945374e-02 -6.652744114398956299e-02 -1.051133945584297180e-01 4.289695248007774353e-02 -1.405154466629028320e-01 -2.716196887195110321e-02 -6.584151089191436768e-02 3.562465310096740723e-02 2.513892948627471924e-01 5.664036050438880920e-02 1.076701097190380096e-02 -9.586585313081741333e-02 -1.599623411893844604e-01 -5.086095258593559265e-02 7.058632560074329376e-03 -1.060147881507873535e-01 -5.698981508612632751e-02 6.224000826478004456e-02 8.110873401165008545e-02 -1.042122915387153625e-01 -4.530263692140579224e-02 8.545307209715247154e-04 5.386974662542343140e-02 4.936228320002555847e-02 2.745469473302364349e-02 2.765227667987346649e-02 -1.779658943414688110e-01 7.874771207571029663e-02 -3.723670914769172668e-02 -9.581620246171951294e-02 3.437966853380203247e-02 1.344046834856271744e-02 6.509894132614135742e-02 -4.700759053230285645e-02 1.171794347465038300e-02 5.620498210191726685e-02 -2.712615132331848145e-01 -8.493959903717041016e-02 -9.702341258525848389e-02 -3.721203655004501343e-02 1.065837591886520386e-01 7.576043903827667236e-02 -3.803634345531463623e-01 1.744768954813480377e-02 2.681618630886077881e-01 8.858907967805862427e-02 4.518410935997962952e-02 -7.450966536998748779e-02 -3.711471706628799438e-02 4.586447775363922119e-02 2.989468723535537720e-02 1.177546475082635880e-02 1.129823103547096252e-01 -2.967606857419013977e-02 1.952459961175918579e-01 3.652947023510932922e-02 -2.124335765838623047e-01 5.868668481707572937e-02 3.053042590618133545e-01 9.438198804855346680e-02 5.606858991086483002e-03 -2.106913179159164429e-02 2.552991919219493866e-02 6.902200728654861450e-02 8.660412579774856567e-02 3.537479089573025703e-03 1.162863373756408691e-01 9.727661311626434326e-02 9.925803542137145996e-02 -2.876071631908416748e-02 -7.761440873146057129e-01 4.473664239048957825e-02 2.470881193876266479e-01 5.244405567646026611e-02 -2.334354221820831299e-01 -8.793772757053375244e-02 6.953676789999008179e-02 -1.140666194260120392e-02 -1.592507660388946533e-01 -9.140660613775253296e-02 -1.222916617989540100e-01 6.503463536500930786e-02 4.510515034198760986e-01 -5.222399253398180008e-03 -7.801760733127593994e-02 4.437061026692390442e-02 1.866867840290069580e-01 6.981751322746276855e-02 2.485686540603637695e-01 1.706262491643428802e-02 -1.528414664790034294e-03 8.362548798322677612e-02 2.785271704196929932e-01 -5.618707742542028427e-03 -5.354430153965950012e-02 5.880081281065940857e-02 3.094971776008605957e-01 8.300685882568359375e-02 5.926145911216735840e-01 -1.452947780489921570e-02 -1.406823992729187012e-01 5.168949067592620850e-02 -1.721615642309188843e-01 -1.980261877179145813e-02 1.199553161859512329e-01 1.149036805145442486e-03 -8.945363759994506836e-02 -9.840335696935653687e-02 1.258975118398666382e-01 2.319797314703464508e-02 -1.066196560859680176e+00 -1.055483706295490265e-02 5.888788700103759766e-01 -5.099018663167953491e-02 -7.723885774612426758e-01 -6.569609791040420532e-02 1.337385326623916626e-01 -8.553259819746017456e-02 -2.349963635206222534e-01 8.472066372632980347e-02 2.027249634265899658e-01 -7.464542984962463379e-02 -1.144246459007263184e-01
-1.787380501627922058e-02 1.290682405233383179e-01 -8.553078025579452515e-02 3.592347800731658936e-01 -1.974310353398323059e-02 2.124770283699035645e-01 -1.535057723522186279e-01 -3.091228604316711426e-01 4.951428249478340149e-02 -5.127695202827453613e-02 1.125399917364120483e-01 -3.122602961957454681e-02 -3.563632443547248840e-02 -7.260080892592668533e-03 -3.847371041774749756e-02 2.125829011201858521e-01 2.605708874762058258e-02 2.717726826667785645e-01 -7.212163507938385010e-02 7.297565042972564697e-02 -1.417137235403060913e-01 2.516778185963630676e-03 -6.546229869127273560e-02 8.734256029129028320e-03 8.464303798973560333e-03 -3.722385317087173462e-02 7.841807673685252666e-04 3.048153407871723175e-02 -4.152521118521690369e-02 2.319954484701156616e-01 3.645104914903640747e-02 6.034746766090393066e-02 -8.481147140264511108e-02 2.409211844205856323e-01 -1.841925084590911865e-01 -2.895959839224815369e-02 -2.736907824873924255e-02 7.132726162672042847e-02 6.466022878885269165e-02 5.974699184298515320e-02 7.872509770095348358e-03 -2.978941053152084351e-02 4.552537202835083008e-02 2.872804403305053711e-01 -8.589227497577667236e-02 1.615716665983200073e-01 2.926435694098472595e-02 6.521461158990859985e-02 -1.690574586391448975e-01 1.460596267133951187e-02 6.588420271873474121e-02 -9.401793777942657471e-02 5.703333020210266113e-02 -6.199140334501862526e-04 -7.620365917682647705e-02 2.014173893257975578e-03 -6.026673596352338791e-03 1.483729183673858643e-01 -6.723922491073608398e-02 2.863592281937599182e-02 -1.194298863410949707e-01 -1.259566843509674072e-01 -3.238688409328460693e-02 4.642211273312568665e-02 -1.612938940525054932e-02 3.877796977758407593e-02 5.760796368122100830e-03 1.823914051055908203e-02 -4.870444163680076599e-02 -1.595873758196830750e-02 -3.155039250850677490e-02 1.122808679938316345e-01 1.936943829059600830e-02 -2.725896239280700684e-01 -1.242427602410316467e-01 6.107923761010169983e-02 -1.868795454502105713e-01 1.560618281364440918e-01 -5.547838658094406128e-02 4.473909735679626465e-02 8.624047785997390747e-02 -1.416605780832469463e-03 2.027722075581550598e-03 -2.513663657009601593e-02 -1.836994662880897522e-02 -1.818592846393585205e-01 -5.209593102335929871e-02 3.409617021679878235e-02 -9.496890008449554443e-02 -3.721177577972412109e-01 -9.234005957841873169e-02 4.665694013237953186e-02 1.089613065123558044e-01 -8.327836543321609497e-02 1.545136868953704834e-01 6.407688558101654053e-02 -4.418574273586273193e-02 -1.952140964567661285e-02 -3.116087242960929871e-02 -4.658415615558624268e-01 -1.410881895571947098e-02 -1.017877578735351562e+00 2.359824255108833313e-02 -4.669019952416419983e-02 -3.142734989523887634e-02 2.428221404552459717e-01 -2.551534399390220642e-02 1.573411375284194946e-01 1.554513871669769287e-01 -1.159400343894958496e-01 -1.955694705247879028e-02 -1.879774779081344604e-02 2.073132060468196869e-02 -9.578982591629028320e-01 2.280518412590026855e-02 8.511920273303985596e-02 6.684810668230056763e-02 -2.362461835145950317e-01 -1.759444922208786011e-01 7.608615607023239136e-02 -2.073237299919128418e-02 -1.134197562932968140e-01 1.110763251781463623e-01 1.939581185579299927e-01 -3.057696670293807983e-02 8.970424532890319824e-03 2.897104807198047638e-02 4.989613592624664307e-01 -8.074335008859634399e-02 3.800563216209411621e-01 1.016504410654306412e-02 1.635901033878326416e-01 -7.326419651508331299e-02 -2.831486463546752930e-01 1.880874112248420715e-02 2.090933732688426971e-02 2.540708519518375397e-02 -6.420346349477767944e-02 -2.725809067487716675e-02 2.542369812726974487e-02
