4.024904668331146240e-01
1.357436478137969971e-01
-3.047748208045959473e-01
3.216542601585388184e-01
5.839017033576965332e-01
8.994518965482711792e-02
3.499380350112915039e-01
1.645306497812271118e-01
7.638268470764160156e-01
-8.177328705787658691e-01
-1.012525558471679688e+00
4.114550650119781494e-01
-8.199602961540222168e-01
4.700297415256500244e-01
-1.763809705153107643e-03
3.160426393151283264e-02
1.613228768110275269e-02
7.425684332847595215e-01
-5.601707100868225098e-01
5.009534955024719238e-01
-8.169886469841003418e-02
1.752617657184600830e-01
1.079999685287475586e+00
-3.738647103309631348e-01
1.751782596111297607e-01
4.405410587787628174e-01
-2.134217321872711182e-01
-2.484307140111923218e-01
1.087645217776298523e-01
-3.899910300970077515e-02
-6.542406082153320312e-01
-1.265553086996078491e-01
1.215488791465759277e+00
1.038065314292907715e+00
-2.223669141530990601e-01
-4.295387566089630127e-01
-1.470226943492889404e-01
6.891792267560958862e-02
5.588112473487854004e-01
3.259025979787111282e-03
-4.183278977870941162e-01
1.840033978223800659e-01
5.904188752174377441e-01
-8.196172118186950684e-01
-3.967947661876678467e-01
3.910392224788665771e-01
-1.504832804203033447e-01
3.899753391742706299e-01
4.245098829269409180e-01
2.484341114759445190e-01
-1.175775900483131409e-01
-3.754721879959106445e-01
4.736036658287048340e-01
1.946372985839843750e-01
-2.296987324953079224e-01
-4.219701886177062988e-01
2.937113679945468903e-02
1.428939122706651688e-02
-1.819871068000793457e-01
2.480883896350860596e-01
-5.401377081871032715e-01
5.392812490463256836e-01
5.722174644470214844e-01
2.690505087375640869e-01
-1.968095004558563232e-01
2.839279733598232269e-02
5.097005963325500488e-01
-1.044055223464965820e+00
4.643791019916534424e-01
-6.856986880302429199e-01
1.426745206117630005e-01
2.744556218385696411e-02
-4.060931205749511719e-01
2.211814979091286659e-03
-9.945362210273742676e-01
7.035771757364273071e-02
7.093852162361145020e-01
2.883257865905761719e-01
-1.554940044879913330e-01
1.372019410133361816e+00
6.455526351928710938e-01
8.920774459838867188e-01
-2.791617065668106079e-02
8.105890750885009766e-01
6.989635825157165527e-01
-1.126492738723754883e+00
3.547182381153106689e-01
-3.683889508247375488e-01
-2.188524305820465088e-01
1.574049353599548340e+00
2.714188955724239349e-02
6.533296108245849609e-01
-8.372309803962707520e-01
2.724905908107757568e-01
-7.075979709625244141e-01
1.579013764858245850e-01
3.170530796051025391e-01
-1.077048063278198242e+00
-6.155756488442420959e-02
1.289386153221130371e-01
