1.386377513408660889e-01 6.867706775665283203e-02 -6.463456898927688599e-02 -9.369128942489624023e-02 3.170561045408248901e-02 6.365545839071273804e-02 -1.594437211751937866e-01 6.742166727781295776e-02 -3.073547184467315674e-01 -3.794889524579048157e-02 -1.566085666418075562e-01 3.627912104129791260e-01 2.157223373651504517e-01 5.482757091522216797e-02 2.272239178419113159e-01 4.800565540790557861e-02 -2.039123177528381348e-01 1.465728878974914551e-01 7.173432409763336182e-02 -2.433484792709350586e-02 -1.340092122554779053e-01 -7.111445069313049316e-02 -1.964222341775894165e-01 8.099319040775299072e-02 -2.191208750009536743e-01 4.816770255565643311e-01 1.570204943418502808e-01 7.775960862636566162e-02 -5.736905708909034729e-02 -5.990866106003522873e-03 -6.710660457611083984e-02 8.629431575536727905e-02 -1.110948994755744934e-01 -7.538916915655136108e-02 1.824414432048797607e-01 1.166513413190841675e-01 1.629720330238342285e-01 -5.380415320396423340e-01 -1.964992098510265350e-02 6.817093491554260254e-02 8.432741761207580566e-01 -2.237747162580490112e-01 -1.833267211914062500e-01 1.588084399700164795e-01 -6.284140050411224365e-02 1.754500865936279297e-01 3.980516269803047180e-02 -1.976454854011535645e-01 2.230837345123291016e-01 -5.206812173128128052e-02 -4.311606287956237793e-02 -1.789787113666534424e-01 4.625137150287628174e-02 1.097747981548309326e-01 8.854034543037414551e-02 3.284531235694885254e-01 2.291340567171573639e-02 -1.236888468265533447e-01 -4.321876447647809982e-03 1.747370511293411255e-01 5.503021478652954102e-01 6.708108633756637573e-02 -5.772762815468013287e-04 -2.552339732646942139e-01 -4.915695637464523315e-03 -3.268259167671203613e-01 -6.969092041254043579e-02 -1.240059733390808105e-01 2.369234114885330200e-01 -1.914497911930084229e-01 5.636315420269966125e-02 -5.627795681357383728e-02 9.012690931558609009e-02 -5.079026147723197937e-02 3.073281347751617432e-01 1.199868991971015930e-01 1.102125793695449829e-01 -3.310061693191528320e-01 6.153804659843444824e-01 6.308789551258087158e-02 -3.154944777488708496e-01 1.184188574552536011e-02 -1.148799881339073181e-01 -3.991328552365303040e-02 -1.910982578992843628e-01 -1.338000744581222534e-01 -8.296905457973480225e-02 -3.009984269738197327e-02 -1.984457373619079590e-01 1.745385378599166870e-01 4.043441638350486755e-02 -2.800485789775848389e-01 1.952849179506301880e-01 7.746326923370361328e-02 3.636419028043746948e-02 -3.905209526419639587e-02 2.460085554048418999e-03 2.476139515638351440e-01 9.947936981916427612e-02 -3.815420670434832573e-03
-2.035631984472274780e-02 9.034721553325653076e-02 2.399357259273529053e-01 -1.274740099906921387e-01 -1.692296862602233887e-01 -1.542941480875015259e-01 -7.836318016052246094e-02 -4.459932819008827209e-02 -1.218920052051544189e-01 -5.709432363510131836e-01 9.563412517309188843e-02 -7.820717990398406982e-02 2.863442339003086090e-02 1.202909648418426514e-01 1.086669191718101501e-01 -2.661841213703155518e-01 -8.895511180162429810e-02 -4.259409606456756592e-01 1.353180557489395142e-01 6.853137165307998657e-02 3.506935238838195801e-01 6.917931139469146729e-02 -8.415614068508148193e-02 -1.892082244157791138e-01 1.977486461400985718e-01 4.401230439543724060e-02 1.989369653165340424e-02 3.219345957040786743e-02 -1.075432170182466507e-02 -6.015476537868380547e-05 -7.659916300326585770e-03 3.348682820796966553e-02 2.454276196658611298e-02 -4.475947096943855286e-02 -2.487391605973243713e-02 -2.639397084712982178e-01 -2.182671874761581421e-01 4.471023380756378174e-01 1.826162040233612061e-01 1.501202285289764404e-01 1.484337896108627319e-01 -1.105184853076934814e-02 9.899200499057769775e-02 2.298569977283477783e-01 1.309507060796022415e-02 -9.529695659875869751e-02 -5.935236439108848572e-02 -1.668694317340850830e-01 -2.496676146984100342e-01 -5.238283425569534302e-02 9.541939198970794678e-02 2.239483892917633057e-01 6.370642036199569702e-02 3.706665884237736464e-04 1.415158342570066452e-02 1.167801581323146820e-02 3.968395665287971497e-02 -3.112016320228576660e-01 -1.340546905994415283e-01 3.541770577430725098e-02 -6.259060651063919067e-02 1.466297730803489685e-02 -9.967603534460067749e-02 -1.522161215543746948e-01 -8.463681675493717194e-03 2.698435485363006592e-01 -8.221374452114105225e-02 7.484761625528335571e-02 1.682017594575881958e-01 2.146400325000286102e-02 -5.059182643890380859e-02 -2.732346206903457642e-02 -4.436769708991050720e-02 -6.157093048095703125e-01 -8.519887179136276245e-02 7.731213420629501343e-02 7.509308308362960815e-02 -4.653657972812652588e-02 1.180315539240837097e-01 -1.515038013458251953e-01 -7.755929976701736450e-02 -5.867360625416040421e-03 -1.437484920024871826e-01 -1.632398515939712524e-01 -3.570276871323585510e-02 4.110731184482574463e-02 4.208083078265190125e-02 9.273792803287506104e-02 6.817821413278579712e-02 -1.570251882076263428e-01 -1.778157986700534821e-02 3.060207515954971313e-02 1.999997533857822418e-02 -1.901136338710784912e-01 -6.530529353767633438e-03 1.565320044755935669e-01 -3.548194363247603178e-04 -5.863437801599502563e-02 4.115250706672668457e-02 1.609734608791768551e-03
-2.726247347891330719e-02 -4.537174850702285767e-02 -1.232574041932821274e-02 -9.517165273427963257e-02 3.869620338082313538e-02 -3.751878440380096436e-02 -1.079715564846992493e-01 -1.186061874032020569e-01 -9.527516365051269531e-02 1.503229257650673389e-03 -1.210990399122238159e-01 -7.487326860427856445e-02 -9.659574367105960846e-03 -1.130011305212974548e-01 -2.307420782744884491e-02 -6.256567779928445816e-03 -2.467559278011322021e-02 -5.145765841007232666e-02 2.304085716605186462e-02 2.458896674215793610e-02 -9.775466285645961761e-03 -2.670667506754398346e-02 5.936540663242340088e-02 6.225180253386497498e-02 -1.059090495109558105e-01 -1.273692548274993896e-01 3.496998921036720276e-02 3.554720431566238403e-02 1.496606320142745972e-02 -5.904671922326087952e-02 -7.881330698728561401e-02 -3.721677139401435852e-02 6.839112378656864166e-03 4.356404766440391541e-02 7.970310747623443604e-03 -8.233859390020370483e-02 -6.368584185838699341e-02 -3.294378146529197693e-02 -3.676511347293853760e-03 -2.716927416622638702e-02 -4.923111200332641602e-02 -4.559220746159553528e-02 -6.410484760999679565e-02 -3.524618223309516907e-02 4.804019629955291748e-02 -5.427667126059532166e-02 -8.322356641292572021e-02 -5.108276009559631348e-02 3.362150117754936218e-02 -8.824644982814788818e-02 3.024319373071193695e-02 -2.062212442979216576e-03 4.470420256257057190e-02 -9.325004369020462036e-02 6.006301566958427429e-02 -5.589118227362632751e-02 -1.057925671339035034e-01 2.281448431313037872e-02 6.753657944500446320e-03 -4.637151956558227539e-02 -4.302925989031791687e-02 -8.335661143064498901e-02 -6.254956126213073730e-02 -9.954990446567535400e-02 -4.136852920055389404e-02 -6.794739980250597000e-03 -1.099614500999450684e-01 -1.295885592699050903e-01 -7.795205712318420410e-02 -6.382221356034278870e-03 -7.433667778968811035e-02 -6.284992396831512451e-02 -6.219464913010597229e-02 -1.745784468948841095e-02 4.722305387258529663e-02 -2.362681552767753601e-02 2.435262128710746765e-02 -4.795073717832565308e-02 -5.412347614765167236e-02 -9.033358842134475708e-02 -1.253020316362380981e-01 -9.257037937641143799e-02 -9.441859275102615356e-02 -4.037705808877944946e-02 -9.173499792814254761e-02 -6.803060322999954224e-02 1.238050591200590134e-02 -1.067780554294586182e-01 5.162336304783821106e-02 -1.752728479914367199e-03 -7.230029255151748657e-02 1.842796802520751953e-03 2.017709426581859589e-02 -1.141266003251075745e-01 -6.171372160315513611e-02 -5.155467428267002106e-03 2.716750092804431915e-02 6.056215614080429077e-03 -1.991114392876625061e-02 -3.160160407423973083e-02
4.911259748041629791e-03 1.236998140811920166e-01 1.300218254327774048e-01 -6.298322230577468872e-02 -1.022894978523254395e-01 -1.504642814397811890e-01 -1.559319794178009033e-01 8.107966743409633636e-03 -9.407497197389602661e-02 -9.341724216938018799e-02 5.100447684526443481e-02 1.694997958838939667e-02 5.776698701083660126e-03 5.745735019445419312e-03 1.249993741512298584e-01 -5.225203186273574829e-02 2.504699118435382843e-02 -1.333003491163253784e-01 -1.229726597666740417e-01 -1.526663452386856079e-01 -2.001101523637771606e-02 -8.263599872589111328e-02 1.231067031621932983e-01 8.866419643163681030e-02 -1.390853524208068848e-02 4.458297193050384521e-01 3.965976461768150330e-02 5.384911224246025085e-02 -2.140956744551658630e-02 -1.405380070209503174e-01 4.365396872162818909e-02 2.595295384526252747e-02 3.194028511643409729e-02 -6.892186403274536133e-02 -7.218118011951446533e-02 3.455088287591934204e-02 -5.327490717172622681e-02 6.227554380893707275e-02 -2.689830660820007324e-01 -2.257335558533668518e-02 6.364866346120834351e-02 -5.303753539919853210e-02 -7.709997147321701050e-02 -2.184014953672885895e-02 3.158063441514968872e-02 -1.019918248057365417e-01 1.294869184494018555e-01 -1.244217455387115479e-01 3.757159411907196045e-02 5.972294136881828308e-03 -2.568913996219635010e-02 4.398117959499359131e-02 2.799264490604400635e-01 -5.405435338616371155e-02 -8.528673648834228516e-02 -5.412469804286956787e-02 1.092770174145698547e-01 1.061442308127880096e-02 3.100896067917346954e-02 -6.514604389667510986e-02 1.230813115835189819e-01 -8.253638446331024170e-02 1.853768527507781982e-01 2.026860835030674934e-03 4.373774863779544830e-03 -2.569808363914489746e-01 1.728832423686981201e-01 -1.248964890837669373e-01 1.934862695634365082e-02 1.498726103454828262e-02 -2.584692835807800293e-01 2.947208657860755920e-02 5.233907606452703476e-03 -6.672773361206054688e-01 1.329080462455749512e-01 -3.658213838934898376e-02 1.098777726292610168e-02 -2.268045581877231598e-02 -2.796931378543376923e-02 5.413509905338287354e-02 -2.154731377959251404e-02 -1.434994488954544067e-02 1.013062000274658203e-01 2.422858178615570068e-01 1.253023296594619751e-01 -7.819782942533493042e-02 9.037681668996810913e-02 -5.743176862597465515e-02 4.084431827068328857e-01 1.108875647187232971e-01 -1.435593818314373493e-03 6.390453781932592392e-03 -1.298303008079528809e-01 -2.340037077665328979e-01 1.628291457891464233e-01 2.232468128204345703e-01 1.049250131472945213e-03 4.893792793154716492e-02 -5.337906256318092346e-02 -4.858536645770072937e-03
2.990543544292449951e-01 1.304389387369155884e-01 2.122106999158859253e-01 -1.815693229436874390e-01 1.797862648963928223e-01 -2.628988586366176605e-03 -3.432967066764831543e-01 3.692858666181564331e-02 2.962967567145824432e-02 4.171730279922485352e-01 -3.207678720355033875e-02 3.800803422927856445e-02 2.060072869062423706e-01 2.978938519954681396e-01 1.646415740251541138e-01 2.790615148842334747e-02 5.050197616219520569e-02 3.854523599147796631e-02 -1.070045754313468933e-01 -1.107088848948478699e-02 -2.689223587512969971e-01 -2.849986553192138672e-01 2.231128215789794922e-01 -1.700812429189682007e-01 1.032739579677581787e-01 7.455867528915405273e-02 -3.287960588932037354e-02 6.158259883522987366e-02 -7.949452847242355347e-02 -1.706053018569946289e-01 3.278416022658348083e-02 1.687984913587570190e-01 2.818364202976226807e-01 -5.459995736600831151e-05 -1.118277534842491150e-01 4.738146066665649414e-02 -8.921044319868087769e-02 6.381893157958984375e-02 2.589438259601593018e-01 -9.518855065107345581e-02 -1.116835549473762512e-01 1.597696393728256226e-01 3.326394259929656982e-01 5.605287104845046997e-02 -1.437887996435165405e-01 1.622800678014755249e-01 -1.905766576528549194e-01 -9.706436097621917725e-02 1.331337392330169678e-01 3.498721867799758911e-02 2.581288218498229980e-01 9.116010367870330811e-02 1.816001832485198975e-01 -7.601079065352678299e-03 5.780671536922454834e-02 3.112656250596046448e-02 -1.304911375045776367e-01 -3.175228536128997803e-01 7.652355730533599854e-02 -3.191233575344085693e-01 1.271669119596481323e-01 3.501840531826019287e-01 -3.316827714443206787e-01 3.035333454608917236e-01 1.178446225821971893e-03 -3.789478540420532227e-01 3.257976099848747253e-02 1.771066039800643921e-01 1.089329794049263000e-01 -5.812982097268104553e-02 1.837645769119262695e-01 -6.883804500102996826e-02 -2.036272138357162476e-01 1.437105983495712280e-01 -7.958278059959411621e-02 -1.736197173595428467e-01 -1.394504308700561523e-01 1.776473671197891235e-01 -4.820653200149536133e-01 -3.270951211452484131e-01 -2.261943370103836060e-02 1.584411412477493286e-01 -4.675286710262298584e-01 2.681284248828887939e-01 -6.943796575069427490e-02 -6.832358986139297485e-02 1.188171133399009705e-01 -1.840102523565292358e-01 -3.515084683895111084e-01 -9.179728478193283081e-02 4.111086577177047729e-02 8.663415163755416870e-02 -6.619473546743392944e-02 -6.238428130745887756e-02 -1.748163402080535889e-01 2.629858553409576416e-01 1.880665658973157406e-03 -2.002721466124057770e-02 -5.315499007701873779e-02 -1.869370578788220882e-03
-6.644094735383987427e-02 1.538708657026290894e-01 -5.588464140892028809e-01 -5.341277718544006348e-01 -3.816467821598052979e-01 -3.035482168197631836e-01 -6.496425867080688477e-01 1.743762046098709106e-01 9.315894842147827148e-01 1.331200450658798218e-01 -3.710226714611053467e-01 3.541809692978858948e-02 8.513832092285156250e-01 -3.335594236850738525e-01 1.550447940826416016e-01 -1.675893068313598633e-01 -8.961767703294754028e-02 6.473202258348464966e-02 1.220513284206390381e-01 7.947907783091068268e-03 4.607157316058874130e-03 -1.605800837278366089e-01 -5.001636505126953125e+00 1.965593397617340088e-01 -5.430819988250732422e-01 -4.978052973747253418e-01 -2.597772479057312012e-01 -4.476413428783416748e-01 3.569555878639221191e-01 6.022335886955261230e-01 4.875240474939346313e-02 1.232778057456016541e-01 1.115138456225395203e-01 6.325501799583435059e-01 -5.123040676116943359e-01 -6.487892568111419678e-02 -1.369247138500213623e-01 -2.059096097946166992e-01 6.702978014945983887e-01 1.086953282356262207e-01 -6.333451867103576660e-01 -7.373329997062683105e-01 -1.813602894544601440e-01 -1.234579849243164062e+01 -3.182955682277679443e-01 -2.246305656433105469e+01 4.603630602359771729e-01 -2.151317447423934937e-01 1.282088607549667358e-01 1.312790215015411377e-01 4.267410337924957275e-01 1.321666538715362549e-01 1.793922185897827148e-01 -5.945016816258430481e-02 -3.983330428600311279e-01 -6.077882717363536358e-04 -5.100200176239013672e+00 4.118737205862998962e-02 -7.126677781343460083e-02 1.023769021034240723e+00 1.108059406280517578e+00 -1.133589893579483032e-01 4.191877841949462891e-01 -4.763884097337722778e-02 -4.857375845313072205e-02 -1.651290059089660645e-01 4.599499702453613281e-01 6.608779728412628174e-02 -1.283564567565917969e-01 3.834517896175384521e-01 1.973126381635665894e-01 1.405064165592193604e-01 1.540736556053161621e-01 -1.617499291896820068e-01 -4.576540470123291016e+00 -2.990569770336151123e-01 7.447563409805297852e-01 1.161730140447616577e-01 -1.283151060342788696e-01 -1.197468662261962891e+01 2.515140473842620850e-01 2.950638234615325928e-01 -6.358166337013244629e-01 -3.240679502487182617e-01 -3.581736236810684204e-02 -2.470106035470962524e-01 2.507950067520141602e-01 -1.843618601560592651e-01 4.780793488025665283e-01 5.175274014472961426e-01 1.170715838670730591e-01 -3.577238023281097412e-01 3.900817930698394775e-01 -1.177399512380361557e-02 -9.892033934593200684e-01 1.980549097061157227e-01 -2.295563928782939911e-03 -6.093699336051940918e-01 -1.430368721485137939e-01 1.803216437110677361e-04
-1.060554757714271545e-01 -1.104573905467987061e-01 -1.027179230004549026e-02 -1.304238140583038330e-01 3.371403785422444344e-03 1.741827279329299927e-02 6.965138763189315796e-02 -1.022838130593299866e-01 1.865350827574729919e-02 -8.077912777662277222e-02 -1.804716698825359344e-02 -2.067372389137744904e-02 -1.348064243793487549e-01 -7.285306602716445923e-02 8.433329313993453979e-02 5.607580393552780151e-02 -9.556394815444946289e-02 1.864037476480007172e-02 -1.003585383296012878e-01 -8.349955081939697266e-02 2.995213121175765991e-02 -3.607601393014192581e-03 -6.323841214179992676e-02 -4.200683534145355225e-02 -1.088346540927886963e-01 -6.594913452863693237e-02 4.823083803057670593e-02 3.312983550131320953e-03 -7.741436362266540527e-02 -4.871192201972007751e-02 -5.690426751971244812e-02 5.542306974530220032e-02 -7.635597139596939087e-02 1.686980202794075012e-02 -6.720163673162460327e-02 -1.271862685680389404e-01 -2.909693168476223946e-03 -1.273215413093566895e-01 -1.530340034514665604e-02 8.172418922185897827e-02 -4.355391487479209900e-02 -1.295618414878845215e-01 -2.138048037886619568e-02 -8.709196746349334717e-02 -1.037531420588493347e-01 4.359667003154754639e-02 4.328229278326034546e-02 -6.986964493989944458e-03 -7.100138813257217407e-02 3.831782564520835876e-02 7.894660346210002899e-03 -2.541039139032363892e-02 -4.364835098385810852e-02 -1.003021970391273499e-01 -9.283688664436340332e-02 5.168330296874046326e-02 3.409728780388832092e-02 3.593239188194274902e-02 2.446313574910163879e-02 -3.456816775724291801e-03 1.057434733957052231e-02 4.060090333223342896e-02 1.377496123313903809e-02 -7.091180235147476196e-02 1.642364822328090668e-02 -1.658802293241024017e-02 -3.866591723635792732e-03 8.271293714642524719e-03 1.393494475632905960e-02 -5.321791023015975952e-02 -1.053627356886863708e-01 -1.211369410157203674e-01 5.406454578042030334e-02 4.312761500477790833e-02 -9.959401935338973999e-02 5.430437624454498291e-02 -9.682606160640716553e-02 -3.540800139307975769e-02 -4.683406278491020203e-02 -8.190507441759109497e-02 -4.591058939695358276e-02 -4.078896343708038330e-02 -8.941777050495147705e-02 1.034371927380561829e-02 -4.514276236295700073e-02 -7.720502465963363647e-02 4.762307181954383850e-02 -1.096760779619216919e-01 -1.144223287701606750e-02 -9.299559891223907471e-02 -1.331565082073211670e-01 -1.278350800275802612e-01 -9.706438332796096802e-02 -2.786670625209808350e-02 -3.228024020791053772e-02 -4.025191441178321838e-02 -1.022343710064888000e-01 -1.399057656526565552e-01 5.199610441923141479e-02 -8.586256206035614014e-02
5.943666025996208191e-02 3.568413481116294861e-02 -2.468021586537361145e-02 -2.146807685494422913e-02 -7.239773124456405640e-02 -5.261144414544105530e-02 3.007097169756889343e-02 -4.439519718289375305e-02 -3.435562551021575928e-02 8.809057995676994324e-03 -1.192710101604461670e-01 3.673078864812850952e-02 7.375125586986541748e-02 -2.709014154970645905e-02 6.683453451842069626e-03 -3.383253142237663269e-02 1.179546816274523735e-03 4.193592816591262817e-02 -5.440030619502067566e-02 2.195463888347148895e-02 -6.441238522529602051e-02 4.154660925269126892e-02 3.544059768319129944e-02 -5.300609394907951355e-02 -1.290874462574720383e-02 2.567967958748340607e-02 -6.848424673080444336e-02 -4.718631878495216370e-02 -6.994465738534927368e-02 -1.552270166575908661e-02 -1.476422045379877090e-02 -1.937035098671913147e-02 -6.745858490467071533e-02 -5.156628414988517761e-02 2.427980490028858185e-02 -1.432476639747619629e-01 -4.053214192390441895e-02 -6.483028084039688110e-02 -8.109357208013534546e-02 -8.688060939311981201e-02 -2.473232895135879517e-02 -5.952110141515731812e-02 -5.469219759106636047e-03 -3.562218695878982544e-02 -1.318821907043457031e-01 -5.638366192579269409e-02 5.323261395096778870e-02 -1.023920476436614990e-01 -8.727832138538360596e-02 -4.163392633199691772e-02 -3.885151445865631104e-02 -6.844675517641007900e-04 8.636124432086944580e-02 5.668112076818943024e-03 -6.767287850379943848e-02 4.887126013636589050e-02 -1.090293228626251221e-01 -1.036852481774985790e-03 -1.439579203724861145e-02 2.200482040643692017e-02 4.771034419536590576e-02 1.848880387842655182e-02 -8.202892541885375977e-02 4.571544006466865540e-02 -1.223562732338905334e-01 -8.130926638841629028e-02 -1.171798929572105408e-01 5.677777528762817383e-02 2.280749008059501648e-02 -1.633537560701370239e-02 -1.310559064149856567e-01 -3.362926468253135681e-02 -7.923300564289093018e-02 -9.658825397491455078e-02 -1.071173474192619324e-01 3.406928386539220810e-03 -1.020788475871086121e-01 -7.473037391901016235e-02 5.231847614049911499e-02 6.451022624969482422e-02 6.217173766344785690e-03 3.602450247853994370e-03 -1.108110547065734863e-01 5.392616614699363708e-02 -9.485445171594619751e-02 -1.370294392108917236e-01 8.924766443669795990e-04 -1.334576010704040527e-01 -6.280490010976791382e-02 -1.039434000849723816e-01 -5.305431783199310303e-02 -1.103608161211013794e-01 4.433746449649333954e-03 5.551944021135568619e-03 -1.295232474803924561e-01 6.189610436558723450e-02 -2.020945027470588684e-02 -4.329920746386051178e-03 -2.887160889804363251e-02 -1.011977642774581909e-01
1.095574259757995605e+00 1.701190024614334106e-01 -4.076685756444931030e-02 -2.782787084579467773e-01 -2.472304925322532654e-02 -1.134915128350257874e-01 -6.753588914871215820e-01 -1.034432411193847656e+01 2.286304831504821777e-01 1.227599978446960449e+00 9.522330015897750854e-02 -7.253732532262802124e-02 1.079687774181365967e-01 -2.158596813678741455e-01 2.908049523830413818e-01 1.083501055836677551e-01 1.158929318189620972e-01 1.194879859685897827e-01 -5.892479419708251953e-01 -3.038410246372222900e-01 -1.267410218715667725e-01 4.208355024456977844e-02 1.773914843797683716e-01 -4.211187362670898438e-02 -1.878196895122528076e-01 1.309027820825576782e-01 2.523050904273986816e-01 -1.450371146202087402e-01 -1.147464588284492493e-01 -7.723965495824813843e-02 2.819025143980979919e-02 5.217081308364868164e-02 -1.034038215875625610e-01 2.318071573972702026e-02 -7.789394259452819824e-02 4.575875774025917053e-02 -1.310531795024871826e-01 5.916771665215492249e-02 9.756547398865222931e-03 1.447953432798385620e-01 7.925249636173248291e-02 9.099503606557846069e-02 2.232525497674942017e-01 1.847184002399444580e-01 -2.722083404660224915e-02 7.301297783851623535e-02 8.802004456520080566e-01 -8.648647367954254150e-02 1.631211042404174805e-01 7.636763900518417358e-02 -1.838811635971069336e+00 1.207316741347312927e-01 6.990015506744384766e-02 9.210901707410812378e-02 -2.325011044740676880e-01 3.114214353263378143e-02 5.222923755645751953e-01 1.154453381896018982e-01 -1.123909875750541687e-01 6.740722060203552246e-02 -3.804437518119812012e-01 2.149072736501693726e-01 3.912962079048156738e-01 2.013698965311050415e-02 -1.553338579833507538e-02 -3.586952686309814453e-01 5.792016908526420593e-02 -1.518939733505249023e+00 2.406914234161376953e-01 3.147350847721099854e-01 -2.289881706237792969e-01 3.186501562595367432e-01 -7.421301841735839844e+00 1.134606301784515381e-01 -3.215211331844329834e-01 -1.104217767715454102e-01 4.851697385311126709e-02 1.817530691623687744e-01 -4.826194941997528076e-01 -1.481682509183883667e-01 -1.838776618242263794e-01 1.034433860331773758e-02 3.490740656852722168e-01 -1.277680229395627975e-02 1.159029364585876465e+00 -3.639068901538848877e-01 1.868684142827987671e-01 1.087192595005035400e-01 -2.405854463577270508e-01 1.035337224602699280e-01 2.292732335627079010e-02 2.625781595706939697e-01 -7.714566588401794434e-02 1.553810536861419678e-01 2.253944985568523407e-03 3.988697230815887451e-01 -5.686096847057342529e-04 -2.201944962143898010e-02 -9.469832479953765869e-02 -2.589185023680329323e-03
-1.291172653436660767e-01 3.081472814083099365e-01 1.062145233154296875e-01 -6.028474569320678711e-01 -1.420673877000808716e-01 2.367111146450042725e-01 -1.821840405464172363e-01 -1.611207276582717896e-01 5.987217277288436890e-02 1.698062717914581299e-01 -1.523023396730422974e-01 3.032975830137729645e-02 -9.265591204166412354e-02 1.813922077417373657e-01 1.784056127071380615e-01 8.182453364133834839e-02 -3.796970844268798828e-01 -3.323569595813751221e-01 -2.571665644645690918e-01 -7.409419864416122437e-02 1.433654129505157471e-01 1.333407163619995117e-01 -5.858300924301147461e-01 -1.067059040069580078e-01 2.139771580696105957e-01 5.376776307821273804e-02 -3.129578828811645508e-01 -2.007239870727062225e-02 -2.953537367284297943e-02 -1.317759789526462555e-02 -2.989115007221698761e-02 4.501225948333740234e-01 1.366032361984252930e-01 -1.200104504823684692e-02 1.490662433207035065e-02 -1.779027581214904785e-01 -3.663197159767150879e-01 3.529678583145141602e-01 -6.268793940544128418e-01 -2.913959883153438568e-02 2.097260355949401855e-01 4.544099792838096619e-02 2.984296903014183044e-02 1.895122975111007690e-01 -3.668897226452827454e-02 2.301776409149169922e-01 -8.474483340978622437e-02 2.480190992355346680e-01 9.731684625148773193e-02 6.027931347489356995e-02 -4.084290564060211182e-02 3.539023995399475098e-01 3.558007776737213135e-01 -5.520766228437423706e-02 3.739438205957412720e-02 -6.301999092102050781e-02 1.287279427051544189e-01 1.231938526034355164e-01 2.434406615793704987e-02 -1.161554921418428421e-02 -2.343238443136215210e-01 2.023133188486099243e-01 -5.613936781883239746e-01 1.430865526199340820e-01 -5.259741563349962234e-03 5.921174958348274231e-02 1.440584193915128708e-02 1.379639953374862671e-01 3.180684894323348999e-02 -3.340326994657516479e-02 1.134349107742309570e-01 -1.149438992142677307e-01 1.278516352176666260e-01 6.057761311531066895e-01 1.442039459943771362e-01 -1.374379545450210571e-01 -2.103901356458663940e-01 8.646824210882186890e-02 2.530855238437652588e-01 -6.918310374021530151e-02 7.024508714675903320e-02 7.604977115988731384e-03 1.173105686902999878e-01 4.500084817409515381e-01 -3.827372565865516663e-02 -5.577154830098152161e-02 -7.429793477058410645e-02 4.415594413876533508e-02 1.436189413070678711e-01 1.450297087430953979e-01 4.922908544540405273e-02 -2.186273038387298584e-02 -8.990204334259033203e-02 -3.379057049751281738e-01 9.353028237819671631e-02 3.902771472930908203e-01 1.727763912640511990e-03 1.327443718910217285e-01 6.673811003565788269e-03 3.946556709706783295e-03
2.660381980240345001e-02 -5.402301251888275146e-02 -2.637324333190917969e-01 1.439812779426574707e-01 -1.427052915096282959e-01 -6.801497936248779297e-02 6.579802185297012329e-02 3.440399467945098877e-01 -2.048357874155044556e-01 8.340785652399063110e-02 -3.293740153312683105e-01 1.989683657884597778e-01 -1.087391257286071777e+00 -3.317654430866241455e-01 1.435214579105377197e-01 -5.231637042015790939e-03 1.743144840002059937e-01 -3.608895838260650635e-02 -2.664608955383300781e-01 4.629560187458992004e-02 -1.034408435225486755e-01 1.989274919033050537e-01 -6.331381201744079590e-02 -1.341771334409713745e-01 -1.570612788200378418e-01 -1.244467571377754211e-01 5.610225200653076172e-01 2.025992423295974731e-01 2.070944160223007202e-01 2.409843914210796356e-02 6.152639910578727722e-02 1.165194734930992126e-01 1.122996434569358826e-01 -5.755145475268363953e-02 4.290863871574401855e-01 5.116521716117858887e-01 3.576758876442909241e-02 1.563609694130718708e-03 2.896208167076110840e-01 3.042322099208831787e-01 2.955018877983093262e-01 -7.259846925735473633e-01 -1.930704861879348755e-01 1.203704327344894409e-01 3.139391839504241943e-01 -7.714094221591949463e-02 -1.636933907866477966e-02 2.767447233200073242e-01 -2.020070850849151611e-01 -1.646305322647094727e-01 -5.616383552551269531e-01 -2.818589843809604645e-02 -9.685471653938293457e-02 -3.060785233974456787e-01 5.971586108207702637e-01 -2.585708618164062500e+00 -1.706361174583435059e-01 -1.649203747510910034e-01 -3.546421527862548828e-01 2.896982133388519287e-01 8.944291621446609497e-04 -1.014674901962280273e-01 9.949727356433868408e-02 -6.413086652755737305e-01 -3.233938012272119522e-03 7.806475739926099777e-03 -2.463553994894027710e-01 3.903150260448455811e-01 -2.002244740724563599e-01 -5.485305935144424438e-02 -3.026360273361206055e-01 -1.291729807853698730e-01 5.822896584868431091e-02 -6.734567135572433472e-02 -3.041372895240783691e-01 8.482410758733749390e-02 -1.801608502864837646e-01 -1.620850414037704468e-01 2.322398573160171509e-01 -3.021012246608734131e-01 -1.882199794054031372e-01 4.905212298035621643e-02 -6.965136528015136719e-01 -1.820894479751586914e-01 -2.890580520033836365e-02 1.413310170173645020e-01 8.274184912443161011e-02 5.063477158546447754e-01 5.759803578257560730e-02 6.970277428627014160e-02 -1.662750542163848877e-01 -1.986172646284103394e-01 3.044592738151550293e-01 -2.260613255202770233e-02 5.182638764381408691e-01 -1.390909552574157715e-01 7.051928900182247162e-03 -1.603316962718963623e-01 -3.405054286122322083e-02 1.894429791718721390e-03
-1.612993516027927399e-02 -1.246026977896690369e-01 -2.295505441725254059e-02 4.549734666943550110e-02 -5.639562755823135376e-02 -4.541205614805221558e-02 2.167458273470401764e-02 -1.195608302950859070e-01 2.380851842463016510e-02 -1.362628936767578125e-01 -6.135047227144241333e-02 -1.193613931536674500e-01 -4.501060396432876587e-02 -1.510633081197738647e-01 -7.724838703870773315e-02 -1.225346252322196960e-01 -1.356902569532394409e-01 -1.184079125523567200e-01 -7.435268163681030273e-02 -1.788407191634178162e-02 -1.045124754309654236e-01 3.941257670521736145e-02 -1.364074461162090302e-02 -1.643390581011772156e-02 -6.529293954372406006e-02 -5.762317404150962830e-02 -8.364378660917282104e-02 -1.445132195949554443e-01 6.720791105180978775e-03 -5.813647806644439697e-02 -6.238496676087379456e-02 4.287878796458244324e-02 -1.165148913860321045e-01 -1.146883442997932434e-01 -4.834176972508430481e-03 -1.436642706394195557e-01 2.931108325719833374e-02 1.484609395265579224e-02 -1.042331010103225708e-01 -6.303399056196212769e-02 -4.998854175209999084e-02 -1.575439274311065674e-01 -1.305166780948638916e-01 -4.006742499768733978e-03 -3.122188849374651909e-03 -1.308220177888870239e-01 3.736417740583419800e-02 -5.493840202689170837e-02 -1.239895746111869812e-01 -1.289072483777999878e-01 -8.024980872869491577e-02 -1.943187229335308075e-02 -2.866072952747344971e-02 -5.407676845788955688e-02 -1.219858750700950623e-01 -1.130896285176277161e-01 -2.526684477925300598e-02 -5.159165337681770325e-02 -1.328650563955307007e-01 2.720829797908663750e-03 -5.502282828092575073e-02 -1.271254718303680420e-01 -1.028464585542678833e-01 -6.305436789989471436e-02 -1.459944061934947968e-03 -1.016050279140472412e-01 -1.083905622363090515e-01 -8.469033986330032349e-03 -4.418218135833740234e-02 -7.165708579123020172e-03 -2.891504950821399689e-02 2.142356010153889656e-03 -5.166092887520790100e-02 -7.566829025745391846e-02 -4.640084132552146912e-02 -1.088583171367645264e-01 -9.460023045539855957e-02 -6.037798151373863220e-02 -8.734915405511856079e-02 -2.678759396076202393e-02 1.978096365928649902e-02 -1.572346091270446777e-01 -8.569631725549697876e-02 -8.351987600326538086e-02 4.072930291295051575e-02 -3.466333495453000069e-03 -4.136139526963233948e-02 -1.201798915863037109e-01 -9.577463567256927490e-02 1.194536592811346054e-02 -1.612715050578117371e-02 -2.898892574012279510e-02 -1.503605991601943970e-01 1.410246361047029495e-02 -1.076829209923744202e-01 -2.610568888485431671e-02 -1.188202053308486938e-01 4.949102178215980530e-02 -2.798754535615444183e-02 1.853151991963386536e-02
1.447092592716217041e-01 2.416766434907913208e-01 -1.798712760210037231e-01 1.795760095119476318e-01 3.877345845103263855e-02 -1.176035329699516296e-01 -1.336534321308135986e-01 1.186689808964729309e-01 8.528307825326919556e-02 -1.722075045108795166e-01 1.334242969751358032e-01 1.319681107997894287e-01 1.846127659082412720e-01 2.778566814959049225e-02 -1.887208521366119385e-01 1.237252447754144669e-02 -3.575090551748871803e-03 1.663733869791030884e-01 2.167178131639957428e-02 5.591644905507564545e-03 -2.343051284551620483e-01 -9.274061769247055054e-02 -6.665902137756347656e-01 -6.006917357444763184e-02 -5.052676200866699219e-01 -3.847953379154205322e-01 -7.203001379966735840e-01 -1.506504118442535400e-01 4.695621132850646973e-02 -2.689826674759387970e-02 -2.046399563550949097e-02 -2.105419151484966278e-02 2.113962024450302124e-01 1.136682555079460144e-01 5.310926958918571472e-02 1.300750523805618286e-01 -3.109399788081645966e-02 2.416040450334548950e-01 9.265897795557975769e-03 6.837011128664016724e-02 3.164159655570983887e-01 3.963709250092506409e-02 7.908606529235839844e-02 1.101142242550849915e-01 -4.599215928465127945e-03 -6.838101893663406372e-02 1.310658156871795654e-01 -2.204410433769226074e-01 -1.084358990192413330e-01 -1.015375703573226929e-01 -3.340977132320404053e-01 3.939342126250267029e-02 -4.486881196498870850e-02 -2.415414340794086456e-02 -4.362522438168525696e-02 3.525138134136795998e-03 -4.484756946563720703e+00 -3.688559308648109436e-02 -2.528106048703193665e-02 -6.546659767627716064e-02 -1.454404322430491447e-03 -2.052205950021743774e-01 -1.042518690228462219e-01 -3.731881082057952881e-01 1.500594988465309143e-02 5.807151272892951965e-02 2.168538868427276611e-01 2.075137346982955933e-01 1.604385673999786377e-02 -3.590292111039161682e-02 -5.073852464556694031e-02 -2.106982748955488205e-03 -1.825259178876876831e-01 1.319851577281951904e-01 5.335869267582893372e-03 -1.339552700519561768e-01 3.488835096359252930e-01 4.915443714708089828e-03 8.613752573728561401e-02 1.038392260670661926e-01 -7.556939125061035156e-02 3.939643874764442444e-02 -1.564790681004524231e-02 2.076325193047523499e-02 3.684599399566650391e-01 -1.124157570302486420e-02 2.023405134677886963e-01 -1.942360252141952515e-01 1.489000488072633743e-02 6.789620965719223022e-02 -1.723888814449310303e-01 -6.452225148677825928e-02 1.417303979396820068e-01 -9.564554691314697266e-02 6.586939096450805664e-02 1.803540885448455811e-01 -1.808676752261817455e-03 2.033205628395080566e-01 -4.577339813113212585e-02 -2.585513982921838760e-03
-1.696874387562274933e-04 8.002844452857971191e-02 2.240208163857460022e-02 3.073542118072509766e-01 7.898697629570960999e-03 -5.680640414357185364e-02 3.116638958454132080e-02 -9.136526845395565033e-03 -1.935736685991287231e-01 -5.795701965689659119e-02 -4.850779846310615540e-02 4.686076641082763672e-01 1.160906031727790833e-01 3.652729839086532593e-02 -1.123681366443634033e-01 1.018744986504316330e-02 5.515780299901962280e-02 -3.504886850714683533e-02 -1.573730073869228363e-02 7.593287527561187744e-02 3.836051560938358307e-03 1.601903438568115234e-01 1.033674739301204681e-02 1.727159321308135986e-02 -4.883041605353355408e-02 -1.877882778644561768e-01 6.609194725751876831e-02 -5.082201585173606873e-02 5.812650173902511597e-02 1.410092115402221680e-01 -7.638684660196304321e-02 7.918928563594818115e-02 4.637547954916954041e-02 2.921317517757415771e-02 -5.733590107411146164e-03 1.133668124675750732e-01 1.098259910941123962e-01 -1.050037331879138947e-03 -3.620988503098487854e-02 1.768688112497329712e-01 6.566436588764190674e-02 -1.044177040457725525e-01 -8.282435685396194458e-02 -2.356917597353458405e-02 1.567898900248110294e-03 -1.038509607315063477e-01 -5.822484963573515415e-04 -2.158705331385135651e-02 -1.110093221068382263e-01 1.741028763353824615e-02 8.774375170469284058e-02 -1.042537987232208252e-01 -5.529327318072319031e-02 7.178105413913726807e-02 -2.396355755627155304e-02 5.070924013853073120e-02 6.698258966207504272e-02 1.317630335688591003e-02 -1.391373574733734131e-01 6.915351003408432007e-02 -9.995292872190475464e-02 -3.919637575745582581e-02 -1.511058397591114044e-02 2.945144474506378174e-02 -7.774571895599365234e+00 -8.393614739179611206e-02 5.558063089847564697e-02 -2.828416600823402405e-02 -7.718324661254882812e-02 -4.433853179216384888e-02 -8.331408351659774780e-02 -3.302348544821143150e-03 -1.660855486989021301e-02 2.618204988539218903e-02 4.759288579225540161e-02 -6.223763898015022278e-02 -3.344222158193588257e-02 4.096332937479019165e-02 5.859106779098510742e-02 5.660297814756631851e-03 -1.246317327022552490e-01 7.560490630567073822e-03 -4.260073415935039520e-03 -7.621159311383962631e-03 -8.971583843231201172e-02 -3.631930053234100342e-02 -2.633882500231266022e-02 2.377011254429817200e-02 5.175450444221496582e-02 -4.533866420388221741e-02 -7.974708825349807739e-02 -6.036706641316413879e-02 -9.387506172060966492e-03 -5.287752300500869751e-02 -9.171161800622940063e-03 3.752429038286209106e-02 1.294503570534288883e-03 6.607055198401212692e-03 -1.745451390743255615e-01 -7.820199825800955296e-04
3.928230702877044678e-02 2.377560734748840332e-01 -1.078654006123542786e-01 2.093320786952972412e-01 8.915367722511291504e-02 1.272849440574645996e-01 1.315293610095977783e-01 -2.652384638786315918e-01 1.045417636632919312e-01 1.156791970133781433e-01 3.727776929736137390e-04 -1.224950142204761505e-02 2.157310955226421356e-02 -8.580803126096725464e-02 3.761923611164093018e-01 5.403814315795898438e-01 2.479597628116607666e-01 -1.322893351316452026e-01 -2.642802149057388306e-02 -2.304267585277557373e-01 -1.902417987585067749e-01 -6.489413231611251831e-02 -1.655238866806030273e-01 6.044806241989135742e-01 -8.349079638719558716e-02 -2.910251021385192871e-01 -1.838858611881732941e-02 -9.374527633190155029e-02 -6.380140036344528198e-02 -1.873062402009963989e-01 4.784048348665237427e-02 5.406725034117698669e-02 2.663590200245380402e-02 -6.422547623515129089e-03 -1.173077747225761414e-01 -1.974170506000518799e-01 1.992603987455368042e-01 -3.101665675640106201e-01 2.943313717842102051e-01 5.375062581151723862e-03 4.855450987815856934e-02 4.226578772068023682e-02 -5.581841617822647095e-02 -8.412653952836990356e-02 2.097550407052040100e-02 -1.762906275689601898e-02 -2.988010272383689880e-02 -5.619806051254272461e-02 2.712328433990478516e-01 -2.852901630103588104e-02 -1.333395950496196747e-02 -1.955926269292831421e-01 1.972224861383438110e-01 -5.520739592611789703e-03 -1.282399296760559082e-01 1.001784354448318481e-01 1.604392193257808685e-02 1.176709830760955811e-01 -2.440140815451741219e-03 4.818496480584144592e-02 4.511654675006866455e-01 1.743165999650955200e-01 4.236830398440361023e-03 -2.384848892688751221e-01 -2.987514249980449677e-03 -1.191331222653388977e-01 -4.562414810061454773e-02 1.860921233892440796e-01 -5.141554027795791626e-02 3.722736984491348267e-02 -4.153300523757934570e-01 6.684220582246780396e-02 -9.012076258659362793e-02 1.041833087801933289e-01 -2.370025664567947388e-01 1.331870555877685547e-01 -2.271223813295364380e-01 1.698195934295654297e-01 -1.618206873536109924e-02 7.559221237897872925e-02 -2.015575170516967773e-01 -2.369450638070702553e-03 -6.785001605749130249e-02 4.856581687927246094e-01 2.274225950241088867e-01 -1.488490998744964600e-01 -8.818051218986511230e-02 7.301381230354309082e-02 -6.394206732511520386e-02 7.551544904708862305e-02 1.051283814013004303e-02 6.000022962689399719e-02 -1.135190129280090332e-01 -4.281744733452796936e-02 1.059158593416213989e-01 -1.726093702018260956e-02 7.462332141585648060e-04 -1.009736806154251099e-01 -5.151820927858352661e-02 -1.006160629913210869e-03
4.053026139736175537e-01 -5.043050646781921387e-01 3.058461248874664307e-01 6.685055047273635864e-02 -1.878787279129028320e-01 2.229894846677780151e-01 -5.181869864463806152e-01 -4.695626497268676758e-01 -1.032636594027280807e-02 3.402509689331054688e-01 -1.534761339426040649e-01 -1.049494668841362000e-01 6.937350332736968994e-02 -1.882043331861495972e-01 -7.957829535007476807e-02 1.148815378546714783e-01 -9.028660506010055542e-02 -4.323992133140563965e-01 -2.135345637798309326e-01 2.750701010227203369e-01 -1.477338075637817383e-01 3.403097093105316162e-01 -1.688615232706069946e-02 -3.988918960094451904e-01 -5.072992444038391113e-01 -8.359876275062561035e-01 1.253193020820617676e+00 -2.490491792559623718e-02 2.266291081905364990e-01 -4.498923718929290771e-01 -1.472668498754501343e-01 -1.961303204298019409e-01 2.394863367080688477e-01 -3.098156535997986794e-03 2.806506752967834473e-01 2.091693580150604248e-01 1.009946018457412720e-01 -2.411009818315505981e-01 7.576578259468078613e-01 -6.099677458405494690e-02 3.014882802963256836e-01 -1.592925786972045898e-01 -3.643256798386573792e-02 -3.321929275989532471e-01 -1.274765133857727051e-01 4.552350938320159912e-02 1.926562488079071045e-01 -1.381772422790527344e+01 -2.265661060810089111e-01 -1.125928610563278198e-01 4.172574579715728760e-01 -1.158773973584175110e-01 3.340317867696285248e-03 -1.256625503301620483e-01 4.784794524312019348e-02 5.678892601281404495e-03 -5.010582804679870605e-01 6.648509204387664795e-02 9.107470512390136719e-02 4.223261177539825439e-01 4.278331995010375977e-01 1.073461119085550308e-02 8.304180577397346497e-03 -1.808625012636184692e-01 -1.854467205703258514e-02 -2.367465943098068237e-01 2.845211625099182129e-01 2.727615535259246826e-01 3.742634356021881104e-01 3.972848504781723022e-02 -3.440648317337036133e-01 7.124284654855728149e-02 6.061229109764099121e-02 -9.088440239429473877e-02 4.449214413762092590e-02 -1.806349605321884155e-01 -2.718617022037506104e-01 -2.182073593139648438e-01 -2.777091600000858307e-02 5.973414704203605652e-02 -7.499768584966659546e-02 9.051925688982009888e-02 9.481310099363327026e-02 -7.630439102649688721e-02 3.862799406051635742e-01 -1.331524997949600220e-01 1.233321055769920349e-01 -2.967127971351146698e-02 -6.467106938362121582e-02 -2.290710926055908203e+00 9.847449511289596558e-02 -1.356146633625030518e-01 2.822367548942565918e-01 1.268311291933059692e-01 -9.389279037714004517e-02 -1.012192249298095703e+00 2.401080215349793434e-03 4.917559027671813965e-01 -1.092977970838546753e-01 -3.005909267812967300e-03
-3.399349749088287354e-02 -9.877413511276245117e-02 -9.853232651948928833e-02 -4.761695489287376404e-02 2.125238999724388123e-02 4.183277115225791931e-02 -3.676876053214073181e-02 1.188188884407281876e-02 -9.866643697023391724e-02 3.997972235083580017e-02 -4.302726686000823975e-02 2.051664143800735474e-02 -8.116944134235382080e-02 4.325207788497209549e-03 -3.923344775103032589e-04 -6.989841908216476440e-02 -7.718464732170104980e-02 -3.202868998050689697e-02 -1.431345343589782715e-01 -3.359712287783622742e-02 8.099196106195449829e-02 -8.771584182977676392e-02 -9.645942598581314087e-02 -1.042582541704177856e-01 4.705981537699699402e-02 -6.274067610502243042e-02 -9.801167994737625122e-02 4.653431102633476257e-02 2.460837364196777344e-02 -8.140373229980468750e-02 1.744292117655277252e-02 5.013810470700263977e-03 -9.236636012792587280e-02 -6.712534278631210327e-02 5.053689330816268921e-02 -2.453203313052654266e-02 2.001795731484889984e-02 -1.336721777915954590e-01 -7.213389128446578979e-02 -5.177470669150352478e-02 -5.070083215832710266e-02 4.933285340666770935e-02 6.454768776893615723e-02 2.827454917132854462e-02 -4.097391292452812195e-02 -2.197983907535672188e-03 1.309569226577877998e-03 -1.154005900025367737e-01 -2.724797092378139496e-02 -2.475145831704139709e-02 -5.892693251371383667e-02 4.878446832299232483e-02 -6.769311428070068359e-02 2.573450095951557159e-02 -1.397725492715835571e-01 -6.392932683229446411e-02 8.888968266546726227e-03 -1.346203386783599854e-01 -9.025397151708602905e-02 -7.058598846197128296e-02 1.037658005952835083e-02 -1.338490098714828491e-01 -1.324337720870971680e-01 -6.698240339756011963e-02 -9.546939283609390259e-02 3.388779610395431519e-02 -1.685362495481967926e-02 -4.642858356237411499e-02 -1.303290128707885742e-01 3.364876285195350647e-02 5.588062107563018799e-02 -1.425157394260168076e-02 4.374220967292785645e-02 -7.397775072604417801e-03 2.848634496331214905e-02 7.205464690923690796e-02 -1.570894755423069000e-02 5.759008973836898804e-02 -1.100577116012573242e-01 7.894911617040634155e-02 -3.305505216121673584e-02 9.733629412949085236e-03 -1.531536504626274109e-02 -8.048803359270095825e-02 -5.721385031938552856e-02 -9.316685050725936890e-02 -1.148275583982467651e-01 1.907958276569843292e-02 -3.653600811958312988e-02 3.820515796542167664e-02 4.918373306281864643e-04 -1.370168626308441162e-01 -1.080703362822532654e-01 2.100225538015365601e-02 -5.699349101632833481e-03 3.862408921122550964e-02 -4.791096597909927368e-02 -9.124322794377803802e-03 -7.339831441640853882e-03 3.104528039693832397e-02
-2.354898750782012939e-01 -3.355165570974349976e-02 -5.153660178184509277e-01 -2.349079996347427368e-01 -6.814193725585937500e-02 -2.813099324703216553e-02 6.776583939790725708e-02 -3.811580836772918701e-01 1.711190938949584961e-01 -9.635077714920043945e-01 -2.874107658863067627e-01 5.015969276428222656e-01 3.081614375114440918e-01 6.311022490262985229e-02 -2.397005707025527954e-01 -3.870099782943725586e-01 1.417941302061080933e-01 1.843771040439605713e-01 9.828839302062988281e-01 -1.594938486814498901e-01 2.472341209650039673e-01 1.121660619974136353e-01 -7.856664061546325684e-02 3.645015414804220200e-03 -8.526916801929473877e-02 -8.215067535638809204e-02 4.577395319938659668e-01 5.497747100889682770e-03 2.892943285405635834e-02 7.608599215745925903e-02 1.766379326581954956e-01 -2.334087342023849487e-01 8.307640440762042999e-03 2.718518674373626709e-01 -2.595611810684204102e-01 3.001761734485626221e-01 2.814049459993839264e-02 -3.197792470455169678e-01 -1.373740434646606445e-01 -1.526943892240524292e-01 -3.768208622932434082e-01 -1.729547828435897827e-01 6.245563030242919922e-01 -7.705169916152954102e-02 -6.856223940849304199e-02 1.510998141020536423e-02 2.884866297245025635e-01 -5.976590886712074280e-02 3.363581374287605286e-02 2.679738402366638184e-01 -1.631089299917221069e-01 -2.747044339776039124e-02 2.736288905143737793e-01 -5.449917912483215332e-01 -2.653154134750366211e-01 1.744001805782318115e-01 3.213446959853172302e-02 4.806762188673019409e-02 1.372960060834884644e-01 3.037976622581481934e-01 2.031083777546882629e-02 2.239771038293838501e-01 -2.528604678809642792e-02 -6.717810034751892090e-02 -3.011188097298145294e-02 -1.862426847219467163e-01 -2.150021046400070190e-01 -1.605623662471771240e-01 1.498565673828125000e-01 -9.867516905069351196e-02 4.205428063869476318e-01 -8.570227771997451782e-02 3.973091766238212585e-02 5.907137319445610046e-02 3.063788414001464844e-01 1.531246006488800049e-01 -8.128487505018711090e-03 1.995352208614349365e-01 1.065276190638542175e-01 5.476656183600425720e-02 -5.698680877685546875e-02 1.632279753684997559e-01 1.397066414356231689e-01 2.977617979049682617e-01 -5.854965373873710632e-02 -1.255079865455627441e+00 2.954763770103454590e-01 1.066160649061203003e-01 1.809008568525314331e-01 -2.147202491760253906e-01 -3.437969833612442017e-02 -5.024635698646306992e-03 -5.008489638566970825e-02 1.462430953979492188e-01 -1.836443245410919189e-01 -1.032376959919929504e-01 -7.013959693722426891e-04 -1.612255424261093140e-01 -2.874626219272613525e-01 1.102430047467350960e-03
2.102400809526443481e-01 -8.111997693777084351e-02 3.113013505935668945e-02 1.481797695159912109e-01 1.986762732267379761e-01 2.838073670864105225e-02 6.439116597175598145e-02 -7.467103600502014160e-01 -1.282192468643188477e-01 2.088465243577957153e-01 1.179360598325729370e-01 2.875871956348419189e-02 -2.291771918535232544e-01 -1.085367873311042786e-01 2.806690931320190430e-01 -1.182168945670127869e-01 -3.621028736233711243e-02 -2.240864187479019165e-01 2.261862605810165405e-01 -2.213877886533737183e-01 -8.398789912462234497e-02 -6.310911178588867188e-01 5.333071947097778320e-01 -1.800635159015655518e-01 2.841289043426513672e-01 4.609841108322143555e-02 -1.467321366071701050e-01 2.439339458942413330e-01 -2.515915930271148682e-01 3.678663372993469238e-01 8.444408327341079712e-02 -9.488443285226821899e-02 4.603811353445053101e-02 1.058612763881683350e-01 -1.972372978925704956e-01 -1.233630031347274780e-01 -1.649670116603374481e-02 1.875496357679367065e-01 -4.091471806168556213e-02 -2.290058732032775879e-01 -2.442018091678619385e-01 5.995681509375572205e-02 2.467520385980606079e-01 -3.149854838848114014e-01 8.166529983282089233e-02 1.138152703642845154e-01 5.913839936256408691e-01 3.337389528751373291e-01 3.352993726730346680e-02 1.782626211643218994e-01 -1.905128955841064453e-01 1.524588465690612793e-02 3.582564294338226318e-01 -1.154005080461502075e-01 4.869727045297622681e-02 1.193059608340263367e-01 -1.676318198442459106e-01 -1.259498149156570435e-01 1.926460862159729004e-01 -5.089310929179191589e-02 -3.214231133460998535e-02 3.344697952270507812e-01 -6.525300145149230957e-01 1.521345376968383789e-01 -5.297550186514854431e-02 -4.754580184817314148e-02 -8.106679469347000122e-02 9.605211764574050903e-02 1.745268404483795166e-01 1.899239867925643921e-01 2.190549522638320923e-01 7.809740304946899414e-02 -1.528273224830627441e-01 -4.117918014526367188e-02 -3.102871179580688477e-01 -6.966126151382923126e-03 -9.451759047806262970e-03 1.407289952039718628e-01 -1.891875267028808594e-01 6.427058577537536621e-02 3.944057971239089966e-02 -1.033935844898223877e-01 -4.742937684059143066e-01 9.459223598241806030e-02 2.530538141727447510e-01 -6.168442368507385254e-01 -5.591213703155517578e-02 -4.305155016481876373e-03 1.696003414690494537e-02 -2.971445918083190918e-01 1.776255816221237183e-01 -1.162414327263832092e-01 4.716676101088523865e-02 2.002368718385696411e-01 1.647665500640869141e-01 -3.757479134947061539e-03 3.770592389628291130e-03 -4.328078329563140869e-01 3.871930018067359924e-02 -2.995282178744673729e-03
-1.159780248999595642e-01 -1.182747781276702881e-01 1.657677739858627319e-01 -2.508988976478576660e-01 -2.008010149002075195e-01 -1.234477758407592773e-01 2.146398574113845825e-01 -2.660229802131652832e-01 3.263656422495841980e-02 -1.785564422607421875e-01 -9.776014834642410278e-02 1.137445643544197083e-01 -6.237362325191497803e-02 2.873934209346771240e-01 2.184229046106338501e-01 -1.592303812503814697e-01 2.441475987434387207e-01 8.436942845582962036e-02 5.490438267588615417e-02 2.476878017187118530e-01 1.314006745815277100e-01 1.567137539386749268e-01 1.874207407236099243e-01 -1.284819245338439941e-01 -7.452888041734695435e-02 -3.480916097760200500e-02 5.821668505668640137e-01 -8.807174861431121826e-02 -3.308913111686706543e-02 1.478146314620971680e-01 -1.459504663944244385e-01 1.046150028705596924e-01 -6.324523687362670898e-02 -4.535960778594017029e-02 1.024049669504165649e-01 2.000933736562728882e-01 8.932754397392272949e-02 -4.567466378211975098e-01 3.565848618745803833e-02 1.878233253955841064e-02 3.341152071952819824e-01 4.478941112756729126e-02 1.256023645401000977e-01 -7.336220145225524902e-01 8.709729649126529694e-03 -3.332265615463256836e-01 -3.622644543647766113e-01 -1.037878245115280151e-01 1.419959217309951782e-01 8.270189166069030762e-02 2.669004499912261963e-01 -7.760484516620635986e-02 1.116497665643692017e-01 1.694225072860717773e-01 1.206908300518989563e-01 1.659759879112243652e-02 -4.587820172309875488e-01 1.449125558137893677e-01 -5.020072311162948608e-02 -3.287568688392639160e-01 -1.062084808945655823e-01 -4.446099046617746353e-04 2.196693718433380127e-01 -3.524265885353088379e-01 8.390765637159347534e-03 -1.284210085868835449e-01 -1.567863300442695618e-02 -4.828267544507980347e-02 4.773700609803199768e-03 -7.739008218050003052e-02 1.319409459829330444e-01 -1.096449345350265503e-01 -2.555938661098480225e-01 3.290817439556121826e-01 1.292067766189575195e-01 -2.503928244113922119e-01 3.377569317817687988e-01 1.382277756929397583e-01 2.885361015796661377e-01 2.201873660087585449e-01 2.510852515697479248e-01 6.326972506940364838e-03 2.281941920518875122e-01 -5.940605700016021729e-02 -4.985793232917785645e-01 -2.903771400451660156e-01 8.395422250032424927e-02 -3.877305090427398682e-01 2.195319086313247681e-01 1.109045445919036865e-01 4.381700418889522552e-03 -1.200014352798461914e-01 -8.441301435232162476e-02 9.176497906446456909e-02 5.344894248992204666e-03 1.154608726501464844e-01 2.835665363818407059e-03 -3.174349367618560791e-01 1.902773827314376831e-01 -3.527328080963343382e-04
7.029137015342712402e-02 -4.786391258239746094e-01 3.226246833801269531e-01 4.027997851371765137e-01 -1.480525583028793335e-01 1.420833915472030640e-01 2.810439169406890869e-01 2.203743159770965576e-01 1.394439488649368286e-01 1.285678148269653320e-01 -1.690920889377593994e-01 -5.653261765837669373e-02 -2.038654834032058716e-01 5.313421040773391724e-02 -5.983169376850128174e-02 -1.194053068757057190e-01 -8.054098114371299744e-03 -1.835482716560363770e-01 -1.672603040933609009e-01 7.888688892126083374e-02 -2.486705631017684937e-01 -3.356627821922302246e-01 1.114434376358985901e-02 -6.390305608510971069e-02 9.491536021232604980e-02 2.078442126512527466e-01 -1.293678045272827148e+00 3.126680478453636169e-02 1.813806593418121338e-02 -1.811667531728744507e-01 -5.795333907008171082e-02 3.020866774022579193e-02 6.805457174777984619e-02 -6.647254526615142822e-02 1.604815870523452759e-01 -3.044981360435485840e-01 1.342100948095321655e-01 5.858955904841423035e-02 3.059216439723968506e-01 2.702326327562332153e-02 1.428297460079193115e-01 1.610564589500427246e-01 -2.987672016024589539e-02 -1.865941137075424194e-01 6.278678774833679199e-02 -6.388013064861297607e-02 -6.753797829151153564e-02 -1.819093339145183563e-02 -1.114842221140861511e-01 -9.281776100397109985e-02 1.791633516550064087e-01 -1.362918168306350708e-01 7.057019323110580444e-02 5.694306641817092896e-02 1.374244987964630127e-01 1.324290186166763306e-01 1.832650601863861084e-01 -3.141324501484632492e-03 -1.591929933056235313e-03 5.688460543751716614e-02 -9.193845838308334351e-02 1.492762863636016846e-01 5.709898471832275391e-02 -1.116062402725219727e-01 3.041321225464344025e-02 1.783921569585800171e-01 3.034896552562713623e-01 1.616783291101455688e-01 -1.400644052773714066e-02 -7.291060686111450195e-02 -2.758165001869201660e-01 -1.081173494458198547e-01 -8.112548850476741791e-03 1.113359555602073669e-01 -3.723806440830230713e-01 -2.073248848319053650e-02 -6.951899081468582153e-02 1.061630696058273315e-01 -2.003604918718338013e-01 1.578423827886581421e-01 -4.439505189657211304e-02 -7.839014381170272827e-02 1.854161359369754791e-02 1.090623959898948669e-01 -1.072783172130584717e-01 2.783711254596710205e-02 1.230470538139343262e-01 1.928192824125289917e-01 -1.849539130926132202e-01 -3.526071459054946899e-02 1.086175348609685898e-02 -2.233822271227836609e-02 -3.417112529277801514e-01 -2.017283625900745392e-02 6.955476850271224976e-02 4.754739105701446533e-01 2.814415842294692993e-03 2.276760637760162354e-01 -3.255604300647974014e-03 2.694788156077265739e-03
1.861941069364547729e-01 1.887503862380981445e-01 -1.441228091716766357e-01 2.178633213043212891e-01 1.186737790703773499e-01 -3.271147981286048889e-02 -2.249883562326431274e-01 2.590100467205047607e-01 -6.498758494853973389e-02 7.469592988491058350e-02 -1.707272231578826904e-01 5.748970508575439453e-01 5.477634668350219727e-01 -2.657474763691425323e-02 1.388037949800491333e-01 -2.264150418341159821e-02 1.858533173799514771e-01 1.003702506422996521e-01 1.251140981912612915e-01 -3.716444224119186401e-02 1.828053966164588928e-02 6.476701050996780396e-02 -1.246793121099472046e-01 -5.125014111399650574e-02 1.361117064952850342e-01 -6.235950440168380737e-02 4.271531403064727783e-01 -2.597811520099639893e-01 1.336220055818557739e-01 -5.816880986094474792e-02 4.034600853919982910e-01 -1.666778475046157837e-01 -1.165261957794427872e-02 6.528948247432708740e-02 -2.447537481784820557e-01 -1.800428479909896851e-01 1.677287966012954712e-01 -4.748258739709854126e-02 3.340987861156463623e-01 -1.199423074722290039e-01 1.771568506956100464e-01 9.784797430038452148e-01 1.456944495439529419e-01 4.211264476180076599e-02 -7.994485646486282349e-02 1.670136302709579468e-02 -1.986126303672790527e-01 1.118457987904548645e-01 -2.005405724048614502e-01 5.142313241958618164e-01 -5.565068721771240234e-01 -8.077327162027359009e-02 -1.933651566505432129e-01 6.352193951606750488e-01 -2.772677876055240631e-02 -1.250652968883514404e-01 1.243650615215301514e-01 -4.160729944705963135e-01 1.434915959835052490e-01 -6.938256556168198586e-04 -1.932264566421508789e-01 -1.664268225431442261e-01 -5.324552953243255615e-02 -2.254713773727416992e-01 -2.850478701293468475e-02 7.457643747329711914e-01 1.521002501249313354e-01 -1.331617534160614014e-01 1.357852015644311905e-02 2.150187194347381592e-01 -2.789719263091683388e-03 1.650453209877014160e-01 1.481398195028305054e-02 -1.263484805822372437e-01 -3.711266815662384033e-01 2.690819501876831055e-01 -1.174333319067955017e-01 -1.975042343139648438e+00 2.226885706186294556e-01 -1.944231390953063965e-01 3.736279308795928955e-01 2.805798053741455078e-01 7.066508382558822632e-02 -1.482541561126708984e-01 1.930354535579681396e-01 1.168686226010322571e-01 5.997335538268089294e-02 -3.514837920665740967e-01 4.011821001768112183e-02 2.790771797299385071e-02 5.782662034034729004e-01 6.180094927549362183e-02 1.570466905832290649e-01 7.083239406347274780e-02 -5.275108218193054199e-01 -3.314104974269866943e-01 1.491860672831535339e-02 -2.731183469295501709e-01 4.115427434444427490e-01 1.832542382180690765e-02
-6.656671315431594849e-02 1.153920441865921021e-01 1.063883975148200989e-01 9.237198531627655029e-02 1.209053620696067810e-01 2.684430964291095734e-02 -1.344096511602401733e-01 6.002486683428287506e-03 1.530222892761230469e-01 1.898455917835235596e-01 7.916537113487720490e-03 -7.174860686063766479e-02 -7.888895273208618164e-02 -5.044152587652206421e-02 -8.115918189287185669e-02 -1.254881173372268677e-01 3.459809347987174988e-02 -8.329607546329498291e-02 5.356182530522346497e-02 2.453436106443405151e-01 3.228111565113067627e-02 -1.370806396007537842e-01 -9.284716844558715820e-02 -3.170085698366165161e-02 -2.230726927518844604e-01 -1.231119334697723389e-01 4.915872514247894287e-01 -1.240107137709856033e-02 5.493117496371269226e-03 2.559129334986209869e-02 2.400464750826358795e-02 -3.137160465121269226e-02 -2.768523292616009712e-03 3.269179165363311768e-02 -1.701583117246627808e-01 8.078813552856445312e-02 1.292115915566682816e-02 4.360937327146530151e-02 1.791038513183593750e-01 -7.162992656230926514e-02 -5.809630732983350754e-03 -6.150308065116405487e-03 1.750542074441909790e-01 5.306449532508850098e-01 3.840988501906394958e-02 4.687731862068176270e-01 -1.339560896158218384e-01 2.084608525037765503e-01 1.684706844389438629e-02 2.032515406608581543e-02 -2.836290001869201660e-02 -1.570465974509716034e-02 1.088129505515098572e-01 -1.712566986680030823e-02 -1.190927624702453613e-01 -9.364091604948043823e-02 5.580978989601135254e-01 -1.118890494108200073e-01 4.760140925645828247e-02 9.521527215838432312e-03 -5.938965827226638794e-02 -6.557945162057876587e-02 -2.029381394386291504e-01 3.675887882709503174e-01 -2.154364716261625290e-03 -1.340992152690887451e-01 -1.292635351419448853e-01 2.837569639086723328e-02 -1.818438768386840820e-01 8.129274845123291016e-02 6.814542412757873535e-02 1.392656117677688599e-01 1.697424203157424927e-01 -4.181214049458503723e-02 -2.106682769954204559e-02 3.093163371086120605e-01 -6.643771380186080933e-02 6.740112602710723877e-02 -3.353496491909027100e-01 -3.445972800254821777e-01 -1.468520984053611755e-02 -6.445610523223876953e-02 -9.025468677282333374e-02 1.290292441844940186e-01 -2.139460742473602295e-01 -2.635770142078399658e-01 3.354501724243164062e-02 -8.824725449085235596e-02 1.525370869785547256e-02 1.479065325111150742e-02 4.916083440184593201e-02 2.354665845632553101e-02 -1.646020412445068359e-01 -1.916042715311050415e-01 4.372757300734519958e-02 -1.728998124599456787e-01 6.099458551034331322e-04 -6.383959949016571045e-02 -5.694120377302169800e-02 -1.630100887268781662e-03
-9.426715224981307983e-02 4.528663158416748047e-01 -1.297865509986877441e-01 1.459088623523712158e-01 -9.656942635774612427e-02 1.227925568819046021e-01 -8.311039209365844727e-02 -2.193588614463806152e-01 9.339768439531326294e-02 4.014467895030975342e-01 2.233280101791024208e-03 -2.779978513717651367e-01 8.240117877721786499e-02 1.229831129312515259e-01 -6.143077015876770020e-01 1.285137385129928589e-01 -2.008163034915924072e-01 -4.451434612274169922e-01 -1.837441623210906982e-01 1.507334131747484207e-02 -1.142012048512697220e-02 1.008526608347892761e-01 -4.487113654613494873e-01 -1.712351441383361816e-01 -1.003113808110356331e-03 -3.059594035148620605e-01 2.426348775625228882e-01 1.764651238918304443e-01 5.687965080142021179e-02 -2.300202399492263794e-01 -1.485854685306549072e-01 2.451813966035842896e-01 4.173505678772926331e-02 -3.306561335921287537e-02 1.792161315679550171e-01 1.219182088971138000e-01 6.479946523904800415e-02 -9.936929680407047272e-03 2.284108102321624756e-01 1.456081122159957886e-01 -3.637198358774185181e-02 -1.172299981117248535e-01 4.154357016086578369e-01 -1.909967064857482910e-01 -1.899288594722747803e-01 -4.199130833148956299e-02 2.301834076642990112e-01 2.354892194271087646e-01 4.829750582575798035e-02 -1.656515449285507202e-01 -1.316321343183517456e-01 -5.782815814018249512e-02 -9.529459476470947266e-02 -5.961402505636215210e-02 -1.594830900430679321e-01 2.517397403717041016e-01 -2.222855389118194580e-01 4.323392510414123535e-01 -1.224384382367134094e-01 -1.670467257499694824e-01 -1.692814528942108154e-01 -1.523456722497940063e-01 -1.723397150635719299e-02 -2.492534816265106201e-01 4.956216737627983093e-02 1.057540625333786011e-02 -2.505454421043395996e-01 -1.746530532836914062e-01 -2.354700118303298950e-01 1.754487156867980957e-01 1.608817428350448608e-01 4.130498170852661133e-01 -1.630560010671615601e-01 -5.368144065141677856e-02 3.519014641642570496e-02 -3.367751538753509521e-01 2.515756487846374512e-01 1.080872192978858948e-01 -2.680413722991943359e-01 -1.395928263664245605e-01 7.051268219947814941e-02 2.544444799423217773e-01 2.943238615989685059e-01 3.498447537422180176e-01 2.384619712829589844e-01 -4.354949593544006348e-01 -7.911059260368347168e-02 1.963678151369094849e-01 1.386620998382568359e-01 -1.452737301588058472e-02 -1.782527714967727661e-01 7.435786724090576172e-02 -3.612527996301651001e-02 -4.489371180534362793e-02 -3.116002380847930908e-01 -6.436683982610702515e-02 2.102412749081850052e-03 2.879695296287536621e-01 8.946382999420166016e-02 -2.793741412460803986e-03
6.969934701919555664e-02 -5.785402283072471619e-02 -3.854925930500030518e-02 -4.805588629096746445e-03 -8.406350761651992798e-02 2.276349253952503204e-02 7.041421532630920410e-02 7.795845717191696167e-02 -7.358803413808345795e-04 -1.210464863106608391e-03 -8.840339630842208862e-02 -8.935929089784622192e-02 4.227067902684211731e-02 3.695656731724739075e-02 -5.562060698866844177e-02 3.971593081951141357e-02 -1.823200471699237823e-02 -9.821883589029312134e-02 -2.602993138134479523e-02 -8.686478435993194580e-02 -8.064129203557968140e-02 -2.184861339628696442e-02 -7.745823264122009277e-02 -9.471259266138076782e-02 -8.948000520467758179e-02 -6.821527332067489624e-02 5.275836586952209473e-02 -7.755198329687118530e-02 -8.504994958639144897e-02 -2.437064610421657562e-02 -4.768275469541549683e-02 -2.178459614515304565e-02 -4.473685845732688904e-02 -4.039400815963745117e-02 9.434155188500881195e-03 7.580813765525817871e-02 5.468156654387712479e-03 -8.765956014394760132e-02 6.234513595700263977e-02 -9.735552221536636353e-02 7.924718782305717468e-03 2.548289112746715546e-02 -4.138364270329475403e-02 1.794837415218353271e-02 -3.545201325323432684e-04 -3.244400396943092346e-02 -3.173219412565231323e-02 7.188607752323150635e-02 5.379927530884742737e-02 -7.281036674976348877e-02 1.081297826021909714e-02 -8.615132421255111694e-02 -7.420994807034730911e-04 -7.919960469007492065e-02 -3.584384173154830933e-02 -6.697235256433486938e-02 -2.297952212393283844e-02 -2.683679573237895966e-02 -2.063117176294326782e-02 -8.329574763774871826e-02 -1.780702732503414154e-02 -7.122882455587387085e-02 -4.874885454773902893e-02 3.690878301858901978e-02 -5.265609174966812134e-02 -9.824894368648529053e-03 6.775309890508651733e-02 -3.175481036305427551e-02 8.844885043799877167e-03 4.148335754871368408e-02 -3.437165170907974243e-02 -3.501909971237182617e-02 2.225343883037567139e-02 3.077129833400249481e-02 1.970222219824790955e-03 -6.961331516504287720e-02 -1.714449492283165455e-03 -6.065871194005012512e-02 -5.431697517633438110e-02 -4.159458354115486145e-02 -8.525299839675426483e-03 -3.788758069276809692e-02 -3.516825661063194275e-02 3.796178475022315979e-02 4.975082725286483765e-02 1.016438752412796021e-01 -4.226026590913534164e-03 9.055849164724349976e-02 2.139689587056636810e-02 1.871114224195480347e-02 9.279383718967437744e-02 5.644663050770759583e-02 -3.204701095819473267e-02 -9.755200892686843872e-02 9.112903475761413574e-02 2.807826036587357521e-03 -1.102328076958656311e-01 2.127518132328987122e-02 -3.413480892777442932e-02 -3.765287250280380249e-02
-2.574708461761474609e-01 3.244400322437286377e-01 -1.723104417324066162e-01 1.959012001752853394e-01 1.380352377891540527e-01 -6.624225527048110962e-02 8.259524405002593994e-02 -4.565571844577789307e-01 9.411286562681198120e-02 -1.113411188125610352e-01 1.250484436750411987e-01 -1.637341231107711792e-01 1.358786374330520630e-01 -2.008662093430757523e-03 -1.679886132478713989e-01 1.969061046838760376e-01 -4.662385210394859314e-02 -1.416495144367218018e-01 -4.483148455619812012e-02 -2.428340464830398560e-01 -3.651185333728790283e-02 6.947953079361468554e-05 5.100172385573387146e-02 -1.006508842110633850e-01 1.167985498905181885e-01 -3.006022982299327850e-02 1.732268035411834717e-01 -3.860455378890037537e-02 -6.324715912342071533e-02 1.574644148349761963e-01 1.142161935567855835e-01 1.468061953783035278e-01 -3.064122609794139862e-02 2.502745389938354492e-02 -1.787037849426269531e-01 -2.230969369411468506e-01 5.485276225954294205e-03 1.798122078180313110e-01 1.283633857965469360e-01 -8.315461874008178711e-02 -3.080283105373382568e-01 -1.176161393523216248e-01 -2.832629978656768799e-01 -2.800102829933166504e-01 8.397024869918823242e-02 -3.926403447985649109e-02 -1.828947365283966064e-01 -8.301890641450881958e-02 8.111983537673950195e-02 -1.142427045851945877e-02 -1.642115116119384766e-01 7.115080021321773529e-03 3.673494234681129456e-02 -1.421852502971887589e-02 -1.845900267362594604e-01 1.017055362462997437e-01 -1.231949310749769211e-02 -1.882686279714107513e-02 7.583361119031906128e-02 -1.605969518423080444e-01 1.433031540364027023e-02 9.185421466827392578e-02 -1.734524220228195190e-01 -6.373338401317596436e-02 -1.915039308369159698e-02 2.079924046993255615e-01 5.890528857707977295e-02 -1.167958304286003113e-01 -1.806492656469345093e-01 -3.984774649143218994e-02 2.502673268318176270e-01 -1.398352831602096558e-01 1.461776942014694214e-01 -8.493876457214355469e-02 -9.704152122139930725e-03 2.091639116406440735e-02 1.401936709880828857e-01 -5.252623558044433594e-02 2.965655624866485596e-01 -1.354567706584930420e-01 -1.321366280317306519e-01 -7.022482901811599731e-02 -1.158223748207092285e-01 -1.306935250759124756e-01 4.062871336936950684e-01 -5.958173274993896484e-01 -6.003552302718162537e-02 -1.423586010932922363e-01 1.913363039493560791e-01 -6.637932062149047852e-01 3.573362529277801514e-02 7.559516280889511108e-02 -6.724979728460311890e-03 1.108437776565551758e-01 2.039156854152679443e-01 1.460906267166137695e-01 -2.811196027323603630e-03 -1.542129665613174438e-01 -4.018181562423706055e-02 -2.852413490472827107e-05
3.568869549781084061e-03 3.992436826229095459e-02 -1.043894067406654358e-01 9.986300952732563019e-03 -3.637298196554183960e-02 -5.727734044194221497e-02 -1.261510401964187622e-01 4.187710210680961609e-02 -2.023556828498840332e-02 1.422758679836988449e-02 1.067079417407512665e-02 7.534049917012453079e-03 -1.162064597010612488e-01 -4.773091152310371399e-02 -8.223700523376464844e-02 -1.140328869223594666e-02 2.357880398631095886e-02 -2.483423426747322083e-02 -1.008071005344390869e-01 -4.436889290809631348e-02 2.073423191905021667e-02 1.691284216940402985e-02 5.293529108166694641e-02 -2.301912754774093628e-02 -1.253803819417953491e-01 5.877631902694702148e-02 -1.154832094907760620e-01 -7.144727557897567749e-02 -9.270290285348892212e-02 7.466220110654830933e-02 -1.092235743999481201e-01 5.294736474752426147e-02 -3.994863945990800858e-03 -3.805612772703170776e-02 -1.203075330704450607e-02 -8.602356165647506714e-02 -1.126902326941490173e-01 -1.033225096762180328e-02 -4.234040528535842896e-02 -8.808506280183792114e-02 -9.678306430578231812e-02 -1.110261008143424988e-01 -2.169834449887275696e-02 -1.190224289894104004e-01 -4.627055302262306213e-02 -5.019362643361091614e-02 -9.897178411483764648e-02 5.965951085090637207e-02 9.902620688080787659e-03 -2.107424195855855942e-03 -5.528062582015991211e-02 6.864249706268310547e-02 2.285503596067428589e-02 -9.391961246728897095e-02 -2.609767764806747437e-02 -5.475558713078498840e-02 -1.271666139364242554e-01 4.715894535183906555e-02 7.081478834152221680e-02 -1.926171034574508667e-02 7.817290723323822021e-03 2.914134529419243336e-04 -1.187756359577178955e-01 -1.076940521597862244e-01 -8.913756906986236572e-02 3.734574466943740845e-02 5.338732153177261353e-02 -8.848653733730316162e-02 -3.296318277716636658e-02 -9.852596372365951538e-02 -1.399077847599983215e-02 5.261255893856287003e-03 -1.014445871114730835e-01 6.271222233772277832e-02 -8.935046941041946411e-02 -6.139902980066835880e-04 -6.532879918813705444e-02 2.960740588605403900e-02 -5.861674994230270386e-02 -1.180500760674476624e-01 -1.225311402231454849e-02 3.841838240623474121e-02 -8.797901123762130737e-02 -5.562216043472290039e-02 6.721517443656921387e-02 -6.984964758157730103e-02 5.138640105724334717e-02 4.388227686285972595e-02 4.169230908155441284e-02 -1.047958061099052429e-01 -9.147471934556961060e-02 -1.143602132797241211e-01 -4.022130742669105530e-03 -1.067372858524322510e-01 1.611458323895931244e-02 -1.204560510814189911e-02 -8.579638600349426270e-02 1.007477473467588425e-02 3.926777094602584839e-02 -9.125660359859466553e-02
2.813701704144477844e-02 -3.001812100410461426e-01 1.422221213579177856e-01 1.490693390369415283e-01 4.639973044395446777e-01 2.376323789358139038e-01 -1.219353079795837402e-01 -7.559291273355484009e-02 -2.086451500654220581e-01 2.168256640434265137e-01 5.188482999801635742e-02 -4.468468576669692993e-02 1.709181666374206543e-01 3.455448523163795471e-02 7.416015863418579102e-02 5.894459038972854614e-02 1.980416178703308105e-01 1.700786799192428589e-01 -1.179403424263000488e+00 -5.734680294990539551e-01 -1.094489991664886475e-01 1.084810048341751099e-01 -2.904037572443485260e-02 2.904251031577587128e-02 -7.375832647085189819e-03 -3.520941734313964844e-02 1.634100377559661865e-01 1.743663400411605835e-01 2.813421189785003662e-01 -2.781876623630523682e-01 -4.227524399757385254e-01 4.161635413765907288e-02 4.476017951965332031e-01 -1.464542895555496216e-01 1.788474619388580322e-01 8.391777426004409790e-02 1.093578189611434937e-01 -1.533745825290679932e-01 3.456977307796478271e-01 -3.741732984781265259e-02 -1.359937638044357300e-01 3.338536322116851807e-01 4.605983793735504150e-01 3.293944597244262695e-01 -6.247622892260551453e-02 -2.877154573798179626e-02 -1.044170930981636047e-02 -1.748449802398681641e-01 8.940569311380386353e-02 -5.439202859997749329e-02 2.490769177675247192e-01 -1.101750209927558899e-01 -1.469853613525629044e-02 -3.643377497792243958e-02 1.613529771566390991e-01 -1.064791008830070496e-01 -5.138518214225769043e-01 3.103151731193065643e-02 -2.233602665364742279e-02 -2.990069985389709473e-01 -4.841895028948783875e-02 -2.845332324504852295e-01 -2.045062631368637085e-01 2.730926312506198883e-02 1.123116072267293930e-02 4.354074895381927490e-01 2.421667277812957764e-01 1.835741549730300903e-01 -1.084390357136726379e-01 -1.858262531459331512e-02 -1.013377979397773743e-01 -9.308643639087677002e-02 -3.240101039409637451e-02 7.392297685146331787e-02 -4.307091832160949707e-01 8.436342328786849976e-02 2.090289145708084106e-01 -1.038979068398475647e-01 -3.728843852877616882e-02 -1.303193345665931702e-02 2.568915188312530518e-01 1.362770795822143555e-01 2.250147797167301178e-02 -2.104217261075973511e-01 7.991579174995422363e-02 -3.030630946159362793e-01 6.490756571292877197e-02 -1.754150390625000000e-01 -9.647285938262939453e-02 3.874649703502655029e-01 -2.277417331933975220e-01 -1.014019995927810669e-01 -1.067655310034751892e-01 -1.087879985570907593e-01 -6.101034209132194519e-02 7.977457344532012939e-02 4.331674426794052124e-03 1.838823109865188599e-01 1.476923078298568726e-01 3.531373338773846626e-03
1.708975881338119507e-01 1.939314752817153931e-01 -1.458892375230789185e-01 1.615975946187973022e-01 -3.895232826471328735e-02 -1.489226222038269043e-01 -1.173547804355621338e-01 2.698323130607604980e-01 -1.138362735509872437e-01 3.085592016577720642e-02 1.216339915990829468e-01 -1.545074731111526489e-01 -2.292104512453079224e-01 1.482870336621999741e-02 -3.562903404235839844e-01 2.296264767646789551e-01 4.476274922490119934e-02 1.547834426164627075e-01 -3.609272092580795288e-02 -1.048456951975822449e-01 -2.083486467599868774e-01 -4.980027377605438232e-01 -5.026656389236450195e-02 2.693507671356201172e-01 -1.373152248561382294e-02 1.297995746135711670e-01 2.785393595695495605e-01 -1.267030462622642517e-02 -1.265825927257537842e-01 1.257746219635009766e-01 6.299559958279132843e-03 -2.594121918082237244e-02 8.542318642139434814e-02 -2.715667486190795898e-01 1.012213304638862610e-01 8.631473034620285034e-02 2.254257909953594208e-02 1.017301604151725769e-01 1.565023809671401978e-01 -1.335103064775466919e-01 -1.626107990741729736e-01 -6.082070525735616684e-03 -1.725809276103973389e-02 -2.254116237163543701e-01 2.910636179149150848e-02 1.117947031161747873e-04 -1.824394166469573975e-01 -2.790721058845520020e-01 -7.256064563989639282e-02 6.864957511425018311e-02 5.869939178228378296e-02 -1.452183444052934647e-02 -1.259976476430892944e-01 7.167769223451614380e-02 1.292229890823364258e-01 -2.151372730731964111e-01 -8.366314321756362915e-02 -6.298798322677612305e-02 1.173122301697731018e-01 -2.190888673067092896e-01 2.481752261519432068e-02 -2.787986397743225098e-01 -2.869553305208683014e-02 5.451344847679138184e-01 -9.600756689906120300e-03 -2.188252806663513184e-01 -2.243478894233703613e-01 -4.158578068017959595e-02 8.629139512777328491e-02 -1.680121570825576782e-01 -1.579878330230712891e-01 -1.514264941215515137e-01 -4.022757709026336670e-02 2.716504931449890137e-01 -2.607857584953308105e-01 2.271783351898193359e-01 -4.991329833865165710e-02 -1.527833342552185059e-01 -1.742817312479019165e-01 1.826518774032592773e-01 3.474484980106353760e-01 -3.340094909071922302e-02 -3.774760663509368896e-02 -1.145842596888542175e-01 6.048902496695518494e-02 -1.095738783478736877e-01 -7.971833646297454834e-02 -1.140617281198501587e-01 9.267979860305786133e-02 1.867922991514205933e-01 -2.916954457759857178e-02 -3.533554077148437500e-02 1.271514222025871277e-02 -2.013689279556274414e-01 3.380337357521057129e-01 -3.149385154247283936e-01 -1.770877046510577202e-03 4.741853103041648865e-02 1.680270582437515259e-01 6.670781294815242290e-04
-1.219802275300025940e-01 1.907378286123275757e-01 -2.475481927394866943e-01 1.868611425161361694e-01 -1.308703869581222534e-01 6.831383705139160156e-02 -4.862154647707939148e-02 5.181010365486145020e-01 -1.553608030080795288e-01 -4.077350255101919174e-03 -1.877975463867187500e-01 -2.350204251706600189e-02 2.240934818983078003e-01 8.708669990301132202e-02 5.216344818472862244e-02 -5.494500324130058289e-02 8.875459432601928711e-02 -2.086946964263916016e-01 -1.948063820600509644e-01 -3.388443216681480408e-02 -1.743820458650588989e-01 -7.768508046865463257e-02 1.075302660465240479e-01 -8.050221204757690430e-02 -1.345411837100982666e-01 1.718162447214126587e-01 -2.940107882022857666e-01 -4.129333421587944031e-03 4.624422639608383179e-02 -2.289880961179733276e-01 1.270478870719671249e-02 3.615899384021759033e-02 2.457260638475418091e-01 -1.149859838187694550e-02 4.313206672668457031e-02 5.843972787261009216e-02 3.969200700521469116e-02 6.622054427862167358e-02 -4.705250263214111328e-01 -1.496372092515230179e-02 2.359681576490402222e-01 -9.955062717199325562e-02 -5.290090292692184448e-02 4.284102097153663635e-02 -4.641024395823478699e-02 -8.125740103423595428e-03 1.468249112367630005e-01 -2.791946232318878174e-01 -3.299779817461967468e-02 4.475783556699752808e-02 8.355432003736495972e-02 -4.296023398637771606e-02 2.604118548333644867e-02 -1.364434957504272461e-01 5.225973948836326599e-02 7.191567122936248779e-02 -2.297623902559280396e-01 -1.381683349609375000e-01 2.637232281267642975e-02 -7.849595695734024048e-02 2.702755331993103027e-01 1.477580666542053223e-01 -1.655613332986831665e-01 -2.098781317472457886e-01 5.102619179524481297e-04 2.480426579713821411e-01 -2.083658874034881592e-01 1.056768074631690979e-01 3.550639003515243530e-02 -6.945364922285079956e-02 -2.178100049495697021e-01 -1.604323089122772217e-01 -5.615075677633285522e-02 1.698402315378189087e-01 -1.072625070810317993e-01 -1.425021588802337646e-01 9.098621010780334473e-01 9.215039014816284180e-02 -1.359693426638841629e-02 -3.540561497211456299e-01 -5.041890591382980347e-02 9.940378367900848389e-02 1.665664762258529663e-01 -3.583646379411220551e-03 6.073140725493431091e-02 -4.570890218019485474e-02 5.486675351858139038e-02 -4.460095893591642380e-03 -2.066487632691860199e-02 9.564636275172233582e-03 -5.437055602669715881e-02 6.972093135118484497e-02 -2.788147330284118652e-01 -3.043234115466475487e-03 2.372127771377563477e-02 2.705594301223754883e-01 5.088366451673209667e-04 -5.282165482640266418e-02 -1.006491035223007202e-01 7.807255606167018414e-04
8.770301938056945801e-03 4.098026081919670105e-02 5.789456143975257874e-02 1.788136176764965057e-02 2.932203561067581177e-02 1.732295192778110504e-02 1.649244502186775208e-02 1.780218072235584259e-02 1.632279343903064728e-02 -1.325371116399765015e-02 1.246681669726967812e-03 -1.521314773708581924e-02 1.116894092410802841e-02 1.898223720490932465e-02 2.357637509703636169e-02 -3.669238183647394180e-03 -7.908764295279979706e-03 1.778709143400192261e-02 2.659354358911514282e-03 2.836483996361494064e-03 2.275398932397365570e-02 -9.673317894339561462e-03 7.767397444695234299e-03 1.672355085611343384e-02 -1.285584759898483753e-03 1.626938395202159882e-02 5.229528527706861496e-03 -2.243201434612274170e-02 -1.174181327223777771e-02 -1.261151023209095001e-02 3.685408737510442734e-03 -9.157447144389152527e-03 2.871039696037769318e-02 2.212169207632541656e-02 -2.671849355101585388e-02 -1.660242490470409393e-02 5.864751990884542465e-03 6.389772170223295689e-04 -2.499534515663981438e-03 -1.750425063073635101e-02 2.681133151054382324e-02 1.833131536841392517e-02 -1.824040524661540985e-02 -7.077570073306560516e-03 1.565680466592311859e-02 3.470840398222208023e-03 -3.895509243011474609e-02 1.284620338992681354e-05 -1.886760728666558862e-04 9.738400578498840332e-03 -5.607220809906721115e-03 -7.771215401589870453e-03 1.016793306916952133e-02 5.635408684611320496e-03 1.975355669856071472e-03 -1.850466802716255188e-02 1.002844050526618958e-02 -9.689983911812305450e-03 1.823678053915500641e-02 -2.280650660395622253e-02 -2.878217957913875580e-02 6.730565335601568222e-03 -1.206547673791646957e-02 2.985612722113728523e-03 -3.743097186088562012e-03 -1.303310273215174675e-03 -6.438637152314186096e-03 3.671342507004737854e-02 1.660842634737491608e-02 -1.922882907092571259e-02 -3.584063798189163208e-02 1.508394628763198853e-02 -7.218535523861646652e-03 -1.161648333072662354e-02 4.578792024403810501e-03 3.998527303338050842e-03 3.368555102497339249e-03 5.899476259946823120e-02 4.196442663669586182e-03 1.189674623310565948e-02 -1.767834648489952087e-02 -2.257040701806545258e-02 -1.367544569075107574e-02 6.810288410633802414e-03 1.156789436936378479e-02 2.104496955871582031e-02 -1.220624428242444992e-03 -5.883122980594635010e-02 -4.456214979290962219e-02 -7.816457189619541168e-03 -1.363439206033945084e-02 -1.395375374704599380e-02 1.748417876660823822e-02 -1.376741798594594002e-03 6.360525637865066528e-02 1.670216210186481476e-02 -3.187690734863281250e+01 -2.511574886739253998e-03 -1.243235636502504349e-02 -1.697616418823599815e-03
3.503910601139068604e-01 5.634089559316635132e-02 1.759792715311050415e-01 1.446461081504821777e-01 6.716800481081008911e-02 -9.386441111564636230e-02 2.762888967990875244e-01 -9.267313778400421143e-02 1.699153333902359009e-01 2.598629295825958252e-01 9.510424733161926270e-02 -1.751512661576271057e-02 6.330040842294692993e-02 8.808263391256332397e-02 1.577715277671813965e-01 8.588054776191711426e-02 2.312666475772857666e-01 -5.224542319774627686e-02 -3.809908330440521240e-01 -1.416717022657394409e-01 1.213183999061584473e-02 -3.898513913154602051e-01 2.139758020639419556e-01 -9.412989765405654907e-02 -8.834335952997207642e-02 8.451456576585769653e-02 1.770471408963203430e-02 8.432539552450180054e-02 8.698140829801559448e-02 -7.595716975629329681e-03 -1.648185104131698608e-01 6.642543524503707886e-02 4.579677879810333252e-01 -8.895401656627655029e-02 -3.073022700846195221e-03 -1.423314120620489120e-02 -2.647553943097591400e-02 1.795943677425384521e-01 7.819788157939910889e-02 1.857051625847816467e-02 2.520505338907241821e-02 2.461317926645278931e-01 1.538949161767959595e-01 -8.131018877029418945e-01 -9.147290140390396118e-02 -1.793495565652847290e-01 -9.818310290575027466e-02 1.077682375907897949e-01 -6.841646879911422729e-02 -8.844061940908432007e-02 -3.752435445785522461e-01 2.693733945488929749e-02 -3.563125431537628174e-02 3.916262090206146240e-02 -1.498947385698556900e-02 1.389023661613464355e-02 -2.043001651763916016e-01 1.393026858568191528e-01 -3.513510152697563171e-02 6.510882824659347534e-02 -1.894666701555252075e-01 -3.130309283733367920e-01 -3.036259114742279053e-01 7.541529834270477295e-02 2.164168655872344971e-02 2.470434159040451050e-01 -5.490708723664283752e-02 3.713494539260864258e-02 -2.862893342971801758e-01 -3.133463561534881592e-01 2.445398271083831787e-01 -3.487167656421661377e-01 3.667918220162391663e-02 2.190726250410079956e-02 -2.434614002704620361e-01 -8.174102753400802612e-02 -1.116901356726884842e-02 -1.467281877994537354e-01 3.343510031700134277e-01 2.362975031137466431e-01 -1.991069465875625610e-01 1.126275882124900818e-01 -4.832965880632400513e-02 8.195162564516067505e-02 -4.562550485134124756e-01 -2.341516613960266113e-01 -2.541273646056652069e-02 1.050848234444856644e-02 -1.896805316209793091e-02 7.302168756723403931e-02 -7.382939010858535767e-02 3.520936146378517151e-02 6.135041266679763794e-02 1.328175812959671021e-01 1.144071668386459351e-02 -5.861386284232139587e-02 -1.568677136674523354e-03 1.326142400503158569e-01 -8.177206851541996002e-03 1.058087963610887527e-02
1.786029487848281860e-01 3.121609687805175781e-01 -4.054850339889526367e-01 -1.378678828477859497e-01 -2.355992645025253296e-01 3.786516487598419189e-01 -1.581496894359588623e-01 -9.383335709571838379e-02 -3.589057922363281250e-01 -1.456854641437530518e-01 5.098944902420043945e-02 1.310575306415557861e-01 -2.459750045090913773e-03 -1.050323620438575745e-01 2.643746733665466309e-01 3.191986083984375000e-01 -3.060981817543506622e-02 -2.961253821849822998e-01 9.967084974050521851e-02 2.408178001642227173e-01 -6.161102056503295898e-01 1.868260502815246582e-01 -3.137848153710365295e-02 -1.362221539020538330e-01 -1.112778484821319580e-01 2.221610695123672485e-01 4.939269721508026123e-01 -5.803371593356132507e-02 -1.594936661422252655e-02 -2.448056265711784363e-02 5.301452055573463440e-02 -1.686233468353748322e-02 3.164829686284065247e-02 3.571296855807304382e-02 -1.154063194990158081e-01 -2.494068294763565063e-01 -6.465417891740798950e-02 3.921384736895561218e-02 -5.757579207420349121e-01 1.214717328548431396e-01 -6.821972876787185669e-02 -4.051319137215614319e-02 -1.867716461420059204e-01 1.361177712678909302e-01 -3.934089094400405884e-02 7.659596204757690430e-01 1.108553633093833923e-01 1.867958605289459229e-01 3.642176091670989990e-02 -7.732026278972625732e-03 -8.315304294228553772e-03 6.459912657737731934e-02 -4.471735656261444092e-01 1.281182374805212021e-02 -1.231491267681121826e-01 4.186078906059265137e-02 1.410266291350126266e-02 -1.748975180089473724e-02 -9.646396338939666748e-02 2.517274320125579834e-01 3.662379384040832520e-01 -1.417476385831832886e-01 1.357172876596450806e-01 4.749179482460021973e-01 5.485356319695711136e-03 -1.150049716234207153e-01 9.697490185499191284e-02 1.008374243974685669e-02 -3.742595016956329346e-01 3.041082620620727539e-02 -6.224692915566265583e-04 -2.055461890995502472e-02 8.690482378005981445e-02 -3.996333107352256775e-02 -1.506864875555038452e-01 8.319851756095886230e-02 -7.963650673627853394e-02 1.255605742335319519e-02 2.081816494464874268e-01 -1.723036915063858032e-01 -1.308703869581222534e-01 7.332253456115722656e-02 -9.160122834146022797e-03 4.253705590963363647e-02 1.051998436450958252e-01 3.954679071903228760e-01 2.543382644653320312e-01 6.887804716825485229e-02 -8.301959633827209473e-01 -6.671263277530670166e-02 -7.854172959923744202e-03 1.511524152010679245e-02 -1.539306491613388062e-01 -4.731953740119934082e-01 -4.125570133328437805e-02 -3.047438561916351318e-01 -6.913326214998960495e-04 -1.392492651939392090e-01 -1.770382933318614960e-02 2.598545979708433151e-03
-2.638862133026123047e+00 8.404406905174255371e-01 -6.124848723411560059e-01 -5.491383075714111328e-01 1.069548726081848145e-01 1.019962206482887268e-01 -1.366094470024108887e+00 -1.001562714576721191e+00 4.247774183750152588e-01 1.971290588378906250e+00 -1.646203398704528809e-01 2.104873806238174438e-01 2.648293077945709229e-01 -2.176890373229980469e-01 2.793477475643157959e-01 -2.955646812915802002e-01 2.596108913421630859e-01 -2.572879493236541748e-01 1.057236641645431519e-01 -1.124318093061447144e-01 -4.556919038295745850e-01 -4.450826942920684814e-01 6.174526214599609375e-01 4.893543943762779236e-02 2.509208619594573975e-01 4.762647673487663269e-02 -1.639840304851531982e-01 -3.061887621879577637e-01 1.215466782450675964e-01 4.889349937438964844e-01 -4.738498106598854065e-02 4.945619702339172363e-01 -4.315444827079772949e-02 -8.699281513690948486e-02 2.800423279404640198e-02 1.815065294504165649e-01 -5.759216099977493286e-02 -3.537079095840454102e-01 -1.563057769089937210e-03 -3.934698104858398438e-01 1.653251349925994873e-01 -5.270982384681701660e-01 4.965925961732864380e-02 4.718383252620697021e-01 -2.956899702548980713e-01 -2.607256732881069183e-02 4.883200228214263916e-01 1.810983717441558838e-01 4.629354551434516907e-02 -1.700762510299682617e-01 -1.060137867927551270e+00 9.221146255731582642e-02 -2.298151850700378418e-01 1.684990972280502319e-01 -3.796915337443351746e-02 3.661541640758514404e-01 3.798899352550506592e-01 -1.119648367166519165e-01 3.642358481884002686e-01 1.442396938800811768e-01 -3.175857961177825928e-01 1.031279191374778748e-01 1.708086580038070679e-01 -1.116218715906143188e-01 -6.452484522014856339e-03 -1.130875706672668457e+00 4.026954472064971924e-01 -1.502555459737777710e-01 1.420449167490005493e-01 -1.816554516553878784e-01 4.951519668102264404e-01 5.899647623300552368e-02 -4.558369815349578857e-01 4.928295612335205078e-01 5.161118507385253906e-02 -1.482907056808471680e+00 6.106364130973815918e-01 -6.451349258422851562e-01 7.888335734605789185e-02 -3.948867693543434143e-02 -1.308070421218872070e-01 1.516758650541305542e-01 -4.182998836040496826e-02 3.810869455337524414e-01 -3.119947910308837891e-01 -7.054267525672912598e-01 2.931759953498840332e-01 -2.838504910469055176e-01 6.534332036972045898e-02 -1.733730435371398926e-01 1.812126487493515015e-01 -3.285632431507110596e-01 -2.827658057212829590e-01 1.521611809730529785e-01 -2.214933484792709351e-01 1.309793293476104736e-01 -2.382562961429357529e-03 1.491627216339111328e+00 8.954870700836181641e-02 -2.631517825648188591e-03
-2.524330019950866699e-01 -1.076961517333984375e+00 1.934579461812973022e-01 -2.236472964286804199e-01 4.325649142265319824e-01 -9.979762881994247437e-02 -4.655359983444213867e-01 -1.381116956472396851e-01 -5.088210701942443848e-01 3.982785344123840332e-02 6.598620861768722534e-02 -5.928555876016616821e-02 -3.532211482524871826e-02 -1.848534792661666870e-01 -4.100810885429382324e-01 3.787088096141815186e-01 -5.258331075310707092e-02 -8.468385785818099976e-02 3.983305096626281738e-01 7.152170687913894653e-02 1.246160045266151428e-01 2.569271065294742584e-02 1.853395849466323853e-01 1.142223402857780457e-01 1.643315404653549194e-01 -4.492462873458862305e-01 4.341535270214080811e-01 1.291830986738204956e-01 -4.136729519814252853e-03 1.535311788320541382e-01 2.608018927276134491e-02 8.121544718742370605e-01 -1.119623333215713501e-01 -9.131052531301975250e-03 4.165705293416976929e-02 3.358459770679473877e-01 -2.021329998970031738e-01 3.270034492015838623e-01 -3.812729120254516602e-01 2.281614989042282104e-01 -1.321102231740951538e-01 -4.929543286561965942e-02 -8.082726038992404938e-03 -2.607831656932830811e-01 4.756316542625427246e-02 2.824669480323791504e-01 -2.163352221250534058e-01 3.999136760830879211e-02 1.480134129524230957e-01 6.043330952525138855e-02 9.352207928895950317e-02 2.058497965335845947e-01 1.214901451021432877e-02 -3.127928078174591064e-02 -2.577487379312515259e-02 -3.232773765921592712e-02 1.329986006021499634e-01 4.540601372718811035e-02 -1.802549958229064941e-01 1.387971080839633942e-02 -2.944429516792297363e-01 -7.110609294613823295e-05 3.341596722602844238e-01 4.139857292175292969e-01 -2.054658159613609314e-02 -2.595070302486419678e-01 6.530852317810058594e-01 -2.501957714557647705e-01 6.660668849945068359e-01 -1.819163933396339417e-02 -1.805901154875755310e-02 5.382603779435157776e-02 5.000416636466979980e-01 7.878537178039550781e-01 -1.545993983745574951e-01 9.114024229347705841e-03 3.682429436594247818e-03 -2.306238710880279541e-01 4.253937005996704102e-01 -1.158886775374412537e-01 2.380617409944534302e-01 -6.980765610933303833e-02 6.465241312980651855e-02 -1.698765009641647339e-01 -6.606312096118927002e-02 3.369689583778381348e-01 -2.646228969097137451e-01 3.923969715833663940e-02 5.629408359527587891e-01 2.541129291057586670e-01 -4.173273686319589615e-03 -2.240425534546375275e-02 4.552061259746551514e-01 2.205559909343719482e-01 7.624237239360809326e-02 -1.361316889524459839e-01 2.605406334623694420e-03 1.121407300233840942e-01 3.585828095674514771e-02 -2.890179865062236786e-03
1.003334149718284607e-01 2.763691544532775879e-01 -5.155611038208007812e-01 1.062697991728782654e-01 2.180337719619274139e-02 9.324526786804199219e-02 -1.689540445804595947e-01 -9.519334137439727783e-02 4.258016943931579590e-01 -1.131102442741394043e-01 2.960737049579620361e-02 2.607153952121734619e-01 -3.389751613140106201e-01 9.560403227806091309e-02 -4.179282784461975098e-01 -3.777945041656494141e-02 3.791113197803497314e-01 5.594124272465705872e-02 3.447089716792106628e-02 2.075947076082229614e-01 -2.716797590255737305e-01 -7.389748841524124146e-02 2.000281810760498047e-01 2.622600495815277100e-01 -9.180892109870910645e-01 5.591786652803421021e-02 -6.884340941905975342e-02 8.368890732526779175e-02 -2.432587556540966034e-03 4.503488242626190186e-01 -3.288412466645240784e-02 6.354472041130065918e-02 2.252492308616638184e-02 -1.995223388075828552e-02 -1.167291328310966492e-01 2.504334747791290283e-01 -2.285492047667503357e-02 9.584486484527587891e-02 -3.683994710445404053e-01 2.258749455213546753e-01 -7.954943180084228516e-02 -2.983690500259399414e-01 -3.388047218322753906e-01 8.840091526508331299e-02 -1.818167045712471008e-02 -1.344283521175384521e-01 2.249015271663665771e-01 -2.554750442504882812e-01 -2.614853978157043457e-01 1.982084475457668304e-02 6.234724447131156921e-02 9.393841028213500977e-03 5.168792232871055603e-02 -1.301020830869674683e-01 -5.629438161849975586e-02 -1.051880568265914917e-01 9.742774814367294312e-02 3.447620943188667297e-02 -1.966302841901779175e-01 1.169788241386413574e-01 -3.485884070396423340e-01 9.317058138549327850e-03 6.474442034959793091e-02 5.967286601662635803e-02 -2.724848454818129539e-03 -1.865558698773384094e-02 2.630026042461395264e-01 -1.639195829629898071e-01 -1.439791754819452763e-03 2.077109664678573608e-01 2.452308684587478638e-01 1.178582683205604553e-01 3.608374297618865967e-02 1.416210085153579712e-01 8.621948957443237305e-02 -2.048843950033187866e-01 -2.539749443531036377e-01 -8.930005133152008057e-02 3.793127238750457764e-01 -3.508294820785522461e-01 -4.566904902458190918e-02 5.851705372333526611e-02 -3.285639733076095581e-02 1.456432789564132690e-01 7.344414293766021729e-02 1.314208749681711197e-02 2.050352841615676880e-01 2.018845528364181519e-01 -8.238962292671203613e-02 2.654835283756256104e-01 1.497202366590499878e-01 -8.289324492216110229e-02 -6.098903343081474304e-02 -1.288053542375564575e-01 -6.081639602780342102e-02 3.192466124892234802e-02 1.311452360823750496e-03 1.697800308465957642e-02 -1.049681529402732849e-01 -1.267188228666782379e-03
-2.658840417861938477e-01 -6.745756417512893677e-02 5.104644224047660828e-02 -2.394917756319046021e-01 4.501248300075531006e-01 1.019570380449295044e-01 -1.354071497917175293e-01 -4.004752263426780701e-02 7.010964751243591309e-01 1.060087233781814575e-01 7.808323204517364502e-02 2.286818772554397583e-01 -8.299694657325744629e-01 -4.550615549087524414e-01 -2.427527867257595062e-02 -1.267524808645248413e-01 -3.206651424989104271e-03 -4.067434743046760559e-02 1.250649988651275635e-01 7.447977364063262939e-02 -1.829766631126403809e-01 -1.503595858812332153e-01 1.070734411478042603e-01 -3.764453530311584473e-02 -1.675575971603393555e-01 -2.165720313787460327e-01 6.498894095420837402e-02 -1.526446342468261719e+00 -1.106065437197685242e-01 -8.159268498420715332e-01 1.073869168758392334e-01 9.893807768821716309e-02 -9.931780099868774414e-01 2.536393105983734131e-01 5.275174509733915329e-03 2.092534750699996948e-01 -4.154715314507484436e-02 -4.252117127180099487e-02 -6.619412899017333984e-01 -6.817495822906494141e-01 -3.981707990169525146e-01 9.880571365356445312e-01 -1.948985755443572998e-01 3.756550252437591553e-01 8.562864661216735840e-01 -1.001373082399368286e-01 -8.737019449472427368e-02 -8.856390416622161865e-02 1.267855316400527954e-01 -4.107806086540222168e-02 -1.017134040594100952e-01 9.324173443019390106e-04 9.653099626302719116e-02 -1.316387206315994263e-01 -1.731418742565438151e-04 -3.545021414756774902e-01 -5.015797019004821777e-01 3.808756470680236816e-01 4.899059534072875977e-01 2.048990279436111450e-01 1.519692987203598022e-01 2.026087045669555664e-02 1.908506900072097778e-01 1.734666526317596436e-01 -3.688953816890716553e-02 -5.870832204818725586e-01 2.573929131031036377e-01 -6.212153434753417969e-01 1.609424948692321777e-01 4.605341330170631409e-02 7.444520592689514160e-01 -9.248638153076171875e-02 2.213019132614135742e-02 -1.355829387903213501e-01 1.148055493831634521e-01 -2.419232875108718872e-01 4.287808015942573547e-02 7.702667266130447388e-02 1.467713117599487305e-01 2.451262027025222778e-01 -1.362012773752212524e-01 9.944764524698257446e-02 2.408273667097091675e-01 1.657864004373550415e-01 -3.308747708797454834e-02 3.344370424747467041e-01 1.540984213352203369e-02 3.033987283706665039e-01 3.744084015488624573e-02 1.977130621671676636e-01 -2.171608656644821167e-01 -1.792375594377517700e-01 -3.347161710262298584e-01 -2.246474176645278931e-01 8.432983607053756714e-02 5.343450307846069336e-01 -8.813223801553249359e-03 5.330445170402526855e-01 9.115357697010040283e-02 -7.823217660188674927e-03
7.756282091140747070e-01 3.719600737094879150e-01 6.022882461547851562e-02 -2.561780251562595367e-02 3.845923021435737610e-02 3.872912004590034485e-02 1.971079856157302856e-01 5.291729420423507690e-02 -4.450693428516387939e-01 -8.543132245540618896e-02 -1.628357470035552979e-01 8.279293030500411987e-02 2.833234518766403198e-02 -2.524080574512481689e-01 6.484409794211387634e-03 2.155030891299247742e-02 7.954452931880950928e-02 2.586437202990055084e-02 2.806565165519714355e-01 -2.823888882994651794e-02 -2.893026731908321381e-02 -3.979819715023040771e-01 -1.899519469588994980e-03 -2.239257656037807465e-02 -2.111705020070075989e-03 1.184874922037124634e-01 3.000830411911010742e-01 3.025244735181331635e-02 1.866737008094787598e-02 -2.545485496520996094e-01 -1.070303097367286682e-02 6.307318806648254395e-02 2.534477412700653076e-02 -9.584421664476394653e-02 5.069334805011749268e-02 -4.332935214042663574e-01 -5.952368676662445068e-02 1.393782198429107666e-01 4.634478092193603516e-01 -4.506958276033401489e-02 9.729794412851333618e-02 -1.000811066478490829e-02 -2.947128713130950928e-01 -1.746802628040313721e-01 4.245372861623764038e-02 4.951536655426025391e-02 -1.044475808739662170e-01 2.363152652978897095e-01 1.026658564805984497e-01 -1.669593900442123413e-01 -2.455477118492126465e-01 6.662026792764663696e-02 -3.491262719035148621e-02 -5.811586230993270874e-02 -1.198801845312118530e-01 5.432264134287834167e-02 -9.873661212623119354e-03 -7.622377481311559677e-03 4.902975633740425110e-02 3.194079920649528503e-02 8.137003518640995026e-03 -7.553622871637344360e-02 -1.239128708839416504e-01 -3.092860579490661621e-01 2.197435311973094940e-02 1.050854623317718506e-01 -1.755472272634506226e-01 3.268110156059265137e-01 2.244346030056476593e-02 -7.061802595853805542e-02 1.606019735336303711e-01 -5.099872499704360962e-02 9.118834882974624634e-02 1.404056549072265625e-01 -3.666030764579772949e-01 5.257552862167358398e-02 -3.086677938699722290e-02 5.195068567991256714e-02 -1.465448290109634399e-01 -6.960186362266540527e-02 -1.330029666423797607e-01 2.072345092892646790e-02 1.275345534086227417e-01 1.110540255904197693e-01 1.813961379230022430e-02 3.436848893761634827e-02 1.460505276918411255e-01 3.916605189442634583e-02 -3.039712645113468170e-02 3.275223076343536377e-02 -3.644021973013877869e-02 1.128582581877708435e-01 2.440157160162925720e-02 -4.087577387690544128e-02 1.216130703687667847e-01 -7.854238152503967285e-02 -1.047077239491045475e-03 1.597880125045776367e-01 -1.318702101707458496e-01 2.687576459720730782e-03
-3.063815236091613770e-01 7.600001692771911621e-01 3.723464310169219971e-01 -2.779456973075866699e-01 -5.444697663187980652e-02 6.156838685274124146e-02 5.375011265277862549e-02 -4.368113577365875244e-01 -6.393019855022430420e-02 -4.946731775999069214e-02 1.371536552906036377e-01 -3.987252414226531982e-01 1.917068243026733398e+00 -4.608426988124847412e-01 -1.212544143199920654e-01 2.466550283133983612e-02 -5.287184193730354309e-02 6.541077047586441040e-02 -1.570520550012588501e-01 -9.761704504489898682e-02 1.742253266274929047e-02 2.749133408069610596e-01 -2.648027986288070679e-02 1.607900261878967285e-01 -2.812334597110748291e-01 3.568351864814758301e-01 -3.115797638893127441e-01 -5.645241141319274902e-01 -1.448330134153366089e-01 2.229444533586502075e-01 -2.972638607025146484e-01 -1.539991516619920731e-02 -7.650827169418334961e-01 -6.544874906539916992e-01 -4.203615784645080566e-01 2.482943087816238403e-01 3.604959230870008469e-03 -3.529029786586761475e-01 -3.837895020842552185e-02 3.107627108693122864e-02 1.184619665145874023e-01 -3.775085508823394775e-01 1.408711075782775879e-02 -5.957755446434020996e-02 1.198070645332336426e-01 -1.562647521495819092e-02 -1.420595645904541016e-01 1.819092780351638794e-01 1.772925108671188354e-01 1.606790572404861450e-01 2.006495893001556396e-01 -8.274678140878677368e-02 2.755987690761685371e-03 -7.092652320861816406e-01 -3.523554503917694092e-01 7.606648802757263184e-01 -3.587049245834350586e-02 5.722063034772872925e-02 -1.296873241662979126e-01 -5.790813267230987549e-02 3.346405923366546631e-02 1.669399999082088470e-02 1.326085417531430721e-03 -1.555338650941848755e-01 -6.453364342451095581e-02 3.635802865028381348e-01 -1.280317306518554688e-01 -1.231383979320526123e-01 1.481114029884338379e-01 -3.122673928737640381e-01 6.610347628593444824e-01 -2.492735236883163452e-01 7.673970609903335571e-02 4.180492460727691650e-02 -1.596520543098449707e-01 5.828883498907089233e-02 -1.043515205383300781e-01 9.233938902616500854e-02 2.681948542594909668e-01 -2.243107855319976807e-01 -8.219084888696670532e-02 -3.398985862731933594e-01 1.400940269231796265e-01 -1.597853749990463257e-02 8.452938497066497803e-02 -2.672866880893707275e-01 -7.287402451038360596e-02 -2.383546382188796997e-01 8.214429020881652832e-02 2.822139114141464233e-02 -2.034847736358642578e-01 2.329674959182739258e-01 -6.787538528442382812e-02 -1.192135289311408997e-01 4.088908731937408447e-01 2.020849473774433136e-02 3.285969374701380730e-03 1.657279729843139648e-01 -2.860183827579021454e-02 -2.899475162848830223e-03
