1.188683584332466125e-01 4.667151346802711487e-02 -5.623224750161170959e-02 -4.796762764453887939e-02 9.305827319622039795e-02 -6.246424838900566101e-02 5.684265494346618652e-02 -3.801466524600982666e-02 8.261897414922714233e-02 1.490663886070251465e-01 6.973760575056076050e-02 -9.406965970993041992e-02 1.534955203533172607e-01 1.914383023977279663e-01 2.985219061374664307e-01 -2.042662650346755981e-01 -1.479173004627227783e-01 1.015124917030334473e-01 5.588466301560401917e-02 5.630202963948249817e-02 1.397614628076553345e-01 6.800996139645576477e-03 -1.282382160425186157e-01 3.804031526669859886e-03 -1.596760898828506470e-01 -1.041331589221954346e-01 -1.104834373109042645e-03 1.181156001985073090e-02 -1.161030083894729614e-01 5.145484954118728638e-02 -7.758153136819601059e-03 -2.849129401147365570e-02 -1.567495167255401611e-01 -5.249134302139282227e-01 -5.683256313204765320e-02 -5.011517927050590515e-02 3.057138621807098389e-01 -8.696552366018295288e-02 8.816547691822052002e-02 8.984274463728070259e-04 -1.174016389995813370e-02 -8.072193711996078491e-02 1.218157336115837097e-01 1.156025379896163940e-01 1.415113657712936401e-01 6.545414775609970093e-02 6.740032881498336792e-02 -3.044431842863559723e-02 1.198916435241699219e-01 7.284295558929443359e-02 1.724638044834136963e-02 4.587220773100852966e-02 1.301289051771163940e-01 4.710752516984939575e-02 8.607617765665054321e-02 -1.051124110817909241e-01 3.575220331549644470e-02 -4.178858362138271332e-03 6.704698503017425537e-02 6.156205758452415466e-02 -6.479982752352952957e-03 -4.933235049247741699e-02 -4.366331920027732849e-02 1.198218762874603271e-01 5.963869020342826843e-02 1.175824180245399475e-02 1.174912303686141968e-01 -1.278937608003616333e-01 -1.865243464708328247e-01 1.414216607809066772e-01 -2.983367815613746643e-02 -8.094653487205505371e-02 1.882568001747131348e-01 6.814441084861755371e-02 -5.938345566391944885e-02 -9.147650003433227539e-02 4.896107688546180725e-02 6.738312542438507080e-02 -1.210398674011230469e-01 1.401141583919525146e-01 9.251400083303451538e-02 -4.283421486616134644e-02 1.425431668758392334e-01 -2.464682012796401978e-01 1.387556195259094238e-01 8.012010366655886173e-04 -8.001335710287094116e-02 1.405226141214370728e-01 -9.359493106603622437e-02 1.372177749872207642e-01 -1.346315592527389526e-01 -6.142440438270568848e-02 -4.263176769018173218e-02 -9.560019709169864655e-03 -9.858689270913600922e-03 -2.308290824294090271e-02 1.638513952493667603e-01 -2.017967551946640015e-01 3.145169466733932495e-02 -2.631380558013916016e-01
8.616078644990921021e-02 -6.718131154775619507e-02 5.443213135004043579e-02 -3.605677932500839233e-02 -7.554914802312850952e-02 -4.086624458432197571e-02 -3.900326192378997803e-01 -6.743382811546325684e-01 -1.034455075860023499e-01 -2.885051816701889038e-02 3.856196254491806030e-02 3.800768405199050903e-02 1.904251612722873688e-02 1.047470271587371826e-01 1.118616908788681030e-01 2.222631573677062988e-01 1.144369840621948242e-01 1.789896339178085327e-01 2.196210622787475586e-01 1.589168757200241089e-01 1.057422980666160583e-01 -2.414594143629074097e-01 1.073404476046562195e-01 -2.109895795583724976e-01 -2.004912495613098145e-01 -4.530603811144828796e-02 -5.914983749389648438e-01 -2.514110207557678223e-01 -2.089537233114242554e-01 -5.744383111596107483e-02 -8.395491540431976318e-02 -1.157329306006431580e-01 -9.449005126953125000e-02 -6.597015541046857834e-03 -1.184563990682363510e-02 1.061625033617019653e-01 -4.039407148957252502e-02 3.349573314189910889e-01 1.529675871133804321e-01 -1.816502958536148071e-02 8.627159893512725830e-02 1.096186712384223938e-01 -2.946546673774719238e-02 -1.104223057627677917e-01 -1.215372234582901001e-02 -1.574799865484237671e-01 1.177966818213462830e-01 9.479601681232452393e-02 -4.838611930608749390e-02 7.142916917800903320e-01 -3.953827619552612305e-01 -7.922119647264480591e-02 4.484753124415874481e-03 2.097239047288894653e-01 -2.682968080043792725e-01 -3.769218176603317261e-02 2.118461430072784424e-01 -1.515909750014543533e-02 -1.919032484292984009e-01 -1.017106100916862488e-01 1.352147907018661499e-01 3.073401749134063721e-02 -1.781450584530830383e-02 -8.456747233867645264e-02 9.627560153603553772e-03 3.148291409015655518e-01 -2.177863568067550659e-01 1.887881755828857422e-01 2.175644338130950928e-01 -2.656849026679992676e-01 -1.046172082424163818e-01 -6.467498540878295898e-01 -1.090113595128059387e-01 -1.734592616558074951e-01 4.004142060875892639e-02 1.143039856106042862e-02 1.259626746177673340e-01 3.542131483554840088e-01 1.365944296121597290e-01 -2.903259098529815674e-01 -5.161809176206588745e-02 -8.065243810415267944e-02 -1.703256517648696899e-01 -4.420478269457817078e-02 9.129741229116916656e-03 -1.407175958156585693e-01 3.300810232758522034e-02 2.171555347740650177e-02 -1.240763589739799500e-01 4.821126163005828857e-02 -3.616472706198692322e-02 3.643585741519927979e-02 -1.542101949453353882e-01 3.638812005519866943e-01 2.236034870147705078e-01 5.718357861042022705e-02 1.023911908268928528e-01 3.556527197360992432e-02 3.858079314231872559e-01 -1.363177150487899780e-01
-2.397102713584899902e-01 -1.199403181672096252e-01 -1.880487985908985138e-02 1.743071079254150391e-01 -1.918360739946365356e-01 1.325692683458328247e-01 -1.915771812200546265e-01 -3.918449282646179199e-01 -1.020933780819177628e-02 5.600973218679428101e-02 5.592280253767967224e-02 -3.791081160306930542e-02 -5.349481105804443359e-02 5.802940111607313156e-03 -2.884918078780174255e-02 -1.983499377965927124e-01 5.052289366722106934e-01 -1.426013857126235962e-01 3.165880739688873291e-01 6.479720026254653931e-02 2.259287983179092407e-01 -1.779317706823348999e-01 3.345120847225189209e-01 -1.957127898931503296e-01 -2.067573368549346924e-01 2.282507121562957764e-01 -1.614781618118286133e-01 1.445640325546264648e-01 -2.642167508602142334e-01 5.235784500837326050e-02 2.841307222843170166e-02 -2.281797975301742554e-01 4.564903303980827332e-02 -3.686261177062988281e-02 9.013153612613677979e-02 -9.569629281759262085e-02 4.470559954643249512e-02 1.460095942020416260e-01 1.787618175148963928e-02 -1.082954276353120804e-02 -2.371515035629272461e-01 -4.056580364704132080e-03 1.360999792814254761e-01 4.899201914668083191e-02 1.820400208234786987e-01 1.072803437709808350e-01 -2.329358160495758057e-01 -6.244853883981704712e-02 3.010646998882293701e-01 5.271799117326736450e-02 -4.210910499095916748e-01 -7.334852218627929688e-02 -3.273177519440650940e-02 -1.751766651868820190e-01 1.018353551626205444e-01 7.288632541894912720e-02 -1.138966232538223267e-01 -9.838322177529335022e-03 2.698778212070465088e-01 -3.428785130381584167e-02 1.241209134459495544e-01 1.599519699811935425e-01 2.473452128469944000e-02 -1.921528577804565430e-01 -1.548507660627365112e-01 -1.048692539334297180e-01 9.654089063405990601e-02 -1.436092257499694824e-01 2.447628974914550781e-01 -9.027140587568283081e-02 2.907731756567955017e-02 -2.841149270534515381e-02 -1.445542424917221069e-01 6.388568878173828125e-02 -2.055404931306838989e-01 -1.526229530572891235e-01 6.630141288042068481e-02 2.543278038501739502e-01 -4.292579740285873413e-02 -4.611515998840332031e-01 -8.068530261516571045e-02 1.830751821398735046e-02 -1.511216759681701660e-01 -1.490955352783203125e-01 -5.533700808882713318e-03 -9.416085481643676758e-02 -9.305725246667861938e-02 1.115915328264236450e-01 5.773290246725082397e-02 4.831247031688690186e-02 -8.685566484928131104e-02 -2.661081403493881226e-02 -5.992059409618377686e-02 8.965335488319396973e-01 -2.124215513467788696e-01 6.580065190792083740e-02 -9.996354579925537109e-02 5.064175650477409363e-02 -6.247671321034431458e-02 1.700436137616634369e-02
-1.477017253637313843e-01 1.264099925756454468e-01 4.507053177803754807e-03 -1.511150300502777100e-01 -4.113353416323661804e-02 7.296164985746145248e-03 -1.991106718778610229e-01 8.619546890258789062e-02 2.220174670219421387e-02 1.479158252477645874e-01 2.649121452122926712e-03 1.428630799055099487e-01 -1.761105060577392578e-01 1.769277304410934448e-01 -5.851675197482109070e-02 -7.735312730073928833e-02 1.219383720308542252e-02 -9.547907114028930664e-02 1.471276432275772095e-01 -1.269970238208770752e-01 2.709822729229927063e-02 -3.290457651019096375e-02 -1.911108940839767456e-01 1.481191217899322510e-01 -2.472811639308929443e-01 2.318834811449050903e-01 3.833573684096336365e-02 -1.944683678448200226e-02 -1.180127412080764771e-01 -4.221593737602233887e-01 -1.654162555932998657e-01 1.128599718213081360e-01 -7.989479601383209229e-02 3.518658131361007690e-02 1.429758034646511078e-02 -4.334033653140068054e-02 -1.225469633936882019e-01 -1.675700210034847260e-02 1.048175394535064697e-01 -1.941190566867589951e-03 -1.078314185142517090e+00 1.309405546635389328e-02 -1.190065592527389526e-01 -1.876352005638182163e-03 -3.806710720062255859e+00 1.950204074382781982e-01 -1.575344242155551910e-02 1.658143699169158936e-01 -2.379560619592666626e-01 -6.350345164537429810e-02 1.386410593986511230e-01 -1.278000026941299438e-01 2.929906360805034637e-02 8.584797382354736328e-02 -1.393613666296005249e-01 -5.033285543322563171e-02 1.827113777399063110e-01 -6.432600785046815872e-03 -1.643679291009902954e-01 1.355033088475465775e-02 -5.531731620430946350e-02 2.243789732456207275e-01 1.598896682262420654e-01 -2.657051980495452881e-01 -6.310965120792388916e-02 -5.763001739978790283e-02 -1.156945992261171341e-02 -8.054801076650619507e-02 1.669424325227737427e-01 3.125103116035461426e-01 2.490144409239292145e-02 9.435189515352249146e-02 -5.321794003248214722e-02 -1.421691030263900757e-01 -9.822619706392288208e-02 2.318829894065856934e-01 -1.740288883447647095e-01 2.481797933578491211e-01 -6.869540363550186157e-02 2.166133001446723938e-02 5.793461948633193970e-02 -2.131186276674270630e-01 2.555029690265655518e-01 7.755734026432037354e-02 9.786617010831832886e-02 1.849257051944732666e-01 1.756356656551361084e-01 1.556676924228668213e-01 2.111133001744747162e-02 -7.400179654359817505e-02 -2.317977100610733032e-01 -6.968469172716140747e-02 -3.646023571491241455e-02 -2.444890290498733521e-01 1.472288668155670166e-01 1.774044707417488098e-02 -8.502040989696979523e-03 1.764913350343704224e-01 1.517776995897293091e-01 3.236245736479759216e-02
-8.549962937831878662e-02 -8.666211739182472229e-03 -4.778786748647689819e-02 1.846528984606266022e-02 -2.558202855288982391e-02 6.224137917160987854e-02 -5.550733301788568497e-03 3.691477468237280846e-04 -1.184670254588127136e-01 -7.447105646133422852e-02 8.817843347787857056e-02 -1.559906601905822754e-01 2.657038569450378418e-01 2.267736941576004028e-01 -7.080323249101638794e-02 -1.160266622900962830e-01 1.042169425636529922e-02 9.297703951597213745e-02 -1.283992230892181396e-01 -7.837967015802860260e-03 5.469550937414169312e-02 1.071171555668115616e-02 1.093489825725555420e-01 -1.552267074584960938e-01 -1.543173193931579590e-01 9.608043730258941650e-02 -6.098741292953491211e-02 5.995698645710945129e-02 -4.537380859255790710e-02 1.661995798349380493e-01 -2.567138373851776123e-01 2.006657421588897705e-01 -3.059499859809875488e-01 -4.974984750151634216e-02 6.845425367355346680e-01 -6.829902529716491699e-02 1.367371827363967896e-01 -2.394860796630382538e-02 2.639475464820861816e-01 -8.449343033134937286e-03 -1.755003184080123901e-01 1.679239980876445770e-02 1.010398417711257935e-01 5.656688660383224487e-02 -2.202053964138031006e-01 -1.010436341166496277e-01 1.727490574121475220e-01 -6.966073065996170044e-02 2.244745567440986633e-02 6.946514546871185303e-02 1.436040401458740234e-01 3.684741631150245667e-02 6.192602589726448059e-02 2.801065519452095032e-02 -6.924409419298171997e-02 -1.014731600880622864e-01 1.246274113655090332e-01 3.106825798749923706e-02 1.360794156789779663e-01 -3.279604390263557434e-02 -7.060691714286804199e-02 2.413378506898880005e-01 4.020273312926292419e-02 4.707799106836318970e-02 -2.197833955287933350e-01 2.480542063713073730e-01 6.389076262712478638e-02 1.139089986681938171e-01 -9.903989266604185104e-04 -4.489630460739135742e-02 -2.818863987922668457e-01 7.542407512664794922e-02 2.099342271685600281e-02 1.611367762088775635e-01 4.603642970323562622e-03 -1.915039122104644775e-01 6.203673034906387329e-02 -9.547597914934158325e-02 2.094556838274002075e-01 1.220863014459609985e-01 -7.337466627359390259e-02 -1.818032711744308472e-01 -1.159431263804435730e-01 2.075669355690479279e-02 2.277022413909435272e-02 1.231913268566131592e-01 -7.369140535593032837e-02 -1.251145452260971069e-01 2.473426610231399536e-02 1.214133277535438538e-01 1.249994263052940369e-01 -1.091238334774971008e-01 6.676795426756143570e-03 1.716698259115219116e-01 -9.292583912611007690e-02 6.075595691800117493e-02 9.496539086103439331e-02 1.290771067142486572e-01 -1.356494612991809845e-02 7.411655783653259277e-02
-1.252173781394958496e-01 9.032621979713439941e-02 -4.193422943353652954e-02 7.962710410356521606e-02 3.614356741309165955e-02 -1.599267870187759399e-01 -1.506103426218032837e-01 1.207131445407867432e-01 -6.702620536088943481e-03 -3.129368647933006287e-02 4.684419184923171997e-02 2.087222933769226074e-01 4.024938046932220459e-01 8.956610411405563354e-02 2.435713977320119739e-04 7.612522225826978683e-03 6.633329391479492188e-02 1.807214021682739258e-01 1.968473494052886963e-01 7.507893443107604980e-02 -5.370807275176048279e-02 -1.349291056394577026e-01 3.230231627821922302e-02 -1.510690897703170776e-01 -1.298033595085144043e-01 -1.454210877418518066e-01 1.658460497856140137e-01 1.320192497223615646e-02 1.451960355043411255e-01 4.109993949532508850e-02 3.427415713667869568e-02 1.481210440397262573e-01 -7.774749398231506348e-02 9.907945059239864349e-03 -8.339721709489822388e-02 -1.831918358802795410e-01 -1.540640741586685181e-01 1.295796595513820648e-03 -2.007244229316711426e-01 1.330777886323630810e-03 -3.054870963096618652e-01 8.937079459428787231e-03 -1.270581036806106567e-01 -1.422920176992192864e-04 -1.696794182062149048e-01 4.862827435135841370e-02 -4.883426055312156677e-02 6.953009217977523804e-02 -4.063626229763031006e-01 3.946963697671890259e-02 3.375416155904531479e-03 -9.069083631038665771e-02 1.322752088308334351e-01 1.688159257173538208e-01 -7.039372622966766357e-02 9.296813607215881348e-02 1.822569966316223145e-02 1.074599102139472961e-02 2.708766460418701172e-01 1.513555049896240234e-01 1.169199720025062561e-01 -5.698711797595024109e-02 6.721729040145874023e-02 -2.009065896272659302e-01 2.591607719659805298e-02 1.587883085012435913e-01 -3.422983363270759583e-02 -8.060796558856964111e-02 -7.214766740798950195e-02 1.750717461109161377e-01 3.122951835393905640e-02 -3.144494071602821350e-02 4.807204939424991608e-03 2.730681560933589935e-02 8.535733073949813843e-02 -8.055931329727172852e-02 -2.222157455980777740e-02 -1.518304049968719482e-01 -1.781450957059860229e-01 1.481578946113586426e-01 1.097397599369287491e-02 -5.966210272163152695e-03 1.358898580074310303e-01 -7.132658362388610840e-02 -6.490001082420349121e-02 6.100570317357778549e-03 -6.215980648994445801e-02 1.716098748147487640e-02 1.053963676095008850e-01 1.690441668033599854e-01 -3.083773553371429443e-01 -3.940662741661071777e-02 1.568602174520492554e-01 -1.487695723772048950e-01 -1.596753299236297607e-01 1.637217104434967041e-01 1.325426399707794189e-01 -3.553219437599182129e-01 -2.424599975347518921e-01 6.766078528016805649e-03
9.463792294263839722e-02 6.737104803323745728e-02 1.307592540979385376e-01 1.755498051643371582e-01 1.645072102546691895e-01 1.025411933660507202e-01 2.442845702171325684e-01 -3.680740296840667725e-01 1.566275358200073242e-01 -1.722687631845474243e-01 -1.649866998195648193e-01 1.305104047060012817e-01 7.040442526340484619e-02 1.057531014084815979e-01 2.995475195348262787e-02 -1.057512834668159485e-01 -5.742708966135978699e-02 -3.944391384720802307e-02 7.396562397480010986e-02 1.455211788415908813e-01 2.404458448290824890e-02 -1.719359308481216431e-02 6.337321549654006958e-02 1.659616678953170776e-01 7.362847775220870972e-02 -1.141164824366569519e-01 -8.148958906531333923e-03 7.628471404314041138e-02 -3.727441281080245972e-02 -1.149510871618986130e-02 -1.113971099257469177e-01 -5.932961404323577881e-02 -1.174166426062583923e-01 7.880662381649017334e-02 8.321243524551391602e-02 1.866290122270584106e-01 -1.266720145940780640e-01 2.908997535705566406e-01 -1.191801577806472778e-01 -5.762820132076740265e-03 2.560676820576190948e-02 3.561327606439590454e-02 6.954070180654525757e-02 -1.548800896853208542e-02 -1.387375444173812866e-01 -3.784971684217453003e-02 8.451966941356658936e-02 -7.088878005743026733e-02 -7.842534780502319336e-02 -4.340339452028274536e-02 -8.627949655055999756e-02 -1.526714488863945007e-02 9.345759451389312744e-02 -1.089245229959487915e-01 -8.662968873977661133e-02 1.505889445543289185e-01 -5.737936124205589294e-02 9.338728152215480804e-03 -7.819562405347824097e-02 7.587149739265441895e-02 -6.390481442213058472e-02 1.070558056235313416e-01 1.751985549926757812e-01 -3.568053245544433594e-02 -5.722993984818458557e-02 -1.835449635982513428e-01 -7.461144775152206421e-02 -1.341596152633428574e-02 -1.683014333248138428e-01 1.202427670359611511e-01 -2.075640261173248291e-01 2.036193907260894775e-01 -6.608422845602035522e-02 -1.648989617824554443e-01 -2.342144995927810669e-01 5.810800567269325256e-02 -2.254867404699325562e-01 -4.027783498167991638e-02 6.190532818436622620e-02 3.013099916279315948e-02 -7.512659300118684769e-03 -5.363757163286209106e-02 5.511486157774925232e-02 -8.439849317073822021e-02 -2.330533694475889206e-03 2.013743817806243896e-01 9.881276637315750122e-02 -7.612324506044387817e-02 8.694218844175338745e-02 4.382736608386039734e-02 2.433169074356555939e-02 -1.352912634611129761e-01 1.863716840744018555e-01 1.675240136682987213e-02 -5.589366704225540161e-02 1.294229775667190552e-01 -5.103406682610511780e-02 -2.177557907998561859e-02 -6.526003777980804443e-02 5.922199226915836334e-03
9.108860790729522705e-02 -2.963665723800659180e-01 -2.557592093944549561e-01 5.188615620136260986e-02 1.635994613170623779e-01 8.116057515144348145e-02 1.593473255634307861e-01 1.259940564632415771e-01 -1.951269805431365967e-01 1.303768455982208252e-01 -2.301709800958633423e-01 3.678854182362556458e-02 1.679476052522659302e-01 3.975279256701469421e-02 8.642973005771636963e-02 -6.622068467549979687e-04 -5.960335955023765564e-02 1.329386830329895020e-01 -5.390924867242574692e-03 2.140026539564132690e-01 1.096815168857574463e-01 -6.895567756146192551e-03 3.358054533600807190e-02 -1.068840399384498596e-01 -1.484450767748057842e-03 -1.087020710110664368e-01 -6.594345718622207642e-02 -1.069626361131668091e-01 1.200833767652511597e-01 2.982041984796524048e-02 7.577423751354217529e-02 -4.624563083052635193e-02 2.512818761169910431e-02 1.484618522226810455e-02 -1.180035248398780823e-01 -1.902512460947036743e-02 -1.254493892192840576e-01 -6.719277799129486084e-02 -1.017981208860874176e-03 -2.131032990291714668e-03 -1.425952911376953125e-01 3.524748608469963074e-02 3.976336214691400528e-03 -4.746087789535522461e-01 -4.586386382579803467e-01 6.967008113861083984e-02 -1.900356709957122803e-01 -3.423863276839256287e-02 -1.040241569280624390e-01 -7.421535998582839966e-02 5.667901784181594849e-02 9.567003697156906128e-03 -2.732282504439353943e-02 2.371894717216491699e-01 2.261832058429718018e-01 -2.053490430116653442e-01 1.203215047717094421e-01 3.671770915389060974e-03 1.139840483665466309e-01 4.125663638114929199e-02 -6.353924982249736786e-03 1.580829918384552002e-01 -2.556171827018260956e-02 1.192597448825836182e-01 1.318572647869586945e-02 6.946104764938354492e-02 -7.207744568586349487e-02 -1.900384873151779175e-01 -1.161198467016220093e-01 -3.564548864960670471e-02 -3.451677784323692322e-02 -1.927355118095874786e-02 -1.227064132690429688e-01 -2.508546039462089539e-02 -8.496904373168945312e-02 -6.416285759769380093e-04 8.291257917881011963e-02 -2.641058713197708130e-02 1.730981166474521160e-03 1.089496314525604248e-01 -8.536068350076675415e-02 2.228667587041854858e-01 4.026668891310691833e-02 -2.562163770198822021e-01 1.708713918924331665e-01 -1.767430305480957031e-01 3.179632872343063354e-02 -2.163569629192352295e-01 -5.154717713594436646e-02 7.901167497038841248e-03 6.142986193299293518e-02 -5.092807114124298096e-03 -1.214823201298713684e-01 2.590271458029747009e-02 -5.030097067356109619e-02 5.705521628260612488e-02 -1.261085708392783999e-04 6.306281685829162598e-02 -3.276795893907546997e-02 -8.475106954574584961e-02
2.036053687334060669e-01 1.179439015686511993e-02 1.883096992969512939e-02 1.316851526498794556e-01 2.426383644342422485e-01 9.421763941645622253e-03 1.613885350525379181e-02 -1.334777027368545532e-01 -3.007787466049194336e-01 1.348545849323272705e-01 -2.817199826240539551e-01 -5.903582274913787842e-02 -1.059258505702018738e-01 9.116030484437942505e-02 1.538340351544320583e-03 -2.583779394626617432e-01 -5.810267105698585510e-02 1.767054013907909393e-02 -2.477234043180942535e-02 1.719542145729064941e-01 7.867890596389770508e-02 2.065210789442062378e-02 9.405954927206039429e-02 -1.967172473669052124e-01 -1.083003133535385132e-01 -1.078299134969711304e-01 6.764855980873107910e-02 2.878416515886783600e-02 -7.232350111007690430e-02 -1.799740828573703766e-02 2.992918789386749268e-01 1.645607203245162964e-01 -1.034573391079902649e-01 -2.039701938629150391e-01 5.234722048044204712e-02 -1.382503509521484375e-01 2.127477973699569702e-01 2.879632115364074707e-01 -7.832403481006622314e-02 2.277666935697197914e-04 2.463394030928611755e-02 7.321680337190628052e-02 -7.025276869535446167e-02 3.327552601695060730e-02 -7.700163125991821289e-02 -1.380940973758697510e-01 1.583098918199539185e-01 -6.123678758740425110e-02 -1.054722145199775696e-01 -8.052131533622741699e-02 -9.365582466125488281e-02 4.213993996381759644e-02 2.120377309620380402e-02 5.944963917136192322e-02 6.249226257205009460e-02 8.612541109323501587e-02 -2.644944749772548676e-02 -7.428051438182592392e-03 -1.372332721948623657e-01 1.867338083684444427e-02 -1.262962259352207184e-02 1.226782873272895813e-01 1.492564566433429718e-02 -1.118993908166885376e-01 -1.158613339066505432e-01 -8.141472935676574707e-02 4.413751512765884399e-02 8.009598404169082642e-02 -5.421777814626693726e-02 -3.703177347779273987e-02 -2.548029273748397827e-02 -3.375265747308731079e-02 -2.022105455398559570e-01 3.279182314872741699e-02 -2.490563541650772095e-01 -2.944540381431579590e-01 -3.177210688591003418e-02 -3.835327923297882080e-02 5.040209740400314331e-02 -9.783023037016391754e-03 5.516020953655242920e-02 -2.945731393992900848e-02 1.640680283308029175e-01 -1.665401970967650414e-03 4.175070673227310181e-02 4.415060207247734070e-02 1.048621386289596558e-01 2.412359416484832764e-01 -1.171132549643516541e-01 1.690800189971923828e-01 2.715131035074591637e-03 -6.844369322061538696e-02 1.329426020383834839e-01 1.611307114362716675e-01 3.166140988469123840e-02 1.134637743234634399e-01 4.180843383073806763e-02 -3.554394841194152832e-02 -2.154059261083602905e-01 -2.617461979389190674e-02
6.655327975749969482e-02 1.039518266916275024e-01 3.347676396369934082e-01 8.089362829923629761e-02 1.638524234294891357e-02 4.639844000339508057e-01 -8.831798285245895386e-02 2.168526500463485718e-01 -3.798264265060424805e-01 -8.503835648298263550e-02 -6.415613651275634766e+00 -5.184089392423629761e-02 -7.097275555133819580e-02 6.121750175952911377e-02 7.773984223604202271e-02 -9.586375951766967773e-01 -1.031506359577178955e-01 -2.930876053869724274e-02 -5.957680195569992065e-02 -2.992347776889801025e-01 1.112203299999237061e-01 4.144570603966712952e-02 7.232216000556945801e-02 -1.116961985826492310e-01 1.748521924018859863e-01 -3.489776849746704102e-01 7.389422506093978882e-02 -1.066578477621078491e-01 3.968548774719238281e-02 7.399997115135192871e-02 -1.204381361603736877e-01 2.455637454986572266e-01 -8.985671401023864746e-01 3.450413793325424194e-02 2.466667629778385162e-02 -9.381234645843505859e-02 -1.065679073333740234e+00 5.978864058852195740e-02 2.046641856431961060e-01 -4.827468656003475189e-03 2.829548716545104980e-01 -8.041461557149887085e-02 1.889205425977706909e-01 -4.819555580615997314e-02 6.284788995981216431e-02 2.298835515975952148e-01 1.806229054927825928e-01 -1.277742385864257812e-01 -1.113431677222251892e-01 -1.227806359529495239e-01 -2.317704260349273682e-02 2.009996958076953888e-02 -9.259900078177452087e-03 -2.107955962419509888e-01 7.258404791355133057e-02 -8.787105977535247803e-02 3.236136436462402344e-01 -7.577234413474798203e-03 1.266590803861618042e-01 -2.891429364681243896e-01 1.144488155841827393e-02 -6.974367797374725342e-02 -3.133772313594818115e-01 3.349004313349723816e-02 -9.562319144606590271e-03 9.039258956909179688e-02 -1.312707364559173584e-01 3.134058415889739990e-01 -8.604807406663894653e-02 -2.543248176574707031e+00 -1.924847602844238281e+00 1.052638515830039978e-02 8.348419331014156342e-03 8.683006465435028076e-02 -2.497754842042922974e-01 1.188518047332763672e+00 2.631361410021781921e-02 -1.590604186058044434e-01 1.909534186124801636e-01 -1.438820362091064453e-01 1.594985835254192352e-02 4.372712969779968262e-01 -2.535548210144042969e-01 1.620257794857025146e-01 7.024936843663454056e-03 2.920783162117004395e-01 -7.476598769426345825e-02 1.151254698634147644e-01 2.322123572230339050e-02 -2.351822145283222198e-02 1.524607837200164795e-01 -1.660773754119873047e-01 1.503442525863647461e-01 1.700389832258224487e-01 -7.468675822019577026e-02 1.929275840520858765e-01 -6.432133913040161133e-01 -5.045107379555702209e-02 2.442227602005004883e-01 -5.750518664717674255e-02
-1.205884665250778198e-01 -1.161880642175674438e-01 2.197699993848800659e-01 -4.900762066245079041e-02 -5.711209028959274292e-02 5.107074044644832611e-03 -9.564299881458282471e-02 3.913669884204864502e-01 -3.575459122657775879e-01 -1.126597449183464050e-01 1.438246201723814011e-02 -1.832645088434219360e-01 8.950194343924522400e-03 7.495931349694728851e-03 -2.972191572189331055e-02 5.658187717199325562e-02 -1.175085678696632385e-01 2.646098844707012177e-02 -1.358379274606704712e-01 4.415868967771530151e-02 -7.368945050984621048e-03 2.157708816230297089e-02 1.028019115328788757e-01 -2.840295732021331787e-01 6.303960829973220825e-02 1.490631252527236938e-01 -1.981425881385803223e-01 -1.376908868551254272e-01 -2.637398801743984222e-02 -1.792505830526351929e-01 2.849103882908821106e-02 -1.934730857610702515e-01 -1.817323118448257446e-01 9.684289246797561646e-02 -1.127658784389495850e-01 -5.911178141832351685e-02 9.880606830120086670e-02 -1.362117081880569458e-01 -1.247598230838775635e-01 1.425397302955389023e-02 -3.132398128509521484e-01 -1.960483379662036896e-02 1.187233775854110718e-01 1.086780708283185959e-02 -2.660267651081085205e-01 4.071344807744026184e-02 3.660809993743896484e-02 3.445683047175407410e-02 1.022542491555213928e-01 4.773019254207611084e-02 6.690710783004760742e-02 2.139207273721694946e-01 1.303370017558336258e-02 7.978799752891063690e-03 1.660339832305908203e-01 -1.303756982088088989e-01 1.638873070478439331e-01 1.477051805704832077e-02 -2.415731698274612427e-01 4.919554293155670166e-02 -9.872621158137917519e-04 7.657997310161590576e-02 3.375045955181121826e-02 -4.955177381634712219e-02 -6.184405088424682617e-02 4.156556725502014160e-01 5.390776693820953369e-02 1.809736043214797974e-01 -5.151624977588653564e-02 2.902924716472625732e-01 1.275595873594284058e-01 -3.817853331565856934e-02 -6.043085455894470215e-02 7.626219186931848526e-03 -7.591656595468521118e-02 -1.510502398014068604e-01 1.438513994216918945e-01 1.878756738733500242e-04 -9.424784034490585327e-02 9.509937465190887451e-02 -2.315064333379268646e-02 -1.246244162321090698e-01 -5.371914058923721313e-02 -1.166290268301963806e-01 -7.352039963006973267e-02 -1.170903742313385010e-01 1.882549226284027100e-01 1.237912774085998535e-01 -6.784993410110473633e-02 1.825892627239227295e-01 -1.190896034240722656e-01 -1.351299434900283813e-01 1.163948178291320801e-01 -3.311881422996520996e-02 1.132765039801597595e-01 4.183982312679290771e-02 7.035840302705764771e-02 7.069902122020721436e-02 3.692301511764526367e-01 4.064342007040977478e-02
1.199878379702568054e-02 -7.475345861166715622e-03 7.196316868066787720e-02 5.658124387264251709e-02 -3.699412941932678223e-02 -2.231155335903167725e-01 1.246826648712158203e-01 -1.127475500106811523e-01 -2.677222788333892822e-01 -1.384689807891845703e-01 -1.250464916229248047e-01 2.309025377035140991e-01 -9.612327814102172852e-02 2.172044664621353149e-01 -1.128271818161010742e-01 -1.760923713445663452e-01 -6.046148017048835754e-03 -5.448183044791221619e-02 -2.236460000276565552e-01 1.063612774014472961e-01 1.152571812272071838e-01 -8.485093712806701660e-02 1.305913776159286499e-01 7.804282009601593018e-02 -3.202171027660369873e-01 2.060569673776626587e-01 -7.506587356328964233e-02 2.272594869136810303e-01 -1.183275878429412842e-01 1.179830729961395264e-01 -3.615902960300445557e-01 1.015821173787117004e-01 1.972288936376571655e-01 -1.871538311243057251e-01 8.496957272291183472e-02 5.418470501899719238e-02 -5.437270179390907288e-02 -1.080306544899940491e-01 7.027789950370788574e-02 -9.273999603465199471e-04 1.292906850576400757e-01 -5.380583554506301880e-02 7.418827712535858154e-02 7.482128590345382690e-02 3.784347176551818848e-01 -5.492256581783294678e-02 -1.312880218029022217e-01 9.537621587514877319e-02 -1.576296240091323853e-02 3.805036842823028564e-02 1.799319386482238770e-01 -1.370292156934738159e-01 6.509477738291025162e-03 1.479818671941757202e-01 -4.777617007493972778e-02 -3.585431277751922607e-01 -3.871520161628723145e-01 3.060709917917847633e-03 7.881541550159454346e-02 2.647279202938079834e-01 7.924619317054748535e-02 7.925452291965484619e-02 -9.830953925848007202e-02 -1.386141926050186157e-01 -1.006569564342498779e-01 -2.041053771972656250e-02 1.170728579163551331e-01 -6.222103163599967957e-02 1.336838454008102417e-01 -1.132978722453117371e-01 6.086859107017517090e-02 1.693214289844036102e-02 1.640789955854415894e-01 -5.784380249679088593e-03 8.035189472138881683e-03 -1.374445706605911255e-01 -1.346049606800079346e-01 -2.175513356924057007e-01 -7.444179058074951172e-02 -4.937587678432464600e-02 -9.511883836239576340e-04 1.220417842268943787e-01 1.460133641958236694e-01 1.766934245824813843e-01 9.527114778757095337e-02 3.524658828973770142e-02 -1.550524383783340454e-01 1.748661845922470093e-01 -1.866064369678497314e-01 -3.814634680747985840e-02 -1.334848254919052124e-01 9.632305800914764404e-02 -8.188781887292861938e-02 -1.467776298522949219e-02 1.997969746589660645e-01 4.447812959551811218e-02 6.256371736526489258e-02 1.475350111722946167e-01 4.519791342318058014e-03 1.144573688507080078e-01
4.920813441276550293e-02 4.006962850689888000e-02 -2.214502245187759399e-01 -7.704515755176544189e-02 1.892485469579696655e-01 2.331015653908252716e-02 -1.766731441020965576e-01 -1.332763284444808960e-01 -1.168108824640512466e-02 -5.029587447643280029e-02 -7.617174834012985229e-02 -1.423233598470687866e-01 9.469451010227203369e-02 1.313215643167495728e-01 3.338672220706939697e-03 -1.909327656030654907e-01 2.306786626577377319e-01 8.128781616687774658e-02 8.640893548727035522e-02 1.145730391144752502e-01 1.858671940863132477e-02 9.574053436517715454e-02 1.243687123060226440e-01 6.872245669364929199e-02 -5.150850117206573486e-02 4.789105430245399475e-02 1.457673776894807816e-02 -3.047934919595718384e-02 7.563062012195587158e-02 -2.678374573588371277e-02 -6.077202036976814270e-02 -1.811832771636545658e-05 -9.873709082603454590e-02 1.483121216297149658e-01 1.499799489974975586e-01 -7.104158401489257812e-02 2.227695100009441376e-02 -8.650683611631393433e-02 -8.091374486684799194e-02 -6.988052628003060818e-04 -3.135058879852294922e-01 2.447706647217273712e-02 4.128822684288024902e-02 3.265891596674919128e-02 1.166208758950233459e-01 3.331162407994270325e-02 2.848830632865428925e-02 6.832268089056015015e-02 3.521016985177993774e-02 1.072528213262557983e-01 1.885500699281692505e-01 -4.087998066097497940e-03 1.228194311261177063e-01 3.583445772528648376e-02 -3.930428996682167053e-03 1.013744175434112549e-01 -5.736821517348289490e-02 3.381665097549557686e-03 -8.884800225496292114e-02 -9.825724363327026367e-02 -2.741877920925617218e-02 -3.645548224449157715e-02 1.532129049301147461e-01 9.713823348283767700e-02 -3.130913898348808289e-02 -2.406077682971954346e-01 2.002722918987274170e-01 -2.018398940563201904e-01 -3.255300223827362061e-02 4.685402289032936096e-02 -8.089461922645568848e-02 -8.240599185228347778e-02 -8.974506705999374390e-02 -1.921671032905578613e-01 -3.936804533004760742e-01 -7.558953016996383667e-02 -3.243216080591082573e-03 2.095328876748681068e-03 -1.335819214582443237e-01 1.584481149911880493e-01 -5.262429267168045044e-02 -1.429153978824615479e-01 -1.533200740814208984e-01 -3.062246441841125488e-01 1.455567181110382080e-01 -9.526567161083221436e-02 8.536759763956069946e-02 -1.211989745497703552e-01 -3.880776092410087585e-02 1.197832897305488586e-01 -1.664842218160629272e-01 -8.980295062065124512e-02 -7.693814486265182495e-02 -2.336630672216415405e-01 -8.722090721130371094e-02 1.093951389193534851e-01 8.369632810354232788e-02 -8.002716302871704102e-02 -1.771842986345291138e-01 -1.152873784303665161e-02
2.905903458595275879e-01 -9.186086058616638184e-02 2.290218472480773926e-01 -1.273846775293350220e-01 1.220585312694311142e-02 -8.846115320920944214e-02 1.044531688094139099e-01 -2.524659410119056702e-02 -9.382482618093490601e-02 9.679522365331649780e-02 -2.732481062412261963e-01 -8.919144980609416962e-03 2.726213075220584869e-02 -6.188874319195747375e-02 -3.563354909420013428e-02 -1.572019606828689575e-01 -4.624227434396743774e-02 6.940905749797821045e-02 3.729720413684844971e-02 -1.797606050968170166e-02 1.132417693734169006e-01 2.291529625654220581e-02 1.620086729526519775e-01 -1.158759556710720062e-02 -4.780773445963859558e-02 1.162337809801101685e-01 1.322526037693023682e-01 -5.771566927433013916e-02 9.278153628110885620e-02 4.973562806844711304e-02 -2.546729287132620811e-03 5.187654122710227966e-02 3.037824928760528564e-01 6.501609086990356445e-02 -1.020140051841735840e-01 6.520914030261337757e-04 -9.504619054496288300e-03 1.640098243951797485e-01 -1.315470635890960693e-01 -3.491349052637815475e-03 2.811356782913208008e-01 7.004135847091674805e-02 3.668892756104469299e-02 7.327036559581756592e-02 -2.158714234828948975e-01 -5.526321008801460266e-02 1.507600992918014526e-01 -1.369066629558801651e-02 -4.358651861548423767e-02 7.808701694011688232e-02 -5.600715056061744690e-02 1.085492894053459167e-01 4.878058284521102905e-02 -5.854250118136405945e-02 -5.346285179257392883e-02 1.948085241019725800e-02 -6.436002999544143677e-02 -3.094618208706378937e-03 -4.697357490658760071e-02 1.509797871112823486e-01 -1.042208373546600342e-01 5.908336490392684937e-02 2.082851231098175049e-01 -3.090036846697330475e-02 7.757570594549179077e-02 -1.204703077673912048e-01 1.156974956393241882e-02 9.723884612321853638e-02 -2.368651181459426880e-01 -2.185477465391159058e-01 -1.495637930929660797e-02 -1.018083989620208740e-01 1.121947467327117920e-01 1.587620526552200317e-01 9.646382927894592285e-02 -1.509699374437332153e-01 1.394972056150436401e-01 -2.415633015334606171e-02 2.072112858295440674e-01 7.255337666720151901e-03 1.444205492734909058e-01 1.972951889038085938e-01 -1.056060269474983215e-01 -1.142914146184921265e-01 1.349048912525177002e-01 -9.113593697547912598e-01 1.040812116116285324e-02 1.519529521465301514e-02 -1.168101429939270020e-01 2.033428251743316650e-01 -2.057575434446334839e-01 1.801629215478897095e-01 -9.431108832359313965e-02 1.475027948617935181e-01 -2.182892337441444397e-02 7.808069139719009399e-02 1.550776511430740356e-01 -2.334561794996261597e-01 -1.080467626452445984e-01 2.013019844889640808e-02
-1.007932350039482117e-01 -8.439540117979049683e-02 -1.515768170356750488e-01 2.821887731552124023e-01 -1.425956785678863525e-01 1.480522602796554565e-01 1.078859791159629822e-01 -1.926720142364501953e-02 5.475058034062385559e-02 6.820100545883178711e-02 -1.463372856378555298e-01 1.060376409441232681e-02 1.440756320953369141e-01 2.751841843128204346e-01 -2.289279699325561523e-01 -1.294255852699279785e-01 9.667692333459854126e-02 -3.162725865840911865e-01 -6.991445273160934448e-02 1.276066303253173828e-01 1.392348259687423706e-01 3.673048317432403564e-02 9.676723927259445190e-02 -1.862871199846267700e-01 -7.448687404394149780e-02 5.993355810642242432e-02 1.868660151958465576e-01 -1.646501272916793823e-01 -3.476370871067047119e-02 2.094610631465911865e-01 -6.952814757823944092e-03 -1.504001766443252563e-01 6.077633798122406006e-02 -2.783257886767387390e-02 2.663135230541229248e-01 6.797990296036005020e-03 -3.654330670833587646e-01 -1.137814833782613277e-03 2.794606387615203857e-01 2.765934914350509644e-03 -2.549046874046325684e-01 3.441638872027397156e-02 -3.554191498551517725e-04 -2.129384577274322510e-01 -1.353221666067838669e-02 -2.215064689517021179e-02 -5.008677020668983459e-02 1.229034662246704102e-01 -3.032976575195789337e-02 2.862746082246303558e-02 -1.429097820073366165e-02 9.298365563154220581e-02 1.172976270318031311e-01 -5.596848949790000916e-02 -2.890057265758514404e-01 9.151688963174819946e-02 -1.418535262346267700e-01 -1.087823975831270218e-02 9.434128552675247192e-02 1.560975015163421631e-01 -2.466105623170733452e-03 1.333489920943975449e-02 4.116463661193847656e-02 -1.653425097465515137e-01 1.097357496619224548e-01 2.849546261131763458e-02 -2.345936596393585205e-01 -1.556057389825582504e-02 4.924851655960083008e-02 5.857634544372558594e-02 -1.018581762909889221e-01 -2.835493767634034157e-03 -8.824653178453445435e-02 -8.748603612184524536e-02 -2.444316074252128601e-02 -1.809445470571517944e-01 1.908892579376697540e-02 -5.916069447994232178e-02 2.673456072807312012e-01 5.592577904462814331e-02 -6.434747483581304550e-03 -1.080717965960502625e-01 -4.114017784595489502e-01 6.123348604887723923e-03 -4.738762974739074707e-02 -1.295486688613891602e-01 4.246928729116916656e-03 1.538953930139541626e-01 -1.187411323189735413e-01 -1.029526740312576294e-01 3.344513475894927979e-01 -2.192350476980209351e-01 1.607373356819152832e-01 -1.555080413818359375e-01 2.682463638484477997e-02 1.352563202381134033e-01 9.140846319496631622e-03 -2.569556832313537598e-01 -2.119258744642138481e-03 1.996393203735351562e-01
4.594610631465911865e-02 6.380430608987808228e-02 4.817465320229530334e-03 1.446394920349121094e-01 1.761427819728851318e-01 -1.191371902823448181e-01 -7.468875497579574585e-02 1.424531042575836182e-01 -4.315998777747154236e-02 9.407722949981689453e-02 -4.637527838349342346e-02 -1.002655178308486938e-01 3.254394233226776123e-01 -6.771612167358398438e-01 5.069791339337825775e-03 -1.272177100181579590e+00 1.687771826982498169e-01 -3.190762177109718323e-02 -2.354255691170692444e-02 4.870743677020072937e-02 9.067870676517486572e-02 1.702418029308319092e-01 8.577843010425567627e-02 -1.193651184439659119e-01 -4.955476149916648865e-02 -5.209903717041015625e-01 -7.901177555322647095e-02 7.058691233396530151e-02 1.175063475966453552e-01 -6.855873018503189087e-02 9.359939694404602051e-01 3.482272848486900330e-02 1.782774031162261963e-01 -2.546501457691192627e-01 2.566280961036682129e-01 -2.619240619242191315e-02 -3.674665987491607666e-01 3.372693667188286781e-03 1.279394030570983887e-01 4.467826336622238159e-03 1.444049179553985596e-01 -2.553174197673797607e-01 2.736886441707611084e-01 2.353085204958915710e-02 -3.292685747146606445e-01 3.229790925979614258e-02 -6.431736517697572708e-03 -3.472732007503509521e-02 8.448982983827590942e-02 -2.414657361805438995e-02 3.526439145207405090e-02 6.582078989595174789e-03 1.228744164109230042e-01 4.916984960436820984e-02 8.910852670669555664e-02 -1.319355219602584839e-01 2.291236817836761475e-01 1.217042561620473862e-02 -1.580134779214859009e-01 3.355613723397254944e-02 1.436169631779193878e-02 -4.400215148925781250e-01 -6.586908549070358276e-02 2.178326547145843506e-01 3.549845218658447266e-01 -1.282489895820617676e-01 -1.207247897982597351e-01 -9.905514866113662720e-02 2.022312879562377930e-01 -1.701874136924743652e+00 -1.399648636579513550e-01 -9.633824974298477173e-02 5.896489322185516357e-02 2.315378785133361816e-01 -2.134410887956619263e-01 -1.643459200859069824e-01 -1.700703799724578857e-01 7.103725522756576538e-02 -6.940370053052902222e-02 8.571474812924861908e-03 2.379060909152030945e-02 -3.368837013840675354e-02 1.687400788068771362e-02 2.914964258670806885e-01 1.386132389307022095e-01 -3.048666477203369141e+00 1.307570487260818481e-01 -1.030615195631980896e-01 4.907387122511863708e-02 -8.548911809921264648e-01 5.785480514168739319e-02 -1.653835028409957886e-01 8.317322283983230591e-02 -1.423111744225025177e-02 -1.454440057277679443e-01 4.766493570059537888e-03 -1.266347765922546387e+00 -5.376726016402244568e-02 -1.791015267372131348e-01 1.448084507137537003e-02
-6.543066352605819702e-02 -5.579364672303199768e-02 5.564678926020860672e-03 1.078457087278366089e-01 2.301864326000213623e-02 4.565976560115814209e-02 7.939903996884822845e-03 1.199624091386795044e-01 -2.254096791148185730e-02 3.095092773437500000e-01 -2.612563073635101318e-01 1.847681701183319092e-01 1.401835978031158447e-01 -1.696830689907073975e-01 -2.909434214234352112e-02 2.037228196859359741e-01 2.341476269066333771e-02 -6.281758844852447510e-02 7.745406776666641235e-02 6.944608688354492188e-02 -1.455686520785093307e-02 -1.151240617036819458e-02 5.589761584997177124e-02 3.553250432014465332e-02 5.424918606877326965e-02 -8.850590139627456665e-02 5.330688133835792542e-02 3.805943578481674194e-02 1.759267002344131470e-01 -8.281187154352664948e-03 2.148395180702209473e-01 -4.578838869929313660e-02 -5.482005327939987183e-02 -1.820515096187591553e-02 9.633785113692283630e-03 -4.443557932972908020e-02 -1.808946877717971802e-01 -2.031861990690231323e-02 -1.655650287866592407e-01 8.704137057065963745e-03 -4.846926927566528320e-01 4.258037731051445007e-02 3.645300492644309998e-02 -2.695307135581970215e-02 -1.653719544410705566e-01 -4.598770663142204285e-02 1.347980201244354248e-01 -1.108259484171867371e-01 4.110363870859146118e-02 6.508628278970718384e-02 -1.332172155380249023e-01 -1.845258474349975586e-02 2.706015482544898987e-02 1.617554873228073120e-01 9.350456297397613525e-02 2.203446179628372192e-01 8.499921299517154694e-03 -2.591044642031192780e-03 1.245557963848114014e-01 1.993400305509567261e-01 4.120040684938430786e-02 -3.820684179663658142e-02 -1.827993243932723999e-02 1.030581369996070862e-01 -1.903174631297588348e-02 9.681039303541183472e-02 6.413673609495162964e-02 -3.200706467032432556e-02 -1.541870683431625366e-01 -1.571519076824188232e-01 -1.715784370899200439e-01 2.070376276969909668e-01 2.069618850946426392e-01 4.578944668173789978e-02 -4.661303479224443436e-03 -1.370019763708114624e-01 -6.141181662678718567e-02 1.456256061792373657e-01 9.156707674264907837e-02 -2.078980952501296997e-02 -1.365555375814437866e-01 -2.197028100490570068e-01 1.254767924547195435e-01 -3.668785840272903442e-02 1.216799616813659668e-01 1.388204991817474365e-01 5.082317441701889038e-02 -7.223729789257049561e-02 9.517864882946014404e-02 -7.119975239038467407e-02 1.534409224987030029e-01 -2.174903154373168945e-01 -1.942222863435745239e-01 2.056341469287872314e-01 2.854734361171722412e-01 -3.673185035586357117e-02 5.689707398414611816e-02 -9.970244765281677246e-02 -4.428095743060112000e-02 3.753069415688514709e-02
-1.154280267655849457e-02 7.534258067607879639e-02 -9.352978318929672241e-02 -9.568556398153305054e-02 -8.184275589883327484e-03 1.304487437009811401e-01 1.584262251853942871e-01 7.178927958011627197e-02 -1.049875989556312561e-01 1.174924299120903015e-01 -1.958962380886077881e-01 3.153716325759887695e-01 2.155652195215225220e-01 -1.362437158823013306e-01 -1.057412773370742798e-01 4.592992737889289856e-02 -2.493827603757381439e-02 3.161556646227836609e-02 3.192534670233726501e-02 1.472850739955902100e-01 9.220018982887268066e-02 -9.639816731214523315e-02 5.381182953715324402e-02 -2.012183070182800293e-01 1.446977555751800537e-01 1.120006814599037170e-01 3.129344806075096130e-02 9.096319973468780518e-02 -6.294163316488265991e-02 1.294095218181610107e-01 3.724587261676788330e-01 -1.123534366488456726e-01 -3.274381160736083984e-01 7.148773223161697388e-02 4.926558956503868103e-02 -1.247897278517484665e-02 5.062079429626464844e-02 -2.079281769692897797e-02 -5.474307015538215637e-02 1.622715615667402744e-03 -1.198984831571578979e-01 -1.623503416776657104e-01 -8.096687495708465576e-02 9.510343521833419800e-02 -2.735720761120319366e-02 2.734614908695220947e-02 1.853469572961330414e-02 9.141577780246734619e-02 -4.154277034103870392e-03 2.735562622547149658e-02 -2.546471916139125824e-02 -5.399241670966148376e-02 8.298349380493164062e-02 1.829952932894229889e-02 1.194309368729591370e-01 2.052880376577377319e-01 1.018710955977439880e-01 8.096322999335825443e-04 1.372118443250656128e-01 2.573264762759208679e-02 2.175716906785964966e-01 8.134627342224121094e-02 8.240959048271179199e-02 1.166667044162750244e-01 -1.233458966016769409e-01 -5.561100244522094727e-01 1.852212250232696533e-01 -4.985236823558807373e-01 2.233202382922172546e-02 7.348649948835372925e-02 1.246699541807174683e-01 5.341799184679985046e-02 -3.677985444664955139e-02 -4.526930302381515503e-02 -9.209380298852920532e-02 1.267444342374801636e-01 8.153726160526275635e-02 -1.801166832447052002e-01 -3.224311769008636475e-01 -1.312932968139648438e-01 7.173379510641098022e-02 -6.394708901643753052e-02 -1.070080623030662537e-01 -8.121956139802932739e-02 7.858341187238693237e-02 2.186608463525772095e-01 9.406566619873046875e-03 2.304656244814395905e-02 2.471508830785751343e-02 -4.551461338996887207e-01 -3.569090273231267929e-03 -4.634119197726249695e-02 9.277914464473724365e-02 4.385913535952568054e-02 -1.154733151197433472e-01 5.891259759664535522e-02 -3.086111247539520264e-01 5.018724873661994934e-02 -1.042131986469030380e-02 1.059373542666435242e-01
-1.250708699226379395e-01 -4.009366035461425781e-02 -3.788509592413902283e-02 -7.496241480112075806e-02 3.871062071993947029e-03 -1.922137886285781860e-01 6.920946296304464340e-03 2.049591839313507080e-01 -2.776582241058349609e-01 -2.159369885921478271e-01 6.829097121953964233e-02 5.259545892477035522e-02 -3.591054379940032959e-01 -8.025533705949783325e-02 -2.518656663596630096e-02 -1.455273032188415527e-01 7.891375571489334106e-02 -4.142433404922485352e-02 -5.903522670269012451e-02 1.073364615440368652e-01 1.465793102979660034e-01 -8.135046809911727905e-03 7.362715899944305420e-02 2.208402380347251892e-02 2.201044373214244843e-02 6.266780942678451538e-02 -2.449610456824302673e-02 1.496459245681762695e-01 -4.939100891351699829e-02 3.125243782997131348e-01 -2.522551417350769043e-01 6.220703199505805969e-02 2.143931239843368530e-01 5.852365493774414062e-02 4.501029103994369507e-02 1.304506976157426834e-02 6.649575382471084595e-02 -5.816128104925155640e-02 3.333394974470138550e-02 -3.154483565595000982e-04 2.138051837682723999e-01 -1.317912936210632324e-01 7.733634859323501587e-02 4.424691200256347656e-02 3.320856392383575439e-01 -1.065336614847183228e-01 7.456006854772567749e-02 2.371932119131088257e-01 4.638294130563735962e-02 1.174487695097923279e-01 -8.845464140176773071e-02 7.514522969722747803e-02 2.366504631936550140e-02 2.534234225749969482e-01 2.874806523323059082e-02 2.625571489334106445e-01 2.546843606978654861e-03 -4.467983264476060867e-03 -7.918623089790344238e-02 1.012604236602783203e-01 2.406321316957473755e-01 2.261228412389755249e-01 4.386180266737937927e-02 1.573052443563938141e-02 -1.880305707454681396e-01 -5.749597027897834778e-02 -2.530521154403686523e-02 3.172909915447235107e-01 1.392380297183990479e-01 -1.227731257677078247e-01 -1.227649673819541931e-02 1.726954281330108643e-01 4.197740554809570312e-02 -7.253679912537336349e-03 3.622825816273689270e-02 5.220253467559814453e-01 -1.434934139251708984e-01 -8.361130207777023315e-02 1.782821118831634521e-02 -2.539823949337005615e-01 -1.478407979011535645e-01 4.525260534137487411e-03 -1.243166103959083557e-01 -9.988837689161300659e-02 -2.221504151821136475e-01 -8.345417678356170654e-02 2.046079784631729126e-01 8.081483840942382812e-02 8.249117992818355560e-03 -5.076351761817932129e-01 2.475237846374511719e-02 -1.048248484730720520e-01 -1.847960203886032104e-01 2.308323085308074951e-01 1.220228523015975952e-01 1.114786788821220398e-01 -2.075336873531341553e-01 -5.083227902650833130e-02 2.186633497476577759e-01 2.226145751774311066e-02
-2.581353485584259033e-02 -8.505710214376449585e-02 1.112521067261695862e-01 -2.973491884768009186e-02 1.183862164616584778e-01 4.977843537926673889e-02 2.374106273055076599e-02 1.131742447614669800e-02 -1.800903826951980591e-01 2.550981640815734863e-01 5.650607496500015259e-02 4.030578583478927612e-02 7.058745250105857849e-03 -1.199113857001066208e-02 -2.837898395955562592e-02 -1.917072534561157227e-01 8.908797055482864380e-02 -3.663466125726699829e-02 -8.036193251609802246e-02 8.737344294786453247e-02 8.386067301034927368e-02 -5.084421113133430481e-02 -4.959258437156677246e-02 1.525296419858932495e-01 1.179679110646247864e-01 -1.102401390671730042e-01 2.958942204713821411e-02 -7.916165143251419067e-02 3.138521686196327209e-02 -7.717102020978927612e-02 -9.305297397077083588e-03 7.176533341407775879e-03 -1.885329931974411011e-01 7.797899097204208374e-02 1.011696755886077881e-01 1.087356507778167725e-01 -9.713400900363922119e-02 -2.268735878169536591e-02 -1.695670187473297119e-01 -3.215343225747346878e-03 -1.632267087697982788e-01 -1.791970431804656982e-02 -2.069115787744522095e-01 -6.242230534553527832e-02 2.648161053657531738e-01 1.882149130105972290e-01 1.124222278594970703e-01 1.173847392201423645e-01 7.570515573024749756e-02 -1.339236199855804443e-01 2.926210872828960419e-02 7.523901015520095825e-02 1.241607591509819031e-01 -7.387076318264007568e-02 2.014678344130516052e-02 8.897723257541656494e-02 2.777654305100440979e-02 3.060046583414077759e-03 1.890326887369155884e-01 -5.994800850749015808e-02 -3.869106248021125793e-02 2.091347575187683105e-01 -1.359425038099288940e-01 2.272791787981987000e-02 2.174532972276210785e-02 -3.277445584535598755e-02 1.271101385354995728e-01 4.133431911468505859e-01 5.350221693515777588e-02 -7.980304770171642303e-03 2.514042556285858154e-01 -3.320132568478584290e-02 2.658134140074253082e-02 3.751068934798240662e-02 -6.631916761398315430e-02 -1.446031183004379272e-01 -1.759234964847564697e-01 -2.290067821741104126e-01 -4.263506531715393066e-01 -2.771180868148803711e-01 1.685218662023544312e-01 1.806576848030090332e-01 1.792596429586410522e-01 -1.001339107751846313e-01 1.611644774675369263e-01 -2.016882002353668213e-01 -8.774552494287490845e-02 -7.926286011934280396e-02 -7.419106364250183105e-02 -8.071117848157882690e-02 -2.506658732891082764e-01 2.619154155254364014e-01 1.235976256430149078e-02 -2.961725890636444092e-01 6.000435352325439453e-02 -4.331793263554573059e-02 4.098890721797943115e-02 -1.105455011129379272e-01 7.181149721145629883e-02 5.342392250895500183e-02
-4.321135580539703369e-02 1.369100958108901978e-01 3.155815303325653076e-01 8.585379272699356079e-02 9.235576540231704712e-02 2.712213667109608650e-03 1.601372063159942627e-01 3.157920837402343750e-01 -1.976218521595001221e-01 -1.040470525622367859e-01 -1.629724353551864624e-01 -4.470966756343841553e-01 -5.190728604793548584e-02 -1.414616107940673828e-01 -2.475084662437438965e-01 2.247192859649658203e-01 1.955865919589996338e-01 3.522830549627542496e-03 8.480548858642578125e-02 -4.252660553902387619e-03 7.365490496158599854e-02 -5.616964027285575867e-02 -2.282554097473621368e-02 -2.387500703334808350e-01 1.494897305965423584e-01 -1.389331966638565063e-01 -1.411684453487396240e-01 9.419360756874084473e-02 -1.001826971769332886e-01 2.355599999427795410e-01 -1.960458755493164062e-01 2.422150820493698120e-01 -5.929169058799743652e-02 1.424105763435363770e-01 -2.222864888608455658e-02 -9.170653671026229858e-02 -6.417142599821090698e-02 -2.216862328350543976e-02 -4.919688776135444641e-02 1.356329419650137424e-03 -2.528685033321380615e-01 6.513959914445877075e-02 1.198701485991477966e-01 -3.834548220038414001e-02 9.702555090188980103e-02 -7.622233778238296509e-02 7.151041924953460693e-02 -6.203842163085937500e-02 2.546603977680206299e-01 -1.871310919523239136e-02 3.157658576965332031e-01 1.069242209196090698e-01 -2.901163324713706970e-02 -2.448017895221710205e-02 5.811835825443267822e-02 1.333725899457931519e-01 3.344349190592765808e-02 1.623503118753433228e-02 -6.677806377410888672e-02 2.539028823375701904e-01 1.734934933483600616e-02 7.733840495347976685e-02 2.609827183187007904e-02 2.635889947414398193e-01 2.670983970165252686e-02 -1.251826733350753784e-01 1.089406684041023254e-01 -1.973060518503189087e-01 -6.689018756151199341e-02 -4.643790423870086670e-02 -1.684478372335433960e-01 -6.422577798366546631e-02 2.947700209915637970e-02 -9.324903041124343872e-02 -1.152201145887374878e-01 -2.330500185489654541e-01 -6.744177639484405518e-02 3.469357499852776527e-03 -1.518130302429199219e-01 3.728285431861877441e-02 2.297562547028064728e-03 6.125493347644805908e-02 6.900191307067871094e-02 -2.514460086822509766e-01 1.626767218112945557e-02 -2.297489047050476074e-01 1.689292788505554199e-01 -1.101603582501411438e-01 -1.443702131509780884e-01 1.466000527143478394e-01 -2.645871043205261230e-01 5.643018707633018494e-02 5.106995627284049988e-02 -1.787657886743545532e-01 -6.983908358961343765e-03 5.246043205261230469e-02 -9.072791785001754761e-02 -9.743342548608779907e-02 4.137722775340080261e-02 1.948189437389373779e-01
-1.560219563543796539e-02 -4.886201396584510803e-02 8.565863966941833496e-02 2.399746328592300415e-01 4.061727225780487061e-02 -8.592586964368820190e-02 -1.211521103978157043e-01 1.303195059299468994e-01 -1.388763487339019775e-01 -2.833831822499632835e-03 1.546236276626586914e-01 1.557179540395736694e-01 9.309704601764678955e-02 -2.433899417519569397e-02 -1.568065583705902100e-02 -9.412838146090507507e-03 1.266366839408874512e-01 -3.243318572640419006e-02 -5.320680513978004456e-02 -1.936119645833969116e-01 4.523169994354248047e-02 -7.450769096612930298e-02 8.115215599536895752e-02 -1.510656205937266350e-03 -1.208909675478935242e-01 5.438753962516784668e-02 -1.049887947738170624e-02 -5.795302987098693848e-02 -6.382099539041519165e-02 -3.012567013502120972e-02 -1.099289357662200928e-01 3.286417573690414429e-02 2.418131679296493530e-01 3.818005621433258057e-01 1.757154762744903564e-01 2.706711553037166595e-02 -7.955744862556457520e-03 4.760942980647087097e-02 -1.757148094475269318e-02 5.800137878395617008e-04 -5.605264902114868164e-01 -1.062412261962890625e-01 -1.622290164232254028e-01 -4.062064886093139648e-01 1.450507789850234985e-01 1.573645174503326416e-01 1.751748286187648773e-02 1.406123042106628418e-01 -1.430569738149642944e-01 1.474367529153823853e-01 2.973755123093724251e-03 4.117702692747116089e-02 5.256830155849456787e-02 -6.524646282196044922e-02 -4.798916727304458618e-02 1.862369924783706665e-01 2.842830121517181396e-02 2.624111017212271690e-03 -4.013514891266822815e-02 -4.760986566543579102e-02 -9.329778142273426056e-03 1.690214872360229492e-02 4.168142378330230713e-02 -1.476870030164718628e-01 6.191650032997131348e-02 5.404546391218900681e-03 -6.101600825786590576e-02 -9.182254225015640259e-02 -9.721381217241287231e-02 1.022902056574821472e-01 -1.841640472412109375e-01 -4.192943871021270752e-02 9.216715395450592041e-02 1.564139872789382935e-01 -1.438836902379989624e-01 -2.649729549884796143e-01 9.659614413976669312e-03 3.648452402558177710e-04 8.857446163892745972e-02 1.596311628818511963e-01 9.244380891323089600e-02 -8.691937476396560669e-02 -5.274533480405807495e-02 -1.001000497490167618e-02 -5.927814543247222900e-02 8.030013740062713623e-02 6.924343109130859375e-02 -8.027981221675872803e-02 8.086188137531280518e-02 7.980575412511825562e-02 -6.138366833329200745e-02 -7.658537477254867554e-02 -7.112053781747817993e-02 9.892874956130981445e-02 -2.346309423446655273e-01 1.735312789678573608e-01 9.386200457811355591e-02 -1.973975896835327148e-01 2.457711286842823029e-02 3.366098180413246155e-02
2.543900609016418457e-01 8.548131585121154785e-02 -3.898917511105537415e-02 9.286341816186904907e-02 1.418363898992538452e-01 5.878559127449989319e-02 5.550403147935867310e-02 -1.798824071884155273e-01 -3.201243653893470764e-02 2.034750431776046753e-01 1.736562401056289673e-01 -1.904543638229370117e-01 1.086270064115524292e-01 6.371640413999557495e-02 -1.366924196481704712e-01 -7.669546455144882202e-02 -5.349759012460708618e-02 1.040230691432952881e-02 2.119685858488082886e-01 -2.354712784290313721e-02 -7.915323227643966675e-02 1.902832090854644775e-02 2.427214197814464569e-02 7.394830137491226196e-02 -3.201302513480186462e-02 -1.856627613306045532e-01 1.665059775114059448e-01 -6.151831895112991333e-02 3.303487971425056458e-02 -4.556179046630859375e-03 1.519238576292991638e-02 -2.440599352121353149e-01 -1.311980038881301880e-01 -3.307891543954610825e-03 3.070264868438243866e-02 1.041423820424824953e-04 -7.925636321306228638e-02 7.125773280858993530e-02 1.741368472576141357e-01 -3.763927379623055458e-03 1.428200602531433105e-01 -2.457775361835956573e-02 -9.108176082372665405e-02 -4.423537850379943848e-02 -1.307440251111984253e-01 -5.279370024800300598e-02 -9.632037580013275146e-02 -3.260711953043937683e-02 2.029720842838287354e-01 -3.213955461978912354e-02 -9.958358854055404663e-02 -4.273126274347305298e-02 1.126204654574394226e-01 1.047413572669029236e-01 3.207732737064361572e-02 -1.192552819848060608e-01 -3.751111626625061035e-01 -9.181174449622631073e-03 -6.958453450351953506e-04 -7.933789491653442383e-02 -9.929376840591430664e-02 7.991228997707366943e-02 -8.028899878263473511e-02 1.523409485816955566e-01 1.052826493978500366e-01 -4.271139204502105713e-01 1.018047705292701721e-01 -1.658080611377954483e-03 -7.965259253978729248e-02 4.285916686058044434e-02 2.282459102571010590e-02 -4.733195155858993530e-02 -6.563804298639297485e-02 -1.575818657875061035e-02 -1.334144501015543938e-03 1.410783231258392334e-01 1.897015422582626343e-01 -1.224351078271865845e-01 -9.113027900457382202e-02 2.210530489683151245e-01 7.186520099639892578e-02 -2.658222019672393799e-01 -1.151527613401412964e-01 -3.922514617443084717e-03 5.658034980297088623e-02 -8.276692032814025879e-02 7.003851979970932007e-02 1.120434030890464783e-01 1.555380374193191528e-01 1.805845648050308228e-01 1.255478560924530029e-01 1.102689802646636963e-01 1.158367283642292023e-02 3.218066394329071045e-01 1.559933647513389587e-02 3.362349420785903931e-02 -8.390308171510696411e-02 -8.111066371202468872e-02 8.612538129091262817e-02 1.166755780577659607e-01
-5.450579896569252014e-02 -1.937231123447418213e-01 -1.322674453258514404e-01 6.049647554755210876e-02 1.582511663436889648e-01 -5.624052882194519043e-02 -3.348406255245208740e-01 5.639316886663436890e-02 1.180792227387428284e-01 1.859664022922515869e-01 4.392708092927932739e-02 -1.131340637803077698e-01 2.030292153358459473e-01 2.531049847602844238e-01 -3.338768482208251953e-01 -3.751962631940841675e-02 -1.250971704721450806e-01 -5.480495840311050415e-02 -6.574629992246627808e-02 -3.997184103354811668e-04 1.320016682147979736e-01 3.931221738457679749e-02 -1.790785938501358032e-01 3.481681048870086670e-01 -1.000396236777305603e-01 2.253079265356063843e-01 -2.841077744960784912e-01 -4.890751838684082031e-02 -1.067140139639377594e-02 -9.714617580175399780e-02 6.011763215065002441e-01 2.660311758518218994e-01 -1.199751272797584534e-01 3.622294217348098755e-02 -1.081380024552345276e-01 7.240515202283859253e-02 7.932937890291213989e-02 -2.628108300268650055e-02 -2.258649654686450958e-02 -1.711852266453206539e-03 1.113816648721694946e-01 -2.640188336372375488e-01 4.220747202634811401e-02 2.760730385780334473e-01 -3.569808304309844971e-01 9.851550310850143433e-02 2.010557204484939575e-01 -1.439369022846221924e-01 -5.408829078078269958e-02 9.225940704345703125e-02 -1.336962282657623291e-01 -1.579508632421493530e-01 -4.681279417127370834e-03 1.325707435607910156e-01 -1.161288693547248840e-01 -1.094182133674621582e-01 1.426889654248952866e-02 -9.496591985225677490e-03 -5.344247072935104370e-02 -1.569808423519134521e-01 5.500723049044609070e-02 5.308746919035911560e-02 7.618327438831329346e-02 -2.324569225311279297e-01 1.757593005895614624e-01 -1.652605459094047546e-02 -5.516988411545753479e-02 -9.302413463592529297e-02 6.408524513244628906e-02 2.260237634181976318e-01 -9.760136716067790985e-03 1.985101774334907532e-02 -1.169376596808433533e-01 -1.406199112534523010e-02 -6.795407086610794067e-02 -3.040221631526947021e-01 5.285783484578132629e-02 1.720330268144607544e-01 -2.724395692348480225e-01 9.556514769792556763e-02 1.836279779672622681e-01 -3.964886814355850220e-02 2.087918519973754883e-01 -1.890695989131927490e-01 1.090428233146667480e-02 -3.294303715229034424e-01 8.722167462110519409e-02 8.019263297319412231e-02 2.648821286857128143e-02 -1.070066168904304504e-01 -7.677692174911499023e-02 2.665694430470466614e-02 -1.352937668561935425e-01 2.354568541049957275e-01 -1.101876571774482727e-01 1.623368114233016968e-01 -6.282977759838104248e-02 1.345738470554351807e-01 2.735968530178070068e-01 3.016151487827301025e-01
-7.741939276456832886e-02 1.308380975387990475e-03 -5.227516964077949524e-02 1.463308092206716537e-02 7.857305929064750671e-03 5.783331394195556641e-02 5.658504366874694824e-02 6.685633957386016846e-02 -4.923781380057334900e-02 7.569659501314163208e-02 1.402462180703878403e-02 1.860191859304904938e-02 -6.026114895939826965e-02 -8.743873983621597290e-02 -3.415273502469062805e-02 4.590570926666259766e-02 -5.153781920671463013e-02 -1.502303592860698700e-02 1.447312161326408386e-02 -2.568688057363033295e-02 -9.248393774032592773e-02 -8.235770463943481445e-02 -6.353296339511871338e-02 2.458076365292072296e-02 -1.069795414805412292e-01 5.330954119563102722e-02 -2.487543225288391113e-02 -7.036738842725753784e-02 5.748264864087104797e-02 -3.942307829856872559e-02 2.060590125620365143e-02 6.310083717107772827e-02 -7.945767045021057129e-02 -1.004272922873497009e-01 -4.006551578640937805e-02 -9.475690126419067383e-02 -3.521033748984336853e-02 -3.315430879592895508e-02 -7.460161298513412476e-02 -1.820318214595317841e-02 7.785619795322418213e-02 -7.831286638975143433e-03 3.862767294049263000e-02 -3.953642770648002625e-02 -4.722486808896064758e-02 -9.100132435560226440e-02 -5.407841503620147705e-02 5.032021179795265198e-02 2.149706147611141205e-02 -1.677558012306690216e-02 -7.854228466749191284e-02 -2.990053221583366394e-02 -4.750135168433189392e-02 6.589211523532867432e-02 4.078204184770584106e-02 2.692623063921928406e-02 6.005997210741043091e-02 -5.302049219608306885e-02 -1.263978984206914902e-02 -8.563458174467086792e-02 -4.098166152834892273e-02 5.320225283503532410e-02 1.330170780420303345e-02 -7.483149319887161255e-02 -9.451018273830413818e-02 6.269936449825763702e-03 -6.837817281484603882e-02 -5.780700221657752991e-02 -3.984975442290306091e-02 -1.328899897634983063e-02 6.367749720811843872e-02 -1.017001569271087646e-01 -3.722355887293815613e-02 -1.853081583976745605e-02 -7.425493001937866211e-02 -1.054152995347976685e-01 -4.783042520284652710e-02 -5.817271769046783447e-03 5.724039301276206970e-02 -7.369656860828399658e-02 1.229008287191390991e-02 -3.154259920120239258e-02 -7.590421289205551147e-02 4.551299288868904114e-02 3.749790787696838379e-02 -1.074176095426082611e-02 -6.677820533514022827e-02 7.818176597356796265e-02 -3.163194656372070312e-02 -3.122054785490036011e-02 -9.976127743721008301e-02 -1.424557622522115707e-02 5.854493752121925354e-02 7.345272600650787354e-02 -4.644626379013061523e-02 3.941033035516738892e-02 -6.018512323498725891e-02 1.908382400870323181e-02 -4.532331228256225586e-02 -1.054215431213378906e-02
1.106133088469505310e-01 -8.227655291557312012e-02 9.049736894667148590e-03 -9.471681900322437286e-03 4.641974568367004395e-01 -6.724122166633605957e-02 3.611507713794708252e-01 2.850222215056419373e-02 -9.736156463623046875e-02 -7.960091531276702881e-02 -1.263176798820495605e-01 3.874716535210609436e-02 -1.626078635454177856e-01 -4.187006875872612000e-02 9.864259511232376099e-02 6.361878663301467896e-02 -2.137146443128585815e-01 -6.375239044427871704e-02 -1.897539645433425903e-01 1.363503281027078629e-02 2.287427335977554321e-02 9.200901538133621216e-02 -9.216512739658355713e-02 1.944108456373214722e-01 5.791797861456871033e-02 5.093682557344436646e-02 2.530363798141479492e-01 -1.621649861335754395e-01 1.889379620552062988e-01 -4.625314474105834961e-01 -9.999643266201019287e-02 3.140932023525238037e-01 -3.839531913399696350e-02 3.180906921625137329e-02 -1.098498255014419556e-01 2.077197879552841187e-01 -2.064088918268680573e-02 2.811429500579833984e-01 -4.684638604521751404e-02 1.582182385027408600e-02 1.099496111273765564e-01 2.378577142953872681e-01 -1.141262501478195190e-01 1.660774499177932739e-01 -1.119481325149536133e-01 -1.622923612594604492e-01 6.512387096881866455e-02 5.433445423841476440e-02 -2.441283464431762695e-01 2.669677436351776123e-01 3.104998469352722168e-01 1.138415485620498657e-01 -7.710944116115570068e-02 -6.928385794162750244e-02 6.053539738059043884e-02 2.709660120308399200e-02 1.444630920886993408e-01 3.741821972653269768e-03 -1.020842418074607849e-02 1.022087112069129944e-01 3.647024556994438171e-02 -5.752289295196533203e-02 1.737312122713774443e-04 6.271456182003021240e-02 -5.084995552897453308e-02 -3.376806974411010742e-01 4.784446582198143005e-02 -6.987583637237548828e-02 -1.836434006690979004e-01 2.319832742214202881e-01 9.866094589233398438e-02 -2.613130211830139160e-01 9.140633046627044678e-02 -1.452774256467819214e-01 7.829114794731140137e-02 -5.509496852755546570e-02 -8.718958497047424316e-02 -2.501552738249301910e-02 1.198808625340461731e-01 -5.935229733586311340e-02 5.190701782703399658e-02 2.372945100069046021e-02 1.249504387378692627e-01 1.965835392475128174e-01 8.840888738632202148e-02 9.805985540151596069e-02 -9.518944472074508667e-02 4.800973832607269287e-02 5.896664224565029144e-03 2.961902879178524017e-02 -1.307867914438247681e-01 -4.136515408754348755e-02 -5.865208804607391357e-02 -4.147911667823791504e-01 -4.826782271265983582e-02 2.423533350229263306e-01 -6.544415955431759357e-04 -8.006268180906772614e-03 -9.225996583700180054e-02 -6.490001082420349121e-02
-1.276937872171401978e-02 -1.690149605274200439e-01 5.124473944306373596e-02 -5.717598646879196167e-02 -1.358955800533294678e-01 4.004367813467979431e-02 1.124986074864864349e-02 5.553363263607025146e-02 -5.679909884929656982e-02 -1.076386347413063049e-01 -4.605349898338317871e-01 1.584220081567764282e-01 -2.170788682997226715e-02 1.180765926837921143e-01 3.085996396839618683e-02 4.555548354983329773e-02 8.977673947811126709e-02 2.853516722097992897e-03 4.977867007255554199e-02 -1.410547941923141479e-01 3.277730196714401245e-02 -4.706393927335739136e-02 1.535808891057968140e-01 -5.183282122015953064e-02 -1.338291317224502563e-01 -6.024043262004852295e-02 -1.815626472234725952e-01 -9.460153430700302124e-02 2.025453001260757446e-01 1.416634768247604370e-01 7.296732068061828613e-02 -1.030240878462791443e-01 -1.226746737957000732e-01 -4.189039766788482666e-02 4.867361858487129211e-02 -7.073034346103668213e-02 -1.982316374778747559e-01 -5.531634390354156494e-02 -5.150159448385238647e-02 3.699184162542223930e-03 7.829874753952026367e-02 6.943926960229873657e-02 4.217863455414772034e-02 8.276629447937011719e-02 -5.994484573602676392e-02 -6.024378910660743713e-02 2.571243941783905029e-01 -1.513501852750778198e-01 1.139092668890953064e-01 -9.794253110885620117e-02 3.535102121531963348e-03 2.304069697856903076e-02 1.429500407539308071e-03 7.324572652578353882e-02 8.600597269833087921e-03 -1.187654659152030945e-01 6.655828654766082764e-02 -3.487224457785487175e-03 -2.333674132823944092e-01 2.421201467514038086e-01 -2.974969148635864258e-01 1.819204092025756836e-01 6.379601359367370605e-02 9.788998216390609741e-02 -1.166868284344673157e-01 -2.108488976955413818e-01 1.096285656094551086e-01 1.975393854081630707e-03 1.131276264786720276e-01 -5.558298900723457336e-02 -8.588417433202266693e-03 -4.541193321347236633e-02 1.374966092407703400e-02 1.960121542215347290e-01 -3.635986894369125366e-02 -1.850092560052871704e-01 -1.389485299587249756e-01 9.333717077970504761e-02 5.299318209290504456e-02 2.295280694961547852e-01 2.528459019958972931e-02 -1.263298839330673218e-01 4.459282383322715759e-02 8.132129907608032227e-03 1.474720686674118042e-01 1.573831588029861450e-01 -1.401140913367271423e-02 9.068193286657333374e-02 -3.492217138409614563e-02 3.019313216209411621e-01 -5.990047357045114040e-04 8.994118869304656982e-02 -1.060524284839630127e-01 -4.665417596697807312e-02 -9.205774404108524323e-03 -2.389476634562015533e-02 3.907157853245735168e-02 -2.078116089105606079e-01 4.120336100459098816e-02 -7.794968783855438232e-03
-1.782380230724811554e-02 2.484125318005681038e-03 -3.809490241110324860e-03 1.532294228672981262e-02 -1.198400370776653290e-02 -1.213951595127582550e-02 7.084947079420089722e-03 2.927117981016635895e-02 -4.056440293788909912e-02 4.052413254976272583e-02 -4.589791409671306610e-03 8.453584276139736176e-03 -2.726605162024497986e-02 8.519914001226425171e-03 3.310005739331245422e-02 1.707246713340282440e-02 -3.390564769506454468e-02 1.890034228563308716e-02 -4.898390173912048340e-02 4.228558018803596497e-02 -3.235679864883422852e-02 7.430436089634895325e-03 1.075017228722572327e-01 -1.669387519359588623e-02 -8.109491318464279175e-03 -6.070364732295274734e-03 3.202395513653755188e-02 3.219978511333465576e-02 2.887023380026221275e-03 -1.666370965540409088e-02 -1.998108439147472382e-02 2.381041273474693298e-02 4.393258318305015564e-02 -1.860294304788112640e-02 -1.159644033759832382e-02 -1.237318757921457291e-02 -3.253160417079925537e-02 1.630471087992191315e-02 -3.047933243215084076e-02 -2.542333030700683594e+01 -1.319617126137018204e-02 2.249966189265251160e-02 4.877723753452301025e-03 -3.261026367545127869e-02 7.279771380126476288e-03 -1.046133227646350861e-03 -8.084134897217154503e-04 -3.824617341160774231e-02 -6.340877618640661240e-03 -1.583565957844257355e-02 2.465742453932762146e-02 -2.613386511802673340e-02 -1.038978174328804016e-01 1.458997093141078949e-02 2.450289949774742126e-02 -6.493548396974802017e-03 -3.508132323622703552e-02 -2.750869898591190577e-04 -1.054047513753175735e-02 4.657116252928972244e-03 -1.556243933737277985e-02 8.683369494974613190e-03 1.454966887831687927e-02 -3.952825441956520081e-03 1.802176353521645069e-03 2.195856068283319473e-03 -3.065094351768493652e-02 -7.965931668877601624e-03 6.460583768784999847e-03 8.917332626879215240e-03 9.893290698528289795e-04 -2.451648004353046417e-03 1.618201099336147308e-02 3.717879578471183777e-02 -4.252315312623977661e-02 -7.678621448576450348e-03 -4.953403025865554810e-03 -1.749469339847564697e-02 2.007569000124931335e-02 6.956216692924499512e-02 3.697857633233070374e-02 -2.087682369165122509e-04 -1.820799335837364197e-02 -3.145890776067972183e-03 -1.050906628370285034e-02 -6.506298668682575226e-03 4.732658620923757553e-03 -4.590535070747137070e-03 3.029879415407776833e-03 -6.164487823843955994e-02 2.769807353615760803e-02 -5.926646408624947071e-04 6.312064826488494873e-02 -2.171311341226100922e-02 2.087396755814552307e-02 -1.362321898341178894e-02 8.996464312076568604e-03 -1.812493056058883667e-02 -3.098890883848071098e-03 -3.239173069596290588e-02
1.039252895861864090e-02 1.482793986797332764e-01 9.696035645902156830e-03 -9.683589637279510498e-02 -8.545269072055816650e-02 1.227157041430473328e-01 8.579960465431213379e-02 -8.439306169748306274e-02 -1.906424947082996368e-02 2.219818234443664551e-01 3.727261675521731377e-03 2.175380885601043701e-01 3.986092805862426758e-01 -2.102194130420684814e-01 -5.966405570507049561e-02 1.460096687078475952e-01 7.044617831707000732e-02 2.503342926502227783e-01 1.769348420202732086e-02 -1.734841316938400269e-01 2.206491529941558838e-01 -1.420772224664688110e-01 4.408715069293975830e-01 -1.748499125242233276e-01 -2.595066726207733154e-01 5.450115799903869629e-01 1.588270068168640137e-01 -1.173266619443893433e-01 -9.024680405855178833e-02 -4.710807278752326965e-02 2.275908589363098145e-01 -5.097566172480583191e-02 1.549839526414871216e-01 -6.963325291872024536e-02 3.143183421343564987e-03 2.326963283121585846e-02 -1.667720079421997070e-01 1.471680104732513428e-01 2.932546138763427734e-01 -4.061437211930751801e-03 -1.306239217519760132e-01 -3.118362128734588623e-01 -2.017055600881576538e-01 -8.879568427801132202e-02 -1.287058144807815552e-01 1.158182248473167419e-01 -3.952875360846519470e-02 2.773636206984519958e-02 -2.993496321141719818e-02 -2.937090210616588593e-02 -5.734688043594360352e-02 3.066577762365341187e-02 3.705463185906410217e-02 -5.093018710613250732e-02 -9.317447990179061890e-02 -7.349982112646102905e-02 1.257597655057907104e-01 1.362957805395126343e-02 -1.541498750448226929e-01 2.671657800674438477e-01 2.351219020783901215e-02 -1.552648991346359253e-01 -2.438033968210220337e-01 -2.457635253667831421e-01 1.437393724918365479e-01 1.758198067545890808e-02 -1.293955277651548386e-02 3.314409852027893066e-01 -6.829978525638580322e-02 -8.937801420688629150e-02 -1.739339828491210938e-01 4.079940170049667358e-02 3.823756426572799683e-02 -4.025224745273590088e-01 2.434364855289459229e-01 1.192715540528297424e-01 -5.141119286417961121e-02 3.223422169685363770e-01 2.549113929271697998e-01 -1.299368590116500854e-01 1.497094631195068359e-01 8.834744989871978760e-02 2.378207147121429443e-01 2.024810016155242920e-02 -6.575258821249008179e-02 1.106671057641506195e-03 4.407639801502227783e-02 -2.452651560306549072e-01 5.113079026341438293e-02 -4.101913571357727051e-01 2.003008872270584106e-01 -3.213254809379577637e-01 1.634462922811508179e-01 1.092129722237586975e-01 2.903914451599121094e-01 -1.555824130773544312e-01 -4.029605984687805176e-01 -2.545815706253051758e-02 -1.912584304809570312e-01 5.021508783102035522e-02
1.549499668180942535e-02 4.582545254379510880e-03 -1.069783349521458149e-03 1.051670033484697342e-02 3.472935175523161888e-03 2.437296509742736816e-02 1.180866081267595291e-02 -2.624687924981117249e-02 -5.952135659754276276e-03 6.201718933880329132e-04 4.231545608490705490e-03 5.701743066310882568e-03 -3.315882012248039246e-02 -8.686237037181854248e-03 -3.765103593468666077e-02 -4.783748649060726166e-03 -1.559571456164121628e-02 3.629271686077117920e-02 -3.497120365500450134e-02 1.189565565437078476e-02 8.846700191497802734e-03 1.600135234184563160e-03 4.112349078059196472e-02 -1.320784352719783783e-02 -3.848421853035688400e-03 1.435282465536147356e-04 1.529078092426061630e-02 1.632298156619071960e-02 -4.310157382860779762e-04 -3.980468492954969406e-03 1.179136428982019424e-02 1.671727001667022705e-02 1.082854904234409332e-02 -8.874570019543170929e-03 -1.048181205987930298e-02 -1.971864374354481697e-03 -5.086814984679222107e-03 1.094265561550855637e-02 8.076971396803855896e-03 3.565202350728213787e-04 2.714320318773388863e-03 1.246714871376752853e-02 -1.037344522774219513e-02 1.386891584843397141e-02 9.548461996018886566e-03 -4.719668626785278320e-02 -8.586196228861808777e-03 2.111517591401934624e-03 1.682334765791893005e-02 -2.348437905311584473e-02 1.612216793000698090e-02 -1.148469280451536179e-03 5.521203204989433289e-02 -2.355802804231643677e-02 1.516237171017564833e-05 -1.042590755969285965e-02 -6.181786302477121353e-03 -1.772366714477539062e+01 2.126138284802436829e-02 -1.819211803376674652e-02 -4.570262879133224487e-02 2.002527378499507904e-02 -6.780942436307668686e-03 -2.003566920757293701e-02 -9.377609938383102417e-03 5.335378460586071014e-03 -7.031511515378952026e-03 7.626174017786979675e-03 2.716473536565899849e-03 1.622189953923225403e-02 1.303438004106283188e-02 1.822550781071186066e-02 1.155742164701223373e-02 -1.260085497051477432e-02 -8.387000299990177155e-03 4.075293429195880890e-03 1.121308375149965286e-02 -2.772908285260200500e-02 -2.433431148529052734e-02 -3.043575445190072060e-03 9.169357828795909882e-03 1.234425511211156845e-02 9.385687881149351597e-04 -5.053766071796417236e-03 -1.485069841146469116e-02 -1.155404839664697647e-02 -6.550182588398456573e-03 -2.145981561625376344e-04 5.774815566837787628e-03 -2.302328497171401978e-02 -1.080515049397945404e-02 -1.494741719216108322e-02 1.727668568491935730e-03 -6.239301990717649460e-03 4.098439589142799377e-02 -3.788439184427261353e-02 -1.181416865438222885e-02 1.018394622951745987e-02 2.344380505383014679e-02 3.576443344354629517e-02
-2.376056089997291565e-02 6.602869182825088501e-02 1.040207222104072571e-01 2.813672646880149841e-02 3.379498049616813660e-02 5.971108376979827881e-02 -4.721863567829132080e-02 -1.515139192342758179e-01 -1.627988964319229126e-01 -3.047676086425781250e-01 -1.644472926855087280e-01 -3.546898066997528076e-02 1.804905980825424194e-01 3.835160732269287109e-01 -2.856294214725494385e-01 -9.890896081924438477e-02 6.007913500070571899e-03 -9.502835571765899658e-02 -1.185678541660308838e-01 1.549927797168493271e-02 -1.450693160295486450e-01 -5.420298129320144653e-02 -2.478152811527252197e-01 2.386947162449359894e-02 -3.631456792354583740e-01 1.223330572247505188e-01 -4.679932817816734314e-02 1.288061738014221191e-01 1.882176287472248077e-02 -2.239262685179710388e-02 -2.521595656871795654e-01 -3.091460093855857849e-02 1.412811726331710815e-01 9.433490037918090820e-02 5.409383215010166168e-03 1.019964367151260376e-02 -3.769557178020477295e-02 -1.530981995165348053e-02 -9.936647489666938782e-03 -3.380197158548980951e-04 -2.318351529538631439e-02 -1.729157119989395142e-01 -2.603720426559448242e-01 -1.069022715091705322e-01 -6.998133379966020584e-03 1.195692792534828186e-01 -1.826335787773132324e-01 -2.347730472683906555e-02 3.146423771977424622e-02 4.660019651055335999e-02 -7.306061685085296631e-02 -3.496909514069557190e-02 1.677370071411132812e-01 -1.631157249212265015e-01 2.906193025410175323e-02 3.049958124756813049e-02 -2.026155591011047363e-01 6.116287782788276672e-03 -1.740680932998657227e-01 1.454555094242095947e-01 -1.328196078538894653e-01 -1.057494878768920898e-01 2.532420754432678223e-01 1.440919842571020126e-02 -3.212671875953674316e-01 8.604013919830322266e-02 9.861326962709426880e-02 1.700621992349624634e-01 -1.084800958633422852e-01 1.646170765161514282e-01 1.728931255638599396e-02 -5.748074967414140701e-03 1.580076813697814941e-01 1.023720726370811462e-01 -2.660365775227546692e-03 1.667428612709045410e-01 1.169001832604408264e-01 1.120325773954391479e-01 -1.212351471185684204e-01 5.318348854780197144e-02 -3.191619217395782471e-01 -8.795171976089477539e-03 -8.492822200059890747e-02 2.498087137937545776e-01 3.716075420379638672e-02 -2.237369269132614136e-01 4.158234596252441406e-02 2.787034958600997925e-02 -2.725077606737613678e-02 3.693519234657287598e-01 5.896749719977378845e-02 -1.306603848934173584e-01 -1.443917211145162582e-02 6.118552759289741516e-02 1.326164416968822479e-02 3.653420507907867432e-02 -2.088939212262630463e-02 -1.221930608153343201e-01 -1.166346371173858643e-01 2.670645117759704590e-01
-1.358813196420669556e-01 9.076303243637084961e-02 -8.734722435474395752e-02 9.928708523511886597e-02 2.386321872472763062e-01 -7.557993382215499878e-02 -4.750488698482513428e-02 -6.464667618274688721e-02 -3.845677673816680908e-01 -1.195720508694648743e-01 -3.255860507488250732e-02 -5.697872117161750793e-02 -1.485396623611450195e-01 -3.360228240489959717e-01 -2.244727313518524170e-01 -2.195771485567092896e-01 -1.767345219850540161e-01 -7.820252329111099243e-02 -1.846907734870910645e-01 1.866158246994018555e-01 -7.762727141380310059e-02 -6.759829074144363403e-02 -2.510718815028667450e-02 1.188743114471435547e-01 -3.656640648841857910e-02 -4.903485253453254700e-02 -4.096086695790290833e-02 2.128744684159755707e-02 2.933815307915210724e-02 -5.914274137467145920e-03 2.173928469419479370e-01 -9.228850901126861572e-02 -2.907842695713043213e-01 -1.886748969554901123e-01 -2.417036890983581543e-01 2.965772524476051331e-02 2.124456912279129028e-01 1.842285692691802979e-01 1.416105777025222778e-01 -2.528995741158723831e-03 -6.599059700965881348e-02 -4.550937190651893616e-02 -3.727388381958007812e-02 -2.394191622734069824e-01 2.036595344543457031e-01 1.125427260994911194e-01 -2.842852659523487091e-02 4.555077105760574341e-02 1.267280131578445435e-01 -5.131796002388000488e-02 -2.221818566322326660e-01 3.868374228477478027e-01 1.069191694259643555e-01 -1.796199083328247070e-01 -6.234132498502731323e-02 6.243567541241645813e-02 6.007580831646919250e-02 -1.578255556523799896e-02 -2.469557523727416992e-01 -5.559464171528816223e-02 -7.302664965391159058e-02 1.566946133971214294e-02 -1.898090355098247528e-02 1.790507584810256958e-01 -1.137053128331899643e-02 -1.614955365657806396e-01 -1.029663681983947754e-01 4.778026416897773743e-02 1.678680926561355591e-01 1.194078549742698669e-01 -2.159547619521617889e-02 -4.656481556594371796e-03 1.857803910970687866e-01 -1.059061735868453979e-01 -1.317491754889488220e-03 -2.991546504199504852e-02 2.309495359659194946e-01 8.998439460992813110e-02 -6.033447757363319397e-02 5.323221907019615173e-02 -8.560081571340560913e-02 1.264796685427427292e-02 1.360762119293212891e-01 5.170280113816261292e-02 2.114964574575424194e-01 7.126843184232711792e-02 1.429105848073959351e-01 -1.915105059742927551e-02 3.362387120723724365e-01 5.183994397521018982e-02 -8.035179972648620605e-02 2.537891864776611328e-01 4.907037317752838135e-02 2.603096421808004379e-03 -2.392475120723247528e-02 -1.071639955043792725e-01 1.595646142959594727e-01 1.384316980838775635e-01 -1.892274171113967896e-01 2.036544233560562134e-01
3.105214796960353851e-02 -2.022917754948139191e-02 -1.459728926420211792e-01 -3.899316862225532532e-02 5.533189699053764343e-02 -5.403673276305198669e-02 2.380344867706298828e-01 -4.724819213151931763e-02 1.537250876426696777e-01 1.762794554233551025e-01 -1.048072129487991333e-01 -3.327395766973495483e-02 -5.934426933526992798e-02 1.549791265279054642e-02 -3.923215344548225403e-02 9.440778754651546478e-03 -2.623202838003635406e-02 -6.201801449060440063e-02 1.131406202912330627e-01 1.541014760732650757e-02 8.174347691237926483e-03 1.405092794448137283e-02 1.534272823482751846e-02 2.045683860778808594e-01 -1.550467610359191895e-01 -1.293777972459793091e-01 -8.079455047845840454e-02 3.399407118558883667e-02 1.063518226146697998e-01 3.259640932083129883e-01 -3.314583599567413330e-01 2.289687395095825195e-01 -4.648518189787864685e-02 2.097038365900516510e-02 2.185166329145431519e-01 1.267927587032318115e-01 -1.014387458562850952e-01 -1.084767580032348633e-01 -1.635089665651321411e-01 -7.221730425953865051e-03 -1.910296231508255005e-01 -1.008383464068174362e-02 2.306954264640808105e-01 -2.253302484750747681e-01 6.152391806244850159e-02 9.960828348994255066e-03 1.807999610900878906e-01 -5.614054203033447266e-02 7.048553228378295898e-02 1.920304074883460999e-02 -1.321878582239151001e-01 -1.519360840320587158e-01 -7.398224622011184692e-02 1.136250644922256470e-01 5.349150300025939941e-02 -5.104624107480049133e-02 -6.996637582778930664e-02 -1.097556669265031815e-02 2.429202944040298462e-01 1.237013116478919983e-01 -6.278652232140302658e-03 8.472260832786560059e-02 2.070725113153457642e-01 3.293232023715972900e-01 9.397333860397338867e-02 -2.908910214900970459e-01 4.406541585922241211e-02 -1.219735294580459595e-01 1.646949052810668945e-01 2.333118766546249390e-01 -1.070604622364044189e-01 1.274176407605409622e-02 -1.904962807893753052e-01 -1.576049625873565674e-01 1.077404245734214783e-02 -2.258900925517082214e-02 1.508666723966598511e-01 1.705067604780197144e-01 -8.542218245565891266e-03 -2.923032268881797791e-02 5.296150594949722290e-02 5.994148924946784973e-02 1.423374842852354050e-02 2.602466754615306854e-02 -1.948543637990951538e-02 1.277978569269180298e-01 -4.861278459429740906e-03 -6.494241952896118164e-02 -1.871128529310226440e-01 -7.843398302793502808e-02 -1.939114555716514587e-02 -1.605419963598251343e-01 3.307052701711654663e-02 1.087417080998420715e-02 1.069108843803405762e-01 -4.759313073009252548e-03 1.434250175952911377e-01 1.859478279948234558e-02 -1.927455514669418335e-01 4.034649953246116638e-02
-5.192126333713531494e-02 1.416203333064913750e-03 2.233754247426986694e-01 1.150400415062904358e-01 7.878870517015457153e-02 -2.951854281127452850e-02 -1.179643347859382629e-01 -3.171147033572196960e-02 -1.001217365264892578e-01 1.207380369305610657e-01 1.045445054769515991e-01 9.966108947992324829e-02 4.605731740593910217e-02 -1.560402214527130127e-01 -6.471464037895202637e-02 -1.624323800206184387e-02 -1.211469545960426331e-01 3.651676233857870102e-03 7.707205414772033691e-02 7.224200665950775146e-02 -3.850283799692988396e-03 -1.172635778784751892e-01 -3.433212637901306152e-02 7.815539836883544922e-02 -2.581682503223419189e-01 8.431921899318695068e-02 -1.946476399898529053e-01 8.575912564992904663e-02 1.207210719585418701e-01 -2.605620073154568672e-03 -7.145141065120697021e-02 3.230647742748260498e-01 1.813657730817794800e-01 -3.800297528505325317e-02 -2.126088924705982208e-02 2.446858882904052734e-01 -4.341410845518112183e-02 3.355318680405616760e-02 -2.643965482711791992e-01 3.421297995373606682e-03 -1.412689536809921265e-01 2.011448442935943604e-01 2.846116572618484497e-02 -1.527985334396362305e-01 -8.090570569038391113e-02 9.007160365581512451e-02 5.229797959327697754e-02 -9.279510378837585449e-02 3.181552588939666748e-01 -1.489970237016677856e-01 3.686902299523353577e-02 1.076922118663787842e-01 -1.200296264141798019e-02 4.071985483169555664e-01 -1.165082603693008423e-01 1.558492779731750488e-01 1.563633084297180176e-01 6.803231313824653625e-03 -4.282183200120925903e-02 7.845349609851837158e-02 9.537044912576675415e-02 -6.000457704067230225e-02 9.489560872316360474e-02 3.758323611691594124e-03 -1.410977095365524292e-01 -1.129968985915184021e-01 1.333454996347427368e-01 -1.050143763422966003e-01 -3.241386264562606812e-02 -1.315335393883287907e-03 -1.376612633466720581e-01 -1.864966936409473419e-02 -8.573166280984878540e-02 3.901953995227813721e-02 -6.835201755166053772e-03 9.575960785150527954e-02 -7.640889286994934082e-02 7.056937366724014282e-02 2.882913686335086823e-02 3.699862957000732422e-02 1.671569347381591797e-01 -2.702080830931663513e-02 4.155623540282249451e-02 2.396157085895538330e-01 -1.219165027141571045e-01 -6.314678490161895752e-02 3.022750094532966614e-02 -2.110326439142227173e-01 -2.454948611557483673e-02 -3.341726660728454590e-01 -3.013024628162384033e-01 1.209589187055826187e-02 1.374758481979370117e-01 4.489311873912811279e-01 3.532750159502029419e-02 -7.916383445262908936e-02 8.519375324249267578e-02 1.403658241033554077e-01 -3.433515131473541260e-02 4.388910531997680664e-02
-1.380656212568283081e-01 -2.165354937314987183e-01 1.165378242731094360e-01 1.554058045148849487e-01 -1.095461659133434296e-02 9.758274257183074951e-02 -3.299060463905334473e-02 2.136533334851264954e-02 -3.777723014354705811e-02 -8.325502276420593262e-02 -7.085405290126800537e-02 -4.494478553533554077e-02 -5.034174025058746338e-02 2.459036707878112793e-01 1.647937856614589691e-02 1.294293627142906189e-02 -9.327039867639541626e-02 1.723892241716384888e-01 -5.352122709155082703e-02 1.081331595778465271e-01 1.379415839910507202e-01 -4.893231764435768127e-02 -1.792386732995510101e-02 -8.878926932811737061e-02 1.352845877408981323e-01 -1.205790787935256958e-01 4.678983986377716064e-02 1.779165565967559814e-01 -1.255939304828643799e-01 4.554914683103561401e-02 4.213252291083335876e-02 4.070459399372339249e-03 -2.293628454208374023e-01 1.502595394849777222e-01 -1.516832318156957626e-02 -1.092707067728042603e-01 3.157812654972076416e-01 -1.079159304499626160e-01 -2.210347168147563934e-02 -2.633510855957865715e-03 2.473899126052856445e-01 -4.284783825278282166e-02 7.083184272050857544e-02 1.237627342343330383e-01 -3.261269629001617432e-01 6.658756639808416367e-03 -3.286970555782318115e-01 5.044804140925407410e-02 -4.279785603284835815e-02 1.409941315650939941e-01 4.987321421504020691e-02 1.600977219641208649e-02 4.319366812705993652e-02 -6.098134815692901611e-02 6.225039064884185791e-02 -3.772193565964698792e-03 -6.793849170207977295e-02 -7.559947203844785690e-03 3.498669713735580444e-02 -3.997620642185211182e-01 2.035588175058364868e-01 -1.040647551417350769e-01 -1.969574689865112305e-01 -9.251428395509719849e-02 6.801187247037887573e-02 7.170861214399337769e-02 9.448624402284622192e-02 -6.242749840021133423e-02 2.917791344225406647e-02 5.950690060853958130e-02 -8.519604802131652832e-02 3.550142422318458557e-02 8.078277856111526489e-02 -7.689177989959716797e-02 -2.026614546775817871e-01 2.294633686542510986e-01 1.086503490805625916e-01 -1.836626380681991577e-01 3.976836055517196655e-02 1.229020580649375916e-01 -4.678726196289062500e-03 -2.275197952985763550e-01 -5.710962414741516113e-02 3.948923572897911072e-02 -9.202882647514343262e-03 1.361188292503356934e-01 -1.049037203192710876e-01 -2.399685233831405640e-01 -3.025861456990242004e-02 -1.078994721174240112e-01 1.864037290215492249e-02 1.483873128890991211e-01 4.643481969833374023e-02 4.212933033704757690e-02 1.248671207576990128e-02 1.268440485000610352e-01 1.318437457084655762e-01 1.304184496402740479e-01 3.771084826439619064e-03 -8.019544184207916260e-03
-1.972310096025466919e-01 -9.503427892923355103e-02 2.640720829367637634e-02 2.092912048101425171e-01 -1.484995335340499878e-01 9.315519779920578003e-02 -7.337474077939987183e-02 -4.706502705812454224e-02 1.371408402919769287e-01 -1.177651360630989075e-01 -1.243593022227287292e-01 7.660338282585144043e-02 -3.183245658874511719e-01 4.129256680607795715e-02 -8.599440008401870728e-02 1.244766078889369965e-02 -8.572857081890106201e-02 1.442493945360183716e-01 5.355527251958847046e-02 1.017699539661407471e-01 -1.695452071726322174e-02 5.461233109235763550e-02 1.249947920441627502e-01 -4.510074481368064880e-02 2.881280519068241119e-02 -5.506609752774238586e-02 7.446833699941635132e-02 -8.022160828113555908e-02 -6.472214311361312866e-02 -1.095459759235382080e-01 6.739761680364608765e-02 2.153758332133293152e-02 -4.070682451128959656e-02 -4.767693753819912672e-04 3.587232157588005066e-02 -5.212599039077758789e-02 5.513705313205718994e-02 1.296475678682327271e-01 -7.683953642845153809e-02 3.295453032478690147e-03 4.088338613510131836e-01 -1.915754079818725586e-01 7.424397766590118408e-02 -5.545081570744514465e-02 -2.892203330993652344e-01 7.370051927864551544e-03 -1.586805880069732666e-01 4.437563568353652954e-02 3.181214258074760437e-02 2.456604503095149994e-02 3.971967473626136780e-02 -1.393715757876634598e-02 8.534069359302520752e-02 -3.230722248554229736e-02 1.348660513758659363e-02 -6.923858821392059326e-02 6.078665703535079956e-02 -8.395464159548282623e-03 9.835021197795867920e-02 -9.626953303813934326e-02 1.319162845611572266e-01 -2.867687046527862549e-01 3.574255108833312988e-02 -1.573043167591094971e-01 5.103202536702156067e-02 1.643448621034622192e-01 -2.432411760091781616e-01 -1.302662342786788940e-01 2.394178211688995361e-01 6.444077938795089722e-02 3.398609533905982971e-02 7.045887410640716553e-02 4.877500981092453003e-02 -3.089936375617980957e-01 -3.389828801155090332e-01 9.313679486513137817e-02 -5.491698533296585083e-02 4.525082185864448547e-02 3.169516921043395996e-01 4.221785441040992737e-02 5.690259858965873718e-02 2.743189632892608643e-01 -1.027714088559150696e-01 1.617756336927413940e-01 -4.039335250854492188e-02 -2.876473665237426758e-01 1.474583297967910767e-01 1.296840608119964600e-01 -9.022413939237594604e-02 4.855773597955703735e-02 -1.106275897473096848e-02 -1.657522469758987427e-02 -1.105403229594230652e-01 -1.515889763832092285e-01 -1.441292315721511841e-01 -1.026723608374595642e-01 -3.850432485342025757e-02 1.378015428781509399e-01 -1.970001012086868286e-01 7.086107879877090454e-02
-1.425500065088272095e-01 2.664246968924999237e-02 -1.193940788507461548e-01 8.293645083904266357e-02 1.593132615089416504e-01 -9.030403941869735718e-02 1.154326945543289185e-01 7.141158729791641235e-02 -9.438410401344299316e-03 -8.457743376493453979e-02 2.044635564088821411e-01 8.524910546839237213e-03 -1.525622755289077759e-01 -2.144143730401992798e-01 -6.215062923729419708e-03 3.592240437865257263e-02 -1.839244067668914795e-01 1.542305760085582733e-02 4.120999947190284729e-02 -1.084409281611442566e-02 5.897025018930435181e-02 2.252628281712532043e-02 -1.495225131511688232e-01 1.215002611279487610e-01 -1.770384795963764191e-02 1.292746514081954956e-01 -1.013499498367309570e-01 -2.185359038412570953e-02 -2.150912880897521973e-01 1.999948769807815552e-01 2.221394330263137817e-01 -6.279800087213516235e-03 6.306281685829162598e-02 -3.520932048559188843e-02 2.714578621089458466e-02 2.968741208314895630e-02 8.924362249672412872e-03 4.203897342085838318e-02 7.672744244337081909e-02 -3.874089336022734642e-03 1.116347163915634155e-01 6.333789974451065063e-02 -8.327341079711914062e-02 -4.110221285372972488e-03 -5.564800649881362915e-02 1.109935343265533447e-01 2.560505643486976624e-02 3.889283165335655212e-02 -1.768499314785003662e-01 2.300521880388259888e-01 2.220151424407958984e-01 -6.103325635194778442e-02 9.645678848028182983e-02 -5.146366730332374573e-02 4.851027578115463257e-02 -2.370257861912250519e-02 4.706248641014099121e-03 7.335712201893329620e-03 1.009176746010780334e-01 -1.552745699882507324e-01 -9.262850880622863770e-02 1.772938966751098633e-01 -1.056482493877410889e-01 1.506386995315551758e-01 1.699828170239925385e-02 3.432097285985946655e-02 -6.966852396726608276e-02 4.518313705921173096e-02 7.836523465812206268e-03 2.682862579822540283e-01 9.448905289173126221e-02 1.157960891723632812e-01 1.444753110408782959e-01 -2.816281095147132874e-02 2.524638473987579346e-01 -7.958813756704330444e-02 2.177194878458976746e-02 -1.871129423379898071e-01 -7.030808180570602417e-02 6.814863532781600952e-02 1.195039525628089905e-01 5.123635753989219666e-03 -7.597337942570447922e-03 -8.306695520877838135e-02 -1.038607358932495117e-01 6.163944303989410400e-02 1.059925109148025513e-01 4.302217066287994385e-02 1.090603470802307129e-01 1.971080526709556580e-02 3.813646361231803894e-02 -7.654729485511779785e-02 2.145567685365676880e-01 7.414436340332031250e-02 -2.738522887229919434e-01 4.889561980962753296e-02 -6.359403580427169800e-02 2.582513727247714996e-03 -5.829657986760139465e-02 1.052398979663848877e-02
1.031666770577430725e-01 -2.483928389847278595e-02 -2.199824750423431396e-01 4.343874379992485046e-02 -4.971261322498321533e-02 -3.257097676396369934e-02 -7.967626303434371948e-02 3.978829830884933472e-02 -1.926635354757308960e-01 1.546345464885234833e-02 -1.736721843481063843e-01 -1.452381759881973267e-01 2.637625113129615784e-02 4.508932232856750488e-01 2.639470435678958893e-02 -2.716833055019378662e-01 1.866659224033355713e-01 1.216604933142662048e-01 -2.176854759454727173e-01 4.785634577274322510e-02 9.124212712049484253e-02 -1.184049900621175766e-02 1.917499154806137085e-01 3.749886453151702881e-01 -1.002661734819412231e-01 -8.116166293621063232e-02 -1.407402306795120239e-01 2.421404607594013214e-02 1.049548089504241943e-01 -2.368165552616119385e-01 7.885203510522842407e-02 6.438692659139633179e-02 -2.815130539238452911e-02 -7.320199906826019287e-02 1.549657806754112244e-02 -1.119832172989845276e-01 -8.125796914100646973e-02 -2.565163969993591309e-01 5.330394953489303589e-02 -1.128593925386667252e-02 2.684479355812072754e-01 1.092275679111480713e-01 1.915645599365234375e-01 1.972627453505992889e-02 1.198917254805564880e-01 -1.543223205953836441e-02 6.235871836543083191e-02 1.075190380215644836e-01 9.000409394502639771e-03 3.728130832314491272e-02 1.952851936221122742e-02 -8.674781769514083862e-02 2.031417191028594971e-02 9.805397130548954010e-03 -5.962209403514862061e-02 -8.481394499540328979e-02 3.007345832884311676e-02 7.930445135571062565e-04 -1.781340837478637695e-01 2.633112967014312744e-01 -3.573433309793472290e-02 1.290007531642913818e-01 8.246625214815139771e-02 -4.562563821673393250e-02 4.175309836864471436e-02 -8.744280203245580196e-04 5.575671046972274780e-02 4.636745527386665344e-02 -5.327657610177993774e-02 -2.768959701061248779e-01 -7.714907079935073853e-02 -3.198961913585662842e-02 -1.340856999158859253e-01 1.365165412425994873e-01 -2.718400061130523682e-01 -4.137983918190002441e-01 -2.033167481422424316e-01 1.308000832796096802e-01 1.179629713296890259e-01 -4.653922840952873230e-02 2.957334928214550018e-02 -1.024459972977638245e-01 -2.437400519847869873e-01 1.192360296845436096e-01 1.660069972276687622e-01 2.560119144618511200e-02 1.006315648555755615e-02 2.697172574698925018e-02 5.893232300877571106e-02 1.069050952792167664e-01 -7.840997725725173950e-02 -1.249251961708068848e-01 1.470741927623748779e-01 -6.158278137445449829e-02 1.508365967310965061e-03 9.293632954359054565e-02 -5.367806181311607361e-02 4.085312038660049438e-02 -6.660488992929458618e-02 -1.501617114990949631e-02
8.093728870153427124e-02 1.439900398254394531e-01 -1.028315871953964233e-01 9.585526585578918457e-02 7.966655492782592773e-02 -5.862002447247505188e-02 1.101188808679580688e-01 -1.026308909058570862e-01 2.712310850620269775e-01 1.561159789562225342e-01 -3.915724903345108032e-02 -5.273177847266197205e-02 1.899976581335067749e-01 -3.103582374751567841e-02 -3.876278698444366455e-01 -6.754189729690551758e-02 8.993240445852279663e-02 2.145104408264160156e-01 9.242376685142517090e-02 1.680162847042083740e-01 1.531123816967010498e-01 -1.889820769429206848e-02 9.287733584642410278e-02 -6.871945410966873169e-02 -1.708767116069793701e-01 8.513786643743515015e-02 -2.934568095952272415e-03 -6.660935934633016586e-03 5.604296177625656128e-02 -3.554427623748779297e-02 8.834598213434219360e-02 5.450441967695951462e-03 4.546281695365905762e-02 -1.149013862013816833e-01 -1.129684746265411377e-01 9.464544057846069336e-02 -1.954516768455505371e-01 5.707114934921264648e-02 4.012028686702251434e-03 -6.283274269662797451e-04 -9.729842655360698700e-03 -1.896794512867927551e-02 1.061194017529487610e-01 -6.749426573514938354e-02 4.094491600990295410e-01 -1.730224117636680603e-03 1.165207177400588989e-01 -4.988249018788337708e-02 6.046842783689498901e-02 -1.055820733308792114e-01 1.155976671725511551e-02 1.115233600139617920e-01 -1.422622054815292358e-01 -1.472094003111124039e-02 -1.433970630168914795e-01 8.944852277636528015e-03 5.972815677523612976e-02 2.934026531875133514e-03 4.652242362499237061e-02 2.479857802391052246e-01 7.301197201013565063e-02 -5.499682575464248657e-02 7.403629831969738007e-03 8.725560270249843597e-03 -2.965008914470672607e-01 1.914737187325954437e-02 1.435349285602569580e-01 -1.092126592993736267e-01 -2.957546114921569824e-01 -5.534717068076133728e-02 4.433313757181167603e-02 1.682146638631820679e-01 1.784526258707046509e-01 -1.267297714948654175e-01 -1.380096822977066040e-01 -5.818877741694450378e-02 -8.908504620194435120e-03 -1.085654050111770630e-01 -4.454502835869789124e-02 -6.882561743259429932e-02 1.241260617971420288e-01 -5.797266215085983276e-02 6.634000223129987717e-03 1.772042959928512573e-01 -3.632379323244094849e-02 -8.439166098833084106e-02 4.535566642880439758e-02 1.389827728271484375e-01 3.591062128543853760e-02 -5.825121328234672546e-02 -1.107832789421081543e-01 -8.949384838342666626e-02 1.492474228143692017e-01 6.577981263399124146e-02 -1.062559429556131363e-02 -4.931968823075294495e-02 -1.200446486473083496e-01 -1.688445806503295898e-01 -6.885669659823179245e-03 3.599692583084106445e-01
