-2.017213702201843262e-01
2.423771172761917114e-01
-1.780118793249130249e-01
3.237779065966606140e-02
-9.971100091934204102e-02
1.848132163286209106e-01
1.737366318702697754e-01
3.940875828266143799e-01
1.331206411123275757e-01
-4.688424766063690186e-01
1.061694324016571045e-01
1.189351826906204224e-01
3.592858612537384033e-01
2.463185042142868042e-01
3.206990957260131836e-01
-2.805617749691009521e-01
5.552525073289871216e-02
-8.255410790443420410e-01
-4.321168065071105957e-01
-1.982585638761520386e-01
-8.853738009929656982e-02
9.953359514474868774e-02
7.467457652091979980e-02
2.577484250068664551e-01
-9.739589691162109375e-02
-2.766575217247009277e-01
2.322757840156555176e-01
1.706672012805938721e-01
-3.843865692615509033e-01
2.620458006858825684e-01
3.524386882781982422e-01
1.380480229854583740e-01
1.265165060758590698e-01
-1.767419874668121338e-01
-1.092118471860885620e-01
3.130315244197845459e-01
6.720591336488723755e-02
3.323075771331787109e-01
1.533667296171188354e-01
-7.707334309816360474e-02
8.663554489612579346e-02
1.910458058118820190e-01
-7.790995389223098755e-02
-6.464663147926330566e-02
1.601303666830062866e-01
-3.548336625099182129e-01
3.829185366630554199e-01
6.869366765022277832e-02
6.949343532323837280e-02
9.396949410438537598e-02
1.681941896677017212e-01
-1.202915310859680176e-01
2.029130756855010986e-01
3.951289057731628418e-01
-7.911144942045211792e-02
1.574870795011520386e-01
-3.991609513759613037e-01
-4.589596092700958252e-01
8.247024565935134888e-02
2.726122736930847168e-02
6.935769319534301758e-02
6.677246093750000000e-02
1.588733643293380737e-01
3.418968617916107178e-01
-6.986511498689651489e-02
1.220482885837554932e-01
-2.882451415061950684e-01
4.087363481521606445e-01
2.630728185176849365e-01
-1.509977690875530243e-02
-2.073121368885040283e-01
3.365420922636985779e-02
3.164563477039337158e-01
2.482054829597473145e-01
5.046655535697937012e-01
-1.121842861175537109e-01
-9.447555989027023315e-02
-7.707523554563522339e-02
-3.062959201633930206e-02
2.373660057783126831e-01
1.741070449352264404e-01
3.563645184040069580e-01
4.270649701356887817e-02
-3.724687546491622925e-02
-6.315667629241943359e-01
-1.260642260313034058e-01
-5.932619571685791016e-01
-2.351722866296768188e-01
-2.961323261260986328e-01
-8.705832064151763916e-02
4.112256690859794617e-02
-1.399558186531066895e-01
-7.400530576705932617e-01
1.611983925104141235e-01
4.610123112797737122e-02
2.121839672327041626e-01
2.161319106817245483e-01
3.298670053482055664e-01
2.687066197395324707e-01
2.909998595714569092e-01
