7.818126678466796875e-02 1.431901693344116211e+00 -7.685098052024841309e-01 4.910752773284912109e-01 1.763264536857604980e-01 -4.829990863800048828e-01 2.055835425853729248e-01 1.414812058210372925e-01 2.488283999264240265e-02 -4.619973152875900269e-02 5.226065590977668762e-02 -2.004114687442779541e-01 -6.658919900655746460e-02 7.673069834709167480e-02 4.807363450527191162e-02 3.061293661594390869e-01 -8.455740809440612793e-01 4.248713850975036621e-01 2.069812864065170288e-01 -5.025560259819030762e-01 2.082423418760299683e-01 2.529071569442749023e-01 -4.763364046812057495e-02 -4.758824035525321960e-02 -9.811980649828910828e-03 3.322420716285705566e-01 -5.020865797996520996e-02 -1.696583181619644165e-01 9.437148272991180420e-02 -6.269115488976240158e-03 -8.180136084556579590e-01 4.953652247786521912e-02 2.269129306077957153e-01 2.465523630380630493e-01 1.980615407228469849e-01 -2.699542324990034103e-03 -3.063296154141426086e-02 7.334939204156398773e-03 -2.659408375620841980e-02 -1.006506942212581635e-02 2.528887614607810974e-02 1.500860452651977539e-01 -2.041460014879703522e-02 -1.923877120018005371e+00 -7.315971255302429199e-01 -1.179045438766479492e-01 2.003653943538665771e-01 1.693578064441680908e-01 3.310320377349853516e-01 -6.232346296310424805e-01 7.123745977878570557e-02 -3.455317020416259766e-02 -6.831290572881698608e-02 -2.109684497117996216e-01 4.630212113261222839e-02 -1.707149147987365723e-01 3.222792595624923706e-02 -1.303317546844482422e+00 -8.475498557090759277e-01 -7.830343246459960938e-01 1.467195302248001099e-01 1.184773921966552734e+00 1.901872158050537109e-01 -8.454157039523124695e-03 -5.651110038161277771e-02 1.105056926608085632e-01 -2.892678044736385345e-02 1.315536350011825562e-01 7.071523368358612061e-02 1.715279370546340942e-02 -8.461737632751464844e-02 -2.314320564270019531e+00 -8.039730191230773926e-01 -4.465703666210174561e-01 1.450558900833129883e-01 1.363553524017333984e+00 2.256218791007995605e-01 -1.150169670581817627e-01 -4.504350572824478149e-02 2.636541798710823059e-02 3.789391741156578064e-02 -2.372474372386932373e-01 -7.383766770362854004e-02 -1.797568984329700470e-02 -5.227066203951835632e-02 -7.241619229316711426e-01 -7.645831108093261719e-01 -1.519865095615386963e-01 1.390023827552795410e-01 9.438478201627731323e-02 3.231335282325744629e-01 -4.498759210109710693e-01 -2.573719434440135956e-02 3.892790153622627258e-02 6.996741145849227905e-02 2.841104753315448761e-02 -2.714343555271625519e-02 5.884777754545211792e-02 -1.290863156318664551e-01 6.115458607673645020e-01 -7.386920452117919922e-01 -1.264324307441711426e+00 2.812596559524536133e-01 3.814732134342193604e-01 2.898179292678833008e-01 1.548242568969726562e-01 3.286558389663696289e-02 1.869083046913146973e-01 5.475438758730888367e-02 4.307801425457000732e-01 2.656095102429389954e-02 1.218760386109352112e-02 -2.761941030621528625e-02 1.249878883361816406e+00 -7.939201593399047852e-01 1.235133528709411621e+00 1.436359584331512451e-01 -8.732306957244873047e-01 1.858955770730972290e-01 -1.998128369450569153e-02 3.885105997323989868e-02 -2.572240829467773438e-01 6.160411983728408813e-02 -2.118773907423019409e-01 3.423530608415603638e-02 1.219167336821556091e-01 1.518971379846334457e-02 2.647150993347167969e+00 -8.058658838272094727e-01 5.283986330032348633e-01 7.942917943000793457e-02 -1.583997964859008789e+00 2.547335028648376465e-01 7.160843610763549805e-01 5.648139491677284241e-02 4.798118770122528076e-02 3.859157115221023560e-02 -9.936765767633914948e-03 -5.808169394731521606e-02 -1.103232800960540771e-01
3.885410726070404053e-02 -2.234400212764739990e-01 -1.033452153205871582e-01 -1.829128265380859375e-01 3.322459459304809570e-01 -1.894869953393936157e-01 2.809838056564331055e-01 1.460619717836380005e-01 -6.531544029712677002e-02 5.584921315312385559e-02 9.730926901102066040e-02 1.224425341933965683e-02 -5.901405215263366699e-02 2.324039675295352936e-02 -2.963494509458541870e-02 -6.589676439762115479e-02 -1.223190501332283020e-01 -2.477353624999523163e-02 2.376301586627960205e-01 -7.114248722791671753e-02 2.227515280246734619e-01 5.225126445293426514e-02 -5.666493996977806091e-02 -4.776915535330772400e-02 -3.241726011037826538e-02 5.120921414345502853e-03 1.289559993892908096e-02 -2.173283509910106659e-02 -5.515927821397781372e-02 -7.511257380247116089e-02 -6.490154564380645752e-02 8.365675806999206543e-02 3.316562473773956299e-01 -6.920532882213592529e-02 3.051015436649322510e-01 5.047591030597686768e-02 7.399220764636993408e-02 -3.157808259129524231e-02 -3.909898176789283752e-02 -6.760800629854202271e-02 -4.216505214571952820e-02 7.378192618489265442e-03 5.305194109678268433e-02 1.927414238452911377e-01 -9.204773604869842529e-02 -1.176331490278244019e-01 3.083366453647613525e-01 2.690047025680541992e-01 2.247640043497085571e-01 -2.074543237686157227e-01 -8.190737105906009674e-03 5.310676619410514832e-02 3.607591986656188965e-02 4.327168688178062439e-02 -1.243693009018898010e-02 3.765239194035530090e-02 1.993720233440399170e-02 5.759923532605171204e-02 -1.542355865240097046e-01 1.300576031208038330e-01 2.476077675819396973e-01 -9.433449059724807739e-02 3.049808442592620850e-01 5.860028788447380066e-02 -8.804665878415107727e-03 -7.255891710519790649e-02 4.181335866451263428e-02 -6.684106588363647461e-02 7.943144440650939941e-02 -8.983264863491058350e-02 -2.420623414218425751e-02 2.095326483249664307e-01 -2.222729772329330444e-01 4.550662636756896973e-02 1.843186467885971069e-01 2.415984570980072021e-01 1.698484271764755249e-01 -2.602811753749847412e-01 -5.185601860284805298e-02 1.205328851938247681e-02 -5.089494958519935608e-02 2.494770102202892303e-02 -2.098996564745903015e-02 2.393235638737678528e-02 -2.566461637616157532e-02 2.539268434047698975e-01 -1.888043731451034546e-01 -4.340771585702896118e-02 2.298472672700881958e-01 2.422903925180435181e-01 2.405944764614105225e-01 -7.293426245450973511e-02 6.310444325208663940e-02 7.958453148603439331e-02 2.007065154612064362e-02 2.559804171323776245e-02 1.066526584327220917e-02 3.260431811213493347e-02 -1.108428463339805603e-02 -6.159427389502525330e-02 -1.206115633249282837e-01 4.904311895370483398e-01 2.133184224367141724e-01 -5.895731449127197266e-01 2.622338533401489258e-01 1.867305114865303040e-02 8.700893819332122803e-02 -1.508933752775192261e-01 3.266863524913787842e-02 -3.530309721827507019e-02 -1.234160084277391434e-02 -3.427509590983390808e-02 4.193804040551185608e-02 4.074425101280212402e-01 -6.272785365581512451e-02 -8.081582188606262207e-02 2.356675565242767334e-01 7.999259233474731445e-01 3.067567944526672363e-01 -1.459637731313705444e-01 4.068803414702415466e-02 1.471005976200103760e-01 2.636846527457237244e-02 8.461182564496994019e-02 6.107842782512307167e-04 -3.423968702554702759e-02 1.107248291373252869e-02 -7.010349631309509277e-01 -2.118441015481948853e-01 -3.368322253227233887e-01 2.848552763462066650e-01 -5.844797492027282715e-01 2.574087083339691162e-01 4.109808802604675293e-01 9.560110978782176971e-03 -3.471083566546440125e-02 8.484883606433868408e-02 -4.832135140895843506e-02 9.288325160741806030e-02 1.788213104009628296e-02
1.452936697751283646e-02 -1.428731530904769897e-01 4.116226136684417725e-01 2.386655285954475403e-02 1.412845849990844727e-01 -5.214090347290039062e-01 -4.910188615322113037e-01 3.957612514495849609e-01 3.728007664903998375e-03 -4.531101882457733154e-02 -4.556801635771989822e-03 7.270424813032150269e-02 3.872278705239295959e-02 8.177747949957847595e-03 8.951754122972488403e-02 -1.222146973013877869e-01 4.355995655059814453e-01 1.330392956733703613e-01 1.813405901193618774e-01 1.927551329135894775e-01 -3.557789623737335205e-01 5.017989873886108398e-02 3.027857746928930283e-03 -1.409236621111631393e-02 1.019787602126598358e-02 -5.480758473277091980e-02 5.804194509983062744e-02 2.195164561271667480e-02 3.663370385766029358e-02 7.434585690498352051e-02 4.216370880603790283e-01 -2.930268645286560059e-02 3.030280470848083496e-01 -8.180811069905757904e-03 -4.619980454444885254e-01 -6.970807909965515137e-02 3.471359238028526306e-02 1.086138561367988586e-01 -6.251736730337142944e-02 -4.039585962891578674e-02 -1.507538557052612305e-02 -1.968401670455932617e-02 2.898760512471199036e-02 3.246184885501861572e-01 3.694964945316314697e-01 -3.768395781517028809e-01 1.855355203151702881e-01 1.174534186720848083e-01 -4.720798432826995850e-01 -2.843461930751800537e-01 4.938300698995590210e-03 -1.086092963814735413e-01 -3.293803334236145020e-02 7.187490165233612061e-02 -5.168402940034866333e-02 3.616978228092193604e-02 -3.694235906004905701e-02 1.764478385448455811e-01 3.707463145256042480e-01 4.250333085656166077e-02 2.445676028728485107e-01 5.775261521339416504e-01 -3.481366038322448730e-01 -3.557150065898895264e-01 -6.938814371824264526e-02 6.563042104244232178e-02 1.884954981505870819e-02 8.265110850334167480e-02 6.999304518103599548e-03 -5.160572379827499390e-02 -3.005238622426986694e-02 2.330275177955627441e-01 3.931317627429962158e-01 -2.774949371814727783e-01 1.881827265024185181e-01 4.717355668544769287e-01 -4.742774963378906250e-01 -5.549072623252868652e-01 5.334858223795890808e-02 6.807822734117507935e-02 -5.019466578960418701e-02 -1.400260925292968750e-01 5.980930477380752563e-02 -2.694830112159252167e-02 -3.664620220661163330e-02 1.380168944597244263e-01 3.705458045005798340e-01 2.058909088373184204e-01 3.021810650825500488e-01 7.249280810356140137e-02 -3.560713827610015869e-01 -2.484905123710632324e-01 -4.923444241285324097e-02 -6.621944159269332886e-02 -3.130758926272392273e-02 5.069372802972793579e-02 -8.019567281007766724e-02 3.485430404543876648e-02 8.841642178595066071e-03 -1.513839364051818848e-01 3.984510004520416260e-01 3.723007068037986755e-02 2.964311540126800537e-01 1.703803241252899170e-02 -4.567872583866119385e-01 -1.950614452362060547e-01 -9.920488111674785614e-03 9.597744047641754150e-02 1.568989083170890808e-02 7.470674067735671997e-02 -1.996385119855403900e-02 -1.733937673270702362e-02 -5.308641586452722549e-03 -4.665035605430603027e-01 4.662451446056365967e-01 -3.173501193523406982e-01 3.169506192207336426e-01 -2.624896764755249023e-01 -4.697892069816589355e-01 2.501759529113769531e-01 5.445539020001888275e-03 -1.165963411331176758e-01 9.712688624858856201e-02 -1.202046051621437073e-01 1.632149517536163330e-02 2.680266089737415314e-02 -7.361646741628646851e-02 -4.986985400319099426e-02 4.059406220912933350e-01 5.996635556221008301e-01 1.811054348945617676e-01 -6.236994862556457520e-01 -4.855084121227264404e-01 1.006028294563293457e+00 -6.115473061800003052e-02 2.149520907551050186e-03 9.017656743526458740e-02 2.657818794250488281e-02 -1.028513543133158237e-05 5.355896428227424622e-03
3.517593722790479660e-03 1.295650601387023926e-01 -5.097444355487823486e-02 1.722063682973384857e-02 -1.423962414264678955e-02 -1.907093636691570282e-02 -2.204068154096603394e-01 1.117723435163497925e-01 -1.852901093661785126e-02 -5.795472860336303711e-01 1.566448211669921875e-01 1.860078424215316772e-02 5.154453963041305542e-02 -2.273762784898281097e-02 5.332261323928833008e-02 -1.673040390014648438e-01 2.356563322246074677e-02 6.734193861484527588e-02 -1.320722978562116623e-02 -5.861255154013633728e-02 -1.319046914577484131e-01 -1.536765135824680328e-02 -7.507375627756118774e-02 -2.725024819374084473e-01 9.359284490346908569e-02 4.505831375718116760e-02 1.271368749439716339e-02 2.048414945602416992e-02 9.085240960121154785e-02 -1.364375352859497070e-01 -1.706990785896778107e-02 -1.864648014307022095e-01 5.656940862536430359e-02 -6.067147105932235718e-02 -1.305882185697555542e-01 -1.551530957221984863e-01 4.349112883210182190e-02 -1.309674829244613647e-01 2.263131439685821533e-01 7.459739688783884048e-03 2.453353069722652435e-02 -5.181704647839069366e-03 -6.843429990112781525e-03 -1.606038212776184082e-01 -3.177610412240028381e-02 -1.031823158264160156e-01 3.489590063691139221e-02 -4.546433314681053162e-02 -1.991737931966781616e-01 -2.115575224161148071e-01 -5.240750685334205627e-02 -6.254930049180984497e-02 1.374886780977249146e-01 -3.451685234904289246e-02 -1.392967719584703445e-02 6.819909438490867615e-03 -9.497757256031036377e-02 -2.616766095161437988e-01 7.623427361249923706e-02 8.742040395736694336e-02 2.737080678343772888e-02 -7.053503394126892090e-02 -7.591786980628967285e-02 -3.269352316856384277e-01 -8.430870622396469116e-02 3.860760852694511414e-02 1.605024933815002441e-01 -1.109545771032571793e-02 6.513719260692596436e-02 -2.347387187182903290e-02 -8.236892521381378174e-02 -5.354418233036994934e-02 9.660283476114273071e-02 -1.223042532801628113e-01 1.699714921414852142e-02 -1.574511826038360596e-02 -2.054076343774795532e-01 -3.428812026977539062e-01 -8.794061839580535889e-03 -1.150341425091028214e-02 1.711584031581878662e-01 2.079618535935878754e-02 -6.093680858612060547e-02 3.428739262744784355e-03 1.988965086638927460e-02 -1.111214980483055115e-01 4.344244673848152161e-02 -6.758948415517807007e-02 -4.163927212357521057e-02 1.333624124526977539e-01 -2.192151695489883423e-01 -7.993821054697036743e-02 -2.801423706114292145e-02 6.203608214855194092e-02 1.031658723950386047e-01 7.900135964155197144e-02 -1.645557000301778316e-03 4.136823862791061401e-02 -6.381296366453170776e-02 2.089991718530654907e-01 -4.537871107459068298e-02 3.394726514816284180e-01 9.547491371631622314e-02 2.214246094226837158e-01 -1.862327158451080322e-01 1.951461434364318848e-01 -9.668579697608947754e-02 -1.116287186741828918e-01 1.551923006772994995e-01 -3.194218277931213379e-01 -4.913381114602088928e-02 6.077670957893133163e-03 -4.212541505694389343e-02 2.683482170104980469e-01 1.274098902940750122e-01 -1.254657953977584839e-01 4.071982204914093018e-02 4.995857179164886475e-02 -2.186253964900970459e-01 1.533020436763763428e-01 -9.447330608963966370e-03 -1.020760983228683472e-01 1.641080081462860107e-01 1.960901319980621338e-01 9.625457460060715675e-04 -6.288523226976394653e-02 6.772917509078979492e-02 2.382277101278305054e-01 -2.761177718639373779e-02 1.087339147925376892e-01 -2.919774316251277924e-02 9.491672739386558533e-03 -2.150876522064208984e-01 6.471679210662841797e-01 1.366287618875503540e-01 -1.956870704889297485e-01 2.343210726976394653e-01 6.517868489027023315e-02 -4.275012016296386719e-02 1.103667262941598892e-02
2.387403883039951324e-02 9.765321761369705200e-02 -7.469470798969268799e-02 -2.422121614217758179e-01 1.005136519670486450e-01 -2.073993235826492310e-01 -7.140474021434783936e-02 -4.005316644906997681e-02 1.482338309288024902e-01 1.686518639326095581e-02 -1.970957517623901367e-01 -1.043906733393669128e-01 1.354147307574748993e-02 1.787265203893184662e-02 -1.441404689103364944e-02 7.082968950271606445e-02 -1.308470815420150757e-01 -1.086968034505844116e-01 9.414004534482955933e-02 4.889170825481414795e-02 -9.181579202413558960e-02 3.141534328460693359e-02 7.708852738142013550e-02 -4.218598082661628723e-02 -1.938061714172363281e-01 1.276818215847015381e-01 6.007286161184310913e-02 -1.849463209509849548e-02 6.471738219261169434e-02 2.963406145572662354e-01 -6.303325295448303223e-02 1.580531336367130280e-02 2.354091554880142212e-01 -6.274097599089145660e-03 -3.191014751791954041e-02 3.239392638206481934e-01 1.085349991917610168e-01 -4.647829383611679077e-02 -2.513395845890045166e-01 1.050020605325698853e-01 -1.285607740283012390e-02 8.374024182558059692e-02 6.948698312044143677e-02 -6.011572480201721191e-01 -9.981694072484970093e-02 -5.412148833274841309e-01 1.669877022504806519e-01 2.460854202508926392e-01 -4.417224600911140442e-02 -2.352956235408782959e-01 9.646119177341461182e-02 2.493236511945724487e-01 -2.854477763175964355e-01 -3.052999973297119141e-01 4.602563753724098206e-02 -5.692230165004730225e-02 -2.538979798555374146e-02 1.443330645561218262e-01 -1.583662331104278564e-01 5.679801478981971741e-02 2.104623615741729736e-01 8.456897735595703125e-02 -7.960304617881774902e-02 3.797021508216857910e-01 1.665493249893188477e-01 -1.061217933893203735e-01 -3.170107603073120117e-01 2.163344621658325195e-01 -6.047080084681510925e-02 -1.203549280762672424e-02 -3.929194435477256775e-02 -3.360689580440521240e-01 -1.638437211513519287e-01 9.683546423912048340e-02 1.772581636905670166e-01 1.107410341501235962e-01 3.925052471458911896e-03 -3.585048913955688477e-01 1.207392141222953796e-01 5.622401461005210876e-02 -1.779755204916000366e-01 2.912877872586250305e-02 1.167188584804534912e-02 -2.090551890432834625e-02 -2.050748281180858612e-02 -6.219099760055541992e-01 -1.985711455345153809e-01 -7.601008401252329350e-04 1.171120777726173401e-01 1.741490066051483154e-01 -5.118163675069808960e-02 -1.921852082014083862e-01 1.686874926090240479e-01 1.094545200467109680e-01 -2.343170791864395142e-01 -3.838842809200286865e-01 7.140847295522689819e-02 -1.182810403406620026e-02 -1.489286217838525772e-02 2.394789643585681915e-02 -9.086188673973083496e-02 1.205658197402954102e+00 1.531639844179153442e-01 -6.254647374153137207e-01 4.759585484862327576e-03 -1.924130134284496307e-02 1.041957065463066101e-01 -2.979204356670379639e-01 -2.355898916721343994e-01 8.312459588050842285e-01 -2.562454529106616974e-02 1.135327965021133423e-01 -5.588890239596366882e-02 3.409927189350128174e-01 -1.375264972448348999e-01 -1.867471218109130859e+00 2.689564526081085205e-01 2.324944585561752319e-01 -5.048647522926330566e-02 1.824971139430999756e-01 1.690144091844558716e-01 2.606941163539886475e-01 -3.104914128780364990e-01 -7.784088850021362305e-01 4.348557442426681519e-02 -1.958238780498504639e-01 4.585660528391599655e-03 5.972487926483154297e-01 -1.519514471292495728e-01 1.360277771949768066e+00 1.095606461167335510e-01 -6.220856681466102600e-02 2.148140966892242432e-02 -5.147450044751167297e-02 6.064280495047569275e-02 -1.928260028362274170e-01 -3.123109042644500732e-01 2.248376160860061646e-01 -8.123958110809326172e-02 9.248668700456619263e-02
-4.832058027386665344e-02 -3.162805736064910889e-01 1.237872540950775146e-01 -2.449787855148315430e-01 3.283834084868431091e-02 7.184874266386032104e-02 -2.866843640804290771e-01 -1.313228756189346313e-01 -6.292016804218292236e-02 2.540124393999576569e-02 4.198961555957794189e-01 -1.142635568976402283e-01 -2.758825756609439850e-02 -1.716365516185760498e-01 6.316769123077392578e-02 1.731667816638946533e-01 3.640851750969886780e-02 5.273772776126861572e-02 -6.069495156407356262e-02 -3.100973367691040039e-01 -3.096012771129608154e-01 8.672350645065307617e-02 -6.411771476268768311e-02 -2.747270278632640839e-02 4.179008007049560547e-01 1.171805560588836670e-01 7.970704883337020874e-02 2.283021658658981323e-01 1.805877313017845154e-02 -4.892699886113405228e-03 -4.124594852328300476e-03 -3.741462528705596924e-02 2.014933153986930847e-02 1.848687827587127686e-01 -2.881909608840942383e-01 -1.457264572381973267e-01 4.369433596730232239e-02 -8.231123536825180054e-02 3.160352706909179688e-01 8.976132608950138092e-03 -7.574321329593658447e-02 -1.413802653551101685e-01 -8.831538259983062744e-02 -3.057579398155212402e-01 5.027355626225471497e-02 -1.887280344963073730e-01 1.853158697485923767e-02 -8.138289302587509155e-02 -2.865200638771057129e-01 -1.303475946187973022e-01 5.566927045583724976e-02 2.584227919578552246e-01 3.977507948875427246e-01 8.803054806776344776e-04 -1.283678878098726273e-02 1.167364716529846191e-01 6.730401515960693359e-02 5.899691581726074219e-01 5.987171083688735962e-03 2.167135477066040039e-01 -4.349164292216300964e-02 -2.090578898787498474e-02 -2.872456610202789307e-01 2.959499359130859375e-01 -7.080622017383575439e-02 -1.589295417070388794e-01 3.385774791240692139e-01 -1.901403628289699554e-02 -1.872400566935539246e-02 -2.817790955305099487e-02 -1.951769925653934479e-02 -6.675422191619873047e-02 8.776134252548217773e-02 1.518312096595764160e-01 6.569981575012207031e-02 1.628446877002716064e-01 -2.496383935213088989e-01 3.625033423304557800e-02 2.964397426694631577e-03 8.027832955121994019e-03 3.383474647998809814e-01 2.348344922065734863e-01 -9.061624854803085327e-02 -1.534289866685867310e-01 8.839441579766571522e-04 -4.176709800958633423e-02 3.344837203621864319e-02 -1.969050019979476929e-01 1.368668675422668457e-02 -2.261409163475036621e-01 -1.635294556617736816e-01 4.887355268001556396e-01 2.123050950467586517e-02 1.526075154542922974e-01 4.252139031887054443e-01 -1.825158745050430298e-01 -7.325835525989532471e-02 1.454844325780868530e-01 -1.075473055243492126e-02 8.869289159774780273e-01 -1.695505529642105103e-02 1.101414322853088379e+00 -6.051341537386178970e-03 4.485019743442535400e-01 -2.103656083345413208e-01 -2.310772985219955444e-01 4.701114445924758911e-02 -3.096184134483337402e-01 3.950961828231811523e-01 -8.562865853309631348e-02 -3.224034607410430908e-02 5.087092518806457520e-03 -5.019306764006614685e-02 -1.153932094573974609e+00 6.445080786943435669e-02 -1.098668336868286133e+00 -5.972577631473541260e-02 -5.648635029792785645e-01 -2.357441484928131104e-01 -2.233165353536605835e-01 2.373257465660572052e-02 2.352963984012603760e-01 4.060113131999969482e-01 -1.878039985895156860e-01 -7.336077746003866196e-03 1.834134906530380249e-01 1.116854324936866760e-02 2.377645969390869141e-01 3.635571524500846863e-02 1.739643514156341553e-01 1.575214788317680359e-02 3.485113680362701416e-01 -2.945736050605773926e-01 -7.291055470705032349e-02 6.046322360634803772e-02 -9.714228659868240356e-02 3.039247691631317139e-01 2.763883471488952637e-01 -9.083639830350875854e-02 -1.767071038484573364e-01
-1.032553799450397491e-02 -1.775108464062213898e-02 -5.514619350433349609e-01 3.050546050071716309e-01 -3.059416413307189941e-01 1.808465570211410522e-01 -1.220301724970340729e-02 2.348857522010803223e-01 6.411980837583541870e-02 -1.854103058576583862e-02 -2.582809142768383026e-02 8.085632696747779846e-03 -2.767545729875564575e-02 -4.608227405697107315e-03 1.163498219102621078e-02 1.988829113543033600e-02 -6.517549753189086914e-01 -4.643360078334808350e-01 -3.918530046939849854e-01 2.512650005519390106e-02 -1.148826908320188522e-03 1.016355231404304504e-01 -2.950395829975605011e-02 -9.818368591368198395e-03 3.834923356771469116e-02 -3.871681168675422668e-02 7.733715325593948364e-02 7.112338393926620483e-02 2.378221042454242706e-02 -2.138528227806091309e-01 -5.986171960830688477e-01 -1.232593040913343430e-02 -4.055963456630706787e-01 -2.349402941763401031e-02 -3.248498588800430298e-02 -1.861684918403625488e-01 -4.435532912611961365e-02 1.335236579179763794e-01 -3.088789619505405426e-02 6.335325539112091064e-02 -3.233623132109642029e-02 -7.133482396602630615e-02 6.890836358070373535e-02 3.175343275070190430e-01 -6.766455769538879395e-01 -4.920036494731903076e-01 -3.830265104770660400e-01 -5.661227703094482422e-01 3.543637320399284363e-02 1.565698236227035522e-01 -3.212877735495567322e-02 -1.826689541339874268e-01 -5.256420001387596130e-02 -9.829609841108322144e-02 -1.792991650290787220e-03 -6.966139376163482666e-02 -5.409795045852661133e-02 -1.636896878480911255e-01 -7.148683667182922363e-01 -2.561152353882789612e-02 -3.578497469425201416e-01 -1.380877792835235596e-01 -9.758868813514709473e-02 -3.003488183021545410e-01 4.461933672428131104e-02 1.350928843021392822e-01 -3.003223426640033722e-02 -3.814829140901565552e-02 -6.207194551825523376e-02 5.071774870157241821e-02 -3.245977312326431274e-02 4.499722644686698914e-02 -6.762537956237792969e-01 -1.408037990331649780e-01 -5.123765468597412109e-01 -3.195592761039733887e-01 -2.541881240904331207e-02 -3.108890652656555176e-01 -6.033187359571456909e-02 -5.824832245707511902e-02 3.576275706291198730e-02 2.022365294396877289e-02 8.182802051305770874e-02 2.416788600385189056e-02 -2.556123770773410797e-02 5.791707634925842285e-01 -7.357708215713500977e-01 2.603988945484161377e-01 -3.852458894252777100e-01 -2.042989879846572876e-01 -5.844558775424957275e-02 -3.668927773833274841e-02 2.029624767601490021e-02 -1.150251999497413635e-01 2.149959560483694077e-03 1.032270640134811401e-01 -2.898078411817550659e-03 -5.320154502987861633e-02 -2.911263518035411835e-02 -4.242125153541564941e-01 -6.499269604682922363e-01 3.578028678894042969e-01 -5.104187726974487305e-01 7.048789858818054199e-01 -2.579432167112827301e-02 -1.821262687444686890e-01 -5.264480412006378174e-02 2.457246631383895874e-01 -4.818291217088699341e-02 -1.451128721237182617e-01 8.114134520292282104e-02 8.415899425745010376e-02 4.467686638236045837e-02 3.758312761783599854e-01 -6.599273085594177246e-01 3.662955164909362793e-01 -5.057368874549865723e-01 -1.016841083765029907e-01 1.950704678893089294e-02 2.099084109067916870e-01 -7.086224108934402466e-02 -2.324405759572982788e-01 7.631634175777435303e-02 1.437796354293823242e-01 -6.243021041154861450e-02 2.912816591560840607e-03 -5.748365819454193115e-02 -5.225630998611450195e-01 -7.358610630035400391e-01 -2.112008482217788696e-01 -3.905315995216369629e-01 4.002164900302886963e-01 3.558930475264787674e-03 2.825271189212799072e-01 5.281012132763862610e-02 1.035575345158576965e-01 -4.230376705527305603e-02 -1.368146506138145924e-03 2.350981347262859344e-03 -6.424210220575332642e-02
-7.270470261573791504e-02 -3.123896718025207520e-01 -1.210442781448364258e-01 1.325774937868118286e-01 7.237691283226013184e-01 -1.428244709968566895e-01 1.834583468735218048e-02 -1.746747642755508423e-02 -3.050023317337036133e-02 6.218440365046262741e-03 -7.632572203874588013e-02 9.630819410085678101e-02 -7.261955738067626953e-02 5.472815595567226410e-03 -1.415239926427602768e-02 -7.439737766981124878e-02 -2.661469578742980957e-01 -6.315831840038299561e-02 6.019750237464904785e-01 1.375620812177658081e-01 4.860496148467063904e-02 7.610435038805007935e-02 -3.322543203830718994e-02 -9.509149193763732910e-02 6.532200425863265991e-02 -5.154775455594062805e-03 -6.508705019950866699e-02 -3.797674924135208130e-02 -5.689797922968864441e-02 -2.609387934207916260e-01 -1.620690375566482544e-01 -2.265225909650325775e-02 7.014529705047607422e-01 -1.895554810762405396e-01 -5.751803144812583923e-02 1.506276726722717285e-01 7.908608019351959229e-02 1.237017214298248291e-01 -3.613202646374702454e-02 -6.474088877439498901e-04 4.594583436846733093e-02 -1.038106507621705532e-03 -1.224196515977382660e-02 7.473911643028259277e-01 -2.538486123085021973e-01 1.582991927862167358e-01 6.602393388748168945e-01 3.457419276237487793e-01 -2.288622967898845673e-02 -4.829436838626861572e-01 6.925752013921737671e-02 -6.138675287365913391e-02 -6.042648851871490479e-02 -2.249940298497676849e-02 5.403055995702743530e-02 -1.800765469670295715e-02 -3.529685363173484802e-02 1.383427083492279053e-01 -1.670902967453002930e-01 -1.525260061025619507e-01 5.959095358848571777e-01 -2.091115415096282959e-01 -3.973316401243209839e-02 1.357862353324890137e-01 -6.863813847303390503e-02 5.625069141387939453e-02 3.613197058439254761e-02 -5.357108637690544128e-02 3.656326606869697571e-02 4.994570091366767883e-02 3.576626628637313843e-02 9.400314688682556152e-01 -2.010776102542877197e-01 2.585039734840393066e-01 6.364505290985107422e-01 1.870294660329818726e-01 -8.898549526929855347e-02 -4.540386497974395752e-01 1.088615413755178452e-02 1.308675296604633331e-02 8.029618859291076660e-02 9.682524204254150391e-02 9.285722859203815460e-03 -3.152332082390785217e-02 9.980197250843048096e-02 5.190802812576293945e-01 -3.068661987781524658e-01 -2.852930426597595215e-01 6.289561390876770020e-01 -6.952932476997375488e-02 -5.507773719727993011e-03 -6.069313734769821167e-02 4.824655875563621521e-02 -2.020331174135208130e-01 5.732902139425277710e-02 1.888027042150497437e-02 5.398225039243698120e-03 -4.083676263689994812e-02 -4.264561086893081665e-02 -4.691120386123657227e-01 -2.869201898574829102e-01 -2.049215584993362427e-01 7.532681822776794434e-01 -5.854002833366394043e-01 -7.004903256893157959e-02 8.007822036743164062e-01 5.972639471292495728e-02 2.007508426904678345e-01 6.782527267932891846e-02 2.160460222512483597e-03 4.563505202531814575e-02 1.247750893235206604e-01 9.152856469154357910e-02 7.709916234016418457e-01 -1.889549791812896729e-01 9.674890041351318359e-01 6.151335835456848145e-01 1.010372042655944824e+00 -4.838091507554054260e-02 -5.756221413612365723e-01 -2.808377146720886230e-02 -7.127578556537628174e-02 -3.381704166531562805e-02 2.463468350470066071e-02 -5.275142192840576172e-02 -1.421680301427841187e-02 6.187402829527854919e-02 -2.017484426498413086e+00 -2.638482153415679932e-01 -8.171150684356689453e-01 7.413675189018249512e-01 -4.220650494098663330e-01 -5.998591333627700806e-02 4.370110332965850830e-01 -3.417019546031951904e-02 3.335747867822647095e-02 -6.169571727514266968e-02 -1.470032483339309692e-01 3.752061724662780762e-02 -6.466177850961685181e-02
1.575306523591279984e-04 -2.518469095230102539e-01 4.239092171192169189e-01 -1.499258428812026978e-01 -3.696892261505126953e-01 1.018331572413444519e-01 -3.986440896987915039e-01 1.350570097565650940e-02 7.564512081444263458e-03 3.019734844565391541e-02 1.034821942448616028e-02 4.717542789876461029e-03 -6.082556396722793579e-02 -2.793667651712894440e-02 -4.859932139515876770e-02 4.606394097208976746e-02 3.515134453773498535e-01 1.137891262769699097e-01 -3.836139738559722900e-01 -9.377656877040863037e-02 -4.450271427631378174e-01 -1.712018400430679321e-01 5.242278054356575012e-02 -3.118354640901088715e-02 9.173906594514846802e-02 -1.921060145832598209e-03 -2.832279354333877563e-02 3.480802848935127258e-02 3.670529648661613464e-02 2.472752481698989868e-01 3.464081585407257080e-01 9.878661483526229858e-02 -4.204199612140655518e-01 1.650426387786865234e-01 -3.745252788066864014e-01 -1.572743058204650879e-01 9.326410945504903793e-04 5.450712982565164566e-03 1.093184947967529297e-01 6.182093173265457153e-02 3.677791357040405273e-02 -8.465795777738094330e-03 5.830757692456245422e-02 -1.774235367774963379e-01 4.601279795169830322e-01 3.249113261699676514e-01 -3.485667705535888672e-01 -8.670875430107116699e-02 -3.144721388816833496e-01 2.686645835638046265e-02 3.154991567134857178e-02 4.198398813605308533e-02 7.842107117176055908e-02 -1.582374870777130127e-01 4.570034146308898926e-02 1.415733015164732933e-03 4.822178184986114502e-02 4.427565932273864746e-01 5.129717588424682617e-01 6.004941463470458984e-01 -4.372153878211975098e-01 5.398863181471824646e-02 -4.330472648143768311e-01 -3.231839835643768311e-01 -1.079467311501502991e-01 -1.125985831022262573e-01 -1.514657773077487946e-02 1.900416761636734009e-01 -6.044276058673858643e-02 1.385641191154718399e-02 -8.485678583383560181e-03 1.273169517517089844e-01 5.387668013572692871e-01 -1.655010581016540527e-01 -3.902680873870849609e-01 1.077025756239891052e-01 -3.829927444458007812e-01 2.732130289077758789e-01 4.096717387437820435e-02 2.625802345573902130e-02 -1.477369386702775955e-02 -1.291449368000030518e-01 4.325093328952789307e-02 -1.448517665266990662e-02 -3.435978665947914124e-02 -3.083585202693939209e-02 4.313887059688568115e-01 2.722315788269042969e-01 -3.750524222850799561e-01 -1.971579194068908691e-01 -3.422096073627471924e-01 -1.226149592548608780e-02 1.357846144856011961e-06 2.848686277866363525e-02 -1.425956003367900848e-02 9.903065860271453857e-02 3.300662711262702942e-02 -2.152349241077899933e-02 -6.997063755989074707e-02 1.882349140942096710e-02 4.786346852779388428e-01 -7.866714596748352051e-01 -3.419507443904876709e-01 3.139528632164001465e-02 -3.721093535423278809e-01 2.009394764900207520e-01 -6.060364469885826111e-02 -1.752968728542327881e-01 4.175290465354919434e-02 6.611508782953023911e-03 -2.492191269993782043e-02 -5.831542890518903732e-03 -3.061109036207199097e-02 3.050668239593505859e-01 5.223591327667236328e-01 5.314660072326660156e-01 -3.301605880260467529e-01 -5.831032246351242065e-02 -4.428839385509490967e-01 3.095195889472961426e-01 -6.613064557313919067e-02 2.031006664037704468e-01 -7.901908829808235168e-03 -1.507418230175971985e-02 -1.579475402832031250e-02 4.496155306696891785e-02 5.890720337629318237e-02 -7.035784721374511719e-01 3.540316820144653320e-01 -7.744774818420410156e-01 -2.799699306488037109e-01 -4.916986078023910522e-02 -3.834781646728515625e-01 -1.875988245010375977e-01 -5.075502023100852966e-02 -1.754649728536605835e-02 3.585906326770782471e-02 -4.564267396926879883e-02 1.255141384899616241e-02 -3.598558157682418823e-02
-2.239695191383361816e-02 6.170201897621154785e-01 4.337909817695617676e-01 -2.713375389575958252e-01 6.325479745864868164e-01 6.260739266872406006e-02 2.712976373732089996e-02 -1.680349260568618774e-01 2.008155547082424164e-02 5.657196044921875000e-02 1.081349402666091919e-01 9.049410372972488403e-02 4.521767050027847290e-02 2.871607616543769836e-02 -3.541473299264907837e-02 3.693072497844696045e-01 4.408456683158874512e-01 -4.914656877517700195e-01 5.669233798980712891e-01 -4.018246233463287354e-01 9.166295826435089111e-02 9.469274431467056274e-02 4.263107478618621826e-02 -3.475033119320869446e-02 1.098500788211822510e-01 -1.204678788781166077e-01 -9.102850407361984253e-02 -6.331186741590499878e-02 8.908794820308685303e-02 3.674082830548286438e-02 4.374158680438995361e-01 6.024122834205627441e-01 5.657707452774047852e-01 2.710597813129425049e-01 8.917455561459064484e-03 -1.444936450570821762e-02 1.555254869163036346e-02 -2.859608456492424011e-02 -3.906330093741416931e-02 8.097322285175323486e-02 6.179040297865867615e-02 6.014642119407653809e-02 4.971744492650032043e-02 -5.150529146194458008e-01 3.868714570999145508e-01 4.524948298931121826e-01 6.301922798156738281e-01 1.491666436195373535e-01 -3.280179575085639954e-02 3.113012313842773438e-01 -3.669990971684455872e-02 1.901742443442344666e-02 -4.162937775254249573e-02 -8.070331066846847534e-02 1.292078010737895966e-02 -8.810366690158843994e-02 3.396722674369812012e-02 -5.947596430778503418e-01 3.980418443679809570e-01 2.298468537628650665e-02 5.776436328887939453e-01 1.783810257911682129e-01 7.848268747329711914e-02 9.546504355967044830e-03 1.021410152316093445e-01 7.563050836324691772e-02 -2.350083924829959869e-02 -4.842712357640266418e-02 -8.679684996604919434e-02 1.045445650815963745e-01 -8.113697916269302368e-02 -7.283396720886230469e-01 3.872836828231811523e-01 1.305556774139404297e+00 5.203841924667358398e-01 2.090259343385696411e-01 4.202652722597122192e-02 6.523980200290679932e-02 -1.433758810162544250e-02 -3.686830773949623108e-02 1.015407741069793701e-01 2.242440879344940186e-01 1.493454631417989731e-02 -5.685925856232643127e-02 -4.998199269175529480e-02 -7.235589623451232910e-01 4.265263676643371582e-01 -6.690978407859802246e-01 5.745130181312561035e-01 1.626087278127670288e-01 7.264370471239089966e-02 3.953290283679962158e-01 1.081196963787078857e-01 -9.934663772583007812e-02 9.550885111093521118e-02 -3.572988808155059814e-01 5.444263294339179993e-02 -6.445480883121490479e-02 -4.576354101300239563e-02 -3.337297737598419189e-01 3.618957698345184326e-01 4.431716352701187134e-02 5.147194266319274902e-01 -4.316768050193786621e-01 1.104605048894882202e-01 -6.451018452644348145e-01 7.487647235393524170e-02 7.016520947217941284e-02 1.047285869717597961e-01 6.098628044128417969e-01 4.200138151645660400e-02 1.977555155754089355e-01 -1.976021332666277885e-03 3.964437246322631836e-01 4.826505780220031738e-01 8.450807332992553711e-01 5.797052383422851562e-01 1.528198570013046265e-01 -1.801099255681037903e-02 4.218968152999877930e-01 -1.600437797605991364e-02 -1.098633185029029846e-01 1.039663329720497131e-01 -5.699955821037292480e-01 -1.072981627658009529e-03 -1.646508127450942993e-01 4.938022047281265259e-02 1.479837536811828613e+00 5.169191956520080566e-01 -1.806954860687255859e+00 6.502601504325866699e-01 -2.843443453311920166e-01 1.049947887659072876e-01 -4.569677114486694336e-01 3.547654487192630768e-03 8.714909106492996216e-02 5.373908579349517822e-02 1.869671940803527832e-01 -2.414166554808616638e-02 1.330515649169683456e-02
-1.637485921382904053e-01 1.392240643501281738e+00 -5.353566259145736694e-02 -1.368528485298156738e+00 1.080495931091718376e-04 1.370976805686950684e+00 9.814323484897613525e-02 5.676966905593872070e-01 2.485432289540767670e-02 3.133627027273178101e-02 8.364994078874588013e-02 3.255798295140266418e-02 9.311798959970474243e-03 2.711441367864608765e-02 -5.503867566585540771e-02 1.256788849830627441e+00 7.002774626016616821e-02 -9.587360024452209473e-01 -1.302044540643692017e-01 6.648265719413757324e-01 1.456125732511281967e-02 2.201647162437438965e-01 -7.627804577350616455e-02 5.316473916172981262e-02 7.678643614053726196e-02 4.933978989720344543e-02 2.488986402750015259e-02 2.810504287481307983e-02 -1.163206174969673157e-01 5.246106386184692383e-01 1.111643668264150620e-02 1.350383609533309937e-01 3.286782652139663696e-02 4.937325119972229004e-01 -4.001972824335098267e-02 2.098475694656372070e-01 -2.592759765684604645e-02 6.723079085350036621e-02 8.064228296279907227e-02 -3.017123229801654816e-02 -8.290410041809082031e-02 -4.999484866857528687e-02 -5.873486772179603577e-02 -3.208247125148773193e-01 6.274736672639846802e-02 4.714262485504150391e-01 -5.973160266876220703e-02 -2.156624197959899902e-01 1.902841776609420776e-02 -1.909977197647094727e-01 -8.928965777158737183e-03 -1.074299737811088562e-01 -6.997913867235183716e-02 4.509434476494789124e-02 -3.113003447651863098e-02 -4.398594796657562256e-02 1.113321334123611450e-01 -5.013939738273620605e-01 -1.662810705602169037e-02 9.222164750099182129e-01 4.423784464597702026e-02 -6.891109943389892578e-01 -8.381346240639686584e-03 -5.078202486038208008e-01 7.546664774417877197e-02 4.580889642238616943e-02 -4.904351010918617249e-02 -7.648942619562149048e-02 5.042754486203193665e-02 7.362242043018341064e-02 1.403575837612152100e-01 -1.378771781921386719e+00 4.026883468031883240e-02 9.287922978401184082e-01 1.054740250110626221e-01 -9.370832443237304688e-01 -5.850502476096153259e-02 -4.842211008071899414e-01 -4.118461161851882935e-02 -8.942052721977233887e-02 6.983152031898498535e-02 1.947875507175922394e-02 4.137447103857994080e-02 -4.944728687405586243e-02 7.752466946840286255e-02 -1.248198270797729492e+00 3.588234260678291321e-02 1.297532200813293457e+00 -2.536204992793500423e-04 -1.374488115310668945e+00 5.868653580546379089e-02 -5.348689556121826172e-01 4.664957150816917419e-02 -2.874817848205566406e-01 8.590933866798877716e-03 7.673092186450958252e-02 -9.579620324075222015e-03 -2.236905694007873535e-02 4.581817612051963806e-02 -1.400991678237915039e+00 -1.010871212929487228e-02 1.170774817466735840e+00 2.143302187323570251e-02 -1.352196216583251953e+00 -2.921623177826404572e-03 -2.867168188095092773e-01 4.464401677250862122e-02 2.528500556945800781e-01 -4.306761175394058228e-02 -3.014455437660217285e-01 -1.058262959122657776e-02 1.396992504596710205e-01 1.750524193048477173e-01 -6.450410485267639160e-01 -1.234651356935501099e-01 -7.543088197708129883e-01 -1.352130062878131866e-02 1.146128654479980469e+00 -5.387780442833900452e-02 2.907315790653228760e-01 -5.117954313755035400e-02 -1.677179336547851562e-01 -3.087562881410121918e-02 1.298738420009613037e-01 6.333409249782562256e-02 -1.792507618665695190e-01 -1.922103762626647949e-01 2.325040102005004883e+00 2.649420872330665588e-02 -1.852766752243041992e+00 -2.243188023567199707e-02 9.091222286224365234e-01 -5.613290891051292419e-02 7.214360833168029785e-01 2.523373439908027649e-02 2.024116069078445435e-01 -2.192131429910659790e-02 7.553819566965103149e-02 -5.391554161906242371e-02 8.117718249559402466e-02
-4.173433035612106323e-02 8.743286132812500000e-02 4.589205235242843628e-02 1.338582396507263184e+00 1.275690272450447083e-02 -5.903090536594390869e-02 8.872898668050765991e-02 -8.987094163894653320e-01 -3.294024616479873657e-02 3.456411510705947876e-02 -7.257545739412307739e-02 1.230747401714324951e-01 5.122057721018791199e-02 4.626306891441345215e-02 6.469144672155380249e-02 1.288172304630279541e-01 -2.080552838742733002e-02 6.001744866371154785e-01 1.728353463113307953e-02 1.045313328504562378e-01 1.400733459740877151e-02 -2.481768280267715454e-01 4.282902553677558899e-02 -9.419073164463043213e-02 2.256128005683422089e-02 -1.812747418880462646e-01 3.338488191366195679e-02 -1.073289290070533752e-01 -2.239700406789779663e-02 -6.074206531047821045e-02 7.095378357917070389e-03 5.129519701004028320e-01 -5.100665241479873657e-02 -4.076673183590173721e-03 9.258655458688735962e-02 -1.255785375833511353e-01 -1.127708144485950470e-02 1.644195988774299622e-02 4.837960749864578247e-02 3.472582399845123291e-01 5.689535662531852722e-02 1.134929582476615906e-01 2.816588245332241058e-02 -4.243328049778938293e-02 -1.039293245412409306e-03 -7.909386754035949707e-01 8.191712945699691772e-02 -1.646715998649597168e-01 6.623707711696624756e-02 3.233152329921722412e-01 1.097563188523054123e-02 4.149236157536506653e-02 1.692620478570461273e-02 -3.548758924007415771e-01 5.268678441643714905e-02 -5.501825734972953796e-02 -6.281623989343643188e-02 -2.083466947078704834e-01 5.270065274089574814e-03 -4.216556251049041748e-01 -2.916146442294120789e-02 1.224608533084392548e-02 9.713522344827651978e-02 8.591795563697814941e-01 -7.537798490375280380e-03 -6.651552021503448486e-02 6.197182461619377136e-03 6.350280344486236572e-02 3.439080901443958282e-03 1.646279916167259216e-02 -5.675365030765533447e-02 -1.927502900362014771e-01 -4.543141648173332214e-02 -1.540671586990356445e+00 -2.701129019260406494e-02 -1.681501977145671844e-02 -2.010153047740459442e-02 2.583268880844116211e-01 -4.252340272068977356e-02 2.411351911723613739e-02 4.015744850039482117e-02 1.649246066808700562e-01 -5.818334966897964478e-02 4.182522243354469538e-04 1.747204922139644623e-02 -1.359630376100540161e-02 3.035935806110501289e-03 -4.745152592658996582e-01 5.223482102155685425e-02 -9.137549251317977905e-02 1.109374407678842545e-02 1.128260731697082520e+00 8.920462802052497864e-03 1.355361472815275192e-02 -2.030887082219123840e-02 -3.616421520709991455e-01 -5.849956721067428589e-02 2.021936001256108284e-03 2.405926585197448730e-02 -6.696902960538864136e-02 4.936976358294487000e-02 -2.430519819259643555e+00 -2.508476935327053070e-02 1.440649330615997314e-01 3.426874754950404167e-04 2.367167174816131592e-01 -5.352183431386947632e-02 -5.383423343300819397e-02 -6.863738526590168476e-04 4.126944839954376221e-01 5.072008445858955383e-02 3.930928185582160950e-02 4.343863204121589661e-02 2.784896194934844971e-01 -5.300289392471313477e-02 -2.641739130020141602e+00 -3.719580546021461487e-02 -1.341940760612487793e-01 -5.592102929949760437e-02 7.625093311071395874e-02 7.164871692657470703e-02 3.297183290123939514e-02 3.533854708075523376e-02 -3.058591187000274658e-01 -6.052453443408012390e-02 -1.569649726152420044e-01 -4.461815580725669861e-03 7.285147905349731445e-02 -5.898727849125862122e-02 6.397584915161132812e+00 -1.548238005489110947e-02 2.110255956649780273e-01 9.209902957081794739e-03 -1.666077971458435059e+00 3.884003683924674988e-02 4.060097783803939819e-02 -5.451901629567146301e-02 7.517404109239578247e-02 -4.272216185927391052e-02 9.644708037376403809e-02
6.246650218963623047e-02 -7.733836770057678223e-01 6.663312017917633057e-02 -2.484733104705810547e+00 -1.668686866760253906e-01 -7.907984256744384766e-01 3.369460254907608032e-02 5.951348543167114258e-01 -3.456656634807586670e-02 -8.785389363765716553e-02 -7.723761349916458130e-02 -2.301405742764472961e-02 -5.345378816127777100e-02 6.612548232078552246e-02 -3.360101580619812012e-02 -4.523911774158477783e-01 1.164877228438854218e-02 -1.106197476387023926e+00 -1.973929852247238159e-01 -8.740515261888504028e-02 2.054861746728420258e-02 5.068950057029724121e-01 -5.475420877337455750e-02 8.148581534624099731e-02 3.931331634521484375e-02 -4.641252011060714722e-02 -1.466248184442520142e-02 -1.310377754271030426e-02 2.473151125013828278e-02 -1.385713070631027222e-01 -8.859588950872421265e-02 2.961773574352264404e-01 -2.134403586387634277e-01 -4.333166778087615967e-01 5.110712349414825439e-02 1.483969688415527344e-01 2.749119512736797333e-02 -2.020798996090888977e-02 5.354503914713859558e-02 -2.684089168906211853e-02 -1.563232205808162689e-02 2.513889782130718231e-02 3.604976832866668701e-02 2.658878564834594727e-01 -2.254851628094911575e-03 1.170573711395263672e+00 -2.247098982334136963e-01 4.579652547836303711e-01 9.933926165103912354e-02 -6.981700658798217773e-01 3.875545784831047058e-02 -9.307309985160827637e-02 5.006111413240432739e-02 1.203679963946342468e-01 6.118148565292358398e-02 -1.404328644275665283e-01 -2.641498297452926636e-02 7.355239987373352051e-01 -1.028199791908264160e-01 2.365939378738403320e+00 -2.045411318540573120e-01 5.804695487022399902e-01 5.327605083584785461e-02 -6.365815401077270508e-01 -1.224270835518836975e-02 7.469660043716430664e-02 2.912293188273906708e-02 8.806621283292770386e-02 -1.006504707038402557e-02 1.673941761255264282e-01 -4.321299865841865540e-02 4.574782252311706543e-01 2.753659524023532867e-02 2.168485164642333984e+00 -2.166719287633895874e-01 5.748692750930786133e-01 5.982019472867250443e-03 -1.240785360336303711e+00 -1.294235326349735260e-02 3.840992227196693420e-02 -3.300175815820693970e-02 -6.730367243289947510e-02 -3.148901462554931641e-02 -1.621602326631546021e-01 3.830006578937172890e-03 9.509981870651245117e-01 5.532357096672058105e-02 1.789818167686462402e+00 -1.051283478736877441e-01 9.616120457649230957e-01 8.818606287240982056e-02 -2.982579767704010010e-01 -2.198696322739124298e-02 -8.411402255296707153e-02 -8.516903221607208252e-02 2.565409522503614426e-03 2.106297016143798828e-02 -6.810750067234039307e-02 4.526935145258903503e-02 1.619385957717895508e+00 8.325910568237304688e-02 2.014284372329711914e+00 -1.548899263143539429e-01 3.625396490097045898e-01 6.093185022473335266e-02 -7.887660861015319824e-01 1.001951005309820175e-02 1.657721847295761108e-01 -3.164426609873771667e-02 6.821639090776443481e-02 6.103318557143211365e-02 2.537532150745391846e-01 2.922917343676090240e-02 -1.218161106109619141e+00 7.964516431093215942e-02 -5.704125761985778809e-01 -8.009768277406692505e-02 -3.162403404712677002e-01 -1.665063202381134033e-02 7.236929535865783691e-01 3.305851295590400696e-02 -4.744659736752510071e-02 -2.179129794239997864e-02 -1.805334389209747314e-01 1.720547303557395935e-02 -7.669540494680404663e-02 -6.783003360033035278e-02 -1.432825684547424316e+00 1.067125573754310608e-01 -5.643487453460693359e+00 -1.869561374187469482e-01 -1.334231495857238770e+00 -4.471924621611833572e-03 1.672087430953979492e+00 -5.111958831548690796e-02 -3.182577714323997498e-02 2.827817387878894806e-02 6.739751994609832764e-02 -2.263438701629638672e-02 -4.145038127899169922e-02
-3.755212575197219849e-02 2.119368463754653931e-01 2.874595820903778076e-01 3.269659122452139854e-03 2.434501647949218750e-01 -3.327288627624511719e-01 -1.107071116566658020e-01 -7.671928405761718750e-01 -7.239435613155364990e-02 1.579376868903636932e-02 5.605159699916839600e-02 3.515707701444625854e-02 7.862429134547710419e-03 8.571803569793701172e-03 1.819626241922378540e-02 4.763835296034812927e-02 2.480590939521789551e-01 5.654021725058555603e-02 2.258863896131515503e-01 -4.772204160690307617e-02 -1.303322147578001022e-02 -1.793311387300491333e-01 -5.210448056459426880e-02 -3.177085518836975098e-02 4.316952452063560486e-02 -7.611399888992309570e-02 -5.436255037784576416e-02 -3.154977783560752869e-02 3.705947892740368843e-03 1.187567189335823059e-01 3.102546930313110352e-01 -2.347419112920761108e-01 2.618647813796997070e-01 -3.885123878717422485e-02 -6.643914431333541870e-02 1.050318852066993713e-01 -6.965248286724090576e-02 1.536179613322019577e-02 1.151876617223024368e-02 -4.272075742483139038e-02 2.248727949336171150e-03 1.580169610679149628e-02 -8.059454150497913361e-03 -8.236923813819885254e-01 3.676016032695770264e-01 2.529332637786865234e-01 3.026919066905975342e-01 5.387147143483161926e-02 -4.525383561849594116e-02 8.547703027725219727e-01 5.707370117306709290e-02 -4.800618067383766174e-02 3.885506093502044678e-02 -4.053467139601707458e-02 -1.673801429569721222e-02 -6.256636232137680054e-02 -6.367869675159454346e-02 -1.968523114919662476e-01 2.122589200735092163e-01 4.814435243606567383e-01 1.384809911251068115e-01 2.511233091354370117e-01 -1.789492554962635040e-02 7.955873012542724609e-01 2.489947527647018433e-02 4.883988574147224426e-02 -4.558729007840156555e-03 -6.960915867239236832e-03 6.979104876518249512e-02 5.747886002063751221e-02 -7.248704880475997925e-02 -6.969076991081237793e-01 2.858043909072875977e-01 3.127982616424560547e-01 1.622737497091293335e-01 9.659422934055328369e-02 1.153153926134109497e-02 1.270950078964233398e+00 3.418395295739173889e-02 -1.122726723551750183e-01 7.661289721727371216e-02 3.859009128063917160e-03 1.662837713956832886e-02 -5.639116838574409485e-02 -9.306500665843486786e-03 -5.646285414695739746e-01 4.063923358917236328e-01 8.808273822069168091e-02 2.262592315673828125e-01 3.879958391189575195e-01 -1.136654242873191833e-01 2.834546864032745361e-01 -1.669876836240291595e-02 2.697528339922428131e-02 -5.324115604162216187e-02 1.721219159662723541e-02 -3.252333030104637146e-02 5.712589249014854431e-02 8.983224630355834961e-03 4.924147725105285645e-01 4.049656391143798828e-01 -5.476786494255065918e-01 1.965821683406829834e-01 -1.353773027658462524e-01 1.076461921911686659e-04 9.961109608411788940e-03 8.781973272562026978e-02 1.776271127164363861e-02 -4.285455495119094849e-02 -1.761682480573654175e-01 2.166774868965148926e-02 -4.209540411829948425e-02 8.946976810693740845e-02 -4.908256232738494873e-01 4.245079159736633301e-01 8.788338899612426758e-01 1.554265022277832031e-01 -3.384985029697418213e-03 -7.816385477781295776e-03 6.588162779808044434e-01 9.003543108701705933e-02 3.890685737133026123e-02 6.735132634639739990e-02 4.308038353919982910e-01 -1.338668912649154663e-02 6.277675926685333252e-02 5.256151407957077026e-02 1.886114835739135742e+00 3.740396201610565186e-01 -1.308688402175903320e+00 3.226150870323181152e-01 -2.097738236188888550e-01 -6.606090068817138672e-02 -3.023628234863281250e+00 -5.160328745841979980e-02 4.521499574184417725e-02 3.641274198889732361e-02 -1.549968421459197998e-01 -6.247553974390029907e-02 -1.780427247285842896e-02
8.101206272840499878e-02 -6.738489121198654175e-02 1.711161881685256958e-01 1.077991127967834473e-01 3.054502904415130615e-01 5.047225952148437500e-01 2.552961707115173340e-01 3.647338971495628357e-02 -1.649019420146942139e-01 5.199919641017913818e-02 3.054311871528625488e-02 6.440471112728118896e-02 -2.476738765835762024e-02 -2.648319117724895477e-02 -4.716035351157188416e-02 -1.429505646228790283e-01 2.496115416288375854e-01 -3.939915299415588379e-01 4.364709556102752686e-01 -7.832750678062438965e-02 2.522056102752685547e-01 1.989543288946151733e-01 -9.879852831363677979e-02 -1.403969377279281616e-01 -2.483489178121089935e-02 2.192259952425956726e-02 3.688602522015571594e-02 9.883980453014373779e-02 7.166302949190139771e-02 1.736101210117340088e-01 2.754672467708587646e-01 6.602797508239746094e-01 3.176259100437164307e-01 2.448750734329223633e-01 2.428376972675323486e-01 2.087417803704738617e-02 -3.537993133068084717e-02 -2.836313471198081970e-02 -9.786717593669891357e-02 -9.568060934543609619e-02 -5.636198818683624268e-02 -7.516486197710037231e-02 6.181867793202400208e-03 -7.525248080492019653e-02 2.968583106994628906e-01 -8.280646800994873047e-01 3.300400674343109131e-01 -6.548886299133300781e-01 3.011047244071960449e-01 2.009046971797943115e-01 -7.406048476696014404e-02 2.434628754854202271e-01 -1.826825365424156189e-02 7.644787896424531937e-03 -2.559733018279075623e-02 1.063718181103467941e-02 2.303045056760311127e-02 -5.262110009789466858e-02 1.525638699531555176e-01 4.221774041652679443e-01 4.488258361816406250e-01 -3.072808384895324707e-01 3.340506851673126221e-01 -7.491852641105651855e-01 -1.596091389656066895e-01 -1.232653632760047913e-01 1.667957566678524017e-02 2.720105648040771484e-02 4.692285135388374329e-02 3.041055053472518921e-02 -2.881769835948944092e-02 -6.610120087862014771e-02 2.830123007297515869e-01 -1.809787005186080933e-01 3.321071267127990723e-01 -7.165977954864501953e-01 1.953429430723190308e-01 8.962479978799819946e-02 -1.691504195332527161e-02 -3.247981145977973938e-02 1.402789819985628128e-02 -2.945448756217956543e-01 -2.905519120395183563e-02 2.280494943261146545e-02 -9.442170709371566772e-02 -9.427009522914886475e-02 2.652112543582916260e-01 -4.416412711143493652e-01 3.597030639648437500e-01 -4.667336046695709229e-01 3.022210896015167236e-01 -4.269112646579742432e-01 -4.413374885916709900e-02 4.271187633275985718e-02 -1.014838516712188721e-01 4.610558748245239258e-01 1.076090149581432343e-02 6.373867392539978027e-02 -2.651915140450000763e-02 1.996907293796539307e-01 2.804593741893768311e-01 7.056049704551696777e-01 4.422023892402648926e-01 9.328672289848327637e-01 1.734372824430465698e-01 -1.388437598943710327e-01 -3.702014312148094177e-02 -1.524214893579483032e-01 -2.083500102162361145e-02 -5.765207409858703613e-01 6.589696556329727173e-02 -9.759118407964706421e-02 2.527558244764804840e-03 3.691179752349853516e-01 2.472403645515441895e-01 -7.668743729591369629e-01 2.887922525405883789e-01 -2.145820260047912598e-01 2.227302640676498413e-01 9.106177091598510742e-01 -8.010535687208175659e-02 1.064658015966415405e-01 -7.847128063440322876e-02 2.996194362640380859e-01 -5.473046749830245972e-02 6.318148970603942871e-02 6.494469940662384033e-02 -2.731719613075256348e-01 2.594949305057525635e-01 7.071038484573364258e-01 4.634203612804412842e-01 7.891214489936828613e-01 2.818837463855743408e-01 -1.275797933340072632e-01 -3.557071089744567871e-02 1.942060701549053192e-02 4.415824543684720993e-03 9.920102357864379883e-02 -6.240678578615188599e-02 -7.473845034837722778e-02
-8.170304819941520691e-03 1.706093847751617432e-01 -2.992949187755584717e-01 -4.793299362063407898e-02 -1.906711608171463013e-01 3.818652406334877014e-02 1.151637658476829529e-01 1.675422340631484985e-01 1.799355447292327881e-01 -4.144319146871566772e-02 -2.117758542299270630e-01 -4.548537731170654297e-02 -2.083729021251201630e-02 1.562316715717315674e-02 1.941899582743644714e-02 4.904531873762607574e-03 -2.050884217023849487e-01 1.804166585206985474e-01 -1.778868138790130615e-01 4.809813946485519409e-02 1.349779367446899414e-01 -2.693338990211486816e-01 2.207397669553756714e-01 6.912925094366073608e-02 -3.001890480518341064e-01 9.786731749773025513e-02 -5.059461295604705811e-02 5.104110017418861389e-02 -3.249946981668472290e-02 -1.192120015621185303e-01 -1.886916458606719971e-01 -1.721122264862060547e-01 -9.909196943044662476e-02 -2.418095320463180542e-01 1.480728387832641602e-01 -2.322356104850769043e-01 1.716945320367813110e-01 -6.753069907426834106e-02 -3.411465585231781006e-01 3.546261042356491089e-02 1.237944699823856354e-03 -1.257768124341964722e-01 -2.690034918487071991e-02 -1.542873233556747437e-01 -1.951052993535995483e-01 2.249678373336791992e-01 -1.306610703468322754e-01 -1.395751833915710449e-01 1.028638426214456558e-02 8.915252238512039185e-02 2.640574872493743896e-01 -1.375021878629922867e-02 -2.945359349250793457e-01 -2.038528621196746826e-01 5.749430507421493530e-03 5.332688614726066589e-02 8.752085268497467041e-02 -2.805753648281097412e-01 -1.563564091920852661e-01 -3.635502979159355164e-02 -6.780225038528442383e-02 -1.733587086200714111e-01 5.349944531917572021e-02 -1.005006730556488037e-01 1.961214691400527954e-01 -1.018675416707992554e-01 -2.535008788108825684e-01 1.207030043005943298e-01 3.707596624735742807e-04 3.068452700972557068e-02 6.188897415995597839e-02 -2.164091765880584717e-01 -1.139219328761100769e-01 -1.245389133691787720e-01 -8.019661158323287964e-02 -3.553342074155807495e-02 1.485456526279449463e-01 7.781357318162918091e-02 2.406187504529953003e-01 2.543496154248714447e-02 -2.081908583641052246e-01 -1.309285592287778854e-02 1.121293846517801285e-02 -4.829362407326698303e-02 -1.232727989554405212e-02 -2.346675843000411987e-01 -1.256871670484542847e-01 6.009637117385864258e-01 -1.593800038099288940e-01 2.490748912096023560e-01 4.166585579514503479e-02 1.792563125491142273e-02 1.174480319023132324e-01 1.337303966283798218e-01 -2.648117840290069580e-01 -3.520247936248779297e-01 5.983415246009826660e-02 2.358645759522914886e-02 4.446797072887420654e-02 9.451167285442352295e-02 -1.907674223184585571e-01 -6.886931061744689941e-01 -4.978724941611289978e-02 4.291512072086334229e-01 1.371925920248031616e-01 2.828701138496398926e-01 2.186879068613052368e-01 -1.666834652423858643e-01 -2.629785835742950439e-01 4.992226660251617432e-01 1.025444269180297852e-02 -2.903012745082378387e-02 -5.702065303921699524e-02 7.554962038993835449e-01 -9.569335728883743286e-02 3.439566195011138916e-01 -7.042567431926727295e-02 -1.519143134355545044e-01 4.046071320772171021e-02 1.130527332425117493e-01 1.071053072810173035e-01 1.612241119146347046e-01 -3.551399111747741699e-01 -1.089266464114189148e-01 -2.820521034300327301e-02 -4.619144275784492493e-02 -6.268895417451858521e-02 -3.472932428121566772e-02 -2.751102745532989502e-01 -3.466591536998748779e-01 -7.075621187686920166e-02 -4.704419523477554321e-02 1.021482497453689575e-01 -1.649453490972518921e-01 2.324097454547882080e-01 6.438642740249633789e-03 -2.302380502223968506e-01 -6.829265505075454712e-02 1.559770852327346802e-02 7.513711601495742798e-02
7.188589870929718018e-02 -8.337734639644622803e-02 1.012075319886207581e-01 -4.018520712852478027e-01 -1.390072237700223923e-02 -1.180860176682472229e-01 3.138325735926628113e-02 7.561332732439041138e-02 -2.404593825340270996e-01 -5.708514526486396790e-02 2.488039582967758179e-01 -2.884078957140445709e-02 -3.123661130666732788e-02 9.613077156245708466e-03 5.162141844630241394e-02 2.753322944045066833e-02 1.275566518306732178e-01 -4.662483558058738708e-02 9.605533559806644917e-04 -3.447668254375457764e-02 7.138780504465103149e-02 -1.686764508485794067e-01 -2.432198822498321533e-01 1.215467676520347595e-01 2.454701364040374756e-01 2.502564527094364166e-02 -5.264338105916976929e-03 1.067514065653085709e-02 3.867090120911598206e-02 -7.736451923847198486e-02 -8.439016528427600861e-03 -6.915020942687988281e-02 -9.877581149339675903e-02 3.312665596604347229e-02 6.078850105404853821e-02 1.382111012935638428e-01 -1.831406801939010620e-01 3.568141534924507141e-02 2.545837461948394775e-01 -1.971769705414772034e-02 1.521348860114812851e-02 4.439001157879829407e-02 -6.708805263042449951e-02 1.536203473806381226e-01 5.322862789034843445e-02 1.577136665582656860e-01 -5.105467513203620911e-02 1.080490089952945709e-02 1.226338446140289307e-01 2.257630787789821625e-02 -1.530999988317489624e-01 -8.967765420675277710e-02 2.357041984796524048e-01 8.822190575301647186e-03 3.252879949286580086e-03 -5.374728143215179443e-02 1.309690251946449280e-02 -4.513695463538169861e-02 9.320039302110671997e-02 3.518083989620208740e-01 4.309159517288208008e-02 2.997275292873382568e-01 1.522924304008483887e-01 -2.314688861370086670e-01 -3.130811452865600586e-01 8.485261350870132446e-02 1.925689280033111572e-01 -5.649783462285995483e-02 -7.036362774670124054e-03 6.833680719137191772e-02 2.392325736582279205e-02 7.416085898876190186e-02 1.119891405105590820e-01 2.041344195604324341e-01 -9.647245705127716064e-02 -9.773286432027816772e-02 7.431700080633163452e-02 -8.323407173156738281e-02 -2.177990674972534180e-01 1.600338965654373169e-01 2.371410876512527466e-01 -1.285608708858489990e-01 -4.380414262413978577e-03 -3.685631975531578064e-02 -4.299538210034370422e-02 4.947890713810920715e-02 4.014666005969047546e-02 4.016433060169219971e-01 6.869249511510133743e-03 1.762178540229797363e-01 3.674717620015144348e-02 -1.079395636916160583e-01 -2.771192193031311035e-01 -1.371286064386367798e-01 2.217897921800613403e-01 2.576031088829040527e-01 1.229411829262971878e-02 -4.169693961739540100e-02 1.985756214708089828e-03 -3.863382637500762939e-01 1.529443264007568359e-01 6.451982259750366211e-02 -8.828326314687728882e-02 2.541429102420806885e-01 2.081704698503017426e-02 2.343141883611679077e-01 -2.155048847198486328e-01 9.781605750322341919e-02 1.700957864522933960e-01 -2.560080885887145996e-01 3.832929208874702454e-02 7.773088663816452026e-02 1.278310269117355347e-02 1.636607795953750610e-01 5.002444609999656677e-02 1.556241791695356369e-02 -4.232842475175857544e-02 -6.178738474845886230e-01 1.911261118948459625e-02 1.333713829517364502e-01 -1.862716078758239746e-01 -6.371257454156875610e-02 2.534740865230560303e-01 3.484551012516021729e-01 -2.221243642270565033e-02 -2.429337240755558014e-02 -1.026930063962936401e-01 1.280842870473861694e-01 1.325588226318359375e-01 -6.719420552253723145e-01 3.009189292788505554e-02 8.618790656328201294e-02 8.320334553718566895e-02 -1.169282943010330200e-02 -2.964739203453063965e-01 -1.638811826705932617e-01 2.316293120384216309e-01 -1.353842914104461670e-01 1.087194830179214478e-01 -4.751463606953620911e-02
1.256537530571222305e-02 -2.376148551702499390e-01 -2.125005424022674561e-01 -7.601531594991683960e-02 -1.463828533887863159e-01 -1.509071886539459229e-02 3.081687986850738525e-01 -5.060440897941589355e-01 -3.785594403743743896e-01 1.378468424081802368e-01 -3.967007398605346680e-01 6.784002482891082764e-02 4.407813400030136108e-02 -6.884025037288665771e-02 -1.387340202927589417e-02 -2.747028470039367676e-01 -3.022289276123046875e-01 -3.558043763041496277e-02 -1.166736893355846405e-02 3.797427192330360413e-02 4.360553026199340820e-01 3.999421298503875732e-01 -4.226028919219970703e-01 3.728577494621276855e-02 -3.656580746173858643e-01 -4.716132953763008118e-02 5.157724488526582718e-03 -7.878734171390533447e-02 -1.961829327046871185e-02 1.112820729613304138e-01 -1.600110530853271484e-01 1.449532657861709595e-01 -1.362204998731613159e-01 -1.110426038503646851e-01 3.499269485473632812e-01 5.912349745631217957e-02 -2.891422808170318604e-01 -9.534552693367004395e-02 -3.333545625209808350e-01 5.790730565786361694e-02 7.281684782356023788e-03 7.320539653301239014e-02 -1.398706529289484024e-02 2.653335034847259521e-01 -2.144901454448699951e-01 -1.735215485095977783e-01 -1.451271772384643555e-01 -2.309317700564861298e-02 3.781568706035614014e-01 3.057295680046081543e-01 -4.284738004207611084e-01 -7.923934608697891235e-02 -3.887744843959808350e-01 -3.803661838173866272e-02 -7.612662017345428467e-02 1.365118920803070068e-01 -4.012277722358703613e-02 9.349472075700759888e-02 -2.729352414608001709e-01 -5.412831902503967285e-02 -1.145736053586006165e-01 1.595240980386734009e-01 2.911273241043090820e-01 1.112681906670331955e-02 -3.660209178924560547e-01 -1.580427885055541992e-01 -2.960327863693237305e-01 -8.899100124835968018e-02 3.723699226975440979e-02 -2.028931230306625366e-01 4.185074940323829651e-02 6.127491593360900879e-01 -2.758331596851348877e-01 -4.612751305103302002e-01 -1.865759193897247314e-01 -2.120627313852310181e-01 3.421457111835479736e-01 -1.453252881765365601e-01 -3.284173309803009033e-01 -2.582959830760955811e-01 -2.643692791461944580e-01 -2.147837877273559570e-01 -6.723038107156753540e-02 1.766119599342346191e-01 -2.084632031619548798e-02 9.476324915885925293e-02 -2.339878976345062256e-01 -2.113823294639587402e-01 -1.480491608381271362e-01 -2.077702619135379791e-02 3.485447764396667480e-01 2.281988114118576050e-01 -3.698082864284515381e-01 -4.307459294795989990e-02 -2.587202489376068115e-01 -8.857761323451995850e-02 -1.020981092005968094e-02 -9.141345322132110596e-02 -4.481276497244834900e-02 -3.484341502189636230e-01 -3.253229856491088867e-01 6.111021041870117188e-01 -8.230572938919067383e-02 1.866592764854431152e-01 3.231531083583831787e-01 -5.227609276771545410e-01 -2.873538732528686523e-01 -2.319661080837249756e-01 -4.095229208469390869e-01 2.195231318473815918e-01 -5.500344559550285339e-02 1.019360218197107315e-02 2.720601111650466919e-02 2.805894911289215088e-01 -3.036100268363952637e-01 -5.477715134620666504e-01 -1.477806866168975830e-01 -1.715888828039169312e-01 3.046393096446990967e-01 -3.243044018745422363e-02 -3.740746080875396729e-01 1.016745939850807190e-01 -3.203343749046325684e-01 -2.070191688835620880e-02 4.180168360471725464e-02 1.485375035554170609e-02 9.322781860828399658e-02 -6.101511716842651367e-01 -1.970762461423873901e-01 7.479217052459716797e-01 -1.669294536113739014e-01 1.699597835540771484e-01 3.644388616085052490e-01 2.632628679275512695e-01 -2.742893397808074951e-01 5.656184554100036621e-01 -2.512561082839965820e-01 1.452021151781082153e-01 -1.964944414794445038e-02 -5.157204344868659973e-03
8.024692535400390625e-02 7.242276072502136230e-01 8.111508488655090332e-01 -2.638340294361114502e-01 7.388026118278503418e-01 3.447833955287933350e-01 9.115228652954101562e-01 -6.112124919891357422e-01 -1.174330431967973709e-02 -3.512853384017944336e-02 7.891511917114257812e-02 8.057700842618942261e-02 7.587613165378570557e-02 -7.061563432216644287e-03 3.700154647231101990e-02 1.202206164598464966e-01 7.915641069412231445e-01 -5.356100201606750488e-02 7.568726539611816406e-01 -2.041490674018859863e-01 8.601878285408020020e-01 -3.276009857654571533e-01 1.355990301817655563e-02 3.354821354150772095e-02 4.558695852756500244e-02 -2.382168173789978027e-02 -6.393940746784210205e-02 -5.780600011348724365e-02 7.418904453516006470e-02 1.435023825615644455e-02 8.007818460464477539e-01 -1.528668254613876343e-01 6.704584956169128418e-01 3.981613367795944214e-02 9.364548325538635254e-01 2.886472344398498535e-01 2.732143737375736237e-02 -2.685797226149588823e-04 5.495370551943778992e-02 1.068584322929382324e-01 -2.681371290236711502e-03 1.071613803505897522e-01 -2.873921953141689301e-02 -7.527887821197509766e-01 7.806757688522338867e-01 7.190001606941223145e-01 7.059201002120971680e-01 -1.527133435010910034e-01 9.525591731071472168e-01 5.748005509376525879e-01 1.288113296031951904e-01 -1.062612421810626984e-02 2.930653095245361328e-02 -2.874384522438049316e-01 9.819614700973033905e-03 -4.803059995174407959e-02 -6.046647205948829651e-02 -7.592138648033142090e-01 8.299229145050048828e-01 -9.882833808660507202e-03 6.189922690391540527e-01 -1.777612864971160889e-01 8.792795538902282715e-01 7.842782735824584961e-01 3.674661042168736458e-03 8.093104511499404907e-02 -2.303554676473140717e-02 1.797511577606201172e-01 -6.959983706474304199e-02 6.591298431158065796e-02 -7.484992593526840210e-02 -5.734945535659790039e-01 7.114119529724121094e-01 7.569801807403564453e-01 6.943705677986145020e-01 -7.259022444486618042e-02 9.017368555068969727e-01 7.204938530921936035e-01 8.590710908174514771e-02 -9.187675267457962036e-02 1.146864369511604309e-01 6.537378579378128052e-02 -5.052911862730979919e-02 -1.260757446289062500e-01 -8.299256861209869385e-02 -1.223941206932067871e+00 7.338184714317321777e-01 5.019054412841796875e-01 6.491842269897460938e-01 -1.144646331667900085e-01 9.193674921989440918e-01 6.247392296791076660e-01 2.066555246710777283e-02 -4.475394263863563538e-02 -3.434279933571815491e-02 -1.713736206293106079e-01 5.779819563031196594e-02 1.564213261008262634e-02 -8.957546949386596680e-02 3.514052033424377441e-01 7.296259999275207520e-01 -6.547459959983825684e-01 6.284752488136291504e-01 -1.290298849344253540e-01 9.445550441741943359e-01 3.106267452239990234e-01 2.709318511188030243e-02 6.783658266067504883e-02 7.425078004598617554e-02 2.614867687225341797e-01 1.449668034911155701e-02 4.368138313293457031e-02 6.097058951854705811e-02 -1.364990621805191040e-01 7.646198272705078125e-01 3.969632387161254883e-01 5.834133625030517578e-01 6.414988636970520020e-01 9.414872527122497559e-01 -5.196566581726074219e-01 6.522294133901596069e-02 -7.744595408439636230e-02 4.715579003095626831e-02 -1.025265008211135864e-01 -5.151313915848731995e-02 5.082910880446434021e-03 6.053972616791725159e-02 2.225091457366943359e+00 8.082404732704162598e-01 -1.163896322250366211e+00 6.629288792610168457e-01 -1.098666042089462280e-01 9.077829122543334961e-01 -1.772864341735839844e+00 6.982024759054183960e-02 5.849261581897735596e-02 -3.641999885439872742e-02 -1.143641769886016846e-01 4.355108365416526794e-02 8.032683283090591431e-03
-7.347897626459598541e-03 8.147878572344779968e-03 -5.197778344154357910e-01 1.747621595859527588e-01 -3.747929036617279053e-01 2.344864048063755035e-02 6.162078380584716797e-01 -2.908241748809814453e-02 9.574417956173419952e-03 -1.557250740006566048e-03 2.393730543553829193e-02 -4.052666947245597839e-02 6.587636470794677734e-02 2.915733121335506439e-02 -2.710719220340251923e-02 -3.679153323173522949e-02 -6.667860746383666992e-01 7.549633085727691650e-02 -3.665252029895782471e-01 1.333047747611999512e-01 5.719265937805175781e-01 1.667275726795196533e-01 2.711854875087738037e-02 3.473710268735885620e-02 -1.364053227007389069e-03 7.127749919891357422e-02 -8.415565639734268188e-02 1.959494082257151604e-03 3.119656443595886230e-02 8.463550359010696411e-02 -6.086326837539672852e-01 -1.465043872594833374e-01 -2.665070891380310059e-01 -1.338086128234863281e-01 6.198549866676330566e-01 -5.234792083501815796e-02 -2.278130315244197845e-02 -4.297155514359474182e-02 1.202278286218643188e-01 -5.338102579116821289e-03 -3.035014867782592773e-02 -3.841083729639649391e-03 7.570449262857437134e-03 -3.930528182536363602e-03 -6.549319028854370117e-01 -5.605218410491943359e-01 -4.256015419960021973e-01 -3.519128262996673584e-02 6.517022252082824707e-01 6.594905257225036621e-02 -1.212443597614765167e-02 -4.240609332919120789e-02 1.019658371806144714e-01 -6.607548147439956665e-02 6.237003952264785767e-02 -2.132594957947731018e-02 -5.393725261092185974e-02 1.060041636228561401e-01 -6.221473813056945801e-01 -9.274823963642120361e-02 -3.784585893154144287e-01 -1.562722027301788330e-01 5.778180956840515137e-01 -2.313574962317943573e-02 9.948839992284774780e-02 4.272259771823883057e-02 3.483423590660095215e-02 6.401206552982330322e-02 2.356972778216004372e-03 4.848883673548698425e-02 -3.568952158093452454e-02 -1.406961381435394287e-01 -7.032168507575988770e-01 -4.270844757556915283e-01 -4.484304487705230713e-01 1.528112292289733887e-01 5.141941905021667480e-01 1.917991973459720612e-02 -3.086997196078300476e-02 7.347528636455535889e-02 -1.846981793642044067e-02 7.311569154262542725e-02 -8.649576455354690552e-02 -7.568495720624923706e-02 -2.880139090120792389e-02 1.045340970158576965e-01 -6.597976684570312500e-01 2.787355184555053711e-01 -3.273516893386840820e-01 -3.459369018673896790e-02 5.377004742622375488e-01 -4.861570894718170166e-01 4.907247051596641541e-02 -7.429533451795578003e-02 5.161189660429954529e-02 -9.602628648281097412e-02 4.403256997466087341e-02 4.577775672078132629e-02 5.523913353681564331e-02 2.576384842395782471e-01 -6.144056320190429688e-01 5.247783064842224121e-01 -3.995424807071685791e-01 -5.000405386090278625e-02 5.685954689979553223e-01 3.018857538700103760e-01 5.812388658523559570e-02 -1.451405603438615799e-02 2.323704212903976440e-02 2.566712796688079834e-01 -5.820112302899360657e-02 -3.404383361339569092e-02 6.771168857812881470e-02 -3.842159509658813477e-01 -7.529416680335998535e-01 -5.256025791168212891e-01 -2.907597720623016357e-01 2.657561302185058594e-01 6.728861927986145020e-01 -7.007679902017116547e-03 1.022244989871978760e-01 6.221622601151466370e-02 6.631463021039962769e-02 -3.076523840427398682e-01 1.892764866352081299e-02 1.937166973948478699e-02 -6.405783444643020630e-02 -9.731716476380825043e-03 -5.519022345542907715e-01 6.509484052658081055e-01 -2.716380655765533447e-01 -1.938640326261520386e-01 6.528074145317077637e-01 1.021512523293495178e-01 4.514319822192192078e-02 -3.706321865320205688e-02 5.191848427057266235e-02 6.067758426070213318e-02 4.609515145421028137e-02 -6.235599983483552933e-03
8.538415282964706421e-02 2.693946659564971924e-01 -1.228283420205116272e-01 -9.755143523216247559e-02 2.013029307126998901e-01 4.002285003662109375e-01 7.665843516588211060e-02 2.710501849651336670e-01 3.548828363418579102e-01 -4.141108691692352295e-02 2.211372256278991699e-01 -1.175214722752571106e-02 -5.390730500221252441e-02 -7.945173420011997223e-03 1.732733286917209625e-02 2.894205451011657715e-01 -1.699607446789741516e-02 2.393915057182312012e-01 9.771227836608886719e-02 3.594966977834701538e-02 1.336092408746480942e-02 -2.254014760255813599e-01 4.286356866359710693e-01 3.912140801548957825e-02 2.572850584983825684e-01 6.106654554605484009e-02 2.216707915067672729e-02 -4.455446824431419373e-02 -5.719866976141929626e-02 -2.490470409393310547e-01 -3.124536760151386261e-02 6.161314621567726135e-02 2.155117541551589966e-01 5.477603524923324585e-02 1.087606921792030334e-01 1.973575800657272339e-01 3.734405040740966797e-01 -5.104977265000343323e-02 2.589127719402313232e-01 1.800412125885486603e-02 -2.529006265103816986e-02 1.989642158150672913e-03 -5.494653433561325073e-02 -2.359202355146408081e-01 2.392924018204212189e-02 1.341476291418075562e-01 1.422823071479797363e-01 -1.832146346569061279e-01 3.441161662340164185e-02 -4.568636715412139893e-01 3.811317980289459229e-01 1.510178297758102417e-01 1.358743906021118164e-01 2.698527462780475616e-02 -3.549718484282493591e-02 9.994863718748092651e-02 7.149834185838699341e-02 -3.849727213382720947e-01 -1.175202503800392151e-01 -1.647925078868865967e-01 1.015408635139465332e-01 -3.997009396553039551e-01 1.226532906293869019e-01 -1.675154715776443481e-01 4.134947955608367920e-01 8.132436126470565796e-02 1.792210042476654053e-01 1.950536668300628662e-01 -7.941587269306182861e-02 -7.613922655582427979e-02 -2.775978483259677887e-02 -1.593481600284576416e-01 -7.622969895601272583e-02 -9.183332324028015137e-02 1.742005050182342529e-01 -1.888186186552047729e-01 1.142426356673240662e-01 1.400667876005172729e-01 3.843478262424468994e-01 1.375636607408523560e-01 2.627051770687103271e-01 2.614670097827911377e-01 3.670014813542366028e-02 5.916450917720794678e-02 -3.527173772454261780e-02 -5.310519784688949585e-02 -6.075658649206161499e-02 -5.041931942105293274e-02 2.148450016975402832e-01 -5.118157267570495605e-01 5.740347504615783691e-02 -5.728223547339439392e-02 2.741766571998596191e-01 2.381218671798706055e-01 1.249345988035202026e-01 -5.444293469190597534e-02 6.409830600023269653e-02 -6.677711755037307739e-02 -2.004572376608848572e-02 -7.623212877660989761e-03 -1.971386931836605072e-02 -1.333343237638473511e-01 1.852647066116333008e-01 1.635072976350784302e-01 1.087929159402847290e-01 3.452762030065059662e-04 3.350358307361602783e-01 -1.761962622404098511e-01 1.616132259368896484e-01 -4.650799557566642761e-02 -3.348004817962646484e-02 3.037210926413536072e-02 3.494784608483314514e-02 5.135470628738403320e-01 5.151161551475524902e-02 -9.192714095115661621e-02 1.386503726243972778e-01 2.914905548095703125e-01 5.414627864956855774e-02 4.029502868652343750e-01 3.549317121505737305e-01 -7.201568037271499634e-02 2.590393424034118652e-01 -8.140649199485778809e-01 6.126942858099937439e-02 -1.094320439733564854e-03 -1.397577859461307526e-02 3.455211594700813293e-02 -1.010303869843482971e-01 1.574803739786148071e-01 1.244736388325691223e-01 3.551291823387145996e-01 1.291140615940093994e-01 -8.757104724645614624e-02 3.891642689704895020e-01 -2.592102587223052979e-01 1.378168463706970215e-01 3.474494218826293945e-01 -1.288270857185125351e-02 1.594134257175028324e-03
2.685840614140033722e-02 -1.410447210073471069e-01 -1.273892521858215332e-01 1.510212272405624390e-01 -4.054984152317047119e-01 1.023691743612289429e-01 -4.546121358871459961e-01 8.548240363597869873e-02 2.859049104154109955e-02 2.501365728676319122e-02 2.142507210373878479e-02 1.339702308177947998e-01 4.372382909059524536e-02 -6.581154465675354004e-02 -1.415027957409620285e-02 -4.633922129869461060e-02 -1.001183986663818359e-01 2.152643948793411255e-01 -3.355703353881835938e-01 -1.214519888162612915e-02 -5.263640880584716797e-01 7.166102994233369827e-03 -3.229108452796936035e-02 2.843709895387291908e-03 -4.810332134366035461e-02 -6.263389950618147850e-04 5.810233205556869507e-02 8.318977802991867065e-02 -3.393995575606822968e-03 7.975252717733383179e-02 -1.673271656036376953e-01 -1.763839423656463623e-01 -3.100360631942749023e-01 -7.766220718622207642e-02 -4.328653216361999512e-01 -9.426717460155487061e-02 -1.637321664020419121e-03 -4.861243814229965210e-02 -3.757124021649360657e-02 -9.618093818426132202e-02 1.292064972221851349e-02 2.100320905447006226e-02 6.554339546710252762e-03 4.127914905548095703e-01 -2.038137614727020264e-01 -6.163718700408935547e-01 -3.173533082008361816e-01 2.161265760660171509e-01 -4.558207094669342041e-01 3.369445353746414185e-02 -7.226020842790603638e-02 -4.457771778106689453e-02 8.243723213672637939e-02 9.116194210946559906e-03 5.380122736096382141e-02 -7.683844119310379028e-02 2.655091928318142891e-03 1.916336268186569214e-01 -1.910998523235321045e-01 -3.171694278717041016e-01 -4.186525940895080566e-01 -3.412789702415466309e-01 -5.702409148216247559e-01 -7.718484103679656982e-02 1.217485032975673676e-02 5.145088583230972290e-02 9.742316603660583496e-02 -1.177545636892318726e-01 1.590686477720737457e-02 6.684342026710510254e-02 3.735039010643959045e-02 1.237765327095985413e-01 -2.349773645401000977e-01 -1.156239286065101624e-01 -4.037863612174987793e-01 2.378121167421340942e-01 -4.506889283657073975e-01 -2.854862809181213379e-01 7.058037072420120239e-02 3.134152665734291077e-02 -2.470572292804718018e-02 2.699590660631656647e-02 -1.346839498728513718e-02 4.145134706050157547e-03 -1.052118092775344849e-02 3.690368831157684326e-01 -2.443244308233261108e-01 -5.284523963928222656e-01 -2.924612164497375488e-01 -8.260308951139450073e-02 -4.960900247097015381e-01 9.658738970756530762e-02 -4.836075007915496826e-02 -1.456742286682128906e-01 -1.921395212411880493e-02 2.030162662267684937e-01 -2.231710776686668396e-02 1.856581121683120728e-02 -3.204235690645873547e-04 -7.320106029510498047e-01 -1.769742220640182495e-01 1.253627181053161621e+00 -4.313525855541229248e-01 -3.307923376560211182e-01 -5.688040852546691895e-01 -1.993878930807113647e-01 -3.837769106030464172e-02 2.329883724451065063e-01 -2.312282845377922058e-02 -3.196471333503723145e-01 -7.543428242206573486e-02 1.544759608805179596e-02 3.424418345093727112e-02 -8.496931754052639008e-03 -2.650971114635467529e-01 -6.348282694816589355e-01 -3.733454048633575439e-01 8.523876667022705078e-01 -4.587323963642120361e-01 -7.482770830392837524e-02 -2.081991918385028839e-02 -1.976924985647201538e-01 1.451292540878057480e-02 3.818378746509552002e-01 -7.719328999519348145e-02 -1.138238608837127686e-01 1.372285559773445129e-02 -2.893698811531066895e-01 -2.432961165904998779e-01 7.692947387695312500e-01 -4.219540953636169434e-01 -5.785568952560424805e-01 -5.768448114395141602e-01 4.947438836097717285e-01 -3.141433745622634888e-02 9.911562502384185791e-02 9.848510473966598511e-02 -2.046488672494888306e-01 -5.269343033432960510e-02 8.077643066644668579e-02
-7.190181314945220947e-02 -2.731041014194488525e-01 7.150948643684387207e-01 3.190379142761230469e-01 -4.284539818763732910e-01 -5.860586166381835938e-01 9.173546433448791504e-01 -4.719550013542175293e-01 4.413943737745285034e-02 -2.482244558632373810e-02 1.236261501908302307e-01 -7.074571400880813599e-02 4.954730719327926636e-02 5.339140444993972778e-02 5.343998223543167114e-02 2.671852707862854004e-01 6.673475503921508789e-01 2.475513368844985962e-01 -4.282611906528472900e-01 4.290482103824615479e-01 8.434032201766967773e-01 -2.587320981547236443e-03 -3.726725280284881592e-02 4.835066571831703186e-02 -9.009432978928089142e-03 7.267944980412721634e-03 -2.482558973133563995e-02 -1.257370226085186005e-02 -6.223452463746070862e-02 -4.976696074008941650e-01 7.078746557235717773e-01 -3.829884529113769531e-01 -3.514894247055053711e-01 1.300777308642864227e-02 8.296622037887573242e-01 8.335493505001068115e-03 2.175549790263175964e-02 1.361126452684402466e-01 4.054670780897140503e-02 3.414773941040039062e-02 -4.543988406658172607e-02 -9.652138501405715942e-02 -3.566125524230301380e-04 8.321092724800109863e-01 7.864676713943481445e-01 -9.983693063259124756e-02 -4.936069250106811523e-01 5.295461416244506836e-02 9.428835511207580566e-01 8.545378446578979492e-01 -2.251198515295982361e-02 -2.714111804962158203e-01 4.025138914585113525e-02 7.165613770484924316e-02 6.185559183359146118e-02 5.633513256907463074e-02 -6.515391170978546143e-02 -5.968847498297691345e-02 7.190539836883544922e-01 6.993898749351501465e-02 -4.540548622608184814e-01 4.976186752319335938e-01 8.583863973617553711e-01 4.153748750686645508e-01 -6.103406473994255066e-02 2.842186987400054932e-01 8.825284242630004883e-02 -2.628040034323930740e-03 7.739824801683425903e-02 7.565081119537353516e-02 1.459581404924392700e-02 -9.969048202037811279e-02 7.971271872520446777e-01 -1.638670563697814941e-01 -4.451428949832916260e-01 3.429491445422172546e-02 9.057557582855224609e-01 6.940870285034179688e-01 7.062880694866180420e-02 -1.119758710265159607e-01 5.643755570054054260e-02 7.685762643814086914e-02 2.673484012484550476e-02 -1.917581260204315186e-01 2.591547742486000061e-02 1.085720300674438477e+00 7.105699181556701660e-01 6.074132397770881653e-03 -4.454041421413421631e-01 1.640549600124359131e-01 9.200273752212524414e-01 3.801493346691131592e-01 3.765624389052391052e-02 -3.079826533794403076e-01 6.287652254104614258e-02 -2.744784951210021973e-01 -6.766787916421890259e-02 1.187563985586166382e-01 1.867879927158355713e-02 -9.417364597320556641e-01 6.666946411132812500e-01 -4.365146756172180176e-01 -3.866266012191772461e-01 2.454674839973449707e-01 8.426663279533386230e-01 -2.068062722682952881e-01 3.297974180895835161e-04 4.871786534786224365e-01 4.949582368135452271e-02 4.470704495906829834e-01 -1.415289007127285004e-02 -2.593418024480342865e-02 2.501373365521430969e-02 -5.529917776584625244e-02 7.964887619018554688e-01 2.351583391427993774e-01 -3.561537265777587891e-01 -1.059810161590576172e+00 9.174915552139282227e-01 -2.962666749954223633e-01 -4.305717069655656815e-03 -3.295466601848602295e-01 2.283763326704502106e-02 -4.657786190509796143e-01 -2.174486964941024780e-02 5.079612508416175842e-02 6.245677173137664795e-02 -2.646946310997009277e-01 7.991263270378112793e-01 2.752348184585571289e-01 -3.764844834804534912e-01 1.648109257221221924e-01 8.243058323860168457e-01 -1.273422837257385254e+00 1.038448736071586609e-01 9.895087778568267822e-02 9.931626915931701660e-02 1.751548051834106445e-01 4.816832393407821655e-02 -7.238806039094924927e-02
-5.816974863409996033e-02 -3.968413174152374268e-01 -1.211329847574234009e-01 7.307271659374237061e-02 -1.467242836952209473e-01 2.574346028268337250e-02 1.431425958871841431e-01 2.298371195793151855e-01 -1.919648647308349609e-01 7.158134132623672485e-02 2.688165009021759033e-01 -5.196494609117507935e-02 6.602887809276580811e-02 1.301072388887405396e-01 -6.332583259791135788e-03 -2.676464915275573730e-01 -2.176408916711807251e-01 1.781833171844482422e-01 -5.647444725036621094e-02 -6.855925917625427246e-02 2.328842282295227051e-01 1.413966715335845947e-01 -1.798139363527297974e-01 3.923945128917694092e-03 4.134825170040130615e-01 7.805087417364120483e-02 -8.371218107640743256e-03 -6.801480054855346680e-02 -8.047726750373840332e-02 2.129830718040466309e-01 -2.420273274183273315e-01 -4.194456636905670166e-01 -1.270848065614700317e-01 -2.082828804850578308e-02 1.902740895748138428e-01 -1.975084543228149414e-01 -1.628444045782089233e-01 -6.157244089990854263e-03 2.946891784667968750e-01 -1.093928366899490356e-01 2.499035187065601349e-02 -1.116199642419815063e-01 2.053286135196685791e-02 4.420058131217956543e-01 -2.833944559097290039e-01 2.375389635562896729e-01 -2.351583726704120636e-02 9.363870322704315186e-02 2.433142066001892090e-01 -1.504799276590347290e-01 -1.767607778310775757e-01 -1.050916016101837158e-01 4.120182991027832031e-01 2.831358015537261963e-01 -4.655406251549720764e-02 5.298717692494392395e-02 1.264205668121576309e-02 2.269225567579269409e-01 -2.882369160652160645e-01 -5.983498692512512207e-02 -1.475878059864044189e-01 1.522798687219619751e-01 2.671590745449066162e-01 1.884146779775619507e-01 -1.424448192119598389e-01 -1.198120880872011185e-02 2.861111164093017578e-01 -3.519724309444427490e-01 7.248496264219284058e-02 -2.860421314835548401e-02 5.767142772674560547e-02 4.930128157138824463e-01 -1.785951852798461914e-01 -4.574402272701263428e-01 -1.283491104841232300e-01 2.205178886651992798e-01 1.957070827484130859e-01 -2.125538438558578491e-01 -2.508046925067901611e-01 -1.400296241044998169e-01 2.785033583641052246e-01 2.111341506242752075e-01 6.518094986677169800e-02 -3.113488480448722839e-02 4.877003654837608337e-02 2.226317301392555237e-02 -1.839797347784042358e-01 6.493359059095382690e-02 -1.095847487449645996e-01 5.758690088987350464e-02 2.182777673006057739e-01 4.418735504150390625e-01 -2.036745697259902954e-01 6.467642635107040405e-02 2.921034693717956543e-01 1.024169325828552246e-01 3.154521109536290169e-03 3.797125816345214844e-02 -3.931791335344314575e-02 -2.483133822679519653e-01 -1.786347925662994385e-01 -3.506953129544854164e-03 -8.735009282827377319e-02 -6.946742534637451172e-02 1.427575498819351196e-01 -1.382206380367279053e-01 -2.642809152603149414e-01 -1.260204166173934937e-01 3.123889565467834473e-01 -3.406691253185272217e-01 -7.001711428165435791e-02 6.526445597410202026e-02 2.176569029688835144e-02 -2.603475749492645264e-01 -3.027231395244598389e-01 -5.373138189315795898e-02 -1.224766522645950317e-01 -6.229520440101623535e-01 2.510380744934082031e-01 -5.012660026550292969e-01 -1.276212632656097412e-01 -5.262477695941925049e-02 3.978720009326934814e-01 5.833878517150878906e-01 -4.570682719349861145e-02 -5.354392901062965393e-02 -2.304015308618545532e-02 -2.267349660396575928e-01 -2.182861864566802979e-01 4.061773419380187988e-01 -1.506841480731964111e-01 2.186340540647506714e-01 1.989894211292266846e-01 2.129144668579101562e-01 -1.692713499069213867e-01 2.791051268577575684e-01 2.357531189918518066e-01 -4.183281064033508301e-01 -2.195590734481811523e-02 4.022011416964232922e-04
-1.078255176544189453e-01 1.947159618139266968e-01 -2.207706719636917114e-01 -2.798358909785747528e-02 -4.354585111141204834e-01 -1.137832296080887318e-03 -1.430460661649703979e-01 -8.479738980531692505e-02 1.825530081987380981e-02 -4.620392248034477234e-02 -1.854691468179225922e-02 1.838099583983421326e-02 -1.461184304207563400e-02 -1.786127127707004547e-02 -1.202123239636421204e-02 -1.493232548236846924e-01 -3.175985813140869141e-01 6.038898602128028870e-02 -4.045569300651550293e-01 -3.867299295961856842e-03 -2.564102709293365479e-01 -1.353354156017303467e-01 1.522795949131250381e-02 -3.004024364054203033e-02 5.142704769968986511e-02 -2.919250354170799255e-02 -5.953599885106086731e-02 5.830593779683113098e-02 -2.489368245005607605e-02 6.632679700851440430e-02 -3.651656508445739746e-01 -9.240857511758804321e-02 -4.368850886821746826e-01 2.529926598072052002e-01 -1.303479820489883423e-01 1.244395673274993896e-01 -4.419137164950370789e-02 7.085970789194107056e-02 2.085210941731929779e-02 1.805107854306697845e-02 4.399379715323448181e-03 -5.683024972677230835e-02 -5.776416882872581482e-02 2.116814851760864258e-01 -3.794902563095092773e-01 -1.592611521482467651e-01 -3.802740871906280518e-01 -1.260336339473724365e-01 -2.534632980823516846e-01 -7.513508200645446777e-02 2.012893371284008026e-02 -1.691048406064510345e-02 7.056298851966857910e-02 1.283906549215316772e-01 1.799876242876052856e-02 -1.437513343989849091e-02 3.396134451031684875e-02 -2.155094444751739502e-01 -3.760738074779510498e-01 4.938369616866111755e-03 -3.588656187057495117e-01 3.277371078729629517e-02 -1.994858384132385254e-01 3.041443526744842529e-01 2.374596893787384033e-02 -9.123659692704677582e-03 4.788504913449287415e-02 -1.571468412876129150e-01 3.369126096367835999e-02 2.708180621266365051e-02 5.408702418208122253e-02 2.414865344762802124e-01 -4.074735641479492188e-01 -1.809531003236770630e-01 -4.477848410606384277e-01 -1.253083050251007080e-01 -1.052310168743133545e-01 4.490356892347335815e-02 -2.094958908855915070e-02 9.047148376703262329e-02 -4.253549128770828247e-02 -1.527116284705698490e-03 -4.456008225679397583e-02 -8.709646761417388916e-02 6.103014200925827026e-02 -3.148215413093566895e-01 -3.640522658824920654e-01 2.420606315135955811e-01 -4.144414663314819336e-01 -4.136382043361663818e-01 -2.283759415149688721e-01 -8.977844379842281342e-03 -7.215545326471328735e-02 -1.543854176998138428e-01 7.955175638198852539e-02 1.425803005695343018e-01 -5.643305554986000061e-02 9.205485880374908447e-02 -3.355701221153140068e-03 -4.524251818656921387e-01 -3.219899237155914307e-01 3.581719994544982910e-01 -4.701540768146514893e-01 3.665508329868316650e-01 -1.075100675225257874e-01 4.975518584251403809e-01 1.664957404136657715e-02 1.200401932001113892e-01 1.074475422501564026e-02 -1.855117529630661011e-01 8.069596439599990845e-02 -4.558575898408889771e-02 9.049704670906066895e-02 -3.740750998258590698e-02 -3.348118662834167480e-01 -4.844927787780761719e-01 -4.586172103881835938e-01 -5.144868493080139160e-01 -2.275943160057067871e-01 -1.745987087488174438e-01 -5.598873272538185120e-02 -6.625238060951232910e-02 9.101592004299163818e-02 1.770076751708984375e-01 3.718126192688941956e-02 4.037086665630340576e-02 -3.745742514729499817e-02 4.334450066089630127e-01 -2.719060182571411133e-01 2.303361594676971436e-01 -4.772149920463562012e-01 5.056576132774353027e-01 -2.254538238048553467e-01 -4.515540599822998047e-01 -1.288889348506927490e-01 1.728081144392490387e-02 2.330485731363296509e-02 -7.176090031862258911e-02 -4.317361116409301758e-02 -3.414596663787961006e-03
4.350140690803527832e-02 3.097833395004272461e-01 -2.254021316766738892e-01 -1.620835363864898682e-01 -2.567439973354339600e-01 1.880242377519607544e-01 1.190370768308639526e-01 1.021661460399627686e-01 -8.131656795740127563e-02 -2.687035501003265381e-02 5.689997225999832153e-02 -5.352531094104051590e-03 -4.328514263033866882e-02 -1.698828674852848053e-02 -5.108505487442016602e-02 -5.220628902316093445e-02 -2.750779092311859131e-01 6.936636287719011307e-03 -2.787596881389617920e-01 -3.149309381842613220e-02 2.318437397480010986e-01 -2.145676761865615845e-01 2.593882009387016296e-02 5.237899348139762878e-02 4.153092950582504272e-02 -3.606541827321052551e-02 6.976300477981567383e-02 1.778902299702167511e-02 6.441299617290496826e-02 1.015219017863273621e-01 -2.541491389274597168e-01 -8.070988208055496216e-02 -2.869115173816680908e-01 1.595017760992050171e-01 2.251597344875335693e-01 2.969101816415786743e-02 1.678698172327131033e-04 -5.471675843000411987e-02 8.690930157899856567e-02 5.635838955640792847e-02 -5.485904216766357422e-02 -2.325065433979034424e-02 6.286271382123231888e-03 -3.650847375392913818e-01 -1.687606126070022583e-01 4.965843632817268372e-02 -3.276305198669433594e-01 -2.082533091306686401e-01 1.572969406843185425e-01 1.858758926391601562e-01 -4.796820878982543945e-02 4.845267161726951599e-02 -8.965093293227255344e-04 -4.684532806277275085e-02 1.269220747053623199e-02 1.928029954433441162e-02 -4.869953915476799011e-02 -2.375861555337905884e-01 -2.166575342416763306e-01 1.994210481643676758e-02 -3.019544780254364014e-01 -1.328828930854797363e-01 1.575807631015777588e-01 -1.705383211374282837e-01 5.595961213111877441e-02 1.523853931576013565e-02 4.816476255655288696e-03 1.098429635167121887e-01 -3.371492400765419006e-02 4.292254522442817688e-02 -4.031157493591308594e-02 -1.761582195758819580e-01 -2.880159318447113037e-01 -9.290397167205810547e-02 -2.791366875171661377e-01 -1.366344243288040161e-01 1.883039325475692749e-01 2.016321420669555664e-01 6.422203965485095978e-03 -4.755967482924461365e-02 -2.320987358689308167e-02 -7.068503648042678833e-02 -1.961021125316619873e-02 -4.315748438239097595e-02 -2.450207946822047234e-03 -4.597052335739135742e-01 -1.879380196332931519e-01 6.169598698616027832e-01 -3.094855844974517822e-01 -1.427471190690994263e-01 2.267125993967056274e-01 -1.104988530278205872e-01 4.668457433581352234e-02 8.276592940092086792e-03 3.478189930319786072e-02 1.076258122920989990e-01 6.411295384168624878e-03 3.910351172089576721e-02 2.517865225672721863e-02 3.462845087051391602e-01 -2.416444271802902222e-01 -1.601781696081161499e-01 -3.353309631347656250e-01 2.853685319423675537e-01 2.086549550294876099e-01 -1.072615534067153931e-01 3.589621931314468384e-02 6.060779094696044922e-02 -4.122450202703475952e-02 -1.106887832283973694e-01 -2.375511080026626587e-02 4.782254993915557861e-02 -5.396210774779319763e-02 -2.367432117462158203e-01 -2.778696417808532715e-01 -3.416675925254821777e-01 -2.804609239101409912e-01 -3.019617497920989990e-01 1.606305241584777832e-01 8.009712100028991699e-01 2.789184451103210449e-02 -1.980842463672161102e-02 3.188486769795417786e-02 -4.403050243854522705e-02 -4.312572628259658813e-02 -1.155817955732345581e-01 8.470882475376129150e-02 7.583264708518981934e-01 -2.073984295129776001e-01 1.100544109940528870e-01 -3.712896108627319336e-01 3.026719987392425537e-01 2.124337852001190186e-01 -7.166411876678466797e-01 -8.540076762437820435e-02 -4.664014279842376709e-02 1.115986257791519165e-01 5.033982545137405396e-02 1.008650287985801697e-01 3.654544055461883545e-02
4.821023717522621155e-02 8.567684888839721680e-02 2.787474095821380615e-01 -7.833114825189113617e-03 -1.534336656332015991e-01 6.462839897722005844e-03 2.621043026447296143e-01 -1.880238996818661690e-03 -2.758631482720375061e-03 1.932290941476821899e-02 6.131619215011596680e-02 3.760810568928718567e-02 8.016129955649375916e-03 4.567334894090890884e-03 -7.637754827737808228e-02 -1.452256143093109131e-01 3.357807695865631104e-01 1.301107108592987061e-01 -2.838647961616516113e-01 2.042536810040473938e-02 2.624733448028564453e-01 -5.751570314168930054e-02 7.155249360948801041e-03 -2.565776184201240540e-02 5.606815963983535767e-02 -5.530810449272394180e-03 8.699606359004974365e-02 2.567987330257892609e-02 -6.815763562917709351e-02 9.419108927249908447e-02 2.207822650671005249e-01 -1.153157502412796021e-01 -2.532529234886169434e-01 -4.499519709497690201e-03 3.058629930019378662e-01 -7.823128253221511841e-03 -5.220910906791687012e-02 3.728320449590682983e-02 3.668240085244178772e-02 -5.830997228622436523e-02 6.787869334220886230e-02 -2.303146943449974060e-02 5.706820264458656311e-02 7.351184263825416565e-03 2.543562352657318115e-01 5.419403687119483948e-02 -2.849462032318115234e-01 -6.628590077161788940e-02 2.413174957036972046e-01 3.862146288156509399e-02 -1.155678182840347290e-02 -5.030117928981781006e-02 -4.094598069787025452e-02 9.179808199405670166e-02 3.121921606361865997e-02 -2.370976842939853668e-02 4.994183033704757690e-02 -7.127987593412399292e-02 2.792712450027465820e-01 2.039781212806701660e-01 -2.052941620349884033e-01 -1.030356995761394501e-02 2.940870523452758789e-01 -5.244137346744537354e-02 4.090156033635139465e-02 3.106775134801864624e-02 -5.277363955974578857e-02 -5.216480791568756104e-02 -7.187082618474960327e-02 1.195382606238126755e-02 3.656751941889524460e-03 6.921960413455963135e-02 3.899331092834472656e-01 -3.650388717651367188e-01 -3.005999922752380371e-01 -1.867049336433410645e-01 2.603581845760345459e-01 9.834242612123489380e-02 7.032966613769531250e-02 -1.688368152827024460e-03 -4.686273634433746338e-02 -1.139079853892326355e-01 -3.081899136304855347e-02 3.802321152761578560e-03 2.968981489539146423e-02 -2.230447158217430115e-02 3.674028515815734863e-01 4.590092003345489502e-01 -1.833520829677581787e-01 1.704490333795547485e-01 2.497805058956146240e-01 -3.386004269123077393e-01 -1.294457446783781052e-02 -7.051898539066314697e-02 2.753972262144088745e-02 2.605442106723785400e-01 -3.323646378703415394e-04 -5.476562306284904480e-02 3.658968955278396606e-02 6.174759194254875183e-02 3.385141491889953613e-01 -6.322224140167236328e-01 -3.117570281028747559e-01 -7.451198995113372803e-02 1.607881188392639160e-01 5.213093757629394531e-01 4.930752888321876526e-02 7.058119773864746094e-02 8.096670359373092651e-02 -3.446854650974273682e-01 7.130600512027740479e-03 5.281005054712295532e-02 -6.290348619222640991e-02 5.233895033597946167e-03 3.799694180488586426e-01 2.141057401895523071e-01 -2.468994855880737305e-01 -2.448001177981495857e-03 3.079456984996795654e-01 -1.265444010496139526e-01 -8.421064354479312897e-03 -4.750470165163278580e-03 -3.990630060434341431e-02 2.554787099361419678e-01 -1.261362340301275253e-02 -9.852495044469833374e-03 6.326322909444570541e-04 -6.931746006011962891e-02 2.074515372514724731e-01 8.354135602712631226e-02 -2.378597110509872437e-01 1.197496280074119568e-01 2.116058915853500366e-01 -4.625450074672698975e-02 6.210993602871894836e-02 5.001151002943515778e-03 6.795673817396163940e-02 -5.429437384009361267e-02 -6.873772293329238892e-02 1.206527184695005417e-02
4.878756403923034668e-02 -8.562603592872619629e-01 2.920076623558998108e-02 5.348088741302490234e-01 1.816074736416339874e-02 -7.768153399229049683e-02 -5.450380034744739532e-03 -3.677053153514862061e-01 6.687402725219726562e-02 -1.085522174835205078e-01 -5.207206681370735168e-02 4.698615893721580505e-02 8.544678241014480591e-02 5.584292858839035034e-02 -7.457544654607772827e-02 1.672488152980804443e-01 1.027855873107910156e-01 4.890278577804565430e-01 -8.099485933780670166e-02 -2.913489639759063721e-01 6.922116130590438843e-02 -2.224208563566207886e-01 7.916709035634994507e-02 7.742108404636383057e-02 -1.557176932692527771e-02 -5.634765699505805969e-02 5.148105323314666748e-02 -2.692146226763725281e-03 3.289898112416267395e-02 9.444073587656021118e-02 4.969532787799835205e-02 -1.569358706474304199e-01 -4.301549866795539856e-02 3.923290371894836426e-01 9.111865609884262085e-02 -4.404947161674499512e-02 -7.491312175989151001e-02 9.967627376317977905e-02 -8.867757767438888550e-02 -1.444187462329864502e-01 8.531359583139419556e-02 4.131614044308662415e-02 -3.299138043075799942e-03 3.652977645397186279e-01 1.044475808739662170e-01 -5.627703294157981873e-02 -6.400600075721740723e-02 -1.219315752387046814e-01 -6.885110586881637573e-02 2.636476159095764160e-01 -3.112089261412620544e-02 -1.354778558015823364e-01 -6.947317719459533691e-02 1.735334694385528564e-01 9.748096019029617310e-02 -3.468792885541915894e-02 2.328852005302906036e-02 1.244403719902038574e+00 -4.108761250972747803e-02 -8.120422363281250000e-01 -8.072319440543651581e-03 4.090772196650505066e-02 6.317467242479324341e-02 4.090131819248199463e-01 -4.141322895884513855e-02 1.849620938301086426e-01 5.903170257806777954e-02 1.708029024302959442e-02 8.334353566169738770e-03 1.389521826058626175e-02 3.564632683992385864e-02 2.255565375089645386e-01 -1.058752648532390594e-02 -4.795199036598205566e-01 1.534087806940078735e-01 4.863776266574859619e-01 6.466142833232879639e-02 5.314308404922485352e-01 -5.630840733647346497e-02 1.058843508362770081e-01 4.234084859490394592e-02 -7.610728591680526733e-02 3.622028976678848267e-02 -2.567785605788230896e-02 -1.160469744354486465e-02 2.636840343475341797e-01 -2.535091713070869446e-02 -4.719297289848327637e-01 8.619106560945510864e-02 -4.871946871280670166e-01 -4.646746069192886353e-02 5.800315141677856445e-01 2.149400860071182251e-02 -1.978128701448440552e-01 -9.594926983118057251e-02 5.327523872256278992e-02 -4.353346303105354309e-02 1.193921314552426338e-03 5.341743677854537964e-02 1.737954854965209961e+00 -6.497623771429061890e-02 -9.799532294273376465e-01 3.206947445869445801e-02 7.729035019874572754e-01 -3.173783421516418457e-02 -1.191285997629165649e-01 -1.561179850250482559e-02 3.653499186038970947e-01 -6.119158864021301270e-02 3.154523670673370361e-02 1.023054793477058411e-01 -3.139751404523849487e-02 -1.062600989826023579e-03 -5.060905456542968750e+00 7.307429611682891846e-02 2.143068462610244751e-01 2.182516083121299744e-02 -4.120534658432006836e-01 -5.179019272327423096e-02 -1.393883768469095230e-02 3.256018832325935364e-02 -3.069250285625457764e-01 4.156640497967600822e-04 9.549611248075962067e-03 1.121592475101351738e-03 -1.734923869371414185e-01 -1.139584481716156006e-01 1.833948850631713867e+00 -5.086515843868255615e-02 1.694232463836669922e+00 -4.650381952524185181e-02 -2.951063513755798340e-01 -6.283564120531082153e-02 -1.030608057975769043e+00 -6.939890235662460327e-02 -6.640684604644775391e-02 -1.061109639704227448e-02 -5.075650662183761597e-02 7.381963729858398438e-02 7.140085846185684204e-02
