-9.101654887199401855e-01
3.475462675094604492e+00
5.755568742752075195e-01
2.465184211730957031e+00
1.703980088233947754e+00
-2.030363798141479492e+00
7.954856753349304199e-01
-1.529559373855590820e+00
1.131297469139099121e+00
-1.017013788223266602e+00
1.638603508472442627e-01
4.552299156785011292e-02
4.401559233665466309e-01
1.078645586967468262e+00
1.979685276746749878e-01
1.381296515464782715e+00
1.948895156383514404e-01
8.238172531127929688e-01
-5.668394565582275391e-01
2.185071468353271484e+00
-1.467093586921691895e+00
-1.064241886138916016e+00
-2.282567024230957031e-01
-9.074347615242004395e-01
1.520975232124328613e+00
2.985606908798217773e+00
3.376577377319335938e+00
6.770518422126770020e-01
-2.146385461091995239e-01
2.696501612663269043e-01
7.095984220504760742e-01
4.660120308399200439e-01
1.555061221122741699e+00
9.162734746932983398e-01
9.907795786857604980e-01
2.815248370170593262e-01
8.943404257297515869e-02
2.637843370437622070e+00
2.415332078933715820e+00
-8.167241513729095459e-02
-1.018528223037719727e+00
1.130455136299133301e+00
1.728751897811889648e+00
-2.490778714418411255e-01
2.336743772029876709e-01
-2.229383289813995361e-01
-1.246649861335754395e+00
-4.540235996246337891e-01
-8.597310632467269897e-02
-1.832335442304611206e-01
1.563958674669265747e-01
8.178068697452545166e-02
1.267553329467773438e+00
-8.338007330894470215e-01
9.470744132995605469e-01
-2.710030972957611084e-01
-3.009552061557769775e-01
1.487751722335815430e+00
8.780550956726074219e-02
2.006768941879272461e+00
7.646654844284057617e-01
-1.705926209688186646e-01
1.247629165649414062e+00
2.574465513229370117e+00
7.469882816076278687e-02
1.646211504936218262e+00
1.523580193519592285e+00
1.634891331195831299e-01
8.989784121513366699e-01
5.037133768200874329e-02
2.346967935562133789e+00
-2.129198014736175537e-01
-1.381594419479370117e+00
4.089033901691436768e-01
-1.958678126335144043e+00
-1.303996801376342773e+00
-4.720993638038635254e-01
1.789286494255065918e+00
2.359088659286499023e+00
-1.882944822311401367e+00
1.205931529402732849e-01
1.326062530279159546e-01
-9.534304738044738770e-01
-3.261820375919342041e-01
-1.276280403137207031e+00
-3.216670274734497070e+00
1.252109289169311523e+00
2.535702288150787354e-01
1.319032788276672363e+00
1.224474072456359863e+00
-2.281299978494644165e-01
3.146647810935974121e-01
-1.852631755173206329e-02
-7.232165932655334473e-01
1.728442907333374023e+00
1.712836384773254395e+00
5.499897524714469910e-03
-6.307969689369201660e-01
-5.978782176971435547e-01
5.322582647204399109e-02
