6.855687499046325684e-02 -1.043429039418697357e-02 1.108818501234054565e-01 -9.791911579668521881e-04 -8.790067397058010101e-03 8.475104346871376038e-03 -8.506081998348236084e-02 2.639499120414257050e-02 -1.182948332279920578e-02 -1.284316461533308029e-02 -5.660602822899818420e-02 -4.522226378321647644e-02 7.777608698233962059e-04 -1.127461786381900311e-03 2.558085136115550995e-03 7.309560896828770638e-04 1.567346788942813873e-02 9.053399553522467613e-04 5.665243044495582581e-02 6.321968976408243179e-03 -2.552776597440242767e-02 6.667535006999969482e-02 -6.043376866728067398e-03 -9.238949976861476898e-03 -1.022970229387283325e-01 6.022036541253328323e-03 -1.371843088418245316e-02 3.297298774123191833e-02 -1.575024914927780628e-03 1.322259195148944855e-03 -2.194189146393910050e-04 -5.479585845023393631e-03 5.370136350393295288e-03 2.825028961524367332e-03 -2.966971660498529673e-04 2.249526046216487885e-02 5.237877368927001953e-02 -3.992308303713798523e-02 -2.396154403686523438e-02 -7.377172820270061493e-03 -1.636868156492710114e-02 -1.461321138776838779e-03 2.968181623145937920e-03 -4.179236665368080139e-02 -4.502158984541893005e-02 -9.892419911921024323e-03 7.214200496673583984e-02 2.408286323770880699e-03 1.971390563994646072e-03 -4.210568033158779144e-03 6.300236284732818604e-02 9.197459369897842407e-02 -8.166935294866561890e-03 8.657640218734741211e-02 -3.117558732628822327e-02 -6.445380300283432007e-02 -5.483876541256904602e-02 4.384638741612434387e-02 -2.243254333734512329e-03 -2.966377185657620430e-03 -3.655239567160606384e-02 -3.417007997632026672e-02 -2.903150580823421478e-02 5.749920383095741272e-02 7.034875452518463135e-02 -2.060473430901765823e-03 3.331786766648292542e-02 -3.413873538374900818e-02 8.365651592612266541e-03 -8.954280056059360504e-03 -4.472935572266578674e-03 -1.595210582017898560e-01 2.088647894561290741e-02 -2.499545924365520477e-03 3.545685485005378723e-02 -1.526874024420976639e-02 -2.163106761872768402e-02 -1.992863789200782776e-02 7.513086497783660889e-02 4.993616789579391479e-02 1.803074032068252563e-02 -1.063306331634521484e-01 -6.006857380270957947e-03 6.679743528366088867e-02 7.774647674523293972e-04 -2.353679016232490540e-02 -5.312749370932579041e-02 -1.203215867280960083e-01 -9.572564740665256977e-04 7.329989224672317505e-02 -7.875857409089803696e-04 -7.766569405794143677e-02 8.203358389437198639e-03 -4.119094926863908768e-03 -1.109232753515243530e-02 7.885023206472396851e-02 -3.536562621593475342e-02 -6.121166050434112549e-02 9.659144282341003418e-02 -1.687137037515640259e-02
-2.523944526910781860e-02 1.437133643776178360e-02 -4.637500271201133728e-02 4.159662872552871704e-03 1.328377425670623779e-02 -5.484347231686115265e-03 -2.756083197891712189e-02 -4.042311385273933411e-02 -2.028893120586872101e-02 -2.095393370836973190e-03 -8.320563472807407379e-03 1.253257039934396744e-02 3.466913104057312012e-02 1.429092080798000097e-04 3.191915806382894516e-03 -4.134109476581215858e-04 1.597841456532478333e-02 1.801771484315395355e-02 1.536732539534568787e-02 1.122597325593233109e-02 -3.908736165612936020e-03 9.560635080561041832e-04 5.679220193997025490e-04 1.573294401168823242e-02 8.674154058098793030e-03 -2.520213089883327484e-02 -1.255335472524166107e-02 1.587238861247897148e-03 3.132421057671308517e-03 2.670507505536079407e-02 -1.557937794132158160e-04 -3.649608418345451355e-02 5.357449408620595932e-03 -2.567714080214500427e-02 -3.331336658447980881e-03 1.101500261574983597e-02 -1.071243546903133392e-03 1.470793504267930984e-02 -1.804245263338088989e-02 1.769845024682581425e-03 2.222664467990398407e-02 4.882364999502897263e-03 -2.361343801021575928e-02 2.240528725087642670e-02 3.727025911211967468e-02 -7.889057509601116180e-03 -1.868419582024216652e-03 -2.174080908298492432e-02 -4.191746935248374939e-03 1.146490592509508133e-02 -1.587471924722194672e-02 -4.625724162906408310e-03 2.563755400478839874e-02 -1.834916509687900543e-02 -2.668701857328414917e-02 -4.098482895642518997e-03 7.559911347925662994e-03 -3.695377707481384277e-02 -4.095608368515968323e-02 -5.094613879919052124e-02 1.047146227210760117e-02 4.919374827295541763e-03 -1.015599630773067474e-02 2.900857245549559593e-03 3.449075669050216675e-02 2.667679265141487122e-02 1.963165588676929474e-02 1.783006079494953156e-02 2.362616918981075287e-02 1.518184784799814224e-02 2.233930118381977081e-02 -8.451452478766441345e-03 -3.853002795949578285e-03 -4.547268617898225784e-03 -2.963159419596195221e-02 5.008845031261444092e-02 3.210487961769104004e-02 -1.572657749056816101e-02 1.474487408995628357e-02 1.191235333681106567e-02 -6.711596995592117310e-02 -7.039431016892194748e-03 -1.511408016085624695e-02 -6.166699342429637909e-03 -5.611302185570821166e-06 2.667595446109771729e-02 3.844840452075004578e-03 -1.623202115297317505e-02 1.892365049570798874e-03 1.503133587539196014e-02 4.783163778483867645e-03 -3.927160985767841339e-03 -3.284109383821487427e-02 9.016638621687889099e-03 2.981501445174217224e-02 -5.549103766679763794e-02 2.525544166564941406e-02 -2.397569268941879272e-02 -6.988292094320058823e-03 1.280688494443893433e-02
-1.500331610441207886e-02 2.059894055128097534e-02 -1.139332540333271027e-02 -2.620173385366797447e-03 3.658502176403999329e-02 3.751203790307044983e-02 4.131184145808219910e-02 2.483516000211238861e-02 2.336750924587249756e-02 1.352597400546073914e-02 -1.653196476399898529e-02 5.533895920962095261e-03 -3.463341668248176575e-02 -6.707400898449122906e-04 -5.294388160109519958e-03 3.540811687707901001e-02 1.985129155218601227e-02 1.847456023097038269e-02 -3.039873018860816956e-02 -4.233942180871963501e-02 -5.855743214488029480e-02 2.109831757843494415e-02 -6.672989577054977417e-02 5.553640052676200867e-02 9.528503566980361938e-02 -4.852635413408279419e-02 1.028152555227279663e-02 1.996867125853896141e-03 3.899227082729339600e-02 2.779363654553890228e-02 -4.424675425980240107e-04 1.056556329131126404e-01 -8.154549635946750641e-03 2.364565804600715637e-02 9.044246398843824863e-04 4.503125697374343872e-02 2.049315534532070160e-02 -5.051398649811744690e-02 -7.253422867506742477e-03 -9.853276424109935760e-03 1.613770052790641785e-02 3.365574171766638756e-03 -2.211078256368637085e-02 -1.263759937137365341e-02 -2.497969008982181549e-02 -4.327232390642166138e-02 2.982161007821559906e-02 4.196318797767162323e-03 4.543692804872989655e-03 -4.505342617630958557e-02 -1.743242517113685608e-02 9.588387794792652130e-03 -2.659764327108860016e-02 1.967809721827507019e-02 9.447516873478889465e-03 -2.010357566177845001e-02 -3.597517684102058411e-02 4.761201888322830200e-02 -7.633578777313232422e-02 2.424593828618526459e-02 -2.261209301650524139e-02 3.214691067114472389e-03 -1.202338002622127533e-02 -1.245571207255125046e-02 1.029720369842834771e-04 5.342885851860046387e-04 2.885460108518600464e-02 -2.219754457473754883e-02 1.348095666617155075e-02 -3.553613647818565369e-02 1.831843284890055656e-03 -1.815947145223617554e-02 -2.418600721284747124e-03 2.246299525722861290e-03 -4.230978712439537048e-02 5.301960557699203491e-02 -1.605259953066706657e-03 -3.674305602908134460e-02 1.676012016832828522e-02 -5.224266089498996735e-03 3.576713800430297852e-02 2.124083787202835083e-02 7.434124127030372620e-03 2.094197645783424377e-02 9.132677223533391953e-05 5.904665961861610413e-02 7.978257723152637482e-03 8.538266643881797791e-03 -7.184173911809921265e-03 -1.706486195325851440e-02 2.549243625253438950e-03 -1.987827010452747345e-02 -4.813666455447673798e-03 6.594902370125055313e-03 -1.819992996752262115e-02 5.229334905743598938e-02 2.586450986564159393e-02 1.740940473973751068e-02 1.242805551737546921e-02 -2.996785007417201996e-02
1.128721609711647034e-02 5.918125621974468231e-03 7.035727612674236298e-03 5.813697353005409241e-04 4.021696746349334717e-02 4.914998635649681091e-02 -1.097998097538948059e-01 -1.207054499536752701e-02 -6.176305562257766724e-02 6.182182580232620239e-03 7.439449895173311234e-03 -4.343684762716293335e-02 1.533794496208429337e-02 -3.022293187677860260e-02 -7.048898260109126568e-04 -5.149479955434799194e-02 -7.363178580999374390e-02 -3.196049854159355164e-02 -1.626794040203094482e-02 3.474792093038558960e-02 1.405374053865671158e-02 4.751328378915786743e-03 5.871639400720596313e-02 -5.523582920432090759e-03 3.782229870557785034e-02 1.043965071439743042e-01 9.450800716876983643e-03 -4.635976999998092651e-02 4.570982977747917175e-02 1.936494000256061554e-02 -1.960608096851501614e-05 2.105442248284816742e-02 -5.771775264292955399e-03 -4.110297933220863342e-02 -1.105054863728582859e-03 3.027981147170066833e-02 -9.104717173613607883e-04 -4.704890400171279907e-02 2.448230795562267303e-02 -8.540825918316841125e-03 6.917092017829418182e-03 -1.108610071241855621e-02 -7.095509767532348633e-02 -1.527074072510004044e-02 -5.502920597791671753e-02 1.128822844475507736e-02 -6.793020758777856827e-03 -4.592588916420936584e-02 3.288874635472893715e-03 1.737305149435997009e-02 2.065426111221313477e-02 4.847275093197822571e-03 -6.283673644065856934e-02 9.582032449543476105e-03 -1.827160269021987915e-02 1.926373806782066822e-04 7.711775600910186768e-02 -6.247899681329727173e-02 -2.871507219970226288e-02 -3.603888303041458130e-02 -4.823984112590551376e-03 -5.185414571315050125e-03 3.594981878995895386e-02 7.443724200129508972e-03 3.960864152759313583e-03 -4.061553254723548889e-02 -3.943128511309623718e-02 -5.542560666799545288e-02 -2.240045554935932159e-02 -5.784770473837852478e-02 -5.244640260934829712e-02 6.005182862281799316e-03 2.973771770484745502e-04 1.087183784693479538e-02 1.020116917788982391e-02 -2.986137382686138153e-02 -1.871293038129806519e-02 -2.339294366538524628e-02 -7.361070252954959869e-03 -9.713564999401569366e-03 -2.977294102311134338e-02 1.421840395778417587e-03 1.499392185360193253e-02 5.071652776678092778e-05 -1.301311713177710772e-04 5.630614981055259705e-02 3.257473232224583626e-03 2.152816159650683403e-03 -1.680440641939640045e-02 -2.108281105756759644e-02 -1.438346877694129944e-02 5.715320818126201630e-03 -7.700033485889434814e-02 -2.393644116818904877e-02 8.598078787326812744e-02 -9.524422138929367065e-02 -6.738635152578353882e-02 -5.400737747550010681e-02 1.159859262406826019e-02 -8.609076589345932007e-02
3.712731599807739258e-02 -2.701515853404998779e-01 6.353248655796051025e-02 -3.256437182426452637e-01 1.877707988023757935e-02 2.779793366789817810e-02 -5.307948216795921326e-02 1.339823156595230103e-01 6.454888731241226196e-03 -2.460058033466339111e-01 -1.620721654035151005e-03 1.199802011251449585e-01 -7.910784333944320679e-03 1.413475489243865013e-03 1.876328736543655396e-01 6.052977871149778366e-03 3.003810159862041473e-02 2.159937471151351929e-02 -1.571490056812763214e-02 -1.202703174203634262e-02 -3.652174025774002075e-02 1.712880656123161316e-02 2.048543654382228851e-02 4.955950751900672913e-02 6.064869463443756104e-02 4.272917285561561584e-02 -2.396296337246894836e-02 2.981538511812686920e-02 1.930200494825839996e-02 8.669367060065269470e-03 -7.116886554285883904e-04 -3.371116006746888161e-03 -1.986342668533325195e-01 1.788605563342571259e-02 2.170217186212539673e-01 3.124103695154190063e-02 1.766192726790904999e-02 -1.100498437881469727e-02 -2.938451478257775307e-03 1.402458176016807556e-03 1.841407455503940582e-02 2.002979069948196411e-01 -2.694206126034259796e-02 -5.829060450196266174e-03 -2.500960230827331543e-02 1.397015154361724854e-01 9.101186878979206085e-03 -9.304115548729896545e-03 -1.247996613383293152e-01 1.021888200193643570e-02 2.050785906612873077e-02 -1.391313038766384125e-02 1.054134033620357513e-02 9.330717846751213074e-03 -8.255242370069026947e-03 -9.196379221975803375e-03 -2.170418575406074524e-02 -5.769823119044303894e-02 -4.679001867771148682e-02 2.294787950813770294e-02 -9.946811944246292114e-03 -6.488423347473144531e-01 6.252490729093551636e-02 -2.514846157282590866e-03 1.902203448116779327e-02 4.782130010426044464e-03 1.762010855600237846e-03 2.756297215819358826e-02 7.936676964163780212e-03 1.179961953312158585e-02 -1.084923092275857925e-02 9.202426299452781677e-03 -2.955321967601776123e-01 2.131571769714355469e-01 -4.114642739295959473e-02 6.828951090574264526e-02 -7.833613082766532898e-03 -1.182086300104856491e-02 1.966968411579728127e-03 3.195931902155280113e-03 -7.710285484790802002e-02 -2.747021848335862160e-03 -9.379264712333679199e-02 1.526541076600551605e-02 -1.257829018868505955e-03 -7.831119000911712646e-03 1.260093092918395996e+00 -9.041538578458130360e-04 -5.445731431245803833e-02 5.543834343552589417e-02 -1.195052079856395721e-02 -9.012351743876934052e-03 2.752819284796714783e-02 -1.239273622632026672e-01 1.106068491935729980e-02 9.471479803323745728e-02 -8.002694696187973022e-03 1.767873996868729591e-03 3.009605221450328827e-03 5.157563462853431702e-02
5.168261751532554626e-02 -1.313991546630859375e-01 8.086150139570236206e-02 -2.765210568904876709e-01 2.182374894618988037e-02 -3.128340700641274452e-03 6.872419267892837524e-02 4.704345762729644775e-02 4.830423742532730103e-02 -1.007976233959197998e-01 2.227595308795571327e-03 -8.044575899839401245e-02 -2.175404876470565796e-02 -1.053451211191713810e-03 -2.422928661108016968e-01 7.906646351329982281e-04 -1.708627305924892426e-02 2.770256251096725464e-02 3.109483607113361359e-02 4.926048684865236282e-03 -2.706897817552089691e-02 2.742358949035406113e-03 3.362366184592247009e-02 -8.999451994895935059e-03 9.039992094039916992e-02 3.567281737923622131e-02 5.054414644837379456e-02 -9.161823429167270660e-03 -3.084471076726913452e-02 -5.543570034205913544e-03 3.157897153869271278e-03 2.897638455033302307e-02 -1.216896846890449524e-01 1.977572217583656311e-03 1.260949671268463135e-01 -6.829180754721164703e-03 -3.234620671719312668e-03 8.502747863531112671e-03 -6.372377276420593262e-03 2.711397111415863037e-01 -1.861384697258472443e-02 -2.371197193861007690e-01 1.394160091876983643e-02 2.547376556321978569e-03 3.107928787358105183e-04 1.425114423036575317e-01 4.323374014347791672e-03 1.198961865156888962e-03 -2.156101912260055542e-01 4.350288957357406616e-02 -1.842751726508140564e-02 -5.258421879261732101e-03 1.500908052548766136e-03 2.956749871373176575e-03 -1.400945149362087250e-02 -4.337952937930822372e-03 3.752316161990165710e-02 1.006687283515930176e-01 -6.465762108564376831e-02 -3.311095759272575378e-02 -6.179407704621553421e-03 -1.445897519588470459e-01 -1.259528100490570068e-01 -1.473558135330677032e-02 -5.061272904276847839e-02 3.037225082516670227e-02 -5.704866722226142883e-03 -8.278261870145797729e-03 1.209243685007095337e-01 3.877249779179692268e-03 5.786268040537834167e-02 -2.781633660197257996e-02 3.312369287014007568e-01 -1.916977167129516602e-01 -2.684626914560794830e-02 -1.526048639789223671e-03 2.614316064864397049e-03 -1.139094959944486618e-02 -1.963446382433176041e-03 3.493533935397863388e-03 1.056639701128005981e-01 5.217659752815961838e-03 8.055230230093002319e-02 -9.367058053612709045e-03 2.845876514911651611e-01 2.723433449864387512e-02 7.875765860080718994e-02 6.080206949263811111e-03 -2.039346247911453247e-01 -4.846075922250747681e-02 2.074567973613739014e-01 2.049664035439491272e-03 5.124647915363311768e-02 -5.345577374100685120e-02 4.355079680681228638e-02 -2.432351745665073395e-02 -1.541532948613166809e-02 5.263658706098794937e-03 -4.786125384271144867e-03 -7.568322122097015381e-02
1.304343249648809433e-02 1.664066687226295471e-03 -4.124468192458152771e-02 3.138128668069839478e-02 3.178181126713752747e-02 -3.516580909490585327e-03 -1.144293695688247681e-01 -4.886306449770927429e-02 -3.208988346159458160e-03 -7.521567493677139282e-02 1.429441571235656738e-02 -3.666591271758079529e-02 7.729829289019107819e-03 -1.098613021895289421e-03 3.291338309645652771e-02 3.837162628769874573e-03 9.611088782548904419e-02 9.749993681907653809e-03 1.239276304841041565e-02 5.429933778941631317e-03 5.338357761502265930e-03 2.527687465772032738e-03 -1.801551878452301025e-02 1.284792125225067139e-01 1.189566180109977722e-01 -1.629402115941047668e-02 -6.024776399135589600e-02 -1.989592239260673523e-02 -1.739710010588169098e-02 2.990585565567016602e-02 1.127058148384094238e+00 -4.043225571513175964e-02 1.234949752688407898e-02 -2.641599858179688454e-03 -2.276072837412357330e-02 5.324710626155138016e-03 -3.532241098582744598e-03 2.088928036391735077e-02 -8.399023674428462982e-03 -2.282267808914184570e-02 1.149097084999084473e-02 -1.741320081055164337e-02 -6.834790576249361038e-03 -1.126011018641293049e-03 1.471224799752235413e-02 -2.474182471632957458e-02 -1.791859744116663933e-03 -7.779064471833407879e-04 1.897939946502447128e-04 -6.578684318810701370e-03 7.538912352174520493e-03 1.806411333382129669e-02 -1.620315597392618656e-03 -2.958382945507764816e-03 3.035566955804824829e-02 9.353571571409702301e-03 -1.934987679123878479e-02 -8.628655225038528442e-03 3.013532981276512146e-02 8.671580813825130463e-03 -7.122887298464775085e-03 -2.362708002328872681e-01 -2.568599954247474670e-02 6.304662209004163742e-03 -4.172749817371368408e-03 -9.976597502827644348e-03 -5.802641157060861588e-03 -7.920830510556697845e-03 -5.020710639655590057e-03 -1.477778190746903419e-03 -5.997315049171447754e-03 1.180182471871376038e-01 -5.933519918471574783e-03 -2.957804687321186066e-02 1.093741226941347122e-02 2.975411713123321533e-02 -5.006563384085893631e-03 -2.878222381696105003e-03 1.189294154755771160e-03 5.984304938465356827e-03 3.351511061191558838e-02 1.089528668671846390e-02 2.429256401956081390e-02 -3.209856571629643440e-03 3.730420488864183426e-03 -1.080163754522800446e-02 -2.876332998275756836e-01 -8.741061203181743622e-03 -5.135285202413797379e-03 7.399925589561462402e-02 -1.364786457270383835e-02 -1.790360431186854839e-03 7.783465087413787842e-03 9.618549956940114498e-04 -7.552234921604394913e-03 -1.962170749902725220e-02 -2.219752594828605652e-02 4.382992163300514221e-03 -8.085881359875202179e-03 -3.918390721082687378e-02
