2.410480193793773651e-02 1.960729658603668213e-01 2.784605026245117188e-01 8.999509364366531372e-02 -8.467210829257965088e-02 -1.035500839352607727e-01 -1.690476983785629272e-01 5.754026398062705994e-02 -1.182512044906616211e-01 -1.456958986818790436e-02 1.418180912733078003e-01 -2.022304832935333252e-01 6.445704400539398193e-02 -1.981682516634464264e-02 8.127557486295700073e-02 -2.102954871952533722e-02 5.735128000378608704e-02 -5.355482175946235657e-02 -6.760465353727340698e-02 5.506849288940429688e-02 -1.833805441856384277e-02 2.348726056516170502e-02 9.289770573377609253e-02 -2.130035907030105591e-01 3.822894766926765442e-03 3.284785896539688110e-02 3.291315212845802307e-02 2.241598675027489662e-03 1.781962625682353973e-02 -2.830717712640762329e-03 -1.226891484111547470e-02 1.209300011396408081e-01 1.919911010190844536e-03 1.480300873517990112e-01 -2.114006131887435913e-02 8.687413483858108521e-02 1.478575617074966431e-01 1.795813888311386108e-01 -4.682545363903045654e-02 -1.847973912954330444e-01 -9.152298793196678162e-03 -1.106446385383605957e-01 -2.211393788456916809e-02 5.927176401019096375e-02 -3.078335151076316833e-02 -5.857781972736120224e-03 2.031249552965164185e-02 -2.746803164482116699e-01 -9.332313388586044312e-02 -1.087630689144134521e-01 -1.260506212711334229e-01 9.053827822208404541e-02 2.819340229034423828e-01 -2.193134091794490814e-02 4.822312854230403900e-03 -1.354780886322259903e-02 2.186089307069778442e-01 4.038146510720252991e-02 -4.777248576283454895e-02 1.281256526708602905e-01 -5.772322043776512146e-02 -1.085422784090042114e-01 -7.232895493507385254e-02 2.776848971843719482e-01 -1.332467645406723022e-01 -1.646746695041656494e-01 1.237284485250711441e-02 5.040143430233001709e-02 9.303534030914306641e-02 4.675360396504402161e-02 -1.859842538833618164e-01 7.811577990651130676e-03 -1.468593180179595947e-01 -1.595033109188079834e-01 1.807969808578491211e-02 -2.385261282324790955e-02 6.989011168479919434e-02 -1.415077447891235352e-01 5.359254032373428345e-02 -7.293992489576339722e-02 -5.953582748770713806e-02 1.278310664929449558e-03 1.282301694154739380e-01 1.607126593589782715e-01 -2.589604258537292480e-02 -4.022990912199020386e-02 -6.884589791297912598e-02 -5.428097397089004517e-02 8.117762207984924316e-02 1.107396744191646576e-02 -2.906540632247924805e-01 -4.673390090465545654e-02 9.040316194295883179e-02 2.502488791942596436e-01 2.010986059904098511e-01 4.404509440064430237e-02 9.183935075998306274e-02 3.267533332109451294e-02 1.240425091236829758e-02 2.710299007594585419e-02
3.245053812861442566e-02 -6.189505383372306824e-02 2.260837517678737640e-02 2.881071344017982483e-02 5.205908417701721191e-02 -6.926873233169317245e-03 -3.370298817753791809e-02 -5.435768887400627136e-02 -9.780072607100009918e-03 3.208469972014427185e-02 2.420943230390548706e-02 1.400690962327644229e-04 -6.965845823287963867e-02 -2.086599171161651611e-02 -2.361284196376800537e-02 5.214203521609306335e-02 1.108971051871776581e-02 6.850932538509368896e-02 1.507540728198364377e-04 -1.174879493191838264e-03 2.018687315285205841e-02 -6.514623295515775681e-03 6.500698626041412354e-02 -7.571887690573930740e-03 4.265386238694190979e-02 8.859322965145111084e-02 4.144591838121414185e-02 -1.394964172504842281e-03 -1.154865510761737823e-02 -5.559130222536623478e-04 1.783085241913795471e-02 -3.601804375648498535e-02 -4.495294019579887390e-02 2.844253927469253540e-02 4.047282785177230835e-02 3.344605490565299988e-02 -2.584171108901500702e-02 -1.708038034848868847e-03 -4.842663183808326721e-03 -1.476116129197180271e-03 5.115573108196258545e-02 -7.060603238642215729e-03 -3.828061744570732117e-02 -3.408665070310235023e-03 3.824363648891448975e-02 2.033125050365924835e-02 5.536115542054176331e-02 1.636441610753536224e-02 -1.878807693719863892e-02 -4.026408866047859192e-02 1.224648393690586090e-02 -1.066151913255453110e-02 -3.810874745249748230e-02 2.958165667951107025e-02 4.117024317383766174e-02 3.497949615120887756e-02 -9.182731807231903076e-02 3.974344581365585327e-02 5.937316268682479858e-02 -3.102266229689121246e-02 -4.678590223193168640e-02 -6.298414617776870728e-02 4.514421150088310242e-02 1.210000179708003998e-02 2.652206085622310638e-02 -9.618099778890609741e-03 1.394250523298978806e-02 -8.785702288150787354e-03 -4.350944608449935913e-02 -9.330450557172298431e-03 4.588807746767997742e-02 1.017818320542573929e-02 -5.072870105504989624e-02 2.221185714006423950e-02 -2.282503759488463402e-03 4.629366099834442139e-02 2.601414360105991364e-02 -1.243115868419408798e-03 -4.135742411017417908e-02 8.603281527757644653e-02 -5.563452094793319702e-02 -6.382364779710769653e-02 2.453814260661602020e-02 2.573117986321449280e-02 -6.238140538334846497e-02 1.449393201619386673e-02 5.517384782433509827e-02 2.398998243734240532e-03 5.986028909683227539e-02 -1.160119194537401199e-02 7.365206722170114517e-03 4.566354304552078247e-02 -2.582214213907718658e-02 -1.603966206312179565e-02 1.708701252937316895e-02 4.723388701677322388e-02 -5.237198248505592346e-02 -8.159165829420089722e-02 -3.715399280190467834e-02 -5.642336793243885040e-03
2.639123797416687012e-02 6.455512344837188721e-02 7.079854607582092285e-02 4.365367814898490906e-03 -2.065244317054748535e-02 -6.453077495098114014e-02 8.377186954021453857e-02 1.261501610279083252e-01 9.586206823587417603e-02 3.253527358174324036e-02 -6.183513905853033066e-03 -7.953449338674545288e-02 -9.366095811128616333e-02 -1.608629971742630005e-01 4.716885834932327271e-02 -6.777123361825942993e-02 7.242234796285629272e-02 -3.154408931732177734e-02 -6.920329481363296509e-02 8.646248281002044678e-02 8.039292693138122559e-02 4.945935681462287903e-02 3.516647592186927795e-02 -2.777770720422267914e-02 -5.706080049276351929e-02 2.652505598962306976e-02 -6.245019286870956421e-02 -1.043633464723825455e-02 -1.040331088006496429e-02 -1.101310714147984982e-03 7.025937549769878387e-03 3.724640607833862305e-02 -1.256759651005268097e-02 -2.574117481708526611e-02 6.336607784032821655e-02 -7.973046600818634033e-02 -6.455965340137481689e-02 6.134783104062080383e-02 5.012213438749313354e-02 5.942243733443319798e-04 -3.182251378893852234e-02 1.006529554724693298e-01 -1.980122923851013184e-02 -8.105663210153579712e-02 -4.494027793407440186e-02 -9.557826817035675049e-02 5.884974822402000427e-02 5.807260796427726746e-02 -8.104106038808822632e-02 -3.579362854361534119e-02 -3.608757257461547852e-02 -5.088587757200002670e-03 -2.370286174118518829e-02 -1.434394121170043945e-01 -1.223431620746850967e-02 8.485586196184158325e-02 -2.767530828714370728e-02 7.020650804042816162e-02 -1.009125262498855591e-02 -4.162359610199928284e-02 1.672060601413249969e-02 -5.566025152802467346e-02 5.840203538537025452e-02 2.455396018922328949e-02 -5.543877929449081421e-02 -4.231396317481994629e-02 1.085523962974548340e-01 3.480537235736846924e-02 -4.307702928781509399e-02 1.935837790369987488e-02 -4.546838626265525818e-02 9.485358744859695435e-02 -8.992434479296207428e-03 3.450206294655799866e-02 -4.428271204233169556e-02 5.930206179618835449e-02 -1.005913689732551575e-02 4.045016318559646606e-02 -1.013919478282332420e-03 1.314126700162887573e-02 3.181041777133941650e-02 -1.370138227939605713e-01 -2.839803509414196014e-02 9.357104077935218811e-03 1.240103095769882202e-01 -1.283069420605897903e-02 -7.621780969202518463e-03 -2.813600376248359680e-02 -1.267518289387226105e-02 -8.178769797086715698e-02 -8.083160221576690674e-02 3.348910948261618614e-03 4.413987323641777039e-02 6.135556101799011230e-02 -1.412801630795001984e-02 -6.261627189815044403e-03 2.380448207259178162e-02 6.733892112970352173e-02 -6.675386428833007812e-02 -4.342759028077125549e-03
-3.602234274148941040e-02 4.137218371033668518e-02 -1.997368410229682922e-02 9.986819326877593994e-02 4.352245479822158813e-02 7.562943547964096069e-02 4.080005735158920288e-02 6.563638895750045776e-02 4.573954641819000244e-02 1.426633447408676147e-01 1.058075502514839172e-01 3.214418888092041016e-02 5.024024471640586853e-02 1.477432250976562500e-01 1.056909328326582909e-03 -4.132863506674766541e-02 7.656078040599822998e-02 -1.202175915241241455e-01 -1.119468882679939270e-01 -7.382766902446746826e-02 1.323047094047069550e-02 2.501351293176412582e-03 3.911541402339935303e-02 -2.399307489395141602e-02 -1.074717193841934204e-02 -7.049261778593063354e-02 -7.775228470563888550e-02 -4.232913255691528320e-03 -6.750053167343139648e-02 -1.714652462396770716e-04 1.257110200822353363e-02 3.350667282938957214e-02 7.065103948116302490e-02 -7.931604236364364624e-02 5.427966639399528503e-02 9.173145890235900879e-02 9.571757912635803223e-02 1.286307573318481445e-01 6.810573395341634750e-03 -4.329701140522956848e-02 -8.636263012886047363e-02 4.799184203147888184e-02 -7.955972850322723389e-02 4.532425105571746826e-02 -8.228929340839385986e-02 9.652012586593627930e-02 -9.017334133386611938e-02 2.681540697813034058e-02 -7.931079715490341187e-02 2.308212965726852417e-02 1.210641935467720032e-01 -6.176056712865829468e-02 4.915484786033630371e-02 -7.671647518873214722e-02 -1.003248021006584167e-01 -9.232333302497863770e-02 -1.421997249126434326e-01 -1.055427864193916321e-01 -7.655665278434753418e-02 -3.888386115431785583e-02 -8.170668780803680420e-02 -1.200324222445487976e-01 7.063882425427436829e-03 2.931253612041473389e-02 2.872127341106534004e-03 6.790190935134887695e-02 6.545300781726837158e-02 1.813259162008762360e-02 2.981848828494548798e-02 9.993826970458030701e-03 -3.399506211280822754e-02 4.097132757306098938e-02 2.445700205862522125e-02 6.883145123720169067e-02 -1.410059444606304169e-02 -9.741590172052383423e-02 -6.928257644176483154e-02 -2.202282100915908813e-02 -4.497485607862472534e-02 -1.073054745793342590e-01 -8.912897855043411255e-02 -1.289484053850173950e-01 -1.581533811986446381e-02 -3.405764698982238770e-02 -2.145408093929290771e-01 -3.417215868830680847e-02 -1.190651804208755493e-01 4.708527401089668274e-02 -3.588818758726119995e-02 -5.374164879322052002e-02 7.814344950020313263e-03 1.193350274115800858e-02 -1.747848838567733765e-01 -1.833328790962696075e-02 7.678163796663284302e-02 -9.580469876527786255e-02 -5.988491699099540710e-02 -6.069853529334068298e-02 8.606961928308010101e-03 4.128320142626762390e-03
-4.608003795146942139e-01 3.451390564441680908e-02 1.702606864273548126e-02 5.279406160116195679e-02 1.176458038389682770e-02 -2.167484164237976074e-01 -2.590436041355133057e-01 2.797332108020782471e-01 7.185725122690200806e-02 -2.309403207618743181e-04 -7.729419320821762085e-02 6.998300552368164062e-02 8.161924779415130615e-04 -5.017785821110010147e-03 8.520027250051498413e-02 5.602284893393516541e-02 -2.775806933641433716e-02 -2.029632590711116791e-02 6.863974779844284058e-02 5.177925154566764832e-02 -1.471825242042541504e-01 3.952205777168273926e-01 7.011332362890243530e-02 -1.007838919758796692e-01 -5.960140377283096313e-02 5.769900232553482056e-02 1.873121410608291626e-01 -1.438524723052978516e+00 -3.112404346466064453e-01 -2.951274160295724869e-03 -4.352050423622131348e-01 -9.460790455341339111e-02 7.298612594604492188e-02 -2.329418808221817017e-01 3.984231129288673401e-02 1.819991692900657654e-02 3.413628786802291870e-02 -3.586940839886665344e-02 5.579912662506103516e-01 -2.510056495666503906e-01 -1.081436425447463989e-01 8.267791010439395905e-03 -1.008754968643188477e-01 -4.811745136976242065e-03 5.450959131121635437e-02 1.505019050091505051e-02 -1.225902214646339417e-01 2.238088846206665039e-02 -8.999054878950119019e-02 -7.715596351772546768e-03 5.669564381241798401e-02 7.521705701947212219e-03 -5.597935244441032410e-02 -5.893855541944503784e-02 2.379795536398887634e-02 3.243632987141609192e-02 -1.589814759790897369e-02 -7.343025505542755127e-02 3.529667854309082031e-03 4.530882239341735840e-01 2.024663239717483521e-02 1.443745288997888565e-02 5.315043497830629349e-03 5.979061499238014221e-02 -1.114210952073335648e-02 1.687193512916564941e-01 1.438297238200902939e-02 -4.036935269832611084e-01 -3.010384142398834229e-01 1.168594211339950562e-01 7.034569047391414642e-03 1.162998750805854797e-01 7.430208474397659302e-02 -1.057129353284835815e-01 4.106126725673675537e-01 9.981029480695724487e-02 -1.764349192380905151e-01 -2.854352258145809174e-02 -7.766389288008213043e-03 -2.926762029528617859e-02 5.129549279808998108e-02 -1.368956416845321655e-01 -4.954054206609725952e-02 -8.600542321801185608e-03 1.045582890510559082e-01 -2.864008843898773193e-01 -5.522856116294860840e-02 -3.217914402484893799e-01 1.005448326468467712e-01 6.947288662195205688e-02 -3.419304639101028442e-02 9.668269753456115723e-02 1.631222218275070190e-01 4.265312477946281433e-02 -5.606883764266967773e-02 2.231916412711143494e-02 7.226433604955673218e-02 -9.052105993032455444e-02 -1.570860743522644043e-01 3.910403847694396973e-01
5.874913930892944336e-01 -1.166118308901786804e-02 1.361563894897699356e-02 -9.961637109518051147e-02 -1.113167703151702881e-01 1.937579065561294556e-01 -6.113631650805473328e-02 8.459164202213287354e-02 1.121910735964775085e-01 1.970054581761360168e-02 6.226602569222450256e-02 -9.042388945817947388e-02 -1.784677654504776001e-01 1.549652516841888428e-01 -3.282963335514068604e-01 -1.096261385828256607e-02 -4.631442949175834656e-02 3.191463947296142578e-01 -1.056523770093917847e-01 -1.129243299365043640e-01 -2.061169296503067017e-01 -3.152541220188140869e-01 -2.251849137246608734e-02 -3.997189402580261230e-01 9.516017138957977295e-02 5.667880550026893616e-02 2.107084095478057861e-01 3.362616524100303650e-02 -3.231377303600311279e-01 -5.832528695464134216e-03 -3.415162563323974609e-01 -1.577427834272384644e-01 -2.030835859477519989e-02 1.134069934487342834e-01 -1.833718419075012207e-01 -6.249212846159934998e-02 1.551770791411399841e-02 6.236705183982849121e-02 -6.926337480545043945e-01 -3.951356112957000732e-01 -8.586214482784271240e-02 2.441749274730682373e-01 -6.681307405233383179e-02 1.004787236452102661e-01 2.977559715509414673e-02 -1.148349717259407043e-01 1.112468540668487549e-01 1.001559868454933167e-01 1.406239718198776245e-01 -2.181370742619037628e-02 -2.031989097595214844e-01 5.555932293646037579e-04 -3.809295967221260071e-02 1.503186523914337158e-01 9.210755676031112671e-02 -2.542363665997982025e-02 -9.741221368312835693e-02 1.321682482957839966e-01 7.821039855480194092e-02 8.953041583299636841e-02 1.767415553331375122e-02 -4.558219015598297119e-02 3.605688512325286865e-01 1.617364138364791870e-01 1.583475823281332850e-04 3.292087018489837646e-01 6.963321566581726074e-02 -1.014982983469963074e-01 3.692553639411926270e-01 -4.321173429489135742e-01 -3.247001208364963531e-03 9.206930547952651978e-02 -7.674261182546615601e-02 -1.564716100692749023e-01 -6.751998662948608398e-01 -2.456989604979753494e-03 -3.223362863063812256e-01 5.378918051719665527e-01 1.206901818513870239e-01 -1.954446583986282349e-01 2.793129980564117432e-01 -4.185526445508003235e-02 -5.424607917666435242e-02 3.205031156539916992e-02 1.265835613012313843e-01 3.156962692737579346e-01 -1.423494219779968262e-01 -1.104561239480972290e-01 2.051410079002380371e-02 -7.223105989396572113e-03 9.508331306278705597e-03 -1.789237856864929199e-01 2.858495414257049561e-01 -3.827131539583206177e-02 4.269397631287574768e-02 1.172818690538406372e-01 -2.895813584327697754e-01 7.927209138870239258e-02 -2.318215668201446533e-01 6.184951066970825195e-01
2.615972422063350677e-02 -3.564157756045460701e-03 -1.714211516082286835e-02 -4.884853959083557129e-02 3.940824419260025024e-02 1.581583470106124878e-01 5.449536815285682678e-02 -2.321873418986797333e-02 2.683210745453834534e-02 -9.684248827397823334e-03 7.754919677972793579e-02 6.033471226692199707e-02 -6.996483076363801956e-03 -3.676131600514054298e-03 8.436189964413642883e-03 -1.144582778215408325e-02 -5.855135247111320496e-02 1.596737280488014221e-02 5.904750525951385498e-02 -4.480151832103729248e-02 -1.668317429721355438e-02 -4.748411104083061218e-02 -5.883831158280372620e-02 3.448329493403434753e-02 3.474516421556472778e-02 1.844289712607860565e-02 -7.791321258991956711e-03 -7.062232494354248047e-02 1.876493170857429504e-02 -3.085459232330322266e+00 4.913838952779769897e-02 -3.206364810466766357e-03 -1.315055508166551590e-02 3.334249928593635559e-02 -3.358113393187522888e-02 -1.192224677652120590e-02 -1.513599301688373089e-03 -5.143002048134803772e-02 4.430945590138435364e-02 2.574184723198413849e-02 -6.053392961621284485e-02 -1.019736006855964661e-02 7.044925540685653687e-02 2.174363657832145691e-02 2.868606150150299072e-02 2.312564104795455933e-02 -4.555703327059745789e-02 2.611936628818511963e-02 2.287758141756057739e-02 -1.565150730311870575e-02 -1.110603064298629761e-01 2.456703409552574158e-02 -2.086291648447513580e-02 2.910494431853294373e-02 3.024935908615589142e-02 -1.606374792754650116e-02 4.301056638360023499e-02 4.676183313131332397e-02 1.969670690596103668e-02 -9.619479626417160034e-02 2.530642086640000343e-03 -2.650618180632591248e-02 3.150010015815496445e-03 2.397861704230308533e-02 -2.127951942384243011e-02 9.363123774528503418e-02 -1.118304487317800522e-02 6.689202506095170975e-03 -1.160219497978687286e-02 4.825077950954437256e-02 -4.461835697293281555e-02 -2.624445222318172455e-02 -3.012386150658130646e-02 -2.379675954580307007e-02 -4.507396370172500610e-02 -2.575841499492526054e-03 -2.795641543343663216e-03 -2.291347086429595947e-02 2.985833585262298584e-02 2.413474395871162415e-02 6.307721138000488281e-02 -3.918036445975303650e-02 -4.680911544710397720e-03 2.290053525939583778e-03 -3.188402950763702393e-02 -5.421746149659156799e-02 -1.429110020399093628e-02 -2.391738072037696838e-02 9.081567637622356415e-03 -3.350692987442016602e-02 1.578939892351627350e-02 -2.269917912781238556e-02 -3.744611889123916626e-02 -1.634029671549797058e-02 -7.491684984415769577e-03 -2.661438845098018646e-02 -2.292239665985107422e-02 -4.485557228326797485e-02 8.567228913307189941e-03 -5.314035713672637939e-02
