4.982619881629943848e-01
2.173136919736862183e-01
-1.209244206547737122e-01
4.603884816169738770e-01
9.242635220289230347e-02
-1.328802943229675293e+00
-1.438948512077331543e-01
-2.131257764995098114e-02
-7.074506282806396484e-01
-1.118191480636596680e-01
2.886318564414978027e-01
4.189025610685348511e-03
1.605054438114166260e-01
2.830541431903839111e-01
7.274413704872131348e-01
-1.561414122581481934e+00
-1.306484341621398926e-01
-1.413456499576568604e-01
5.752090737223625183e-02
-5.853646397590637207e-01
3.049958646297454834e-01
3.366314470767974854e-01
2.990562319755554199e-01
-2.931797690689563751e-02
-3.431936725974082947e-02
7.680304646492004395e-01
-5.079155787825584412e-02
-6.168630719184875488e-01
5.103076696395874023e-01
-2.704617977142333984e-01
5.084873437881469727e-01
5.074490308761596680e-01
-2.890433371067047119e-01
-7.295029163360595703e-01
-1.202528357505798340e+00
-2.084893286228179932e-01
-1.239159107208251953e+00
1.986519396305084229e-01
3.581899404525756836e-02
-2.056939452886581421e-01
-1.988991051912307739e-01
8.550609946250915527e-01
-1.770173788070678711e+00
1.979922503232955933e-01
2.958309091627597809e-02
3.795056939125061035e-01
-3.946277126669883728e-02
-1.558698892593383789e+00
-1.718181133270263672e+00
-9.271685481071472168e-01
3.863644301891326904e-01
-3.241022229194641113e-01
4.746335446834564209e-01
1.698470830917358398e+00
5.671606063842773438e-01
-3.703130185604095459e-01
5.313881635665893555e-01
-2.420003153383731842e-02
4.730003178119659424e-01
7.448818087577819824e-01
-7.023251056671142578e-01
1.715280711650848389e-01
4.182730019092559814e-01
-1.347810626029968262e-01
-1.291775237768888474e-02
3.512008786201477051e-01
1.735842972993850708e-01
-5.065544843673706055e-01
2.127989530563354492e-01
-1.128903508186340332e+00
4.336366355419158936e-01
7.415719330310821533e-02
3.208273323252797127e-03
1.178865194320678711e+00
5.710242390632629395e-01
-8.019784092903137207e-02
-2.482251971960067749e-01
2.804135978221893311e-01
1.027479529380798340e+00
-5.602101609110832214e-02
1.823575980961322784e-02
4.688242375850677490e-01
4.602502286434173584e-02
2.425792962312698364e-01
4.976005852222442627e-01
1.289852112531661987e-01
5.007364600896835327e-02
5.218688845634460449e-01
-6.813399791717529297e-01
1.504481490701436996e-02
-8.063192367553710938e-01
3.639435768127441406e-01
2.842580974102020264e-01
-8.059316277503967285e-01
8.136221766471862793e-02
-3.882236033678054810e-02
5.854120850563049316e-01
1.619752794504165649e-01
5.577569603919982910e-01
-7.591156661510467529e-02
